-590820.3860 459085.1904 60227.5925 258619.9587 -211320.2892 14812.7516 -175293.4312 1150223.4408 -9154.0790 503927.0016
27338.6845 -695313.8525 63092.0687 -305482.6648 -67907.8847 -242534.8868 338228.2066 -634112.3853 768630.4198 89451.2973
-1088219.1936 804962.0545 -173410.4924 429645.4807 -955644.5682 503178.3997 33916.6054 552921.9225 -1314722.1295 714624.5429
-102601.7336 -298393.3482 873473.1361 -137369.9536 -580378.1566 -66324.3083 -134843.9828 -231898.1314 -366483.6841 186320.4520
1061647.8126 -828851.4042 93206.0016 -37334.9889 -571290.5264 21983.7485 -74014.6608 688819.8635 -1036698.7728 246627.2883
1058657.1651 266200.5382 -1038441.1041 -640848.8755 171073.9887 -208741.4736 231283.0917 -29694.2729 1500781.1634 -463973.4776
-610817.5891 113724.8998 477680.1161 275293.6054 334261.6118 -330304.8634 -210576.3923 -26803.6669 -258889.0752 185943.6126
-722533.3833 -1299989.0358 192703.8033 334239.3198 618474.3255 544489.0308 -358908.6659 -1128334.9212 113300.2494 411325.1947
1459501.3904 -1303685.0483 -256823.6581 -233906.6930 -12008.2336 52587.0367 -40075.1239 -615155.2143 460562.6381 -49030.0601
-1419994.8390 -1458270.1954 1605745.4622 122556.4323 234153.9424 320830.3698 -240216.6255 -657504.8703 -430692.2426 43300.7514
-634994.8298 816317.8208 1351566.6189 175095.8520 -1450628.7085 -72356.7793 -40354.2424 636594.0399 181373.1131 -242259.7669
494729.7140 -633665.5329 40287.2821 -546677.0188 1716757.9556 315652.2178 -99927.0438 -633003.2416 -501602.4349 -93900.8740
763486.0524 -113799.6916 -1190488.0542 -528074.0912 382611.7220 285200.6806 -164621.7192 -193519.4596 1030638.1167 286798.2635
-981716.0429 -875061.7175 478190.4936 -240776.9858 1834009.9163 358007.6598 246511.7458 -2204584.9814 -782775.2995 -216801.2833
-1063651.4150 944310.1448 143933.5086 -232916.9587 1024719.7238 120167.6506 240211.6344 -1029922.4303 -886577.7913 -70278.2078
684249.8057 -1181245.1875 -183393.5981 178860.1304 909257.4105 179839.2497 -247787.8708 -2206371.5845 1304591.2642 -102414.6391
869605.7263 -867525.9355 -652157.5119 -296922.7606 -1493011.0115 24225.1634 116358.6678 916702.5802 676817.4619 344465.4501
89231.6995 -437634.4892 91710.9819 -266408.3076 264897.8834 -47471.0761 69055.1845 1540176.0042 -110635.0039 -183020.2694
-254247.1465 523684.4470 -95053.7868 141024.7990 -71444.6112 559624.5031 -710263.3212 1181412.5138 -360935.9218 467624.6846
-1551042.9468 1166186.2833 -1321376.3444 145290.3252 867187.9249 119060.7780 143014.8136 -514735.4271 1892759.1350 -136187.9759
1237608.5550 -2121031.2069 -545241.0279 -96574.6270 -298040.6637 197760.1293 166532.5062 221581.5968 -114170.1854 -268374.9879
-472697.3495 -442061.6630 -178549.0996 -285935.7111 819588.3021 -150403.0380 109759.3850 -552284.7920 1064858.0513 -516296.0828
-6791.7919 -149587.1524 2556.2723 -451622.0427 1155489.7319 -102604.9741 266256.0386 458288.0665 -388438.6637 -136630.8367
747902.6398 565355.7254 -2219375.4731 90785.9680 534097.8471 298927.3118 89081.9570 -1935413.2538 -173600.4251 292209.9809
-434999.2311 -318454.1287 380867.4127 131516.4454 -1006496.1085 -3280.0559 108282.6311 380104.8610 -272824.2957 -26974.0794
376993.8148 -494918.6381 -596830.1199 -399875.1635 39735.2126 -485186.7248 275411.9485 277463.0995 460482.4042 317399.3985
-140952.2122 -1814351.9303 201502.5301 140704.3200 -183363.5225 136149.1034 -301554.3924 586471.1192 -1223987.4499 270866.2870
500616.4692 728415.2749 312708.8174 319172.9886 -993050.9068 -178721.7972 -109977.1501 651226.4072 -1023565.6264 -457514.2323
617893.0812 -1634033.2196 397543.7238 -782005.0103 606213.6390 170807.5877 -16822.8854 -935749.7338 1068686.4661 -235284.8826
-1667171.3915 283800.8641 345580.1273 -42307.3074 734007.6835 -76665.6936 -260632.3270 -602073.1127 2177784.7726 553440.0815
279598.9149 233102.0560 835459.8316 31230.8908 -2056465.0946 260779.8659 -31375.5348 -1471754.9770 -135678.3955 184098.0990
1659734.9357 -168860.2247 -45711.3295 -532556.2495 -1604445.2079 33824.2964 -116907.3272 674312.7118 -158458.9568 406944.6879
1582816.1999 -1964560.5436 221079.9766 186551.8950 754003.2885 -532212.4269 -216137.5312 -1278379.2825 284090.6340 -35447.7642
-1704727.7468 288454.5363 1133061.1059 759171.1933 -391982.9298 -531787.7629 -349801.4069 245683.1370 796116.9802 552061.5482
685857.3608 -1575132.3562 -920773.0639 223676.1026 -464575.1698 -127429.7943 90094.3188 -466620.4741 -349102.9240 178922.7423
-334345.6108 -513381.6971 -544582.6293 -254528.2796 593459.3547 77029.1096 191430.1700 -1960235.0232 513684.2382 240340.2351
379349.4112 534170.9788 -484431.6726 69724.7198 424651.3619 419528.8929 -328524.0718 -225173.9253 199732.4792 -374848.6077
481263.7420 658288.8278 -948442.4760 336004.1651 -2014677.0338 36981.5696 -287186.5336 2110086.1094 -7269.0573 -319759.5957
1688251.5227 -662740.0139 -971997.6948 -858792.9057 -928599.1816 514872.0463 451101.0102 832449.2394 -720338.0746 138455.4561
-1017498.5962 681598.6176 491738.6521 98497.4594 625299.3891 125042.8417 -65563.5329 -2694027.7371 624752.1798 -222969.5861
258469.4487 1042420.8159 -1175084.4956 -300205.1077 -126716.0731 510987.1923 164639.2958 303487.3705 -181538.6829 244060.0384
-313768.0816 -813264.9605 366185.0757 108118.0380 -1181608.3095 6816.6069 69251.1190 -98958.3413 1027501.6853 478505.1924
226633.9785 1614172.0324 -490362.9668 82612.2214 -1258969.3768 226337.6358 15445.8218 -1386684.9230 -82219.4734 494821.4117
-125397.1484 1048897.5851 -762046.3717 410640.9035 125041.6585 -149481.4955 -160367.0741 1300859.9122 630291.8115 -105332.6628
1448635.4031 -478990.0113 -1702659.1792 -160589.6004 -475727.6306 254540.6813 254170.1110 473246.2405 528978.0033 -624751.0469
-747020.6030 -1019830.6870 383973.0842 -81490.1638 450995.0687 -259070.0193 119659.6639 731991.4464 686343.0685 218038.4646
-1085637.9477 -605034.4126 324135.8349 290206.4028 361326.7158 22849.5923 19695.0488 718903.8926 674520.1026 367214.5413
630376.5051 1757674.0260 -1664794.4501 117625.7545 -367974.9803 168165.7478 23456.9180 205088.1383 -138028.1846 -173506.5774
1639039.1179 56618.9697 -333738.4235 198810.7636 -543905.5521 8680.0493 -89303.2663 -1141762.3129 -612440.7266 -27933.4956
1053546.2805 -167429.2616 718870.9401 -372201.8494 488481.8419 -293624.1594 -67067.6979 788303.8965 329417.9468 -86799.4977
-546655.2912 818135.9232 559231.2827 39657.0217 -287559.1411 117146.7699 -136605.0238 1544189.7059 -1463411.9194 -442043.0900
1505763.4470 26584.7822 1030364.1395 -585375.8144 -655371.3960 -419215.3079 407968.1667 82694.0355 -532838.7740 83228.8507
1036019.5656 -40143.5982 -28730.3696 175939.5539 -39142.3915 -107917.3335 118613.5244 -764931.4112 -413507.6891 -721402.9933
-228738.8713 -517747.8953 -1136805.9295 -317089.7873 268946.5633 190894.3171 181527.4190 55297.8776 710050.8634 109756.1070
107719.8830 -54861.3342 11586.5396 128544.1868 -1706785.3692 203187.2189 223033.2902 -225468.9810 -538281.9708 -431132.4852
-1834463.9647 64634.2443 1032695.8965 -78474.3405 960422.3995 534241.0395 91993.9394 -1020367.9094 642262.5402 -294871.1237
-45146.6106 552112.6106 -324333.8314 -203888.5802 -55958.4168 306905.9386 -161803.6976 -641310.3557 892754.8060 -90133.4489
454185.9420 -463515.8610 438787.2868 372906.9195 659882.0988 -583107.9852 -128714.6814 -4896.2461 -897730.0515 -19516.6765
243768.4504 541627.7154 -813975.3003 -359653.8783 -674790.7654 8599.0698 86097.9477 1772448.8801 -913701.0045 878332.9818
-435431.8932 -627415.6167 -564744.6103 346143.4749 469629.4374 236028.8461 -545617.5937 662175.8094 -1622440.2458 424872.8061
-776892.2264 -14554.0853 -999047.0546 -107896.4614 456655.2242 192324.4264 220299.6076 526045.1501 18336.0437 -207756.5771
1384108.9490 -968493.6156 -455732.9410 -296115.1195 -848431.9765 52729.4858 -249335.1876 -596962.0983 1243348.4468 -520478.2312
-899802.1335 612173.1174 -40730.7749 625506.2385 -101508.4731 279309.4458 -139772.1041 18468.4472 -530904.1179 -316197.0763
78693.0836 -1265956.7487 -1383022.1500 40217.3618 47486.7581 -128680.7350 -59397.0524 171827.9495 250111.9742 424351.0802
-338420.1989 219744.7884 951811.9332 397689.6441 215999.3132 -235124.0153 -77405.8503 777076.4745 -1540691.0500 377667.0303
-1122739.8494 -767777.7576 450970.2168 255407.7104 953748.3718 -459596.9485 -183686.4462 521730.1125 -2315362.0969 -48451.8686
-561870.9544 448412.7147 -625652.6979 80689.0587 -1124690.7980 -81643.9743 -473362.4868 1665212.5720 89779.8169 654684.4665
36786.1586 650597.7213 -155138.0572 -439737.4431 1086571.3709 -214869.5961 404971.1852 -277008.2341 1463050.5127 -124651.2222
-750736.8659 1096028.5840 80250.1297 -227072.0099 -155526.3634 171866.3075 27340.3910 657790.2514 434077.3281 -54299.9512
-63883.9517 100144.0690 -589822.5876 59164.0158 478883.0396 -274755.8342 314971.9127 163194.1252 -931600.1597 -592188.9428
-363958.0075 -433132.6604 -182045.2177 49249.7632 665440.6967 492175.7901 -127729.3483 1071762.6120 124611.5502 -431888.0680
1090950.8636 -490033.0357 -1062230.9592 75285.7731 1342365.8647 -160411.2626 -297105.9335 -3195891.5459 430729.5647 -38374.3642
-102220.7995 814362.8484 555667.2251 -12197.3204 160846.5188 114755.7979 -23081.1531 -1001055.7600 -773480.5769 -173489.5773
351755.1862 -886717.1811 315836.3247 77442.8632 -937045.1522 288276.1353 -47584.2597 487052.0894 32923.2618 -717345.0208
65881.0603 572366.6347 -1459454.6132 170405.9422 -334153.4869 43837.4774 151936.6745 143942.2402 -1057802.4400 -301138.1780
99673.9379 -783541.7224 236213.6002 -306036.0086 437767.0306 31828.9261 357912.7117 339819.1156 470572.4881 50044.4704
-98218.4179 -525741.7362 661888.1551 198881.1839 -174252.5202 -275758.2347 -49930.2212 969275.7710 890252.6599 -260526.0197
1151824.2041 -792503.2002 803091.3870 -166193.5033 135062.6414 -84790.6364 109369.3456 -1865276.5257 167526.1896 164407.2939
-592988.9756 -45894.4574 458102.6967 -145970.1750 933681.3211 193277.8478 59383.6552 97598.8121 -490036.8723 -765362.1737
86173.8126 221908.2901 -244175.6730 304719.5120 1064944.6402 -147516.9617 -146160.4049 28460.2007 -1146385.3513 -375580.3996
518400.4046 -499294.7626 740509.8198 -233400.8423 -443938.1970 223048.3956 -363400.0361 736925.9789 284172.0873 -100228.5476
213071.5076 -1272934.7179 488989.4250 -170534.6301 -514771.3319 220124.2326 6419.7747 -641392.1982 824580.5704 -377533.8797
521434.7115 -974950.9003 350753.4173 -72849.1912 -486650.1213 146.4729 -40635.2195 296484.6058 507444.0240 31991.8790
-814103.5903 769104.0020 -441413.0957 -359269.3305 1574155.1249 -55843.7730 183592.2854 300262.8029 -92570.1886 -328243.0335
-43288.0465 -1880431.0186 237083.7128 12334.3776 -1022618.7002 -60397.9409 89279.8053 894586.8305 63512.1747 -42705.4929
-687522.5106 90941.7264 -126891.6787 -50655.8716 25120.4400 293947.0976 -306948.4430 -570075.1763 1406538.8520 -470787.8044
-1134557.4877 182225.5589 -69658.4670 146282.7523 -48052.5050 -62675.0113 193580.1959 -1560659.8117 427497.2809 259215.6869
551262.8430 -1066194.8877 -1419521.2191 -407258.1613 796854.8286 444674.9680 327070.9975 1590564.9114 -355057.5308 -298072.0313
-749524.1666 357789.6358 -1045375.2455 275703.3079 -386206.6345 24447.1420 -133085.5145 1863976.7794 -773569.7051 363960.0664
-130415.7414 292751.1506 -716150.7252 306730.4546 -1218444.2266 22158.1253 -509197.7404 -351184.9596 -227067.9798 643079.1526
-1861127.7638 1292032.7161 -1143333.9331 -601879.4900 1024082.3876 301640.7756 500246.1054 -801390.7911 777275.4769 131114.5339
-492439.0403 -1545822.9234 -792130.2498 816041.9776 -1577760.4314 226940.0557 -862472.8258 2193687.7760 -298521.8308 -47175.6000
-117351.1302 338419.7290 -239045.6935 -21916.9988 536766.8161 -235176.3566 -298139.5206 306508.0935 255458.8505 296932.0710
-780023.0256 297809.2381 -167535.1410 -460626.9304 161152.3337 -92771.8284 494169.6154 -1138631.1690 1230417.9751 134590.6459
-1600735.6056 31462.9521 -21319.6497 480888.0887 1324844.5395 106866.5382 -227297.0688 -1115621.7260 302146.1109 40266.5625
-1892802.9614 894192.6279 1144820.1533 560494.5720 -617803.1869 -384330.5315 -487282.9918 135546.1235 -327877.8070 257030.8499
110324.2952 -168079.9248 -955449.9394 -181274.6724 693248.7414 455972.7448 518673.1044 375436.1776 -775749.4266 -330725.4852
-1018116.7074 302025.5629 -1271243.9680 198800.9196 1288293.2103 -289272.9682 -42068.8547 -337651.7828 365478.8053 98357.8847
-2143511.3993 281572.0924 -880082.3776 -85184.2995 1832242.3922 -378477.7600 631591.5420 -2782082.8774 1869355.1817 -73043.8239
719245.6437 -193997.0225 -370960.0407 149832.0185 153555.0185 -257619.5732 -262919.9293 457060.7665 -1876878.0961 305717.4701
101076.8716 745051.0648 -1807633.3571 -202011.7210 -46995.6424 392302.4824 617348.2473 160790.0486 -1686348.2647 90177.6572
658614.4522 -773758.8309 -989782.3149 180432.1776 1327573.4392 -9098.1929 -147070.4018 1065517.9753 -1487383.3945 76491.7392
679857.2354 -427177.7040 1146849.5668 146576.4369 -1773870.7849 -360929.0521 -187715.7345 1240266.6436 -1412766.4811 71674.0242
-1443578.0461 331200.9106 745181.7242 495808.9023 -1157218.8481 85704.5251 -389269.7973 1569114.0032 -1260739.3897 -353447.0483
-666725.5022 2928676.1012 224592.1936 552129.7157 -1722200.4554 -192945.9509 -104020.0190 503393.3966 -764540.3843 -595450.7266
-478078.5129 -1149459.4484 401879.8629 72936.6987 878655.8542 650490.8637 -74110.8522 -2023679.9208 -7103.8751 -411896.4443
406397.3066 539158.5216 89938.5942 -47570.7568 -542146.3225 147659.9912 -53905.1535 -906133.9051 976647.6410 -39349.1663
-1909531.6996 413420.4908 1005530.3889 -48552.5626 492545.6923 -315104.5709 341627.6666 104722.9287 -697210.6672 72375.8571
329946.1536 -947275.4821 1145679.9219 -416577.9627 588959.0944 311810.9377 201354.3425 -2652971.9311 928833.3284 -356420.5735
-489333.9702 293716.4824 802055.9956 91749.2790 374936.8067 136338.4053 11813.0677 -1255874.7424 -207194.0040 -1127932.1083
460622.9960 -193142.6242 -294424.9511 -60797.9238 -252770.5689 239649.1909 -107692.4705 -1234084.6035 -843765.6645 541231.6128
836081.5536 -20526.0940 -830230.3131 119679.7032 293355.6483 169678.9005 -7332.6423 -1487408.0184 -282334.6531 -64620.4724
-904087.0299 831417.2842 481517.1936 -172669.2106 238045.2416 384288.1524 235696.9021 190172.4993 951491.0593 -517544.4394
1407223.9199 -1489312.7902 -1426526.3239 -95520.5047 -113829.8799 261826.2279 -207928.0861 2924352.6662 -1220663.5222 -354089.8690
-904539.9449 185990.0132 238051.6298 -204101.4601 -226490.8974 520426.4673 24873.3188 -34990.3861 -16670.8384 147087.8513
116123.6077 64303.3194 378681.8115 239999.1438 1030936.7614 -199998.1706 -46691.1752 210655.5321 -1615799.6091 -522727.5199
-880649.8366 -461286.7831 -1455047.3144 95636.7520 513941.4724 -151167.2025 87284.6904 40963.8707 -81854.3552 524125.8701
840988.2332 430898.7021 255036.2162 -286333.3725 -614453.4318 -83584.8882 409107.5060 -2409799.1035 140706.1594 -148650.5199
-1234158.3376 1732097.4563 -420530.7071 -11800.6153 -570495.8123 408539.8788 205929.6579 420910.6954 1340574.1279 126640.5605
-438840.1018 318676.4862 -297955.8485 -199354.7625 -593919.6072 -126416.3471 266558.5634 -2200441.2874 554440.1864 660187.6209
977261.8512 373242.7543 -1499185.6456 -69544.3572 378995.4650 417247.1972 -548268.6254 198256.9763 932915.9331 -255942.6229
-1210086.7232 1439202.3648 682436.4371 537161.9373 1729348.8582 -194176.6175 -289413.7595 -862642.7976 335722.4996 -532611.0745
205242.7393 124865.6617 -699020.1020 -722085.1245 381670.8020 106496.5857 126171.2734 741392.4643 -380373.6554 -134037.5829
637409.5078 457271.7292 -752450.6397 -753614.9141 144940.1779 92945.1301 235514.5960 1730504.3662 -254972.2914 201194.0734
-316276.6704 227977.7120 -445163.1685 -163276.1253 -756482.8918 151236.9127 40977.3340 558314.3188 1031769.3306 -31398.7461
-205490.6013 -1353551.4813 -1235557.0326 88388.7418 230989.2004 75244.3183 198102.8549 604490.6959 -1007332.6987 273173.7691
515567.5220 260619.9164 -416567.1051 -546036.4050 260412.8717 -282529.3406 328575.1488 -842314.5870 460260.1802 371507.6155
730554.3089 -403198.0006 184799.2970 -126242.8942 478674.9649 -251314.6235 292397.4549 -1407384.7247 -34985.5661 -480693.0141
1085066.4734 15685.0692 153347.8922 -101035.5175 -858565.0690 162116.4883 120111.4612 -1475171.5596 1309117.1606 -204312.8367
-1630779.3181 858308.4825 873438.6029 -103933.1703 -1182842.6279 -3666.5656 20384.8113 1219495.9776 847417.5856 268156.9605
-132526.3984 -1012716.9997 340974.9570 -161216.5652 262144.4376 -21159.5161 -127260.5229 -298976.8995 -752485.3569 493127.8997
531640.7834 -298663.9987 -811300.6536 143927.3599 -841563.6442 -233796.7064 -361830.0579 827824.6655 -1483859.4415 884775.1333
198372.0739 -54413.0713 294763.8641 -334434.3664 504382.9929 65024.3736 -28502.4975 328246.9316 -543536.0229 572.0166
-1117304.6406 1340059.0996 978348.8284 -201118.8746 -407353.8819 200961.3550 333388.2772 -791672.7675 -290624.2214 -1181789.6084
-565412.9856 -820259.9202 -843486.3166 47739.1881 -180619.9717 176131.5757 -323072.0598 709390.9774 610484.8192 546548.0965
857681.8473 293552.1949 -872555.3244 157725.7611 1977734.5155 776477.4361 -665460.3287 -122527.0809 337018.7220 -330853.6182
1169407.8039 815710.0117 452978.0876 674093.9829 -1325306.3378 -522498.8508 -578849.3992 1634803.4149 -2069777.1300 -324897.4286
829781.1844 241509.8025 -651658.9766 79530.0937 -1374339.6632 134668.4113 18914.7753 -1411963.0317 1465930.5166 225598.0048
642922.8627 840496.3710 436545.6301 -292693.5629 -605279.4071 58055.6298 144936.9307 333388.3234 -873569.2054 -571329.3586
-604541.4683 -925061.6929 64934.4628 390790.3054 -613914.1948 531761.6017 -264886.2814 -225366.1138 -447958.3293 -691484.3887
-673061.2549 566722.3339 1593733.3959 439733.8245 -605496.0164 -343380.8552 -165963.4213 -29734.6968 -291480.3028 -282651.2818
313772.1290 248194.2067 -112431.3346 196894.5753 -778326.6988 -87796.7510 193859.8135 -545280.6158 1431159.0878 -13295.8570
-1340312.3085 1767774.6124 2732982.7809 394253.8785 -1101034.6714 -666825.5849 -131488.0286 888559.3327 -1117676.6684 -140318.6054
229909.2459 -1451413.4867 1086222.0170 -224920.6426 605951.5776 207754.7976 -120554.2209 -1126847.0644 987256.2624 -234063.1223
-547919.4131 1522604.2206 -719198.4367 85788.0413 652921.1464 -74143.8691 195117.1340 1370755.5379 -1094466.0054 -135803.6258
262730.0667 -240128.5098 313434.0788 -109681.6829 -181302.7850 -89988.9592 167152.7414 -895565.5945 -448888.0665 -56516.7827
322744.3301 1017376.1552 -132980.8703 341779.4411 -1328678.5710 -231596.0216 -216155.9015 1832682.0131 -806485.7227 -68123.1286
816941.0362 -1130258.4359 -254088.4265 33642.3205 -935814.3310 -365636.4243 -269394.4434 -276357.4592 429960.0419 266102.1994
-680634.2194 1185506.5058 815521.5893 -40505.5178 -934111.4750 -57370.2836 -109149.0205 2154464.5367 -326761.3806 374906.5873
-588689.8364 1820512.6644 -1192355.7443 -504305.5893 606730.0941 11498.5729 301510.9523 322270.4054 -352610.2802 15318.3795
-580220.3001 725560.9085 809869.7118 -271367.9127 481915.6456 -474718.2596 139328.1990 1003126.2146 -1107587.9716 -303689.8851
-985628.1426 723299.9597 -991722.0009 360283.6248 -776594.5422 21769.3269 -188552.0215 1583632.4780 -1399358.9818 392981.7464
173953.0490 -874666.0661 -177512.9537 45448.4670 152020.0825 -28459.2987 -39789.2205 -1964890.5534 1482029.7878 -68849.2848
2044721.1965 -490318.8301 -316250.9332 -298700.4542 712986.0146 168610.1518 -215294.8133 -2292667.5521 151684.1524 -330034.3633
-1031776.7385 -1102137.4880 -155816.8407 -234460.2784 1086682.2140 12941.9173 174496.3698 -360121.8991 339172.0278 -237922.1298
284075.0461 -535826.9745 592783.4916 -22281.9444 467821.5464 -14938.8209 -126633.7620 -1158669.2923 443633.8658 -1020308.0262
499551.1462 -1126164.2554 351044.1297 -91421.0734 -93829.8571 11075.4931 -188995.8139 -243854.9257 -924061.1859 499275.8713
1667121.6360 -160967.4424 -2416047.7444 -353430.8935 168441.9934 253783.6250 313609.5354 -2215987.2773 1157068.6910 -1067.8333
-170181.0715 1046620.6943 -977111.7189 69453.4396 431016.3115 377995.7583 341502.6907 669681.0077 -1420207.0802 108518.9880
879723.0638 -1076786.7599 -976417.4665 238791.8109 -611085.9770 -492998.8527 -41456.4723 1649325.6299 150695.6836 634732.4403
-766594.1910 345518.0369 137132.1635 -264971.3559 113370.3331 460798.2750 418273.7080 -1545808.3592 364994.2181 -423115.5135
-41240.1556 -620769.0552 674987.5110 332190.7624 1201838.4505 -238130.8342 -178335.7995 -1415311.5098 -407699.0937 -414468.2144
-578436.4238 -158922.8904 1272998.2035 -159452.2671 566449.6579 -136908.0547 -398642.4585 -299346.3565 473162.2205 372786.0241
227651.9718 1567756.6391 220279.4670 203536.7953 -1406662.6282 533497.1423 -428252.6356 -338438.0905 -960364.6548 -300325.2545
77248.6362 -1013058.4508 1012259.6068 -506474.8700 1223214.9331 -233914.2319 103371.4739 185719.0865 535434.4556 -1093774.4986
-643195.1598 -605424.9456 327201.8549 -83788.3802 -144068.6230 177945.7289 -22621.3775 -556027.4849 421713.1613 314901.0148
-1303238.2305 -264171.6499 572887.4053 525815.8910 -1898.0298 -113023.0360 -493659.3087 490870.5878 495610.0941 235003.1219
751238.4086 1366975.2293 -281724.8716 -413587.2202 -636152.6329 -97804.6844 458733.3194 -1234593.0193 66456.6738 -129789.0219
-183259.0171 279961.7014 87471.7226 -30453.8861 367705.0809 296967.9264 165130.9650 -15258.5724 -1148412.5560 -65361.9390
-1975174.4010 1596620.8798 803506.7509 242629.5080 578961.7825 -105228.7966 -87608.7851 -45916.6904 599932.8107 32349.5844
-588112.0542 -538230.0095 -969409.5528 127545.2536 294057.4925 -49994.6241 421119.2779 -53137.7548 -176038.2460 121181.8805
119619.9202 329307.7178 -303514.9872 -149389.6176 -2338396.1804 522434.9394 -415890.3882 1747386.4602 1061605.5925 282505.0806
599971.6991 247612.2706 669955.5067 -46988.2331 -986803.9327 -273838.8290 420107.7184 -634926.2305 30928.8279 -267378.6584
1063024.5172 -1381296.2462 -1614472.8392 -536414.2160 1386727.3379 420856.0828 -25978.1874 -798146.3492 -483742.5450 113988.6719
414738.2743 -116036.7204 -244689.8964 20685.7485 -309460.0968 -287918.3136 388265.5626 -1062992.1905 -1271522.2805 617640.7290
-54962.9250 424244.1828 445085.7385 -24227.7838 403830.6757 -57810.8106 -109555.8211 -1748657.9187 -662269.0427 215048.1862
371554.8856 208607.0022 797753.1310 193708.8996 -391513.8403 -26308.8231 -363975.5626 1108946.7454 -508603.2244 -806921.7358
197712.7117 -624188.7667 144478.2777 296583.0331 -410827.7028 -462986.3440 -452639.1174 -96639.4858 315497.6321 11797.4611
528030.3570 912084.7555 -666317.6898 -9807.0944 -1040668.8867 -384579.3652 -37803.2933 11601.1004 47472.6280 442370.2561
-1163969.6500 314480.6890 76675.4365 293230.0138 490697.2702 143798.7286 -264917.4474 1755493.4643 -928288.1675 80575.7232
-264298.6596 579664.3109 -503668.3811 -586648.5805 661922.1055 451731.2797 539204.1849 718583.2541 -1694190.9288 -330697.0676
-958168.9171 -760084.2488 57089.9910 -11314.4394 -22202.2321 260340.7727 -226948.7274 1006303.1744 -1527098.8425 -106039.5358
2166469.2038 -668167.5280 52234.5966 479580.3757 -1661491.7301 -202409.9208 -536630.8104 152246.4943 -460752.1318 59941.4969
-943140.4000 -268027.5524 -1138574.7370 206035.5665 1564066.5690 -242931.1821 -19647.6109 380639.4235 138890.5869 -137866.4631
-869361.0258 -13373.7345 210262.8566 -104579.3758 381664.7130 -556648.2261 218091.5114 937596.7232 -922683.8812 843279.9301
655305.9019 -1018157.5342 256978.7211 -57703.1631 298126.2239 -43681.0457 163533.3959 196170.0377 -877226.5769 266747.7023
-1526533.0384 1036821.3664 774365.4024 62404.3229 756977.3137 -139961.8696 100699.8453 -1016079.6294 -904026.0600 692746.0088
-1054392.1092 171903.4302 1003201.8880 -24677.7991 -202338.7670 99499.6791 -100271.4111 -2127261.4687 816407.2617 636412.0023
-733524.8931 -709705.1477 -715862.1017 -522314.5989 1379765.2514 323699.7067 225545.7664 -1648196.8115 1054305.1485 160995.3563
192790.4040 558131.2322 -487374.5289 167647.4883 -129169.5801 -314657.5934 136629.0061 -593027.3535 -655552.3963 9499.8236
-521669.8033 -25043.7541 233136.0465 71861.4442 -943821.6481 -118620.9630 -98818.9216 -485601.9452 731757.5944 181182.6291
-111544.1151 580886.6394 -299909.3543 233392.1557 -607959.1872 -15836.8840 -215183.5463 84271.2307 589387.9906 -213914.4020
-228100.2366 323652.9707 -336870.6377 205721.8725 166846.5591 470098.1852 -148075.8513 -449058.9265 -838766.3291 -301647.3866
1138533.5153 100517.2721 -765181.5096 404881.4223 -1093379.1989 -383289.3249 -31249.5545 1785991.1225 -1583064.2021 116119.7347
-1800804.8075 1839020.2503 -263999.1752 -395399.1634 -414141.4488 285310.0788 312987.8664 669013.7723 130227.3791 448625.2830
-572630.1151 -1006559.3581 -1240613.4305 -418909.5138 1179881.7904 102336.9681 245684.2724 842194.4925 -863120.8340 -387884.3314
546482.8535 352573.2938 761573.7468 -230978.6967 -301443.4280 -339191.9994 457806.1750 -306656.1109 187661.1890 -213319.7924
2623928.6492 534186.2152 -1167468.2336 -47009.0327 -1835160.9007 -180148.4351 117134.4262 777005.4643 -647931.3787 -268235.6233
1292472.0932 -1780714.5083 -76142.4102 -41328.6922 -888688.5354 368104.2793 -182377.4854 -456063.8008 -873443.2874 -662981.1161
1639319.8032 -2122574.3891 606291.2456 257154.5480 -1780908.7333 448378.8920 -529287.6901 -631711.3911 158402.6142 31009.8249
226628.6966 -396089.3221 -755549.6048 51997.7540 -992203.5700 -19495.6505 -26983.7472 -233827.4963 -304377.8097 71082.3077
-136042.8302 112277.6773 -531247.7355 -236040.1820 -893211.6207 275910.1614 20841.1590 -251847.4098 760735.5985 125145.7454
-1021644.9149 663594.3876 503757.6495 285269.0164 -527209.4899 -372523.4615 314269.8434 -312188.8408 511524.5220 137377.0042
-1184652.5342 -239765.5688 -1545538.9460 194253.2722 1490733.5499 -79804.9116 -207104.7621 -796498.5693 496446.0267 348904.9452
133713.0112 -424306.4537 308695.2381 53628.9348 438443.2189 523712.2856 61750.0334 39535.9397 -236625.5705 -277600.0908
-1150605.4168 -263051.3529 933254.2637 261787.8812 -806185.2850 66023.2528 -341536.6272 633206.5837 123350.0891 -52381.8670
1078046.3531 1159801.5161 386346.9277 563279.6852 -1403123.0090 -409060.3028 -409828.2869 660632.8590 -567092.4132 110590.2375
-963448.7140 827860.6171 350002.0762 388580.7835 -22867.2597 -33939.3792 -152620.4468 -918580.9453 -243361.4643 84728.8928
-967315.8075 789344.9313 1405548.0441 54719.9409 103884.3395 -581707.5629 247469.0251 713565.9917 -534139.3651 -259767.2524
265453.9231 -1726216.9354 -216672.2072 -411181.5009 643650.6946 -69556.1087 19557.9356 6999.0157 498286.5668 292518.8257
-1282419.8607 -1371330.8464 48162.0077 219278.4300 -180411.0828 -91704.2836 -164818.1259 1262531.1631 700469.3597 -50840.9564
-560936.6230 -627842.2352 1141374.9930 -249641.2929 727990.8746 -190355.8823 -152218.6628 524752.9405 443770.6850 -20334.9963
-42461.8813 1227057.6171 -251333.4732 49241.8246 -478821.4650 517282.3940 -83633.1168 476084.1616 -1149545.5113 -378665.1181
1143209.3372 694650.8534 -1334847.2393 70720.0528 -484526.2852 137093.6327 471576.0621 -824441.8193 -252211.0053 289137.6038
-1839629.5929 2242597.4523 -822062.1775 303638.4725 1075004.2196 191353.2440 -106882.3945 422266.3537 -83879.1088 569129.8712
935451.1761 1778860.8093 919749.7125 -513151.3157 -356115.6576 -353742.5974 205485.1356 -641388.8799 617936.5241 -679552.1830
1206490.8665 -918668.5440 -131191.3136 -158596.7999 -485436.8582 67667.0041 261056.7024 -1615139.6513 256727.1062 2201.2526
1840086.2623 537596.2458 -571818.3706 207113.5426 -1370850.6417 405752.7024 -638613.3238 1169404.4424 -1175971.2768 -209272.5351
-384679.1917 637710.5262 -1181649.2494 -81437.9806 -1020905.1716 -72560.4053 -27024.3219 1227657.0181 -320185.6190 548444.4785
468381.7230 953577.5102 180688.1109 -111021.0323 -994896.9333 439015.6173 83979.6099 -532237.5956 -13143.6414 -235291.9149
430376.3818 -926383.6228 -1087748.2651 157303.3842 164834.6864 86050.5262 144855.7722 -632181.2793 -285358.2152 249379.9814
-1145313.8623 78908.1415 -1101267.7782 -30883.8059 363512.1404 129534.2525 181008.3801 -315925.0395 612101.1455 305248.5672
-567831.4924 -1346217.3897 -530234.5329 59160.5265 1060030.2349 533275.6240 -393300.7133 716932.9564 -1328972.9695 -250470.0889
165896.2262 -51597.0130 590506.7530 -170226.7961 -1519714.6508 119091.7974 -353881.2766 735881.8186 911918.9845 198971.7946
-40835.1356 -473179.6026 -653310.6603 421863.8400 273539.3571 -137155.8582 -197827.7378 -1679558.3743 389487.2176 153179.6766
-38093.5617 -1237664.5959 -384497.5822 110410.0459 -298151.3665 -191238.9760 151270.6951 228354.3740 708963.1024 -173998.9525
475124.5680 877061.3125 696317.1800 -145823.1816 -602321.0714 27519.5474 -56943.1469 -356893.0168 -760358.4474 -258975.9486
55013.5321 -458733.7782 -1126655.8392 -95350.0324 500345.2097 219711.1217 79165.1977 -391088.8228 30682.4577 -28480.1219
-1092513.4624 -105736.2607 128384.8582 -204602.7202 343688.0631 -50338.6899 79186.4758 674494.7811 467211.0888 36225.1357
276189.2340 -1280013.8121 195096.2509 114929.5312 -834041.4046 72796.4936 156391.0965 -727923.8728 -919281.8092 515186.4594
710362.9162 -646057.6908 171461.0091 -735384.1499 -486891.7546 -147849.4974 245289.4312 555306.4104 -271983.9418 404257.6443
370358.7420 -80421.6064 -1654756.0741 -81932.4515 907525.5827 325595.8247 -151949.9868 63417.9877 242126.2289 -17953.5903
191120.7207 -149281.8907 -538639.6200 -29089.8000 -403368.8960 11395.1640 -143057.8660 1105744.5412 -141886.5269 -150228.7502
1102366.5208 408444.2827 -424587.6600 268380.7089 -473672.2246 -787760.1690 -376870.7043 2134800.7719 -1119417.5476 79198.4589
-1280996.1640 1869630.2913 823609.2340 206667.8710 -779123.0681 -78536.1773 73012.8371 -738395.7943 610385.1682 120760.5713
-85252.6245 118602.3866 1117469.6876 -104471.1066 -793115.8305 9707.6308 104826.9954 -1549658.5718 -784673.1389 650248.0427
848613.6351 418451.8938 82479.3738 20400.9223 -303154.0697 -78812.5768 301451.9660 -679096.7685 -828217.4009 -716984.0426
-3706.9145 1149266.0816 -342602.5927 191705.2624 -814763.2948 367271.1984 -104746.7448 -1326287.5599 890717.1450 -585414.0841
787983.0501 -1133668.7512 1060628.2993 20188.6521 -1278707.4196 45813.8082 -366966.5197 982516.1527 -528970.4775 19621.5925
598037.2859 850714.8483 1425350.1171 -35404.3166 -1533628.2961 38080.5890 101424.7047 351871.8736 -1838857.6295 -557054.9553
-1090864.5831 1448304.8147 1908264.5507 -76964.8305 -245210.0666 -52154.2030 286320.1998 -1717736.3725 -202734.2946 -195842.3559
-1274287.8078 1282477.4182 -400107.2858 -79880.1770 1187305.4105 60554.3382 -5184.2893 1192625.1455 -680645.2253 285521.8593
-1177407.9799 -422585.4834 957983.4758 138316.0194 1356595.2975 -353281.2665 421677.4632 -727855.8837 -876633.9210 -610651.1882
400971.0970 -40816.0942 2114422.0830 134624.7072 -805939.1690 -664695.5633 -187112.0258 27379.5277 204643.8709 -237937.6559
-936472.1337 543216.6871 272426.9755 -399351.1036 611973.8211 -337420.0837 -39211.9438 1191845.8076 724005.8216 -263799.1841
2559726.4518 -1318211.9471 -891018.4148 -107324.8851 552287.1353 -317971.7394 313436.3770 55666.8901 -1666134.1206 -116456.6079
377252.2366 -912319.0794 519397.9103 281322.7738 -272546.4593 -498645.5677 -40251.8450 -268474.0412 -660660.3459 422595.4258
-2256292.5962 -613568.6511 -601628.7552 382971.4356 188482.5855 586895.7256 -509016.6209 1115854.7538 93709.2614 -930.0868
-585793.6947 343583.4883 331723.4789 -168964.1510 1368096.6097 -42365.4685 380410.5869 383690.3614 -2300443.1627 -288300.9820
-1147038.8291 421668.4772 -210708.5808 293730.3687 -601953.8544 198412.2710 -122931.7967 -197186.5925 345869.0551 260643.1971
-677351.4973 757717.5305 1593802.8032 -491216.5454 1233749.3921 -87567.5907 -135343.4585 -688622.1746 236957.2424 -348286.6457
789203.9665 -1443673.9816 -355340.3494 290897.7959 -187295.4604 -381219.4352 -338526.8127 607876.1265 -1245085.8291 138564.2224
1315461.7624 -1133137.2252 -673188.2301 438910.8216 -1254819.3058 -116832.9839 -189239.6816 1474325.7519 373510.6454 -371319.4331
652689.6087 219054.5904 -864687.6715 392019.9204 -1010625.4769 -22328.5556 144995.1346 -748095.6785 -242646.4500 87813.4691
-1157158.6065 -1090352.8899 -849961.5024 413462.6856 -55282.7497 466324.0480 -227325.2190 1191869.7260 855178.7820 -69686.3661
632625.8622 1522995.3903 -1846.7564 -86048.7571 -233905.8320 285115.8530 -3271.0663 360787.0402 67311.8501 -322636.7984
-1728349.5655 926677.5515 9629.8889 -182063.3049 -116140.1847 -503426.7563 159093.3116 1571940.0319 179570.1197 597846.1466
-986594.9760 733178.6400 275864.7343 -76403.8345 163701.5325 -106234.1711 28868.7111 -233649.4466 -1201168.6397 116932.8923
242532.6584 -595351.6696 -208855.9350 180165.5266 -1373177.8219 221074.5939 -148334.3011 348427.7757 -342848.6943 -273592.3567
695271.1300 -1505999.6049 -377879.4272 -754929.0577 1931600.8858 -920634.7343 331598.9211 -119649.5296 178462.6333 864539.5731
-1056365.6881 -303709.1433 -736661.7790 447661.6923 696525.0021 -709965.9689 -321604.7051 1728502.4747 196314.7776 226748.2759
-18694.7264 736174.0805 376556.2692 -175230.0698 -806439.2288 -182570.4286 228272.1297 580332.6295 293237.8838 716025.8829
-2074201.7078 1987198.3808 16247.4279 -65173.2022 -493918.4366 222440.7639 464687.2331 405345.3541 1131988.6590 -289455.6827
353590.4384 -290096.5321 -7908.5639 173273.3970 -307589.8206 -492962.2888 -51791.1534 -338872.3216 -1246758.8972 474640.9849
669081.3415 -1147856.8629 -325001.9943 308802.4347 195135.0680 185351.1095 -417438.6557 -1026867.3686 -240477.2062 -396833.3730
579621.9662 -245189.5524 771291.0154 117907.1759 45774.2645 37511.7446 -165712.2818 -2651656.3193 -194293.1078 274429.9590
35858.1736 720943.3950 610545.0898 -418173.6771 -873949.6882 450807.5594 -58470.9224 -950971.9324 1769702.3206 -552659.8517
489641.1607 -1092357.1462 479057.5443 -135301.4125 -624261.7716 138219.4129 -110174.4613 -61707.0329 419520.7268 -908314.5852
-1610494.8305 1330268.7465 182104.2688 227952.3205 397175.6046 -46981.8827 -8105.2435 -568601.8920 1028316.9697 276222.2511
660454.7494 -873944.6596 -1377771.2261 -140372.1635 -180632.9832 264307.8154 16032.0575 -204570.4414 354007.6503 364579.3234
-987998.1174 1014415.5266 -1108599.1269 -541468.0993 -205988.8263 128583.3423 205357.3057 1854325.4083 328018.5219 -3832.1179
-1297933.7111 266722.9592 1343120.7989 438965.6398 758442.2356 -547713.0899 -474123.3680 -869287.1604 1621497.8654 341413.5053
726123.1680 2465.4516 1144263.1717 30537.4137 -1689350.7542 -74373.1863 132553.4690 -515088.7190 31044.6988 189589.9532
-1314589.1814 1119134.1553 -598134.0436 -278535.1695 384857.8388 47014.0339 254293.4631 471556.3832 523135.8682 -215631.3327
-632165.1830 1099034.7777 -502443.0325 -430809.0913 -14942.7234 76812.3076 548776.3149 749589.7501 -436800.3633 136436.1408
-1198323.3801 884535.5950 631680.5491 53347.6352 407616.0851 -739700.5562 85376.0919 968688.8075 -998187.3786 -21139.7020
-726362.2862 178023.9332 -58612.7417 98268.3233 -261624.0391 -124452.3307 -195995.0265 589509.7908 91515.0560 246796.8195
-767050.9535 383804.3261 354283.0283 -217397.0428 -1797858.1214 -507909.7206 481537.6773 636355.5723 -384854.1790 948624.4689
896408.7014 336374.8207 -1197895.7099 -159246.4618 -696771.7714 98704.4417 -29931.1336 -861928.8259 606083.0210 -75733.3088
-804875.7814 -376310.6689 357223.7591 -16446.7329 765439.6875 -141655.9364 401026.6231 -1266313.7628 -974039.0512 -115398.7168
368293.9490 482462.5701 -133311.4496 -328302.2211 -614235.1027 -19229.7019 613150.3499 -720300.9986 -524001.7686 -89160.0596
-40640.9653 637429.6117 -521484.5349 249426.5938 557751.8649 59620.2514 -469381.4293 1534167.9836 -1032519.0387 -450901.6784
-95166.5125 1030720.5335 335464.0506 171183.5151 -47534.6487 -127198.6936 -21221.8067 200091.5468 -988955.9981 -308442.7709
2079983.3142 -2740990.6547 258372.2155 -479240.1930 -1728504.1437 50137.6463 299859.5138 107790.1970 -290650.9392 30896.8963
591930.0065 681464.6093 231434.4314 377500.6940 -216825.0288 239523.2877 -377745.7737 361992.3028 -403598.2042 -184714.8979
318632.7136 -91197.1509 986456.4336 330006.3661 -1174949.4791 -206612.5205 -90937.6371 -877693.4125 335399.3963 480907.8304
-442428.9358 602764.7328 233474.3157 348199.1569 -510420.7768 -258815.4707 238403.4805 -22398.5101 -1602309.8264 -564420.5162
-577911.8270 879469.0902 -414424.8734 57906.6745 1698377.0152 72724.8683 60679.2765 -192026.8400 -832285.9673 -417575.4606
496580.3666 -290186.7072 1037060.1739 -233541.8686 820959.1457 -403680.6955 360300.3461 -640665.7529 -794390.4891 -583917.8293
-446439.1176 -206305.0427 222668.6282 83228.6420 -1173948.6679 703321.5686 -307484.6250 1003030.9322 296349.4699 -46420.3789
1431557.9570 -767606.4513 -317378.5944 -429117.7918 231505.6823 79116.4130 321345.3541 -1268611.1632 -240307.5628 -70144.0179
901953.1688 282043.7374 1263191.8236 378946.4591 -377483.0378 -552583.3887 -671760.4850 -450943.7728 -836159.5450 36179.5080
-88300.8351 509945.5449 -666725.7705 -532413.8929 1185919.8346 -18688.2391 262890.2479 206863.6344 -753931.6504 127335.2065
1542140.8623 -2319542.6528 98464.4345 137237.8817 -898825.4439 32041.4323 -302858.8851 415412.7624 -460216.9986 -142280.5080
142673.9966 -1098250.3846 386873.9689 -403433.2836 -728545.3750 -565195.5476 47789.0622 1244750.4755 454284.3430 548756.5882
1482597.5594 62151.6831 -1199023.7385 -486125.2191 470617.4088 192860.5970 123437.1509 -289287.0361 -458937.7283 349845.7656
-22932.0688 808774.3249 -466876.1782 -89292.4297 498757.3167 247937.3717 -1631.3657 -2370282.6576 1542689.8937 -449413.1333
24731.6426 80512.9601 772354.8244 254357.9240 -1510159.4929 -185261.8598 -478711.8688 2170453.4898 -866069.2442 75895.1557
830547.4634 -1357979.3475 -81243.0341 -338726.9006 -169564.2662 384319.1764 -3243.3163 -808323.5485 174535.1327 -215949.8366
1355856.8750 264109.8719 -463273.4137 -205191.4384 -1511408.5534 -586154.7884 90264.5778 475177.1795 -949089.3666 666263.1818
826175.3723 533045.0318 104396.4538 -295792.8589 523134.0664 328567.7129 -54750.9286 317789.5001 -1095322.9554 -223692.2100
-409280.8144 345468.5803 -355495.5468 -805542.6584 917152.0126 418604.0972 25698.6835 1331245.9641 -319342.2846 -84120.4868
-294563.9208 1174484.9538 -67512.6364 -275864.1912 262907.6261 521675.5788 311490.4149 -786086.9560 102750.2376 -56705.1504
-1137291.6344 802903.1835 1048361.3131 -459084.1724 -431881.7995 -90490.9014 234161.8843 207612.9853 -1395856.3316 748158.1225
573361.5869 -1182990.2621 999544.5236 320662.5131 -734729.2611 -265871.2981 -655507.2573 1119410.5809 811620.4965 -335540.1860
470612.8102 771187.4433 -444578.7307 279493.3106 -1288285.4732 -64084.6644 -232978.9308 370267.9480 1344276.7470 117590.2522
131139.7057 708263.7386 -741669.4302 334374.3757 128595.6593 13984.2183 -133394.5152 914426.2507 -575712.1536 -69923.2985
986171.7885 -931610.7677 739783.7837 550300.2948 360995.2799 -250846.0039 -289458.1259 -32165.3016 -1120985.2670 -151990.1380
-489052.5649 1680015.9111 308103.5989 -418088.3459 -1119766.7265 331344.5910 79077.0077 1564593.6449 -1375079.0229 107179.0103
128685.5773 -1678523.8825 232380.0352 -335528.4703 1270619.2101 165834.4225 55004.5299 -1248834.5394 -177973.6523 -46788.9973
-511777.1342 256136.1878 -268813.3563 -532555.8970 629738.8248 -4033.2142 456560.7300 197918.3831 -91620.4071 17780.1536
-563129.7501 -48847.1323 464029.2125 -294345.5074 -2759.3663 -303121.4203 -179196.8923 1570665.4313 797375.6958 -112554.4660
-331190.9862 -755396.3440 777556.0071 -106842.5630 119787.2998 -101288.0778 77061.6585 1002270.6025 -103369.9622 156968.9645
-2379772.4631 1286008.9170 -119469.6038 587004.6559 427224.5238 -452179.0287 -285110.2009 1149284.4247 813212.5995 429864.2316
-677788.5374 1052715.9940 248481.2101 398416.9126 118616.9176 -330538.5570 174433.2717 -894482.2451 -108013.7405 215109.8723
-240272.9632 411358.2798 745266.6235 -209694.9427 646805.0514 92594.4469 -24769.4658 -1857980.9915 -1445759.2307 482074.8733
-453307.9229 -724737.2199 -1165285.8705 -261998.0985 2077953.6929 344793.2824 43351.6745 -388060.3511 529462.9181 -98847.5874
882404.1561 -1742830.4490 475459.4578 59930.0587 255094.8862 170568.3541 -32000.2596 -1038949.8884 159577.0468 -96434.6198
-1569874.9055 981113.9181 750374.7522 506329.5104 -672333.8321 249962.0222 -280466.1213 -457912.7633 -572111.8578 -100218.8575
783048.0070 -815772.4311 620154.6935 60316.1518 -1145168.1489 -178170.3739 -11118.4327 -1424284.1890 154382.6601 322233.5237
-321919.8664 -837962.4290 -210770.1969 -87827.3389 735080.2336 -265876.3514 8025.3121 10613.1607 -840342.1838 146175.7815
-410156.7184 729392.1220 -803402.0215 356301.3677 -83949.2677 -437992.3155 130304.8225 1133654.4452 -1784793.6173 -414297.3908
1537508.7354 -1535124.3581 -1135393.1383 -626101.5034 1361328.8001 -416779.4997 243226.7685 956084.9078 -2074194.9844 287969.5858
-279420.5591 865592.0258 686255.5095 -385087.6535 922772.3649 209001.6877 179570.9756 -1926376.8786 -1557402.1686 -553708.8920
370881.1465 -158424.5758 178261.4523 -2588.6039 300195.8181 -86101.9769 -322788.7126 -656392.3545 778868.7831 -154531.0311
101678.8487 -118331.8529 175857.4940 -348079.2080 641090.6802 -427192.2789 209473.3651 -1055789.9788 734229.2076 412057.8501
296689.2369 1257604.9027 121311.8870 151627.6060 -863247.3194 -129645.1461 320408.7669 -2166882.6569 -128924.5337 -76197.3889
-2433432.8572 2294404.7737 -311176.7443 -18683.6348 -76439.7798 -521653.2830 -48098.1577 2721290.0365 -290550.1693 120782.3171
1066672.7575 -639721.1492 -1147945.3136 34021.5649 -1664727.6783 545568.4250 180796.2883 -976318.0639 483435.0353 -286320.5356
-571064.7389 -341388.7063 684605.7477 245866.6478 -418875.7690 241067.6493 304137.3252 568640.6731 -1820110.1268 -149296.5058
309267.3700 260461.2313 -47715.5351 -367829.2886 785882.6405 349579.6948 243848.9323 571553.4922 -1366567.9753 316579.9028
622192.6150 -292114.5564 -90183.9314 -162658.8879 885694.8147 -48177.7434 -110382.4348 -2161831.3685 213011.0596 150246.0322
-330164.6449 686435.0763 147346.0019 547883.8484 59588.3447 -672597.5935 -780740.8679 -187509.0128 133910.6729 168992.7688
-307871.2949 -420484.9406 -24634.7632 -218865.7243 37441.6995 -5461.8869 426682.4920 -866617.4132 64788.1387 -207025.2845
-168453.9528 -639105.9981 -2075.6205 202470.5207 121906.1106 -495058.3839 154104.3509 -856987.8095 236511.1429 -83744.6102
-1528839.9910 -439059.9388 1098031.1263 603240.7528 -405918.0018 188626.2254 -467975.1637 -627808.7641 492117.1334 -613799.8904
-565398.5987 -900949.4980 -478455.1363 -104557.3455 394723.6104 196602.0816 -152003.1425 1173741.6528 611651.8116 -575032.7114
293828.1629 167104.2556 -649388.1423 -208692.2254 -460559.4118 166060.5650 247911.2926 -1264371.2170 186784.6413 747391.3954
1183490.7462 -2148248.7456 -438253.7368 187863.6553 -1484600.1059 310642.5320 -639206.4628 681105.8966 493508.8929 16142.9823
-267481.7049 1675838.6120 -856389.4023 119490.8992 -316773.6893 72560.7364 118155.9789 -177105.2235 -208575.2666 655663.3623
-2849044.5647 104286.4892 -337300.0233 -278443.5495 456077.9845 -7915.7954 666094.0161 1601086.6358 -415352.9859 287800.6499
-950058.6042 544469.6697 -553194.5454 227038.2531 78287.5855 85535.2359 -2917.9829 -272173.1346 -154980.2615 -231140.8545
-865305.0393 316496.0913 -56811.3176 69241.4975 -1650908.5481 -546075.6519 -237233.8069 2449413.5977 727851.1417 -20297.9292
-634175.2456 -72530.9238 -348751.8293 661974.6050 153161.3632 -155535.9155 -318211.0351 420722.8464 -969675.9270 -160715.2331
1231875.9015 -975885.0772 -1669119.8606 -676195.3217 1257991.0776 126233.5664 119500.9670 1028121.6854 671015.0871 -13525.3578
-1029777.1331 -1206352.7125 -857863.4294 -312582.1833 932871.5912 -160844.0135 649841.5577 -215189.8183 -299556.0236 162376.5824
-853104.3506 219677.4192 -824672.6478 -27937.5887 -538285.5184 -261411.6991 349239.1439 404326.1437 702514.2371 663579.0025
888400.2143 -1365887.2404 -882419.9424 486501.6672 -1353015.8105 -253620.7687 -44094.8016 -230386.7174 753773.8207 -147457.6892
714225.3313 -955791.8419 -71727.7449 -143844.4875 489893.0415 264065.0091 -391861.0528 -1007666.4944 772904.4943 -795694.8293
-792967.8021 -689456.8611 -1385065.7029 186375.2129 -47311.9272 82942.0043 -60847.1862 1564150.6598 -518284.8863 -199036.0947
-1609013.7203 356695.9186 -320207.7313 128951.5144 967522.5994 -13761.2220 125642.8598 -1070859.8025 -854220.5060 895803.2965
38045.4105 2229385.7280 -102801.5768 31132.1645 1129033.0417 241642.0035 -210094.6035 -819026.4553 -191608.2982 367492.5416
-466892.1755 302826.9649 -147258.3222 -163796.4124 811291.5584 -161885.8048 274459.2311 421841.5910 -1603128.2772 -382906.5666
218732.6557 -412705.6873 -917881.3102 35328.8358 365094.5758 12216.2571 -233010.4114 1640719.3704 129364.0467 -75887.1910
82458.9377 752007.6483 1186440.1349 -311024.7126 -656416.7463 -77023.8429 181558.6527 -1633354.6165 999020.5207 -171974.1918
-2312001.9094 -1627764.9154 1293237.7278 303534.2514 1115707.8122 -125876.8112 -142950.7878 98389.1275 -34632.7187 283742.4897
1971320.6603 -859452.0753 188104.5048 14257.6005 -1706275.2428 7618.0835 -243821.3957 -271153.5711 401714.2427 63579.0738
-2323120.6700 1200438.7705 1820820.3316 -155905.0435 1585436.3563 -24825.3632 92707.4438 534954.9424 -1435818.4404 -290033.5937
-128934.0084 -623583.6203 49910.8147 407284.9116 -516884.0141 -724261.4429 -298309.5767 804985.7323 -596867.5046 28054.7836
96831.6537 369868.1354 142496.6285 212022.5298 -246121.7749 52028.0147 -45568.3376 -564912.8640 313118.0270 -263041.9106
-119702.4271 -1019235.0766 -347605.4982 -197556.5665 -7653.2027 368627.1554 -26569.4493 397965.1239 48850.7775 401524.7452
691651.7875 387388.8175 -1205300.7261 -401482.0122 800708.9061 -223384.1396 283660.6465 -374919.2521 12116.2483 -259126.6863
292538.9230 793138.7757 -285954.5724 317943.8804 827224.4382 42019.1501 -85170.4461 -409941.4084 -348180.2707 -42179.3893
564082.4512 -374305.1540 -818468.7800 205844.8003 -595783.6679 110209.3787 -515418.4717 -184127.1406 332837.1700 425777.7626
1118195.4100 -234695.1465 -265798.8219 -295339.8047 79621.5380 122947.2055 -5124.0261 -942850.3993 -43854.5234 -146932.9911
2332097.1372 589911.4406 -49113.9313 -29126.7982 1035091.5941 -203070.9363 25496.8382 -774772.4592 -1274786.3365 -250286.7617
755232.3604 -81738.1774 -954753.0580 -579206.3057 1564056.1503 226703.0854 -136462.6611 456061.0247 786098.3574 -365528.3982
431119.4848 -420315.4990 1039730.2396 113272.8342 -282965.0999 399608.4296 -470335.7797 1766839.0798 -588664.4130 -1122656.2293
-358230.1764 269024.8639 441907.9705 223566.1568 -1096139.5539 -98.5887 -290720.1388 1179114.0352 1051197.2219 -517790.5668
-1338064.8293 73116.7547 587930.6715 536314.4749 -153787.1899 138344.7861 -205074.2408 -1582784.9247 -172476.3614 -276625.5550
-717340.3786 -447814.2617 963936.5492 -128009.1872 -6606.1085 61650.0503 271372.8635 -1160451.9639 582315.7368 -657842.9847
-1643303.8616 -117061.3994 110192.9352 -94959.8639 635763.7538 -113445.3951 16732.3846 36343.3658 1160588.5827 29066.6614
962407.7300 153893.8875 -853167.1019 309805.3754 652699.3717 -187217.9232 -230486.5677 -359420.5052 -112120.8589 -802982.7495
1136987.6901 -125960.2002 432863.6866 -37264.1948 -1251867.2519 -164700.6212 -101677.7509 528087.2744 957454.2595 323967.7416
-2304655.4190 1705054.3136 318311.5360 -50123.0295 1365483.3916 -146482.0269 381290.4815 -1162239.2237 551758.2459 -470555.5772
-927884.1055 377872.3608 -34515.6442 -78644.0039 412394.8535 273845.8022 2919.9513 -1727426.7770 2495836.4090 -435993.1446
-2023448.1265 446914.6184 164834.0059 -24678.4586 110807.3064 -135451.2961 632659.6702 534879.9989 -396480.1279 175559.7743
-1191540.7616 1352553.1580 -44445.1857 166389.0613 -661807.9144 446374.6198 -443088.8486 671868.1665 428101.2832 -272862.8047
-759580.2870 -13687.7574 1045005.2478 79043.5650 891914.4567 -23205.2936 -80910.5455 797334.0389 -1030158.0237 -254527.9187
430547.7538 447323.3373 -585688.0329 -87256.3297 -969788.4199 -243622.9479 -31235.6035 620719.5457 -119938.1300 583250.3329
-209232.1581 1460240.2538 -955082.9383 382569.5803 -62916.8090 -70975.0289 -124828.7795 -368891.7711 110893.8571 -175460.5651
-957427.8078 1444530.8002 247826.8470 -318546.7512 1752445.1570 214382.4345 393092.9737 -1402968.8560 -907850.7791 93517.7961
-263362.6177 -547496.7502 630808.8433 -29077.2825 191603.6008 -225325.2903 -126416.6460 29046.9494 455260.7424 2661.8702
-1479841.6076 659390.7219 -194920.5248 239007.1163 -300432.6267 27125.8049 147619.7293 427099.9766 -60003.2943 372789.9278
-955681.1867 922743.7381 183400.2857 -463802.1895 -6081.0425 243726.9491 253008.8924 1431173.4983 -207209.4548 -423562.7281
-1266511.5118 957937.1737 734090.3019 -135785.9178 494438.1681 398862.5731 171166.8187 -2360086.8655 1846259.5502 -583342.5297
1677092.4452 -26005.3523 226832.8394 -228579.4522 -556762.3839 -86876.4810 -404081.1198 -35917.3732 862426.0059 -92587.9860
2269229.2614 -593971.6213 -989697.1500 236764.6711 -577828.0122 -96235.8623 80182.4638 1432018.2888 -1958732.7828 -887430.8751
-1046494.1624 -247557.7364 123951.8973 34858.7727 -437069.0496 427983.6691 132397.6312 2237464.4465 -1077676.7792 14646.3665
-679830.3690 -380037.4007 -71312.3230 -118450.3169 1802043.0150 295047.2202 256582.3446 -381130.3887 -1073551.4664 16855.9322
-484061.4366 -624215.6726 -123256.9228 -64092.5157 -857754.8409 -125775.0641 202208.2419 -1294912.1078 824774.4120 27349.3364
-2240677.0087 896365.2656 307838.3328 -307100.5167 1253722.9537 -195427.6409 265218.9311 308979.4783 873512.4795 232839.3739
86267.5428 65561.0121 -161160.1186 70376.9725 777784.1986 -203897.0638 145727.1091 -952257.4213 567338.2151 -496238.6197
-602872.5946 385696.5642 -602881.2621 -806483.2550 -574960.7551 1105605.4595 171762.3659 -337871.6407 584741.6745 179490.8417
-1338755.2701 301712.3022 -196024.8966 141428.7121 61120.8326 -21356.1564 -256135.6347 1479428.6207 501548.5403 -124524.4502
-1043080.4679 267058.4218 -617905.1976 -279162.3148 1879594.9733 560553.3453 191948.8062 -752016.7498 -305092.7019 -156841.3346
839356.6536 16126.8534 -255399.5740 67826.0269 -1426764.2134 -314504.8616 -419025.1401 -189583.7739 1294331.1192 -281009.8556
466658.4998 -202077.9189 1320367.6961 260001.4278 -94714.8161 -10884.1136 -35076.6991 55890.6410 -543290.7124 -1361191.2659
-4937.4189 888361.6773 1262925.8318 -327870.7789 949362.4473 -155944.3037 73824.3901 86159.8950 -1074755.6637 170728.7518
-1435531.5239 -245701.0525 -89480.9391 333147.7423 1933035.1637 -164448.3095 -389008.9906 -205651.6800 -96001.8986 -183087.4860
116968.7641 649679.6837 -357374.3102 367857.7112 -1030728.3925 43013.7755 -276655.0207 344907.2778 -1144647.6135 372270.7590
585777.9784 484136.5802 170539.8117 270937.7931 -1413088.4355 -91361.1670 -133278.0572 299216.8624 218151.6815 -86668.1729
389591.2912 211636.5426 -1196038.6576 -591583.4537 730987.7551 -6270.4322 120966.5405 1124875.6595 26668.3131 66781.4214
-1258348.4166 -721720.5710 -301425.3051 -623206.8872 916434.4593 284895.0201 649750.1394 -575403.3905 -42525.8992 42856.6985
853266.0896 -50797.9467 1541830.7109 418886.1877 -2666245.6311 -200599.6718 -321451.7695 250594.0640 365003.0906 18749.6019
441994.1603 416424.8225 146689.6802 -74256.1198 -963177.0466 -12272.4926 -442585.9899 1158356.1688 84573.6677 -85793.3134
-586209.6015 918696.2511 379826.5471 283650.8064 -1308003.1388 -555003.7930 -179398.5277 2068963.9613 -1287218.3325 518814.6159
-782607.1729 605918.6327 -221704.4085 284305.7406 180564.1515 -10184.8756 -165122.2871 1356349.3396 -337869.1528 33307.4498
-964860.6886 -52917.2982 1355604.4747 -454042.2994 -402027.9003 -7034.9112 -132040.0934 -5152.9017 -220766.2999 503447.4779
-1218825.6525 102603.9758 623751.8338 59293.8416 -241886.1395 -194447.9471 -243952.3235 1399987.9086 -425848.3673 64265.0321
-356406.4649 -209240.3372 755650.3814 -103204.5226 702638.2239 -137170.4429 62434.6783 -638918.4014 -206479.0090 -194470.7855
-969667.7822 276055.4679 47686.0349 65934.9035 331208.7268 106698.2017 -277971.0036 1978534.7769 64982.9839 191138.6957
-3089253.2727 3059271.2353 563334.7898 249013.4805 1016758.4354 -220684.1536 -20849.8840 466144.7695 545711.2006 204687.3069
1703109.4650 221769.5446 -1598469.9770 -28108.3441 -791666.9026 262265.2755 -167834.4441 795151.8563 -1752502.2688 159804.1147
-519778.6997 -891994.9727 -344630.2919 190473.7877 83664.6108 -122071.6784 -101816.8075 -469559.3978 451878.1370 -525468.1475
-901653.2512 801848.8902 322138.5233 132960.9591 -765505.6296 62928.7898 190804.7067 -647834.8884 -713791.8858 167267.4701
955081.2056 -499469.9942 604303.3673 -75470.1928 -1271468.4821 -93713.7193 -24272.9107 39794.3667 91230.5661 -308754.1643
-1270023.8405 -450968.2022 -356867.4818 -121584.9043 -457258.4859 263188.4786 129874.9173 -144113.2137 351569.9487 224993.1860
-1403728.7318 758252.5996 669928.8157 332104.8773 300548.2940 -506724.7048 -564870.6839 965369.1273 1713517.8079 370570.0620
-716645.8989 191192.7057 1133516.8439 -162076.4298 -344338.9493 437723.8554 171347.1348 1087032.2505 -375973.8601 -452933.0733
-793547.7308 764713.1217 321560.9452 -293809.9710 -1079770.2433 341996.4282 63088.5368 -678751.5159 1281949.3593 -119955.7483
210960.2456 -798150.2984 -145266.2006 -59097.6640 1200278.6379 -46278.3065 5549.1296 -425531.8342 -23710.7822 -201168.5108
1389656.1504 -1342192.3837 -140986.0915 303571.2294 -361858.6245 -465488.6870 -226340.1012 -89145.0522 161325.9190 -165439.2157
161623.2586 191717.7343 -179101.8170 312621.0814 -1500941.8104 -176549.8101 53697.7104 -104305.3820 82266.8375 -30285.1764
-357728.9130 -23968.6112 -612089.4446 141423.3473 899112.5301 102236.1121 -22309.3918 -475153.6481 -464457.4496 -36500.4460
491581.0627 803424.8345 99488.7481 273163.2551 -691637.8354 70557.8024 -151961.2877 -58962.2556 304818.3205 -59347.1707
-593807.2307 953622.6376 237448.0432 81698.6408 -221797.2966 -16667.2319 72659.3938 971146.7421 -590619.1906 -210460.2511
-15107.8204 -1326747.8958 -346298.9817 -151528.6708 2239672.5736 63054.0794 228360.2975 -361277.7806 -1265555.5226 53538.8536
-215318.2830 -229021.1920 -659754.6702 93950.4021 -1639522.9057 648711.0297 24484.8645 1796593.7777 -410131.4031 359813.9609
1560578.0769 -250372.9172 393513.6184 -160255.5747 120903.4998 -230272.5652 127723.3521 -555306.7929 -1255975.9051 -869612.0591
-370939.7791 1207769.4655 -357284.9458 322157.4443 -401888.4276 -413995.6314 -18415.9432 564901.3163 -248247.3885 400346.5978
-79235.4644 -924769.9041 -43584.0224 364060.0343 308673.1920 -67800.5283 -327159.3759 1236757.5830 -702735.4036 -445456.0072
216676.9574 -1111851.6049 -511229.6663 524844.0653 -620188.7050 -212904.8659 71644.3498 655527.8514 14601.2067 -712615.3176
-2189353.1084 1438208.1102 -357819.6078 112411.6353 389612.1157 182357.4545 155050.3915 -381014.8962 -900651.1896 251223.7110
-455756.7370 -1817129.6550 -1342573.7753 404456.9175 99713.8098 357118.0811 -86221.3081 434155.4751 4777.1119 93325.0978
473912.0260 531283.0669 -502039.5154 -42802.8044 450653.9996 -107389.1611 320974.9192 -491145.6349 -332083.1645 -255842.8620
1044281.2434 -395531.0320 1140970.5283 -280671.6786 -70994.6937 52245.4536 228941.5784 -636152.5013 178007.2889 -290857.0895
1084210.7381 -20173.8152 704474.1927 128139.0790 -867747.3442 -263776.0770 -73828.2020 -1447670.5315 175254.3796 -31547.6454
-441516.8974 713501.4799 -912049.0262 208078.5407 421314.3552 48752.4762 236972.4294 -23581.0232 -1221123.1193 -209747.6994
218372.1817 -968831.3707 158658.9960 -148929.6765 1456289.4601 -603680.0670 385087.9984 -936740.6598 127868.5805 373439.1231
-633378.9904 -971730.7335 67975.8545 -580996.8173 1905315.3446 16532.1015 -459573.5783 -207921.0236 918999.1975 129888.7151
653501.1291 463586.1665 1019527.9920 -29237.1100 -1347430.5875 188593.9426 -486679.3512 246262.1935 1365831.6581 96709.7166
148132.9834 -103814.7657 504779.6467 -132412.3595 -653397.2620 -330843.9567 93719.4037 -1578393.7885 194121.9510 -108998.8526
1076228.7412 -2264882.6553 -514076.1251 -4053.9727 -1126347.7281 -148644.7188 72790.5299 690363.2887 380282.9812 -128137.4233
-163413.7074 -929630.3778 589928.0044 114986.8685 131586.9021 -311708.7795 -455808.5572 324392.0095 -104469.5995 503950.0974
698049.2964 166601.6131 642427.8801 -507722.4038 133786.3031 -419747.8050 533408.3694 -843392.7014 -513260.3253 71890.3587
313105.4715 -487387.4478 -1458489.2839 -185350.6772 142233.4344 43269.9132 -201976.4460 1972987.5020 479376.2258 202003.4269
-957779.9705 -245116.4637 54289.6417 -221147.5931 -1007981.8033 144133.5068 213381.4158 28392.1435 818822.1690 94817.2868
-1207087.7387 1900811.3918 -1021783.5348 -1089.6153 20146.4574 -133542.8423 203308.9957 2367638.0457 -1177995.6950 -945453.2972
-1195595.7688 -251486.3361 339342.6867 122709.9772 -210817.4513 58183.1977 -62616.3616 -1462281.3746 792470.7283 -381840.6483
-116138.3636 902750.0142 -115670.1573 -413620.4666 -419640.5326 532814.3803 263535.6427 417642.6373 -449707.8245 -235589.9828
-2724615.8376 553833.9170 -166449.6120 447442.9266 1171635.4626 -250845.1667 -68654.1134 1073666.9166 554247.2922 -492760.3284
-828711.1515 830809.0574 -241994.6353 -347985.6569 1303606.1141 56597.8106 380042.2051 -1860783.7345 -157110.5865 267100.9940
-1528152.7212 219388.9625 325664.4737 269406.1858 -248993.1932 -126794.7363 12056.2027 -99397.6147 202550.5344 57029.2144
-279409.9792 778438.3653 -403245.4146 49769.7293 -300558.4697 -292520.1808 140799.7897 2768798.0142 -741872.0026 -543178.2877
39712.5040 -108942.5904 422156.2262 -521172.6337 -474789.7874 1799.8146 -55986.0862 329143.0291 378785.4852 494265.3465
502901.9771 -727578.1045 73061.7380 -38908.0185 -1067995.5576 268194.8340 -405733.4775 1724283.7094 -324938.1463 177237.2113
1008475.7687 -601422.1366 -422981.0882 -51326.2276 201012.5684 247879.1031 221689.8454 -2019408.4526 140139.8521 -430573.9174
-191804.8120 -400471.1517 96573.3154 41613.1175 1595206.7389 -178294.8888 34910.0316 -1465475.3443 -64785.5990 141204.3842
-149650.2520 -624898.5546 -640262.9794 -178861.3056 178193.5961 108251.4359 -8809.9496 -78347.5195 620957.0166 -332542.0170
-1122649.4854 1425210.1184 -405002.3666 410909.6213 235590.4266 208177.1461 38908.5979 21663.0884 66913.4249 -91179.5594
765814.9225 233222.0822 438097.0201 -85692.1417 509202.5698 -57886.8118 -274694.8753 621981.3390 -461792.9000 88832.9655
-418796.6308 1024227.5645 -348798.3559 -23967.9788 713458.9393 -97242.8341 230988.1137 -813012.6686 553610.5681 -10706.3934
789629.4056 259329.0046 -12850.2525 -255999.9756 -354626.3560 131844.7595 34367.6545 -180949.3298 -203425.1340 -211898.7295
-915361.8682 -570005.7115 -803090.9782 353881.0451 871642.1435 210929.6838 16637.2172 94180.2522 -321150.1924 -540161.1841
-1325554.3694 749072.3061 1708316.3565 152822.5632 -730718.4150 31121.3561 -70153.6778 -883027.0988 264925.2823 85454.3646
-1065850.6020 1076008.4885 -50424.9872 89563.6394 -172265.3127 130997.8515 75172.0074 -471330.6883 -464573.0924 71683.1976
-159172.4377 -822351.3100 404137.4109 -185386.5260 -13580.2185 438460.8695 281714.0706 -2830035.3194 845940.9390 -118509.3936
213213.2676 -326741.5155 -128905.5073 184113.0104 -817930.0441 -500316.3302 -153507.8808 313388.0890 -102047.0069 -15268.9643
2883490.8141 -584652.9791 -92712.6501 -243131.2494 -711214.0293 -218085.8120 295655.9468 -1402652.2859 -914716.2533 297354.0813
371150.1320 -1050099.0582 -1933543.4133 185349.3892 637666.9130 -65605.4300 -20754.6748 67425.3434 -724276.9677 349919.1685
1532336.6324 -118885.6431 -1050043.0133 -81814.2426 57661.5965 149992.1725 76008.7571 -1821897.3718 -153162.9530 -241907.5154
-845076.1209 160800.8021 -127737.9714 86968.0821 -1040091.2104 -42803.6787 137775.6597 -297479.6745 -1432737.4718 47450.9471
-1224375.4487 364998.2810 -297894.9113 -345678.0823 1954316.1843 610340.8050 -119382.7005 539057.3275 -1408359.9871 -867562.4389
-527660.9166 752926.4844 175347.5831 -454790.2568 1655213.0647 178251.9089 -45561.8556 -1902289.4778 1159308.2877 -224008.7846
-682980.5422 -491448.8006 825661.4711 -179840.4654 1167456.0619 -402245.6473 169176.7157 -612202.2492 114429.4520 258595.5069
145650.1007 -230167.8273 275896.0923 -473000.0517 -178135.8208 136690.7075 230798.8305 -995881.4032 998666.5347 177978.4913
-975315.1220 1314625.7576 -1440820.6253 77344.9959 516255.2844 371602.2660 212083.1961 3507.0064 -124073.9615 -83416.0341
-570755.7320 831229.8261 -16830.6434 566396.3772 -1191743.9068 266689.2284 -621214.8793 -12863.2956 870014.2758 376688.6991
-585528.0033 775749.7349 412821.1027 525869.5125 -1642835.9285 -51016.1941 -111861.6818 -455576.9721 229045.2520 298062.1956
1986803.9639 -1764812.5769 -706819.7791 -537503.0090 -992376.4210 136243.0044 219270.6852 -573378.9216 -401573.9931 423956.6169
-889138.7085 346783.6076 309845.3305 -23257.9364 315151.2848 -16487.9667 -65580.0730 -410065.2849 1268194.0219 73991.3644
1411531.1851 -227231.3022 376133.6663 -437223.5556 -1118760.5044 343873.7685 113073.7848 -982449.3332 -117819.6166 16806.7973
78793.0704 -811336.1641 -602169.6732 20908.6024 1253467.5305 -56790.5619 -247626.5640 371984.2307 -385996.7107 -264685.8319
109370.7083 1866030.1216 1515357.1351 -471629.6999 -562988.1461 -313065.7306 -158123.4277 1053050.5799 -649583.2096 -520582.4729
835330.9586 -870972.2334 1190343.4252 54506.5324 585956.8484 -121048.7376 -574106.0375 171898.2544 -523170.9141 -373104.3156
752047.7600 -466405.1801 1034737.0339 -344593.1432 -550828.8597 -340976.6820 -26935.7570 -96122.8321 -95516.6559 41202.2013
2348058.4108 -311364.5332 -1935903.2000 -639550.7675 -172285.8074 213409.9065 594962.8575 1235965.4737 -1143247.8522 -488332.0189
-297905.0990 -463272.7658 142255.0942 183886.8263 78186.4439 96045.2605 106140.6635 -1920286.2621 -229164.3452 136549.3923
-973208.3461 1030024.4197 400698.6725 -31333.9029 -1426692.7448 -528292.7871 242112.7052 -205616.3548 339781.4058 764530.9316
672121.7212 -1304094.6541 888784.5718 101519.0628 7863.2296 -308705.9185 -367247.9024 -820518.0446 -487661.0893 -199109.9584
-1042704.2506 -20167.6175 603983.7641 110794.7031 -524749.9759 77412.3356 70246.5545 -678414.8811 399336.7677 39318.1231
-1366524.4548 717159.1058 -706438.8424 302819.1309 -2133322.5743 365943.3853 -401912.7317 334498.2102 1097313.2980 151491.9433
-514440.2986 462492.0496 525508.8581 29562.4493 -271728.3327 17093.4931 218466.9220 705946.1246 -1710891.3202 -589359.5156
-1371491.9638 854754.7332 5888.0817 95296.0136 685462.9484 -378621.4964 412854.0561 989836.1263 -1069786.7779 408119.3105
-1069234.6442 -950080.3728 -432765.4911 -125901.3430 648344.0755 -160026.5316 72097.6607 608230.7138 -499345.8265 792132.6548
-1424165.6403 2005328.1411 456505.4265 -150699.0022 275115.5779 -267667.3597 308348.9761 -454891.3506 261985.1044 -459477.7267
-101635.5165 1160573.5935 1370672.0359 117681.6262 -1723888.2848 535836.6206 -512255.0627 -648289.4052 800857.9283 -74244.8930
1527475.8455 -536846.8137 611984.9263 -219175.9430 323632.6877 -80924.6661 -469.8570 -778461.1021 -712377.0785 -347963.1663
-423265.9860 -883379.0892 -104000.6039 111369.2858 932556.6825 -85932.9342 174602.6516 270662.2326 -1179806.0180 399933.3841
-1403823.6737 1610642.8989 102114.2794 -154417.2075 632756.9233 201894.4862 21682.5909 -405345.3461 526493.9453 -267672.9970
309622.4799 -756280.9858 -285007.9256 -90619.2130 -715047.4439 176252.5806 -324260.7330 -501794.4812 904509.3036 294635.7195
-445826.1860 -1449540.3277 299674.7710 -617481.2122 867341.2100 322985.2398 449889.9562 -1338309.2533 5359.6079 228954.5954
345802.3046 -298359.6061 29173.5453 114360.8159 267838.7155 -14096.2564 -220564.1875 -190771.2328 -557845.4896 460056.9046
211556.5811 737059.7008 139614.7800 -31990.8869 344611.3572 -316250.3080 -334326.7462 -580537.4782 -528713.7782 61377.4942
-781671.7468 188155.8329 840369.6265 -578262.9592 -427660.5229 298118.7590 80112.4284 1164088.3576 1023075.6557 264988.1312
782844.4915 -213942.2059 -786353.6397 -122074.0481 -28868.1513 -270003.4157 -555021.9920 912774.8518 943675.6499 452861.4530
886644.0290 -522944.6878 266799.9132 -473263.1253 322436.5871 -111170.3224 274862.1229 419246.2719 -1413924.1096 -77703.4430
-1344338.6150 -198325.8712 213119.1051 238583.8147 295636.5800 185332.9283 -53657.9313 -2239594.7487 596461.7845 619274.5754
204072.2119 -783212.9452 -332497.9905 -377941.0714 -298959.4665 -176118.1143 149431.9529 -222404.3203 764232.6383 -288660.5467
-1327404.4628 754310.4478 729721.8431 -91751.9567 -264998.1207 -83102.4843 94179.3277 -121171.6968 1102430.7992 203502.4053
-1359386.4534 527079.5002 648904.3725 120797.9738 1115525.4149 -42911.5292 -23416.2078 -335583.8213 -473866.8051 -495999.5377
