1.419640 -1.836728 -2.298648 -1.120519 -4.963243 -3.682877 -1.570366 -4.240964 -0.416433 -3.453999 3.407207 -1.017044 -1.772630 -0.734568 -3.547880 -5.232076 0.543884 0.596515 0.412942 -2.922722 1.327384 -4.808350 -2.807233 -3.246564 -2.129507 -4.099135 -0.538901 -6.130837 1.437311 -4.348211 -4.134693 2.408543 -2.569090 4.713907 -5.125324 -3.653321 0.280031 -5.989162 -2.849358 -5.080280 -3.880341 -1.641348 -8.868982 3.679715 -1.627181 1.825106 -2.199936 -0.374570 0.767183 -7.911542 -3.954652 4.071909 -2.667420 -0.359948 -1.908198 -4.466707 -4.021330 1.898677 1.935212 0.961672 -0.139852 -4.670611 -2.501787 -2.297148 2.091502 -5.722745 -1.642916 -2.583464 -2.466149 -0.203407 -2.900148 -5.795765 0.294935 -4.779075 -4.468107 -2.732403 -2.591222 1.116602 -0.116912 2.054825 -5.287508 -7.600852 0.687517 -2.856267 -4.641608 -2.777284 -2.651075 -1.503696 -1.454463 -1.400248 -2.599085 -2.177529 -2.624516 -0.980061 -5.712145 -5.679504 -0.217998 -2.899016 -1.808625 1.407845 -2.546981 -4.126428 -2.026712 -2.555135 0.325884 -3.959434 -2.162473 -4.104044 -1.582256 0.150752 -0.564020 -2.101568 -1.447201 3.217576 -1.902378 -3.283403 -1.982026 -4.140463 -4.325293 -0.344210 2.835427 0.895504 -3.676833 1.610877 -6.126518 -2.050364 -2.988273 -2.812128 4.402012 -3.292982 -4.992655 -3.935053 -0.991057 -2.835754 -3.001164 -4.836296 -1.461946 0.100127 2.410773 0.232531 -0.090190 -2.886143 3.887349 -1.203208 -1.064572 -2.342776 -4.017351 -2.713237 1.275224 -1.704973 -3.520268 0.907748 -4.007153 -3.606209 -3.693451 -2.226587 -4.921422 -2.581563 -3.088435 1.794905 -3.191113 -3.662128 -5.023474 -3.059635 -1.882906 -0.006102 -1.899556 -0.865541 0.087132 0.097912 -2.689710 1.385163 -1.496332 -3.026167 -1.237445 -4.281312 -2.606804 -8.486263 -2.411390 -4.610440 -3.355487 -2.816843 -4.518099 6.416281 -2.680269 0.297017 -3.884076 -6.389643 -5.663849 -5.043065 0.667644 -0.804075 -2.731218 -1.532962 -1.301194 -1.094471 -5.866334 -1.823094 -0.676101 0.895924 -7.194345 -5.648826 -1.682143 -6.728756 1.428372 -5.927608 -1.783509 -4.691551 -2.382860 -2.881549 1.165944 0.142737 3.560610 1.353565 -4.143961 -2.367954 1.280624 -3.043393 -0.318414 -0.756287 -2.286249 -0.347573 2.753656 -2.495141 -1.247731 -0.974101 -6.195652 -2.365889 3.655703 5.137877 -0.751133 -2.611633 -1.365818 -3.579767 -5.749110 -2.742203 1.777207 2.679907 0.970355 -3.880485 -5.545208 -2.326986 4.268520 -1.837670 0.140044 -0.392306 3.699112 -0.190067 -0.664901 0.051589 -2.296274 -0.313020 -4.042731 -2.540772 2.169625 0.946262 -3.717673 -2.964584 -1.058698 -3.068918 -0.342448 -2.189123 -1.968780 -0.990758 0.932571 -6.317861 -1.139951 -4.011634 -0.674786 -5.132340 6.312541 1.500988 -0.283255 -5.463076 2.373849 -1.861048 -1.693793 0.952992 -0.945190 -4.181045 -1.237825 -0.074692 -3.745195 -2.994697 -6.093007 -3.877188 -2.318835 -3.769985 -1.841010 -4.490619 -0.524081 -2.756670 -7.231338 0.258382 3.673036 0.994221 -0.431460 2.378750 -3.249842 -3.089958 0.484653 1.805693 1.391740 -4.882547 -4.136162 -1.719619 -5.142706 -1.413214 -4.184281 0.260563 -5.824489 5.089685 -3.119451 -1.619409 -2.099310 2.695831 1.137188 1.449232 -2.515714 -6.162257 0.885013 -8.186499 1.167620 -3.145784 -4.624165 1.324914 -2.903219 -4.796542 0.203821 0.819098 -7.900801 -0.453206 0.286209 -3.793502 -0.635798 0.682631 -3.551911 2.636583 -4.705670 -2.791009 -3.136616 -4.742606 -3.696916 -5.333930 1.872153 -3.623848 -5.800841 -0.239748 -2.933376 2.677948 -6.309118 -3.509213 -1.433925 2.689179 -4.110032 -0.774070 -5.657999 -0.604721 -3.940240 -2.944098 -3.756575 -1.499767 -0.099678 -3.030168 -3.507710 -1.133935 -0.284497 -2.121246 1.606466 -4.586405 -4.498570 -0.046556 0.590358 2.641507 -1.041200 -5.938882 -5.065373 -4.434719 -3.702361 -0.453113 0.596640 -2.940121 3.407831 -0.655019 -4.613267 0.811825 -1.237610 -0.822662 -6.376579 -3.114617 2.019330 0.848541 2.147741 2.086331 3.729279 -1.549637 -7.494276 -6.591606 -4.462853 -2.728351 -2.137920 -2.972506 -1.055095 -5.307193 -3.703429 1.375573 0.454903 -1.557455 -4.334852 -4.521398 -1.712570 -0.361467 -2.186810 -2.449094 1.638476 2.179720 -4.551746 -2.860702 -1.200060 -3.736086 -1.412592 -3.699625 -1.158741 -4.029894 -0.235609 1.417649 -0.635587 -3.666949 -0.100959 -5.572990 -2.307277 -4.832272 1.039593 3.362086 -4.013603 -0.100251 -0.690962 3.931015 -3.171845 2.021089 -0.614835 -1.361841 3.157896 -2.559450 -3.559350 -0.177863 -2.404808 -3.665223 -2.722643 1.392910 -2.762224 -4.713141 -3.940293 -5.349863 -2.203835 -0.609511 -6.219767 1.911419 0.006846 -5.011324 -5.618752 -3.248385 -1.229958 -0.572197 -7.930395 -2.876331 -1.850093 3.010278 -3.933476 -2.287334 -5.229968 -2.856905 -3.103870 -5.236235 0.157081 -6.399849 -0.302653 1.966889 3.194553 -0.141512 0.007596 -3.415133 -3.058602 -2.240378 -1.320003 -0.232438 -5.116692 -2.248356 -3.654419 -3.038143 -1.427720 -6.385937 -1.970230 3.130196 -3.464260 0.308979 2.028080 -1.638338 -1.300361 -1.349344 0.392146 -2.212983 -4.319366 -2.473499 2.515392 -3.634119 2.086448 3.912810 -0.151576 1.644034 -1.064414 -1.407248
0.670751 2.980986 -0.388982 -2.271366 2.813825 0.017199 1.300357 2.767794 -0.299856 0.299999 -5.996487 0.621007 -0.770839 3.600028 -3.530361 -3.336422 -1.793062 5.169477 -0.828317 2.831455 -5.152310 -2.347351 1.238353 -0.858124 0.934207 -0.084446 -1.089723 -2.021274 -0.996165 -0.074214 0.451879 -2.814340 3.682607 -2.849095 0.801952 2.949108 1.294337 -0.958132 0.127433 3.885276 0.666643 1.040391 0.139727 -5.121526 -0.143824 -1.369830 2.358369 0.887282 3.252664 6.659672 -0.477881 -2.898640 -5.045235 -1.259007 -1.037504 2.750519 -0.770323 -4.184915 -0.959278 -3.688167 -1.118671 3.130340 0.422227 -1.711735 -6.688037 0.591209 4.816684 -1.360817 -0.027135 -1.137395 -3.792994 -2.414219 -1.252668 1.043826 0.044325 -1.726948 1.070168 -3.681658 -2.195793 -5.209799 -1.540828 -0.260663 -0.518087 5.967420 -0.234841 -3.404423 0.935134 0.247698 2.511143 -0.107922 -3.805038 -2.472076 -0.231808 -2.022936 3.033175 1.081757 -0.991627 2.839296 -1.519744 0.424520 -1.184545 -0.962137 -2.257485 3.321519 -5.778579 0.900748 2.480916 -0.671533 0.766683 -2.649160 1.109299 1.813409 -3.077702 -4.252286 2.534766 -0.930410 0.817887 0.518908 0.073336 -4.087191 -6.526952 -0.346989 -0.903435 -1.801256 2.965392 1.839599 -1.675552 -3.560672 -4.448158 -0.178589 3.389658 -2.672783 2.259937 0.537362 0.146870 1.645228 -1.873551 -3.846238 -8.772279 -5.458557 0.859771 2.766735 -4.867093 2.076823 1.320855 1.284193 1.602685 -1.925984 -3.159872 0.095651 -4.592027 -4.498792 -2.796487 0.473134 0.755072 -1.009022 -2.585811 -1.569712 -1.135781 -0.877901 -2.047868 -0.230135 0.687875 -0.707365 -5.104977 -1.916213 2.687631 -2.019347 2.755879 -5.316716 1.719127 -3.328145 -5.164564 1.966462 -3.802387 -1.291421 -1.582112 0.813767 -1.145322 2.716071 -0.208939 1.753119 -2.070645 -2.258135 -1.093911 -0.870747 -1.130313 -2.284956 2.521258 3.388757 -6.512923 -0.614553 -0.329595 1.408140 -0.140444 -1.133827 4.414275 -2.948130 -8.138533 -0.719783 0.723095 1.689236 -1.481135 -1.274380 0.462318 -0.304753 -1.200482 5.892715 0.478312 3.635331 -4.840092 -0.159126 -2.527752 -1.377271 1.643655 1.637375 -3.494100 -1.042124 1.029886 -0.216483 2.206620 -5.270701 -2.036311 -2.802392 1.151717 -2.185481 3.182668 2.870717 1.157758 -3.410109 2.872249 -3.651623 -0.996342 1.276281 0.421996 -1.169904 -3.369668 -7.684162 2.286282 1.962116 0.764176 -3.197900 -7.366190 -3.281082 -2.969055 -1.429965 -3.311681 0.436554 -0.313239 -4.655574 -8.971291 3.652366 3.448970 0.978999 0.692282 -10.042813 1.157167 0.849118 -1.049790 -3.142638 -1.037531 0.103530 0.190963 0.827444 -6.812185 0.214230 -4.269541 3.089100 3.085039 -1.597185 -4.275594 -6.065223 -0.603843 2.094709 -2.108045 1.758230 -4.641381 3.714921 2.541918 -0.072859 0.497709 -3.531308 1.841018 4.679423 0.087868 3.990530 -0.424628 -1.323263 0.209953 3.772679 3.551325 0.313201 -4.102427 -6.887581 -7.086161 -1.596673 -2.371615 -5.760214 1.314160 1.881766 -1.959006 -10.269318 -1.926536 0.631896 2.123193 -5.504645 -0.018042 -3.590380 2.045745 1.781118 -0.372120 -5.862398 0.969824 -2.427916 -8.051314 -1.716117 1.648735 -5.983033 5.404369 -1.385237 -0.990510 2.531230 -1.812220 -1.692727 2.496695 -5.996987 2.629121 0.050901 -4.511935 -3.739116 -3.122101 -0.145424 -1.723711 -1.434117 2.257674 -5.072903 3.953566 -6.145168 2.183351 -1.578362 0.428893 -2.391966 -3.931938 1.243001 -2.131673 0.524216 -1.287613 -5.433428 1.595821 -2.346821 1.317283 1.003895 -2.384664 -2.338594 0.535024 -0.814042 0.285091 -2.564747 0.826411 -0.630327 -3.015869 -3.009429 -0.739664 -0.420338 -1.167246 -2.076626 -4.408431 2.921829 -1.917675 -2.547750 -0.548027 -5.010886 -3.868167 -4.022616 -6.816306 1.856318 -1.349145 0.141761 1.703338 3.013834 -3.441524 -0.247120 0.895750 -3.236091 4.802547 -5.217109 -0.375302 -4.439299 1.965045 0.939489 -1.148521 -4.619620 1.474804 -6.357514 -1.411330 -0.334959 3.015671 -2.138891 -0.561117 -0.668330 2.965417 4.884069 -7.011949 1.788689 2.624863 1.605373 -1.476553 0.309140 -1.440578 2.063280 5.089020 3.193402 1.958962 1.038109 -3.786740 0.101472 2.727470 0.435089 -3.354393 -1.068346 3.928700 -0.508957 2.962985 -0.235513 0.102901 -2.045385 -2.344963 1.149562 -4.865953 -1.346926 -6.423129 2.062684 -7.150879 0.779608 2.693348 0.411887 1.511608 -3.436323 0.632895 1.294924 -3.110133 -2.516253 -2.523052 0.176551 -0.985802 3.198111 3.566141 0.835747 2.814442 -2.299326 1.845146 6.481463 4.168496 -3.155700 -5.571304 -0.856521 0.814373 -0.394439 -2.622297 -4.740824 -1.023135 -3.485060 -0.268733 -0.394146 3.468353 -3.025302 0.567265 -2.376889 1.548705 0.071678 4.018552 -0.203261 0.108509 4.155178 -2.797693 3.900861 -2.418874 2.527648 -2.070291 -6.258367 -5.855807 -2.058129 3.003718 0.067011 -2.093003 -0.687175 5.778326 -3.997135 0.072705 2.247175 3.224721 0.525313 -2.418618 -0.119117 -3.259829 1.433014 -6.055190 1.696356 1.511237 -2.531620 -1.297270 -0.355673 1.957531 -0.759090 -2.395054 -2.372288 -3.431417 -5.755979 0.989597 -5.728952 -0.609410 -3.271564
-0.667791 -2.701438 3.841285 -2.858178 -2.129001 0.018741 -2.092198 -1.442714 4.332329 0.118889 3.945850 -2.337648 -4.036705 0.519453 1.123593 2.372740 -1.882277 0.354635 -3.355616 1.221122 -0.447697 -1.037899 0.429410 -0.384779 -1.030492 -2.239874 -2.619087 -4.697348 -6.171365 -1.841274 -1.113148 0.329035 0.643023 -0.267540 -2.517828 -2.277552 -0.656424 1.325863 0.703778 1.798435 0.037441 -0.695965 -2.201692 -4.284046 -2.525907 -1.534574 -1.440265 -1.664861 -0.835098 -3.109973 -5.157712 0.667393 0.103551 -4.526397 -0.104355 -0.742054 -0.346746 -2.147827 -3.196378 -0.151826 -2.306556 -4.023338 -4.572377 -7.070176 -4.911576 1.099449 -2.572808 -2.977000 0.560954 -1.267390 1.475536 3.589302 -2.073860 2.307422 -2.865540 -2.666432 -2.252873 0.858384 -1.602671 -1.673734 -2.929034 1.975445 -0.590887 0.703098 -1.345343 2.066590 -2.347678 0.467160 -0.710821 0.417598 -2.090528 -2.875705 0.333704 -0.473065 -2.949207 0.039562 -0.736050 -0.725319 -3.161074 -0.083528 3.188365 -5.512019 0.649902 -2.550869 -3.733222 -4.764167 -2.300974 -1.334068 0.072016 3.003856 0.565037 2.242331 -4.748224 -3.660076 0.120453 -1.302006 -0.999879 -1.046279 2.173751 -0.706211 -3.974439 -2.631177 -1.849395 -2.046515 -1.589003 -3.899786 -2.747599 1.799190 -0.289723 -2.566349 0.015489 -1.668078 -0.367809 -1.469281 -2.595004 -0.010388 -0.186763 -0.908124 -7.077072 -1.974140 -4.020052 0.735525 3.585568 1.764082 0.833454 0.011575 -2.421031 -6.138744 -3.972811 -4.515045 -1.699454 -2.124601 -3.069552 3.687783 -1.635371 -2.666638 2.274579 2.399822 -1.903043 -0.784538 2.400028 -0.015308 1.684820 -1.781289 0.636374 -1.212812 0.966955 -2.509492 -1.335905 -5.632035 -2.248933 -3.614285 -1.590296 -2.222860 3.773168 -2.111958 -7.534393 -3.628361 0.055151 0.993745 4.000290 -1.896633 -3.386531 -2.354139 0.618598 -4.283287 0.219148 -0.783104 -1.416307 -1.549053 1.123397 0.560064 -0.934639 -2.645862 0.238373 -0.463770 -2.852653 -2.719505 -1.858723 1.665714 1.029012 0.231805 4.093740 -1.975886 -0.875303 -2.572337 0.545391 -3.588534 -1.867672 -0.815980 -3.237269 -0.147521 -3.861769 -4.179680 -1.543962 -0.699430 2.152181 -3.826913 -2.523019 -1.903410 2.151819 -2.858241 -3.104165 4.438316 -1.502586 -3.024514 -4.594480 -2.929299 1.925134 -3.178468 1.141832 -1.843227 -5.899718 0.509587 -2.474310 -3.179793 -3.419708 -6.068125 -2.893886 -0.924555 -0.836716 1.733322 -3.994402 -2.605767 -3.161772 2.413925 -0.542342 -0.473675 -1.088097 0.796016 2.443684 0.458650 -0.916358 -5.092122 -1.293032 4.132003 2.690723 -3.294254 -2.591652 -3.668697 -1.260461 -2.142501 0.146081 -2.011786 -0.904818 0.709195 0.523786 -3.442285 -1.206303 -0.607385 1.278789 -0.135401 0.173960 -3.265744 -4.953458 -2.730313 -2.774406 -0.811993 -1.883054 -1.855129 0.809595 3.476683 2.257643 -1.794918 2.144245 -0.881559 -1.753541 -1.689383 -3.548478 1.344151 -3.449983 -3.317259 -0.884014 0.745353 3.387600 -0.675142 3.707783 0.635569 -0.684172 -0.128121 -1.764246 -2.786685 -2.740914 -4.681450 0.337266 -0.923375 -0.618640 -2.065399 2.440758 -2.241937 2.241089 -4.900034 -2.561271 -0.314705 -6.953009 -0.303387 -2.940965 -2.459818 -0.038842 5.862820 -5.459074 2.133371 -3.100396 -0.132357 -3.403004 -5.149352 -1.079734 -1.601526 -0.940062 -2.513225 -2.421174 -0.568125 -2.603252 -3.740856 0.698584 -1.924580 -3.220079 -2.771564 1.770476 -2.156374 -1.325083 -3.869987 -1.043392 -2.669498 -2.521351 -1.278966 0.230026 1.462723 -0.624685 2.434017 -0.503291 -1.617300 0.328796 -4.092483 2.255628 -2.492232 -2.567294 -1.566197 -4.282789 -4.203883 3.837713 -1.772821 -0.108512 -1.593105 -1.281491 0.753095 3.031006 -0.889948 -2.735673 -4.158239 -1.745510 -1.532694 -2.351512 4.541002 -2.037296 0.105656 -3.504573 3.698487 -2.311077 -1.963138 -1.562715 0.830052 -6.697057 4.049301 -5.017543 4.262520 -0.262665 0.053575 -3.356038 0.915679 0.211710 -5.343888 -2.913177 1.123848 -1.772329 -0.318111 -3.678874 -0.424732 -0.125965 -1.864248 -2.423704 -4.609589 -1.487543 2.022081 -3.220874 -0.859737 -1.775802 -1.941970 -3.307369 -5.644962 0.511113 -2.457137 1.337445 -0.015851 -1.679204 -2.851420 -3.329362 -1.994406 1.856761 0.016043 -1.074543 -0.010890 -4.864874 -2.898368 -0.731448 -3.850725 2.481461 -0.748664 -2.174705 -4.586888 1.375952 0.766689 -2.068033 -4.569625 -0.154940 -2.485669 -2.791604 -3.286406 -2.223502 -4.311385 -4.331677 -2.031456 -0.323739 -0.300401 -1.564697 -2.501220 -1.006634 -4.106999 -0.963724 -1.736591 -0.049945 -3.194546 1.477821 -3.582876 0.470755 -2.623294 2.110782 -2.836555 0.967433 1.899479 -0.694680 -4.092478 1.850726 -1.382374 -3.452835 6.674096 0.445241 0.586354 -0.730157 -1.523273 -1.547372 -2.831305 -1.263547 4.054748 1.483462 -3.054570 -1.644004 -1.719539 -3.834649 -3.778123 -0.703760 -0.165149 -1.363046 -1.304392 -0.289972 -3.013308 -0.807910 -0.121334 -1.407037 3.841947 1.718209 -3.804038 -0.961212 -1.533210 -0.484879 -1.046001 2.777591 0.318410 -1.395241 0.512056 -0.804875 -0.525740 -2.842914 0.907386 -2.286173 -1.727777 -1.040586 -1.549589 0.187367 -1.912759 4.087624 -1.897382
-2.894982 -3.149624 0.680991 0.040886 0.504469 -1.414682 0.125901 1.858162 -4.305447 -0.967400 -5.486746 -0.134229 4.316589 -1.401418 -4.772792 1.049924 -0.124693 -1.603001 3.207365 -3.865772 -1.295733 -2.330907 2.057306 -1.702591 0.302917 2.163579 0.124991 4.830492 -1.363277 1.885934 -0.610699 -1.966284 -0.369373 -6.321100 -3.699547 -0.343658 -1.446808 0.032563 -0.372925 -0.827257 0.211807 -1.688916 2.174644 -4.202527 -1.556001 -0.312162 -1.989525 -2.229203 -2.577892 -3.850123 0.200864 -2.316004 -3.514306 -2.720301 -2.147822 2.074125 -4.120705 -4.424799 0.911135 -0.270759 -0.364100 1.326726 -2.864727 -0.181152 -4.214696 -0.703961 -0.657280 -1.677820 -2.360373 -0.515203 0.009276 -2.296084 -1.723890 -0.337750 0.076761 -2.966221 -1.907494 -3.536426 -1.397869 -2.000565 -1.062491 -0.421330 -1.502739 -2.385501 1.002734 -3.189347 -2.239519 -1.693601 -0.988092 -0.857477 1.407411 0.248499 -2.468113 -2.881190 -1.797653 -2.628705 -0.246784 0.741697 -0.998885 -0.954922 -1.233192 2.976667 -3.850059 0.123010 -3.292798 -1.084725 -1.402961 0.492081 -2.362857 0.664139 -5.293859 -2.567208 -0.125060 -2.649090 -3.120692 -0.532589 -1.719439 0.921190 -0.769307 4.225024 2.687833 -4.899626 2.889854 -2.157038 -0.217041 -1.021439 -0.610716 -1.242324 -6.718406 -3.011463 0.679238 -0.273877 -2.613937 -3.327350 -3.168738 -1.473227 0.893764 -1.479606 -2.280687 -1.548670 -3.904045 1.374851 3.183324 0.292460 -1.310615 -0.771911 0.391607 -4.376662 0.045108 -2.392781 2.359172 -2.118511 -0.865786 -2.212127 -0.618435 -0.059540 -1.650534 -5.750782 -4.068600 -3.145775 2.072222 0.637814 -6.758594 -0.079256 -1.363635 -2.739083 -2.407440 -0.650555 1.695709 -0.625629 -0.781100 -2.020037 -5.095064 -0.968857 1.416606 1.070710 -3.912790 2.266611 -4.668682 -1.264583 -5.034236 -4.384689 -1.888622 -3.438422 -2.044679 0.698685 -3.195136 -2.408972 -2.969631 0.162394 0.099809 -2.627504 3.410484 1.745560 0.438004 -2.727430 -2.845770 2.042136 -0.952842 0.113854 -2.116071 0.970741 -4.620835 -2.561263 -5.983821 0.603484 -2.686953 -0.608506 -3.132064 -0.078344 -0.185518 -4.958894 -1.134906 0.114987 -2.848929 -0.543882 0.849926 2.329787 -1.874260 -1.515773 -3.561459 -1.309428 -0.242724 -0.903938 -1.803797 1.152061 0.326071 1.366802 -2.496764 -2.857448 -2.070129 1.569773 -0.053697 0.568061 -1.597673 3.670670 -3.732404 -8.602727 -3.191904 -2.278096 -3.310545 -3.058771 -4.379289 0.681203 -4.163893 -0.673925 -0.683246 -5.524049 -0.848380 0.793952 -2.247337 -2.136883 1.379040 0.862953 -6.272631 -2.623691 -4.290134 -0.951871 -2.526594 0.709081 -2.333093 1.301864 -2.031429 1.069681 0.190043 -1.852387 1.003528 -3.304636 -4.263406 1.181926 -6.696379 -4.762334 -1.679423 0.210615 -3.177107 2.376388 -0.327948 -3.146166 -3.906741 0.044964 -0.306568 -3.318190 -1.395221 -1.353791 -4.401805 -1.557607 -1.334053 -0.540631 1.756498 -4.976488 0.792811 -1.272574 3.060880 1.376770 -3.723685 -2.364722 -1.526662 -3.539437 -1.089047 -0.960935 -3.062253 -7.307140 -1.271085 0.083618 -3.148724 -1.897526 -6.064849 -0.092697 -0.702489 0.913156 -0.167196 -7.339324 -0.671700 1.013806 0.329988 -2.273468 -6.723648 0.918298 -1.069749 2.789835 -1.770244 0.138991 -0.736103 0.899884 -0.389692 -4.081290 0.874768 -0.539537 -3.917894 -2.050506 1.602316 -6.015584 0.885449 -0.281810 -1.419290 -3.697040 -2.083491 -3.209864 1.734581 -3.209034 -0.027518 1.607731 -3.753583 2.902648 1.548571 -4.976660 0.658924 -4.077871 -3.954654 -3.794425 0.581367 2.454579 -1.311490 -5.490482 0.748361 -3.532935 -4.387417 1.305180 -1.861441 1.693748 -4.669533 -0.992984 1.133680 0.113597 4.525037 -3.066637 -3.343406 0.249621 -1.657447 1.967831 -0.928922 -0.796930 0.347298 -3.828661 -1.680237 -1.956884 -0.321236 -1.261364 -2.799458 -0.001869 -0.093974 1.125671 -2.138121 -0.314559 -4.302396 -1.183741 -0.500597 0.243232 4.206843 -2.504712 -4.729468 -4.795984 -0.357298 -1.711292 -3.493570 1.029149 2.488807 -6.136316 -1.597258 -0.649540 -1.916305 -2.050469 -5.436933 -4.671853 -2.792002 -1.663658 -2.610273 -1.748522 0.010388 -2.922051 -3.619569 -1.950876 -2.432446 -2.114165 -0.128855 0.247943 -0.506315 -0.445499 -0.682393 -1.401578 -3.997284 -0.765258 -2.559109 -0.960743 -0.306301 0.605441 -1.682415 -0.814854 1.511506 1.182969 -0.413199 -0.583373 -1.988443 -5.435381 1.332590 0.646715 -1.769088 0.459109 -1.251480 1.826740 -2.976489 0.331822 -3.445030 -1.269030 -1.341815 -1.746104 -2.267893 -1.809702 -1.020672 -4.862493 2.646670 -2.566200 -3.113198 -2.591679 -6.029019 -1.138167 0.779198 -0.282598 -1.496731 0.809422 -1.309308 -0.611280 -3.037376 -0.705812 4.531296 2.892351 -1.654877 -3.479452 0.683793 -1.170045 0.118685 -2.496255 0.804904 0.895629 0.400320 -2.690073 2.538724 -3.766848 -3.089076 -1.627532 -2.567706 -0.689401 0.612756 1.477605 -2.718177 -1.384542 0.535438 -2.785316 -2.637957 -1.739644 0.026152 -1.061256 -2.335377 -3.039569 2.571440 -1.759687 -2.210029 0.937683 -3.744522 -1.323507 -0.181261 -2.683024 1.064508 0.653166 -3.463460 0.190940 0.152915 -1.582490 -3.934008 0.156049 -1.066732 0.479592
-1.297809 -0.976664 -1.519983 -1.031472 -0.582537 -2.827341 -2.526502 -7.529799 -3.265477 -1.778508 -3.565219 0.124325 -4.893002 -1.452125 2.593667 1.855801 -1.529055 0.050932 -4.000791 -0.425133 -4.559764 1.049155 0.350464 1.963277 -1.678395 -6.048641 -1.267830 -3.769495 0.812186 -0.633937 -4.309118 -3.302187 -3.197570 -0.713175 -0.100999 0.336595 -1.735507 1.465876 -0.380956 -2.968819 -2.244387 3.448186 -4.790261 -3.108502 1.531602 -2.888224 -2.141369 0.137324 -0.806817 0.509382 2.164023 -2.347908 0.177329 0.529594 -1.304205 -2.020645 2.144356 -5.399135 -3.413632 0.958923 0.379895 -1.051205 -1.632366 -4.038237 -1.330921 2.351980 -2.001353 0.850997 -0.113568 0.068610 -0.691213 1.283587 -1.545715 -0.621185 0.251976 0.923972 -2.109070 1.683326 1.166168 -1.502868 -0.308454 -4.039706 -1.053606 3.821253 -2.213659 3.005896 2.195335 -0.535211 -0.068090 -2.565720 4.112804 -0.035891 -3.465082 -3.729889 5.803273 3.805709 -5.489734 0.046454 2.396568 -3.387470 0.240417 0.380918 0.623536 -1.131781 -0.336205 1.221508 -4.022817 0.256315 0.614991 -4.430974 -1.448171 -1.920211 4.057325 -2.635538 1.647887 0.150860 -0.933353 1.595410 -2.092634 -3.370899 -4.658972 -4.478383 -2.095271 -3.535658 -0.801385 -2.149221 4.124054 -6.166990 -5.354681 2.201995 -2.593363 0.835293 -4.058067 1.691819 0.409821 1.169959 -0.841770 -0.541230 -5.176750 -0.710667 -1.405827 -4.716428 -0.924147 -1.701718 -2.174021 -1.514010 -5.154517 -4.317783 -3.027411 -0.121866 0.301045 -2.180860 2.709216 1.504174 1.233264 0.875195 -0.059250 1.247778 -1.410053 -4.562490 -2.869995 -2.616883 -1.790831 -2.446537 -1.158217 -3.338392 -2.099699 1.905086 -4.638627 1.516793 1.155820 -1.679015 2.882169 0.804137 -0.129297 -1.187350 -5.019466 2.139682 -0.102681 -2.629199 3.342398 -3.805064 0.597133 -4.270010 -0.125743 -1.108451 -0.732858 -0.404167 2.295376 3.311211 -3.353251 -1.172965 -3.493193 -2.462784 -1.000019 -1.721536 1.359577 -0.979243 -0.774110 -0.967681 -1.301900 -4.384924 0.850537 -1.389110 -2.848242 3.490399 -1.504534 -1.086827 -3.317699 -1.197728 -4.647551 2.591314 0.556058 -3.655439 3.980571 2.318857 0.933268 0.600222 -1.385439 1.548289 -0.230295 1.100592 0.256113 -1.529417 -2.851781 -1.886562 -1.015974 0.975223 -1.396088 -5.768857 0.180161 -2.060281 -2.673070 -0.284479 0.020179 -6.940834 -1.772501 -5.931994 -0.661995 -1.939563 1.476283 2.672078 -0.808707 1.301782 -1.160057 -2.868906 -3.508832 -6.817109 2.097477 0.383670 -1.069112 -3.207930 -0.357883 0.152806 -1.281753 -3.791594 -6.188530 -0.165691 -2.691450 1.253495 -7.308718 0.298237 -0.617928 -1.797968 -1.553595 1.292196 -0.138602 -0.212074 0.426521 2.441614 -2.923963 1.338340 0.071068 3.313185 -4.104201 -0.598389 -2.041136 0.636787 1.882814 -1.385745 -1.525018 -1.316398 0.133462 -1.798689 1.264081 -2.515534 1.206519 1.086387 -0.781390 -2.116287 0.703156 -3.563255 -0.397919 -6.169783 -0.971240 -1.873301 -3.717788 -0.221970 -0.076761 -1.729168 0.015703 -0.469963 0.199735 -3.603546 -0.706454 -2.040991 -2.649061 -0.690146 -1.136312 -5.315714 2.862272 -1.007557 -0.525436 -0.908942 -0.265672 -1.894243 0.278821 -2.785216 -1.526309 -3.152519 -4.082322 1.785121 -1.450259 -0.802926 0.910752 -4.753697 -3.670872 4.016103 3.002316 -1.991943 0.117531 2.021742 -3.233586 1.190036 -4.990748 2.246742 1.878832 -1.676547 -0.590843 1.615006 3.319857 -4.834287 2.846275 -3.153025 1.105715 -4.307235 0.779149 -1.123413 -1.526570 -2.106326 0.461115 -0.935301 -1.042577 -0.388875 -5.127465 -3.147272 6.385880 -5.343449 2.369044 0.254676 2.407241 2.102735 1.699465 -2.012967 -3.014176 0.401810 -1.992130 0.579339 -0.113943 -2.529203 2.425140 -1.136775 -2.133152 -1.317056 -7.876138 2.030027 -2.873114 1.282921 2.443600 -3.431526 -1.044452 -3.496562 -4.093175 -0.133326 0.313384 -4.435222 -0.274834 -2.683885 -0.357632 3.066696 -2.126224 1.675781 -3.094076 -0.287003 -2.713257 -0.393397 -0.613379 2.227814 -0.991496 2.453640 -1.990237 -0.384628 -1.561696 -0.618322 0.587243 -1.487560 3.107869 -5.155431 -1.089927 -0.974149 -2.024742 2.275948 -1.084927 0.494799 0.420914 -3.614623 -2.647624 1.707177 -2.287040 0.298517 -2.340150 -1.646293 -1.205495 2.013934 0.169054 -1.003926 2.719596 -1.926012 1.221705 -1.873983 -0.569908 3.130792 1.966297 -0.172017 -2.129082 -1.708139 -1.058226 -6.683171 2.078284 -5.554900 -2.674331 -1.809205 -1.226395 0.979560 -0.360240 -1.955840 0.054239 5.264321 0.148744 -3.423564 -1.409782 -2.373205 -2.175855 4.085358 1.092435 -2.175486 -3.556064 -5.337089 -3.677646 -1.846826 -4.321053 -4.521488 -2.091811 -3.685477 1.038790 -3.879577 1.075108 0.348135 -0.606134 -0.380252 -1.704792 -3.820600 0.350317 -1.427752 -1.214110 1.799382 -3.611135 0.010822 0.437867 0.827570 3.186213 1.489298 -3.037217 -1.447753 4.313721 -0.583561 -1.237622 0.593816 3.618482 -1.226322 -0.942214 1.806776 6.450130 -2.101442 -2.236179 -1.753911 -4.993104 -0.186684 -2.796563 -0.263122 0.602934 -2.849577 -3.772036 -0.813492 -0.600091 -1.180680 -3.631971 -1.743211 0.141819 0.375687 -2.023124 2.516386
-1.485354 -0.308391 2.259908 1.183737 1.038988 -1.080015 2.007230 -1.320887 -3.089165 -2.689102 -4.175940 -1.843285 -0.448660 -1.015165 -3.796018 2.175418 0.754990 -0.078969 -1.325298 -0.812387 -4.007412 -1.898814 -2.855368 -1.419542 -0.608063 -2.993896 -0.289305 -2.520108 1.687052 -0.489823 0.033074 -3.383769 -1.198747 -1.490012 -1.748254 -0.068014 -1.495048 -3.571656 -1.406842 -1.140278 -0.818841 -0.421441 1.962231 -1.643300 2.360982 -0.492168 -3.382884 -0.804055 0.120986 -2.037360 0.724485 -1.426824 -1.730495 -0.424127 -1.895884 -2.025330 -1.418249 2.504503 -2.496509 0.468686 -1.438986 1.309822 0.543552 1.853334 5.862490 -2.364442 -0.665111 -1.773768 -1.443384 1.823279 -2.113032 -2.960196 0.803269 -3.360373 0.215840 5.341521 -0.508931 1.872763 -0.263392 1.631868 4.400037 1.028663 0.361107 -1.659935 2.098450 -1.558745 0.577117 -1.307953 -0.566786 -0.802602 -2.024756 1.436904 0.941986 0.887078 -0.041242 0.166093 1.899136 -0.333747 -0.815279 -2.266043 -2.299788 -1.329307 -1.099382 1.386233 -1.316132 3.467029 0.699578 -2.390887 2.714568 1.572613 -3.102479 -1.676042 2.769492 1.850581 -0.688581 0.844638 -0.890278 -0.350209 -0.518995 -0.223390 -0.235037 -2.395244 1.462608 -1.150593 -0.003764 2.971125 0.827916 -1.629408 -0.802508 0.713566 -0.879703 -1.670868 -0.767721 0.996022 2.591028 -1.557310 -1.319541 -0.243997 0.739124 0.490197 0.080509 -1.532406 -3.601302 -1.961670 -3.362791 -1.686169 3.621815 6.374899 0.499688 -0.255429 4.430265 0.446216 -2.948426 -1.375792 -2.629215 1.412842 0.420403 1.142641 -1.110545 -0.881249 -3.567173 -1.014547 -1.511351 0.438724 0.266521 -1.518322 -3.205798 0.743328 -0.760897 2.927271 0.261328 0.312927 -0.732499 -0.084343 -0.217659 3.528009 4.341991 -2.150979 -1.296357 -1.908549 -2.062407 -2.427149 -2.991280 1.181244 -0.912769 -0.331326 0.511875 1.347685 -0.792098 -2.369121 -4.307569 0.050758 0.156719 0.233903 0.115250 -0.299738 2.009768 0.662073 -3.506560 -0.460859 -2.412580 -4.065532 -0.834272 -5.805424 -2.386458 -1.409568 -2.356219 4.256111 -1.529860 1.505419 -1.427781 0.682636 0.015032 -1.738463 -0.288017 1.695169 -2.647697 4.637759 0.265920 -1.263922 -3.330850 0.646401 -0.411404 -0.363611 -0.710959 -0.231310 2.650954 0.559634 1.922548 -3.862298 -0.925580 -1.952287 2.009829 1.141373 -0.353985 0.245718 2.109583 3.831992 1.172647 -3.348213 -2.999398 3.941500 -3.265776 1.207399 1.110722 2.338045 -0.341333 -4.115996 1.069270 -1.567004 0.494849 -2.980047 -0.996802 3.774096 -4.036201 -5.439130 -0.397274 0.213302 -0.074947 1.708349 1.407523 0.234846 -2.884757 1.958260 -0.527603 -1.318172 -2.254799 -1.026307 -2.586398 -0.877350 -1.438766 -7.444977 0.766008 -0.666619 1.250731 2.116092 1.571251 -1.717805 1.519386 -0.890497 -0.366972 -0.221595 -2.377979 0.785313 0.400213 -3.608222 -2.622256 -3.020076 2.309467 -1.547805 0.846537 0.508052 0.237102 -3.169293 -4.084216 3.453011 -3.763842 -1.029318 -1.530679 -2.062018 0.649836 2.977855 2.169977 3.123036 -0.788068 0.955648 -3.218352 0.384313 -0.574740 -0.627514 -4.682272 9.917710 -1.735142 0.668435 1.240536 -1.707340 0.478513 2.938279 -2.491778 -3.260690 3.477007 -3.063266 -3.759583 -1.291665 -0.900578 0.612704 1.672119 0.844787 -1.686603 2.331151 -0.261843 -5.433562 -0.234227 -1.010945 -1.760151 -0.513835 -1.202042 0.047256 -0.550675 -0.275935 1.210045 2.295745 -1.728365 0.484095 0.113192 -2.671782 -0.336373 -1.463636 -1.870090 -5.508747 -3.919045 0.731460 0.459286 4.302034 2.236183 5.897692 0.320076 -1.141929 1.561160 2.983870 -3.411045 2.356623 -0.756913 -1.697937 -2.447429 -1.251419 0.055505 1.343990 -0.044557 1.351878 -0.080008 1.389517 -0.135510 0.357807 -5.017970 -0.619048 -0.323749 -2.334174 -0.631624 -1.318872 0.255546 -0.811914 1.061198 -2.427992 -0.628907 0.116012 -1.020595 1.704078 -0.149151 -2.452134 -3.980064 -3.569696 -0.056345 0.776897 -2.979756 -5.177209 -3.222460 -1.599759 -0.399283 -0.094793 -0.895325 -1.722895 -1.442310 -3.616327 -0.988622 0.715361 0.095121 5.096222 -0.493830 0.300998 2.399982 -1.993510 -3.017250 -1.570019 0.494904 0.271678 -1.838852 -0.758173 1.676055 -1.541279 -1.354515 -0.872300 2.331630 -1.267232 0.246205 5.512065 -0.803028 -1.241105 2.552442 1.033479 -2.478470 -1.522837 2.831765 0.062805 -2.696563 0.474158 1.302801 1.343297 1.051597 1.761581 -0.936750 -1.258253 -1.561517 -2.234019 -0.927690 2.325843 -0.773436 3.939409 -0.444352 5.757397 -0.633151 1.913037 -1.723488 -1.473213 2.402898 -0.752143 -1.619446 -1.078876 -1.358559 -3.447630 0.790691 0.724132 -1.754810 -1.127612 -3.720051 -0.757843 -0.670552 -4.536266 -0.300297 -1.663488 -0.280623 1.023148 0.199608 -1.386060 -1.178870 -3.348858 -2.476631 0.144033 -2.899306 2.689954 -0.897473 1.596216 -2.051163 -0.070304 0.500956 -1.298460 -0.370832 -2.745576 -1.405257 -3.524317 0.055680 2.379104 2.187232 5.055692 -2.334647 0.967610 0.954856 -1.263561 -0.856997 -1.240125 0.133372 0.069813 -1.240678 -0.697353 -1.243949 -0.249375 -2.643484 -4.676225 -0.668903 3.384884 -0.276744 0.071387
4.113425 -0.707225 -3.346833 -2.900182 -1.679115 -0.309043 -1.811961 -4.824145 -1.424398 3.622340 -3.765855 1.535582 -6.765285 -3.410610 -0.226017 -4.135382 -2.402647 0.062529 -6.141107 1.154603 -2.830874 -3.052734 1.157704 0.410366 0.295808 2.099280 -3.242416 -4.890497 -3.602143 0.209585 4.782346 -0.241655 0.934878 -4.421969 -3.213982 -1.979019 0.900468 -0.399873 0.824262 1.533936 -1.767683 -2.939515 -6.934408 -3.351066 -0.547481 -2.647542 -0.015563 -1.186148 0.779015 -1.034661 -0.320483 -0.435306 0.560450 0.118279 -1.912634 -5.128064 1.169682 1.847252 4.806299 -1.114761 -1.382759 -4.257466 -2.930231 -5.114071 -4.550811 -2.297973 -0.884308 -1.687480 3.035080 0.628355 -3.467055 2.520161 -0.883103 -4.799098 -1.705720 -2.002314 0.901776 -0.723910 -4.445520 -3.326145 -0.381106 -6.934452 0.451834 -0.734810 1.640990 -0.053623 -1.536616 -0.298061 2.299513 -0.531230 -4.585506 5.004277 0.965230 1.655051 -0.469030 -0.151765 -2.425783 -2.607353 -0.815680 -2.456677 -4.752418 -3.388184 -2.728578 -2.716370 -3.015777 -3.836333 -0.575031 -3.114599 -1.053718 -2.063502 -0.142646 -1.152090 -5.373572 1.709763 -3.449295 -0.079404 -1.080151 -0.005536 0.700735 -4.262080 -1.978591 -0.341938 -2.270284 5.243315 0.534622 -4.210398 -2.341631 -0.216704 -2.102646 -2.194229 -0.943245 2.927721 -3.768260 0.629381 -3.870190 -4.589572 0.335181 -3.558019 -4.211144 -0.067470 1.406229 1.233911 0.567082 1.624822 2.510066 -1.032778 0.912010 -0.842345 -4.143772 3.095410 -3.879952 2.253858 -3.243676 -1.450063 -4.555589 0.034936 0.889962 1.424160 0.830277 2.472022 0.148956 0.523984 -0.394753 -6.182602 -0.671508 1.175108 -0.299223 2.783357 -2.267202 -1.912622 -0.981041 1.278446 1.922859 -3.053851 -1.700952 -2.536676 -7.107699 -0.225835 1.115422 -3.239192 -1.434382 1.939914 -3.854549 -2.573357 0.224621 -1.308279 1.448441 0.617309 1.540944 -2.083637 -1.881783 -2.121475 -0.832582 0.206241 -0.820544 -1.189582 0.183941 0.502834 -6.774704 -0.821386 -2.945401 -0.977792 -0.959375 -2.868243 1.564275 -2.827080 0.755810 -3.052732 -0.883220 0.187896 -1.625007 3.926375 -1.255623 -4.296381 -1.262164 -2.351217 -3.580409 -4.168276 -1.882965 -2.488459 -1.187109 0.310399 -4.523659 -1.554638 1.177608 -4.077559 -0.568955 0.850199 3.290148 -3.164272 0.350007 -6.317433 0.206846 -1.214712 -1.562520 -3.714296 -2.202339 -1.422087 -3.779829 -1.531997 4.368439 1.141071 2.105781 -2.636954 3.204814 -4.704401 0.123971 -0.622377 -0.044285 -2.520202 0.298072 -2.906522 -0.585510 -1.229777 0.390556 -4.138536 0.192637 -2.675830 -3.211535 -2.456066 -3.073534 0.350887 0.905813 -0.120802 -1.652537 0.868837 0.614260 1.033743 -1.002919 -2.323444 -4.065799 0.851032 -0.152064 0.710168 -2.804166 -0.885188 0.940335 -1.822701 0.140023 -3.414854 -0.029293 -4.102100 2.030450 -2.322453 -0.203660 3.167049 -1.789007 -0.581300 -1.747226 -1.001857 -2.198720 1.926672 -4.643683 -7.374450 -2.028895 0.656340 -0.892455 2.631831 -3.636501 1.880561 -0.804972 -7.900540 -2.180780 -2.168096 -0.037308 -0.947350 2.365424 -2.425585 -4.186647 -2.588341 -2.737698 -1.306689 -3.767840 0.189023 -8.076509 -3.977433 -6.870479 -2.781736 0.421315 -1.965317 -2.509086 3.816087 -3.306022 -0.888546 -1.451153 -1.300054 -2.428244 -0.593299 2.648412 -2.136615 -3.380935 -0.487575 -1.562085 -5.706633 -1.528202 1.610627 -4.125822 -0.388424 0.075202 -2.187665 -1.176134 -0.849510 1.139929 -2.737073 -3.518800 1.267208 -3.099197 -0.761653 3.744164 -1.018661 -4.606648 -4.453901 0.410345 1.807761 -4.710089 2.358427 -4.387172 -3.191856 -3.836723 -4.161701 1.582327 -0.599327 -1.454294 -2.908320 -3.913786 2.566426 -5.331124 0.491569 -3.017281 -1.838400 0.185098 -0.473348 -2.506249 -7.268034 -6.152818 -1.263222 -9.833935 2.947708 -0.906004 -3.826400 -0.349363 0.044874 -2.734747 -6.341031 0.962013 0.740488 -3.271830 -8.024493 -0.878940 -1.481046 1.131153 0.621856 -4.031172 -7.560167 0.118329 -4.666566 -1.373397 1.151252 4.155864 -1.613759 -0.363298 -3.184432 -0.709962 -1.942681 -0.371856 -3.088163 -1.335578 -5.075870 -3.311299 0.119374 2.771545 -1.838584 2.111109 1.156589 -3.643729 0.811824 -2.510381 -1.997130 -3.407805 -0.973327 1.115848 0.301708 -2.219660 -2.698675 2.811794 -5.316480 0.750563 -1.707430 1.090356 -2.442754 3.370480 -0.159356 -3.053593 -0.571312 1.866487 -3.680251 -3.704896 -2.331572 -2.123589 -3.093682 0.477460 -5.157949 1.110019 -1.517216 -2.814270 -6.300875 1.657744 -1.500576 1.108841 0.178342 -0.262179 0.210391 3.017210 -0.876791 -3.294279 -3.139905 0.969160 -3.050290 0.865214 -2.360827 1.374564 -3.199199 -0.538227 2.938992 -4.569372 0.318598 0.144251 -4.769691 -0.049932 -0.394514 -2.010980 -3.696517 -3.876211 -3.652151 -6.006261 5.767084 -3.674925 -1.834705 -0.078499 2.729942 -6.769001 2.231232 2.880011 -5.906717 -2.419161 1.292983 -2.416533 -0.026589 1.480533 -1.181441 -0.410797 0.577904 0.346009 -1.297381 -1.872689 -1.767831 -3.021603 0.306363 2.410847 0.569600 -5.522283 0.318135 -4.019550 0.617525 -0.235543 -3.319411 -0.155249 1.269858 4.734103 -3.883775 -2.784461 -3.029667
2.111465 -0.211751 0.049334 0.759046 2.972187 2.116369 0.384327 3.667908 -2.444108 -0.993065 -4.215056 -0.622422 1.327403 2.064975 1.759624 -4.458004 4.092417 -2.348988 -0.921479 -3.033564 -3.543382 -0.568009 -2.938024 1.019359 -1.294980 -2.786024 0.791722 -0.427239 -2.804680 -2.571439 -3.664480 -2.889722 -1.059611 -1.347527 1.384111 0.407800 -0.753824 -0.706310 0.910290 -3.329960 -5.477168 0.060662 -2.100394 1.095929 -0.989894 1.856618 0.808781 2.070188 -0.916864 1.905862 -0.904591 -2.772218 -3.130792 -0.807358 1.909821 -0.715044 2.182744 -4.554365 0.250719 -7.095450 -3.121645 -1.468718 2.330188 -5.699298 -7.305687 1.723948 0.483174 -0.973426 1.037707 -1.677114 -0.820400 -0.416456 1.376063 1.125847 -3.417716 -0.045292 1.352424 1.995231 1.885542 0.496231 -6.885264 1.575800 -1.705525 -5.207499 -2.740798 -2.150639 -0.798172 0.294086 -2.048621 -1.827251 -1.523902 -1.932754 -3.995737 -3.444246 -1.004835 -2.634858 3.415899 -4.909849 0.276625 2.079071 -0.770681 -0.541147 5.765547 -2.292448 3.395986 -2.785127 0.835300 2.704434 -2.801576 -1.244175 2.156376 -2.161515 0.370329 -4.588471 1.778350 -4.688148 -0.146582 -2.171171 -2.757395 -0.634975 4.431705 3.925327 -1.851990 1.072096 -0.980295 -0.876114 2.314849 -6.171607 1.253339 1.033706 0.238716 -3.317075 1.123700 -2.814955 0.314217 1.459795 0.843874 0.007564 -1.560095 -2.979654 -0.405605 -2.872774 0.211177 -3.057196 -4.160795 -1.194540 1.030447 -2.943877 4.099304 -1.807639 -0.462417 0.765549 2.342434 -1.282639 3.832802 -2.626561 -2.858361 -2.988211 2.364983 0.557149 -3.386654 3.462924 -1.046517 1.825743 0.256907 -3.695420 0.974134 -2.066764 0.816979 2.572495 -1.071927 4.110872 1.665318 1.047003 -7.692107 -3.960244 -1.588421 -1.509080 -3.275203 -1.244512 -2.549201 -3.622099 0.503387 3.146955 0.258255 2.057925 -4.652998 -1.292883 -0.197695 -0.108216 -1.501326 0.160635 -1.080797 -3.073996 -3.259763 3.861255 -2.949617 0.034153 -5.431626 0.970854 2.828144 -2.260487 -1.890684 -4.612671 -0.292317 -0.962021 0.245851 -0.808157 2.368701 0.290574 -3.565387 -0.918320 -2.493587 4.370813 -1.438773 -2.242988 1.726053 1.066694 -1.400729 2.314072 2.310725 -0.272726 1.880705 -3.576917 0.879621 1.217141 -1.666172 -0.168762 -0.773074 -2.679782 -4.868678 -3.681899 -1.727314 -0.705440 2.642216 -1.566036 -0.122072 -2.754671 -2.011175 -1.042813 -3.035740 1.206749 -2.495985 -2.455188 -6.704415 -5.741538 -1.038943 1.728283 -2.711427 0.365668 -4.704540 3.228031 -0.170429 -3.807308 -2.264270 -1.644220 -1.288057 -1.113860 -1.051595 -0.507957 1.171994 -0.045143 0.379088 -4.154941 0.129291 2.631583 0.349111 0.773752 2.284234 3.307923 -0.139767 -4.053780 -1.939279 -2.110441 2.797504 -0.861660 -2.919038 -1.864439 -0.856680 3.751846 0.191083 -3.745728 -0.925117 0.809627 -1.529551 -1.344376 1.895621 1.984024 0.883329 1.859125 -1.620747 0.442666 -3.296807 -0.736142 -0.817889 -3.697775 1.706001 -3.295694 1.560582 0.277175 0.314291 -4.409165 2.006202 -0.645255 -0.215351 -1.393500 1.440342 -1.607625 -2.500007 0.640538 -0.733937 -7.207497 1.101919 -1.340191 -2.536359 0.158862 2.666034 0.416976 -2.807417 -0.027360 -3.877258 -2.650116 0.634468 1.813193 -0.758397 -1.758839 0.628689 -0.651596 -0.783290 2.514541 -0.445639 0.961379 -1.227211 3.442715 1.234345 -1.502742 2.874188 -1.525800 -1.065073 1.258479 -3.120556 -5.906299 0.747766 2.261880 0.456823 -3.872493 -1.099962 -1.980955 2.714462 -3.982241 2.713087 0.579429 2.582053 -1.695474 -2.675023 -5.393160 -1.861036 0.859281 -0.655330 1.502942 1.191641 -2.250478 -1.283976 -2.688750 1.407035 -0.671994 -4.435821 -3.030663 -1.630692 0.807103 -1.060681 -2.288944 -0.779351 -2.674409 -7.652653 1.625534 0.450115 -3.222401 -0.933311 0.508305 -1.076699 -0.640408 0.281066 0.481316 2.736785 -3.446274 0.127735 -2.696038 -4.062173 -0.673814 -0.943444 0.821305 2.086389 2.275707 0.060137 -0.288936 -0.263349 -3.947660 -1.792517 -3.302177 3.658982 2.069673 -3.172189 1.479086 2.290138 -0.877042 0.903800 2.679682 3.006653 -3.472191 -2.345813 0.307471 -1.811372 1.079279 -1.102112 -3.244233 3.470870 0.630585 -1.312407 -1.032522 -2.478136 -1.179130 -0.668873 1.444826 -3.849521 -5.269137 -2.089421 2.068160 -3.818641 1.282340 -3.313058 -2.628707 -1.602623 -0.300352 -1.591711 4.746662 1.198964 2.487795 -0.378356 -1.930088 -6.099892 3.677931 -0.953745 1.764429 3.652109 -0.856139 -2.240850 -6.186932 -1.674365 -0.541540 -1.709559 -2.912711 -2.022244 2.019513 -3.509432 2.160551 -4.808311 0.348463 -0.122297 -3.307680 -3.732987 -5.635127 0.129908 1.378618 3.997876 -1.321765 -2.661852 -0.622275 -1.105270 -0.962093 -0.528240 2.067674 -2.757123 -3.056427 -4.331863 -0.987577 -1.062486 -0.065158 2.085531 -0.598019 -0.992467 -4.463124 -2.314217 -1.422372 1.085535 -0.449913 -1.852573 -2.360956 -0.012151 -0.885856 -3.196249 -6.764823 1.202834 0.278463 -1.714539 -2.693410 -2.147123 -1.308717 -3.883189 -0.039874 -0.482509 0.291918 -3.354835 0.848875 -0.247864 3.507242 -1.322370 -1.370861 -4.995643 -0.321510 2.965724 -4.089470
-4.931940 -1.494106 -4.985232 -2.615608 -1.303012 -1.430071 -0.818733 -0.241672 -4.095717 -0.830027 0.483913 -0.166036 -2.690677 -1.091888 -1.071157 -1.894152 -3.655751 -1.154527 -2.372783 -1.562128 -0.605063 -1.053413 -5.035408 -1.839998 -0.374139 -2.713561 -1.727393 1.652228 -2.625456 -1.671353 -0.113640 -2.086889 -3.915842 1.181026 -1.447383 -0.779163 0.005772 1.324146 -1.880197 -2.126333 -0.053738 -1.778810 -2.880170 -1.967196 -1.791997 -1.111542 2.019505 -2.462910 -2.381214 -1.458688 0.100060 -1.665621 -4.442564 -1.386215 0.650689 -3.325380 -3.267917 0.619543 -1.877425 -1.852680 0.259143 -2.043168 1.710747 -0.427936 -1.729388 -0.974176 0.244069 0.160645 -2.700468 -1.099763 0.273290 -2.394223 -0.263087 -2.425573 1.013875 1.063183 -0.150571 -4.634150 -1.571894 -3.952461 2.848033 0.716775 -1.240073 -3.031264 -1.255514 -1.870842 -1.764777 -2.883152 -1.554428 -0.586496 -0.833327 -1.878015 0.142350 -0.219027 -0.366898 -1.773973 -2.161327 0.194089 -0.372531 -4.380767 -3.591390 -3.602692 -2.973534 2.171873 -2.672131 0.069905 -1.807016 -0.836827 -2.437336 -4.977530 0.857411 -2.967380 -3.710001 -3.255079 -1.895735 -0.104835 -1.086109 -0.955071 -1.526880 -2.379336 -5.123278 -1.685883 2.453923 -2.912930 -2.462277 -0.528977 -1.169859 -2.757154 -2.008853 -1.815695 -1.224645 -0.480758 -0.494559 0.477732 -3.619888 -1.801042 -2.720141 -1.574016 -0.194151 -1.434857 -1.554038 -1.137807 -3.651553 -2.192768 -0.420779 -2.632474 -1.685559 -3.399661 -0.960393 -2.510610 -4.664512 -1.962844 -0.856224 -3.888254 -0.654151 -0.552083 -0.310576 -0.525947 -1.532799 -1.750741 -2.473898 -5.187231 3.599020 -0.232622 -4.183904 -2.472870 -0.631021 -2.272836 -4.849203 -2.718795 -0.299805 -3.694711 -3.034478 -0.056721 1.488938 -1.049311 1.666889 -3.527005 0.418135 -1.106735 -4.088684 -1.747852 1.780803 -1.390351 -4.297240 -1.537680 1.359040 0.632115 -0.023948 -2.080934 0.444722 -1.150518 0.333032 -2.822502 -1.102322 -3.428183 -2.262123 -1.191711 -1.370338 -2.251992 -2.301560 -0.499505 -1.914719 4.516354 -2.132743 -4.729181 -0.146379 -4.633298 -2.484005 -2.314657 -2.856874 -3.360641 -1.583360 -5.053360 -0.911832 -3.579314 -2.962380 -3.135337 -1.157984 -3.643451 -3.501477 -2.691236 -3.286421 -3.800234 -1.283171 -2.507038 -0.458458 -1.892916 0.376237 -3.173655 -2.441884 -6.048161 0.178412 -2.248348 -1.921423 -1.350804 -1.356958 -4.767762 0.473151 -0.178062 3.924935 -3.636894 -7.213689 -1.620144 -5.520715 3.304512 -3.790860 -1.325922 -0.830857 -3.859969 -4.791614 -1.221505 -2.176634 1.462257 -2.176221 -6.839596 -2.112614 -0.641645 -0.410125 -2.346846 -2.479300 0.072397 -2.523636 -2.816049 -4.455982 0.002758 -1.100584 -0.842057 -4.414210 -3.468994 -0.884712 -3.114286 -3.334132 -2.175578 -2.739779 -2.047805 -3.027253 -4.381974 -2.497381 -3.141121 -2.367553 -3.656153 -2.568807 -2.843706 -3.678373 -0.586364 -3.126218 -1.090229 -4.386460 -3.475461 -3.887120 -1.899777 -1.251940 1.355939 -6.647977 -5.394404 -1.865633 -2.025411 1.065486 -2.591840 -1.107634 6.011842 -2.178340 -1.949815 -1.426024 -0.678555 -3.621948 -0.315684 -1.616048 -4.026184 0.386002 8.780719 0.466241 -1.531009 2.169472 -2.954767 -5.022929 0.259075 0.078398 -0.840730 0.831479 -2.002628 -0.267692 -3.398758 -1.193713 -2.849601 -2.520593 -4.774391 -3.805168 -1.873921 -2.068277 -2.940789 -1.095721 1.076608 -2.385094 -1.093280 -2.253547 -3.795298 -3.712887 -1.065436 -2.090007 0.963064 -3.461099 -0.232397 -4.338837 -3.829650 1.487107 0.388016 -0.304170 -3.825922 -2.985151 -1.368434 -2.041634 -2.979968 -6.516723 -5.174545 7.441935 -3.891254 1.001749 -0.967266 -2.656086 -2.403889 -1.203500 -0.144408 -0.979175 -2.437076 -0.145378 -4.153779 -1.415691 -0.729532 -0.350135 -4.969376 0.097734 -1.552611 3.185834 -4.487954 -0.083827 -5.105151 -2.785812 -0.685901 -2.151546 -2.776554 -1.532860 -5.958175 -1.442059 -3.165802 -0.265774 4.405056 -2.873893 -3.290769 -6.401762 -1.714103 -0.848979 -0.861684 -4.494307 3.610298 -2.401934 3.362425 -2.003313 -1.807693 -3.201891 0.201386 0.363754 -2.711092 -1.019216 -0.995180 -2.993398 -2.993560 -4.283510 -0.707008 -3.780634 -1.375417 -0.931319 -1.049930 -3.873704 -1.207595 -1.787700 -1.968135 -0.843371 1.927530 -3.389261 -2.684131 -2.242427 0.207275 -5.227593 -3.141240 -4.338098 -2.066389 -3.207593 0.030644 -2.581961 -0.314195 -1.469951 -3.991927 -2.447187 -2.442839 -1.743016 -2.553916 -2.309886 -2.382268 -3.810394 -2.427644 -3.106890 -1.743109 -3.864246 0.249875 -3.122669 -1.405181 -2.948810 -6.628384 -1.019176 -1.436827 -2.454507 -1.701057 -4.549298 -3.756068 -0.753607 -1.048833 -2.065027 0.335266 2.048786 -6.684501 0.221888 -2.873835 -0.719671 -1.290915 -1.720017 -2.882990 -2.374999 -0.936482 0.382856 -2.878697 -0.772222 -6.749277 4.453318 -5.064024 -5.773179 -1.361446 -3.441606 -0.831111 -0.980644 -3.249040 -1.909280 -0.664248 -5.026239 -0.200486 -0.649196 -1.295641 -2.808347 -1.260274 -1.076296 -3.072434 -2.648401 -4.265545 -0.715336 -2.171977 1.086201 -1.764869 -0.675305 -2.767109 0.605581 -0.949679 -0.780378 -1.472696 -3.634876 0.058471 -1.766666 -6.020842 -2.550967 -2.591827 -2.903670 -0.186959
-3.950673 -0.006357 -2.198364 -0.306326 -0.672730 -0.577441 -0.843854 -0.102258 -5.479736 -1.240567 -3.877145 -1.935835 3.177773 -0.143161 0.899827 1.453575 -4.652768 -2.680163 -2.162259 -2.278861 -2.100705 -1.142479 -3.447174 -0.550633 -0.442123 -1.610454 -1.623718 -4.694052 -1.171874 2.383114 -4.692482 -1.417311 -3.188930 -0.925847 0.690583 0.572305 -1.597137 -2.772800 -1.659484 -3.250253 -3.158736 -4.017861 -3.473256 -1.147107 -1.825598 -2.683080 0.401361 -2.029692 -3.693785 0.822393 -2.135105 -3.756733 1.357636 2.085087 2.251807 -0.614089 -2.283777 -3.336211 -3.227177 -1.353267 0.588699 -0.769478 -0.393579 2.427760 -5.741687 -0.027746 -3.716817 1.352204 -1.260961 -1.125057 -2.882148 -0.550888 -2.270574 -0.407156 -1.681930 -2.803436 0.257117 -4.873127 -1.017372 -0.632946 0.371590 -3.220797 -3.349320 -1.755533 -2.451562 0.074127 1.203687 0.078187 -1.495255 0.302466 -0.114409 -1.881015 -0.659211 4.218033 0.147681 -0.575923 -1.049110 -1.279258 -1.194806 -0.891387 -2.003733 1.068181 -4.584613 0.033780 3.320245 1.252449 -1.589255 1.636895 -1.566908 -1.934873 -4.447778 -3.150479 -2.505847 -3.441499 -2.220330 0.956444 1.113993 -1.169133 -3.481412 -3.154902 -2.810917 2.709053 -2.558024 -3.300200 0.264559 -0.710788 -4.904899 -4.878346 1.321342 1.069619 -0.446795 -1.986340 -2.858078 -3.465289 1.664812 1.505598 -1.032083 -0.749875 -2.758787 3.234549 -0.294316 -3.749875 -1.669844 -1.999183 -3.181666 -2.196462 0.118140 -6.082815 -1.936264 0.408341 0.190264 -1.324840 1.470715 -0.233743 -0.056906 -2.699306 -1.239853 -1.827490 1.224093 -3.544893 -4.219399 -1.716703 -1.696559 -1.215206 -3.095515 -3.772772 -2.552399 -0.081019 -0.090133 0.171412 -0.908100 -0.630348 -1.100106 -2.851166 -5.946493 2.423011 1.666942 0.801735 0.157924 -3.769242 0.569389 -2.122112 4.346776 3.181298 1.414580 -0.456033 -0.780475 -1.378645 -0.461714 -0.474180 -4.436919 -3.049171 -1.284654 0.322933 -3.041575 0.861740 0.687578 -0.078675 -1.688456 -3.290943 2.100918 -2.387114 -2.299789 1.738958 -2.492353 2.206537 -0.130973 -1.009550 1.308681 -3.115880 -0.002580 -2.192382 1.472720 -1.007271 -1.885055 -2.200396 2.946230 -1.066282 -1.650512 -0.720766 -2.662255 -2.085965 -2.375716 -5.887996 0.005582 -0.508617 -0.239870 -1.268856 -1.013242 0.313533 -1.645243 -5.711098 -2.878794 -3.286828 -0.034328 -1.665112 -1.369287 -1.741782 -1.410414 0.853949 -1.848824 -4.035766 -2.518241 -2.375432 -2.060393 -1.858090 2.207043 5.789868 -1.800955 -1.032082 -2.858360 -3.113476 -0.498001 -0.735570 -1.130481 -1.282170 -1.789485 -1.012636 -0.127598 1.308747 4.871852 -0.963958 -1.111540 -2.947703 0.991666 -1.935136 -4.327962 -0.247573 -0.231946 -1.102090 -0.875085 -2.242495 -0.144534 0.027969 -3.934582 -2.213381 -3.598021 -0.706224 -3.804911 0.940894 -2.294598 -3.005953 -3.532634 -0.258120 -1.276320 -2.182190 -0.515155 -0.543266 -3.286570 0.132286 -0.953629 0.976645 -3.335987 -3.780285 -0.748785 -2.738563 1.101213 -3.641293 -0.113778 -2.598510 -2.029054 -0.517653 -2.080866 -1.545386 1.095938 -0.801459 1.244736 0.080749 2.826827 -4.102677 -1.887618 -6.118094 0.172991 0.043719 -1.341455 -4.058544 -0.159715 -2.303050 -1.711066 -3.355618 -3.102167 -2.351904 -0.112752 -2.705464 -0.704373 -0.550612 0.401953 -2.535830 -0.880330 -1.325234 -2.136606 2.800981 -4.790127 2.422083 -0.181614 0.511093 1.544919 -4.795481 0.198254 0.181683 0.222012 -1.096940 0.144692 -1.695270 -1.772671 4.968025 -0.176441 -2.250580 -3.138686 0.139913 -1.893348 -1.859483 -0.855491 -2.110487 0.218894 1.336287 -5.765046 -3.138592 0.933220 -0.545321 -1.646238 -2.244077 -1.605017 1.341765 1.269742 -3.182332 0.715003 -1.031176 -2.722338 1.658804 0.855131 -0.176294 -1.551712 0.415720 -5.693763 0.100505 3.571904 0.311187 -0.945609 -0.581329 -1.531692 -3.222984 -1.110965 -3.091452 0.024753 -3.634546 -1.636471 -2.042391 -1.044565 -1.724340 -3.113560 0.331531 -3.234041 -5.121559 -2.871578 -1.177645 1.076437 -0.907980 -1.512656 1.783347 -1.837654 -0.357802 -1.524842 0.112494 1.182071 -2.961384 0.012383 -3.160266 -1.210535 2.959938 -3.483473 -3.386477 -1.169341 -0.618567 -1.627031 -2.500930 1.369183 -1.180300 -3.169022 -0.570758 -0.629464 -2.379008 -0.614369 1.682663 -3.607651 -0.409223 -4.428156 -2.169031 -4.532406 -0.104820 1.085313 1.418834 -3.023603 0.327153 -2.632906 -1.039647 0.530817 -2.056819 -5.002601 -0.521236 -6.391007 -0.957131 -1.082724 -0.087174 1.207915 -0.417505 0.490833 -1.511294 -3.362738 -2.347911 -2.655305 0.377558 -2.046388 0.825616 2.496158 0.433435 -4.826502 0.286313 -1.290663 -0.713998 -3.256610 -4.360423 -3.508554 -1.783762 -5.101019 -2.736580 0.702787 0.457677 -0.654076 0.167168 -2.318014 1.191383 -0.874297 -1.484077 -3.107956 -0.654657 -3.059858 -0.654467 -0.355538 -1.709927 -0.319648 -3.804617 -1.945356 -2.677678 0.446357 -0.473675 -0.436759 -2.111469 0.593221 -2.657251 -2.087487 1.389873 -2.533524 -0.516616 -3.332676 -1.558242 -1.645512 0.422629 -1.219878 -1.283337 -0.123888 2.865038 -0.043718 -0.500910 -0.486057 -1.199697 -1.898449 -3.556004 -1.838995 -2.112184 -0.269152 1.244492
