0.531603 0.851807 -0.642035 -0.658712 -1.210534 0.300970 0.395322 0.994668 0.411933 0.449298 -1.459786 -0.359759 -0.016217 0.331806 0.344133 -0.737850 -0.695162 -0.096744 -0.196653 0.798753 0.080778 -0.169972 0.125571 0.461695 0.013024 -0.189329 0.036887 0.412321 -0.065035 -1.295194 0.278065 -0.391606 0.346605 1.066952 -0.542614 -0.774070 0.784836 -0.211714 -0.172950 -0.004345 -0.187328 -0.208386 -0.382018 -0.500546 0.160246 0.256589 -0.486286 -0.068134 0.656134 -0.518755 -0.354519 0.329284 0.530828 0.211516 0.356541 0.264128 0.146565 0.749917 0.263442 -0.545219 0.291519 0.898559 -0.309763 -0.646989 -0.268912 -0.265781 -0.148110 -0.786409 0.614318 0.253063 0.230381 0.670780 0.753863 -0.648965 -0.020203 0.590403 -1.013613 -0.198084 -0.190878 0.195377 -0.250067 -0.183211 0.605549 -0.614787 -0.953508 0.188827 0.168990 0.515705 0.170397 -0.085325 -0.051032 -0.046000 0.222269 -0.037927 0.338416 0.481429 0.380302 0.492592 0.789365 -0.374994 -0.758241 0.666378 -0.623849 -0.013098 0.207469 -0.219162 -0.138779 -1.080492 0.057268 -0.093226 -0.705504 0.899925 -0.437002 0.119929 -0.417722 0.353518 -0.307158 -0.495084 0.576255 0.954511 -0.527568 1.193904 -0.924685 -0.098373 0.267699 0.368059 -0.020301 0.090357 0.664010 -0.882627 -0.033759 -0.920379 -0.608166 0.237239 0.554074 0.361439 0.007412 0.544225 -0.675589 0.370031 0.053169 0.191087 -0.530065 -0.449256 -0.442474 0.193874 0.473660 0.081670 -0.105357 1.416834 0.955334 0.437277 -0.456246 -0.277229 -1.202512 -0.455886 0.303904 0.422596 -0.289898 -1.028078 0.356708 0.555298 -0.909785 -0.937084 -0.096398 -1.048486 -0.531617 -0.358568 0.271838 -0.819326 -0.528189 -0.862234 -0.036418 -0.566885 -0.991644 0.812385 0.143430 -0.180853 0.004753 0.273244 0.448205 -0.012829 0.072828 0.104630 0.297035 -0.306112 0.019574 0.609114 -0.943629 -0.034544 -0.693714 0.334797 -0.539629 0.362502 0.782050 0.505016 -0.078922 -0.262502 -0.161084 0.134411 0.163262 0.131410 -0.848414 -0.361055 0.146512 -0.563283 -0.277177 0.128369 -0.423054 -0.297002 -0.533469 0.147680 -0.243684 -0.384116 0.746388 -1.563505 -0.321672 -0.387789 -0.168263 -0.416610 0.200528 0.162458 0.052602 0.715065 0.239674 0.088051 0.370218 -0.303503 0.141407 -0.064362 -0.380934 0.058780 -0.414402 0.864442 0.205024 -0.699864 -0.068914 0.413983 0.613004 0.462924 0.715163 -0.445926 -0.601988 0.096991 0.425115 0.044055 -0.244229 -0.052240 0.009775 0.329560 0.372685 0.001234 -0.189583 0.446253 -0.040419 -0.353958 -0.494708 -0.169523 -0.396009 -0.214797 -0.013570 -0.375568 -0.720797 0.580087 -0.422853 0.082177 -0.267718 -0.140552 0.707188 -0.026478 -0.052901 0.097159 0.133729 0.327760 0.297555 0.311291 -1.123292 0.191957 0.699915 -0.122134 -0.705392 0.310201 -0.401455 -0.393437 -0.294278 -0.386501 0.638647 0.720345 -0.117839 -0.034722 0.815244 0.277307 1.066531 0.514128 -0.566139 -0.248937 1.179845 1.456541 0.326161 -1.025456 0.354853 -0.286565 0.237537 -0.982881 0.342097 0.089644 -0.144599 0.204726 -0.593986 -0.098272 0.390805 -0.067223 0.161909 0.773173 -1.444743 -0.980200 -0.375477 0.256043 -0.303171 0.874298 -0.590137 0.645432 -0.675528 -0.606042 0.544040 -0.362878 0.463972 -0.553346 0.566175 -0.656767 -0.099539 -0.185630 0.041094 0.512322 0.263743 -0.242779 -0.159084 -0.281401 0.271048 -0.399334 0.257644 -0.094871 0.541752 -0.306321 -0.064862 -0.249192 0.228358 0.656372 -0.150356 -0.329446 -0.703363 -0.426916 -0.421630 0.181786 0.164909 -0.552965 -0.151488 0.410346 -0.488246 -0.303079 -0.403144 -0.163026 -0.450701 0.761702 -1.112649 -0.641085 0.027246 -0.027469 -0.510491 -0.014922 0.337809 0.704586 -0.111239 0.018364 -0.261988 0.416755 0.796287 -0.528332 -0.151280 0.007987 -0.698642 -1.031411 -1.086003 -0.225161 0.113657 -0.034540 -0.042845 0.148603 0.427053 0.524589 0.215066 -0.038783 0.037441 -0.184672 0.036853 -0.593941 -0.178763 0.750549 -0.316080 0.777054 -1.239355 0.290645 -0.076292 0.081792 -0.040312 -1.039410 -0.498151 -0.185914 0.497565 -0.689961 0.504254 0.139434 -0.634336 -0.731382 0.861965 1.059131 -0.066163 -0.282191 0.123114 -0.309150 -0.313569 -0.344225 1.454850 0.117446 0.402548 0.236060 0.157399 0.257455 0.671480 -0.191215 0.112107 0.522109 0.618876 -0.309728 -0.033912 -0.275084 0.340015 0.476910 -0.131666 -0.058617 -0.005508 0.234060 0.878611 -0.313326 -0.356852 -1.234939 -0.548697 -0.136337 -0.162833 0.197260 -0.406400 0.218622 0.157077 0.493781 -0.016554 -0.052773 0.538125 0.040696 -0.368863 0.312986 -0.085399 0.112720 0.591810 -0.654106 0.359480 0.205132 0.701102 0.305561 -0.154492 0.385129 -0.313935 0.618498 0.293705 -0.271137 0.372147 -0.459054 0.180999 -0.870382 -0.106445 -0.333264 0.533152 -0.036940 -0.584385 0.022199 -0.511467 -0.024862 0.825594 0.046860 -0.133855 -0.357572 0.922797 -0.979342 -0.621309 -0.258670 -1.095819 -0.002394 -0.476985 0.069032 -0.198197 0.193900 0.269334 -0.414623 0.739579 0.479652 -0.073107 -0.115952 0.537294 -0.876184 0.403824 -0.373052 -0.275972 0.746726
-0.650598 -0.837637 0.617030 0.512680 1.154467 -0.475023 -0.589214 -0.825265 -0.303052 -0.561064 1.370386 0.208105 -0.051704 -0.488652 -0.405347 0.770679 0.760046 -0.042161 0.133159 -0.894167 -0.001627 -0.030320 -0.075839 -0.539565 0.001039 0.147520 -0.002222 -0.548801 0.157967 1.296005 -0.453901 0.319678 -0.350758 -1.051890 0.568804 0.797909 -0.806242 0.186822 0.263291 -0.113211 0.261442 0.145500 0.326084 0.501898 -0.344558 -0.360894 0.218497 -0.142625 -0.733668 0.513788 0.454697 -0.523872 -0.616481 -0.155959 -0.391812 -0.409293 -0.248971 -0.849600 -0.301648 0.463281 -0.393016 -1.129803 0.229464 0.547002 0.258574 0.322405 0.070767 0.712160 -0.700898 -0.451965 -0.221311 -0.832439 -0.791016 0.454599 -0.145591 -0.516475 0.967253 0.018186 0.193094 -0.247681 0.257225 0.048294 -0.563102 0.668641 0.961154 -0.149589 -0.159394 -0.666455 -0.233869 0.135762 -0.186687 0.055049 -0.236238 -0.114987 -0.399731 -0.434975 -0.463265 -0.627352 -0.876372 0.285951 0.697650 -0.761278 0.639634 0.069537 -0.291537 0.120576 0.114333 1.068105 -0.069599 0.133706 0.665379 -0.962583 0.366197 -0.193808 0.271844 -0.403581 0.325197 0.472477 -0.616953 -1.018633 0.313670 -1.312875 0.872963 0.083471 -0.425818 -0.616500 -0.088539 -0.060724 -0.733775 0.718406 -0.117036 0.836710 0.375151 -0.253439 -0.641125 -0.534397 0.083063 -0.751409 0.699500 -0.525877 -0.106842 -0.354879 0.461603 0.418680 0.400025 -0.305084 -0.554547 -0.187162 0.040627 -1.203647 -0.723897 -0.474664 0.328411 0.219397 1.114786 0.466313 -0.436750 -0.502343 0.217603 0.642390 -0.499181 -0.670494 0.789515 0.884109 0.078260 0.809974 0.513704 0.280580 -0.323338 0.836191 0.390058 0.771342 -0.025998 0.531451 1.077928 -1.091149 -0.165170 0.302814 0.017312 -0.376156 -0.476425 -0.028204 0.009249 -0.121131 -0.339369 0.260299 -0.058111 -0.626660 0.803045 0.001096 0.749868 -0.213906 0.515260 -0.464532 -0.851473 -0.709442 0.008079 0.183238 -0.019998 -0.344967 -0.204711 -0.248407 0.868526 0.132979 -0.333997 0.363784 0.297385 -0.145364 0.328360 0.210147 0.540251 -0.255993 0.215830 0.393356 -0.907212 1.623927 0.310046 0.153606 0.049742 0.281100 -0.350960 -0.307558 -0.121765 -0.897386 -0.416190 -0.199226 -0.600430 0.340493 -0.240732 0.070884 0.542008 -0.135409 0.501738 -0.942376 -0.240486 0.634829 0.096672 -0.615252 -0.860532 -0.550734 -0.818528 0.412791 0.508008 -0.288041 -0.536885 0.049447 0.099769 -0.140476 -0.133254 -0.356831 -0.411993 -0.113950 0.121994 -0.454203 -0.064211 0.246788 0.466338 0.039849 0.331572 0.237794 -0.132071 0.292884 0.526703 -0.639610 0.321084 -0.110729 0.213586 0.050340 -0.827606 -0.085032 -0.017936 -0.103789 -0.057309 -0.429209 -0.362524 -0.413710 0.970989 -0.380512 -0.653036 0.066895 0.778897 -0.519085 0.499615 0.313130 0.263889 0.347326 -0.690977 -0.850659 -0.017683 -0.011206 -0.755422 -0.329720 -1.095976 -0.630171 0.460390 0.240758 -1.159861 -1.351262 -0.388797 1.127407 -0.305764 0.310328 -0.072699 1.055123 -0.538452 -0.219779 0.168795 -0.281229 0.565370 -0.048993 -0.411016 -0.001196 -0.280885 -0.889190 1.465772 0.742403 0.217012 -0.123093 0.196090 -0.877496 0.608983 -0.736132 0.609024 0.570810 -0.604741 0.134767 -0.549165 0.466350 -0.505306 0.614792 0.018042 0.138934 0.023619 -0.569857 -0.492627 0.148013 0.131254 0.063315 -0.526910 0.223571 -0.478742 0.068340 -0.479156 0.242454 0.058607 0.129801 -0.334248 -0.665424 0.102692 0.041017 0.631394 0.338388 0.389110 -0.365989 -0.179691 0.521059 0.106886 -0.578417 0.471131 0.200986 0.289577 0.030583 0.324651 -0.890428 0.981301 0.565355 -0.005842 -0.044802 0.375414 -0.001908 -0.367956 -0.701768 -0.122026 -0.045784 0.190984 -0.383255 -0.935037 0.382240 -0.035013 -0.064921 0.748824 1.090155 0.987153 0.316789 -0.151966 0.053719 -0.137694 -0.317300 -0.608384 -0.611043 -0.305779 0.045312 -0.090280 -0.008648 -0.026261 0.616837 0.130062 -0.867302 0.260728 -0.824281 1.181921 -0.237185 -0.041633 -0.105602 -0.009545 0.980309 0.377485 0.152814 -0.507860 0.735153 -0.523629 -0.230442 0.514401 0.763475 -1.036576 -1.018323 -0.131790 0.283492 -0.228845 0.285882 0.271450 0.320939 -1.126113 -0.022424 -0.432651 -0.263134 -0.186766 -0.077345 -0.763658 -0.031261 -0.284384 -0.553748 -0.544875 0.296009 -0.079942 0.241350 -0.192957 -0.664617 0.201650 -0.092065 -0.008111 -0.277274 -0.753877 0.221522 0.189356 1.050026 0.363225 0.164457 -0.026081 -0.243982 0.312719 -0.347152 -0.248519 -0.585905 -0.166673 -0.088727 -0.587444 -0.118249 0.152369 -0.260881 0.062058 -0.250027 -0.728942 0.752608 -0.356561 -0.207443 -0.782033 -0.398813 0.032346 -0.525024 0.198377 -0.864691 -0.449254 0.311825 -0.487712 0.396292 -0.178363 0.571730 0.051041 0.282544 -0.854409 -0.043070 0.526037 0.007308 0.425782 -0.253762 -0.939677 0.001992 -0.080041 0.310800 -1.176320 1.008303 0.588661 0.260054 0.964218 0.007865 0.349891 -0.284416 0.085783 -0.280798 -0.166282 0.265367 -0.917076 -0.598369 0.088724 -0.014742 -0.657589 0.786684 -0.278786 0.383109 0.051374 -0.671259
