-8.0615 -28.3643 4.8208 -7.5740 -5.1581 -9.7497 -7.5859 -20.7709 12.5709 1.1609 -8.6851 -3.1988 4.6068 10.3031 -15.3824 -6.8723 8.8706 14.5023 -5.9214 -16.8094 -6.5112 18.8619 -18.9604 0.3314 -19.6418 -4.5920 -10.7689 -6.9599 -2.5398 -0.6695 -5.9709 -13.6441 -20.1834 -13.3642 3.0093 -10.8075 -16.3906 -12.6098 -15.3428 -19.2322 -17.5658 -15.4563 -21.1611 -6.9539 -4.2410 4.9723 -3.1911 -15.9514 5.2745 -0.2577 7.5552 -1.8410 -8.7124 -19.8863 -28.7948 -15.6540 -21.3193 -4.9299 -2.9790 -6.4993 -25.0994 -18.2042 -23.3427 11.3746 6.1557 -14.8753 4.5889 -5.2852 -12.0376 -3.0312 -1.8966 5.8270 -26.5839 -5.7798 -15.2614 -19.6436 -4.5141 -9.3867 7.3285 -11.3224 -13.4819 3.2283 -2.3978 4.1431 6.9648 -11.4296 -22.6235 -5.6595 -18.0311 -11.1589 -4.8978 7.3102 3.6060 -21.4950 -12.6854 -15.0586 -10.3643 25.8413 -13.3800 -15.0297 -10.4879 8.7302 -16.5002 -22.1257 9.0676 -16.7447 29.5727 -4.1837 -3.9911 -14.9179 -10.1120 -3.4060 4.4287 -12.4772 1.8303 6.0690 -12.7922 -0.8780 -13.1412 1.5793 -23.8691 0.0503 -27.8633 -12.8956 -7.7956 -12.5703 -12.5450 1.1841 -6.9945 3.6707 -13.2033 -6.5365 -2.9819 -15.4113 -4.5812 -21.6558 -2.7087 -2.1227 -13.2888 -12.0063 -2.4363 -33.4265 -4.5061 12.1863 -15.0878 15.2435 -14.3105 -7.5215 0.3832 0.6395 -15.8756 -4.7443 -10.7833 -21.7869 -13.4690 -18.5058 -17.1947 -4.7525 -2.2503 1.7153 -23.3186 -1.6283 -7.9782 -6.4178 -17.3924 -3.4890 -6.9050 -6.8371 -10.7895 -11.6155 -11.2517 -14.4803 -12.3144 -7.3956 -4.8939 -14.2244 -16.3744 -12.2661 1.9338 1.4639 -13.0157 -0.3909 4.3583 4.9294 5.0054 -25.2455 -7.8130 -21.6779 -31.9620 -6.8460 -29.3961 -20.8671 -6.9306 4.3534 -8.8532 -10.0570 -0.0229 -23.4124 -5.9409 -8.1257 -23.4053 -9.2295 -13.4655 -4.8288 -3.0415 -5.0122 -9.1823 -8.5288 -2.1277 0.5096 -3.3557 -10.8747 -9.4918 -16.3415 4.1979 -20.7755 -0.9455 1.1364 -5.1086 -7.9157 0.4856 -9.5392 -17.1003 -0.1647 -16.1885 4.8673 -14.2739 -7.2456 6.8985 26.8026 -28.9821 -10.1818 -13.3479 -16.7199 -7.5879 4.6711 -7.1891 11.4303 -16.0829 -14.7226 -8.7709 -12.7157 -20.6980 -18.8430 -6.4061 -12.7091 -24.6128 -23.3788 -20.9501 -7.0889 -14.9236 -11.0956 -11.3810 0.6906 -14.2564 -21.0333 9.3318 -10.2996 -9.5950 -6.6126 -4.5835 -2.8312 -0.9989 1.8124 -14.1123 -22.8777 -10.7164 -13.0887 -13.9765 -15.5920 -11.5829 -37.8719 -8.7268 -9.3908 -5.0280 -11.6377 -33.5835 -7.3341 -15.0003 -19.5605 -8.4522 -6.0232 -19.1276 2.1729 -15.4697 -18.6348 -6.5102 -10.6688 3.9874 -0.0073 -11.1084 -23.4235 -13.1877 -7.3616 -13.2536 -21.6516 -6.3779 -19.9388 -8.1426 -5.6752 -9.2199 -24.9190 6.8990 10.3415 12.4404 -7.5547 -4.8860 -27.0326 9.2643 -3.7989 -8.1348 9.2133 -1.8278 -12.6053 -19.1643 -17.0779 9.6574 -15.5905 1.8852 -13.9157 0.4219 -13.8716 -6.4373 4.1495 8.3480 -11.1909 -4.3718 -7.8334 1.8677 -14.4467 -20.5022 -7.6716 6.5552 -17.2526 1.4757 -11.8434 0.2280 -17.7689 -6.3554 -0.9446 6.1493 -8.0373 -10.9098 -15.3933 -27.4731 -8.5766 -2.8704 -21.8852 -13.5951 -6.0320 -12.0763 21.1273 -5.0650 -7.3830 -9.0437 -15.3036 -14.7809 -8.1008 -15.0966 -6.3984 0.3460 -6.6271 -16.3358 -7.5217 -12.9443 10.5404 -18.1637 -20.2013 -1.0122 -11.0112 5.4734 -19.8872 -13.3653 -18.8931 -18.3777 -4.6914 -0.9994 -9.4956 0.8076 -0.3915 -10.0847 -8.0051 -5.3756 -3.2305 -8.2344 5.2315 -18.2308 -19.5397 -16.2474 -11.5201 -12.1937 -21.6248 -1.9622 -31.7948 -16.0516 -14.5801 1.0363 -20.6255 -21.8157 -3.1261 -8.6311 -3.1310 -13.6852 -15.5594 -33.0107 -8.6453 -13.9306 -11.5393 -2.1038 12.2222 -12.4083 -12.5175 -12.9707 -21.2616 -13.7962 5.6720 -8.8618 -8.8235 4.8237 -15.7102 -21.7622 -2.2443 -7.0583 10.4096 -3.2777 -15.0841 -7.6675 -7.7642 6.2893 -12.0339 19.3869 2.2386 -7.5289 0.9707 5.3732 -10.6048 -14.6107 16.1900 -12.1801 -8.5377 -2.9643 -11.5251 -1.4967 -6.4298 -22.3669 1.0081 -1.4426 -0.4966 -21.0784 -23.4932 -7.9394 -15.7142 -1.7605 2.5214 -13.2022 -0.6540 -7.8016 -20.5574 -16.5569 -17.1412 -22.4783 -25.5823 -14.0726 -11.7539 17.3892 -26.3647 -3.9139 -3.8218 -0.3379 -13.2275 -12.0809 -1.6961 -7.5978 12.5708 -0.1875 -15.3113 -1.0958 -21.1996 -6.8424 -16.4723 -8.8967 -5.3430 -15.4098 -6.1923 -13.7102 -4.3331 -15.2755 -5.4301 -9.5615 -22.5428 -11.2204 -16.6238 -3.0420 -2.5865 -25.7690 -10.9368 -2.4439 -22.7481 4.2522 15.0468 -5.2787 -5.4508 -8.2039 -7.7432 -32.1205 -8.9201 2.7215 5.0278 -0.5308 -4.7577 -11.4360 -10.2618
1.7315 22.9140 5.7244 -14.0854 -16.6491 -18.2485 6.3163 2.1230 -12.9289 -28.7809 5.3510 -14.4080 -16.5875 -4.8487 9.3226 -2.4571 -9.4243 -36.6425 -13.7106 -3.7597 2.8299 -13.4077 -12.0229 0.5990 7.6552 -10.3334 -1.1686 -1.6650 -17.5183 19.0160 5.4570 -9.8808 -6.0182 1.3197 -4.8150 -6.5500 1.0033 5.8076 -15.2237 17.6410 4.5757 3.0486 -3.5213 1.0564 0.1930 -7.1940 -8.9708 -7.7585 12.8878 -0.2128 -18.4038 -18.7386 -8.1370 -15.5671 -2.5509 5.4412 -2.4694 1.9590 -20.6960 -10.9165 -13.2707 11.5123 4.7811 -33.7168 -8.3733 -12.0500 -7.5014 -15.1861 14.0515 -1.8640 -2.9792 17.5328 -31.8311 -6.3120 6.1362 -0.9787 16.9412 10.5286 -1.3352 10.5679 -17.0923 -4.4193 -17.2619 -1.8817 -23.3885 -15.0452 -0.3916 9.5978 8.8541 18.7602 -3.4316 -19.8351 -5.9143 2.5772 2.1019 -6.8600 26.6962 -5.4345 2.6118 -4.8551 6.0958 -32.4426 2.0903 -7.9872 -8.5125 0.3193 -12.1209 7.4025 -6.5567 2.8116 -12.6674 4.0140 -21.3041 4.8842 -3.9520 -10.6210 -5.6587 10.7680 -5.8888 7.5120 -21.0641 2.9193 2.0425 6.3916 0.8494 -3.1630 2.7818 3.9477 -9.8813 -5.7005 -3.9531 -2.5479 -16.1491 -6.0522 12.8379 12.4087 -15.7053 -36.6009 9.1895 -3.5400 -12.6834 -12.2434 -14.5525 -5.1354 16.2973 -30.0266 -0.7411 8.5064 3.3444 -29.6002 -3.1853 -12.8097 4.2416 0.0957 5.9907 13.5569 17.9341 2.0724 -24.3568 -3.6612 9.5199 -22.1755 -7.0117 -2.4862 -0.6100 -28.0509 3.2648 3.2734 -10.0267 7.1348 1.2312 -3.0239 1.9535 -6.7964 -15.2192 10.7636 -3.3934 -12.1778 -11.2555 -16.8990 -0.7040 -17.5242 -11.9987 -20.5353 -12.5783 -17.1077 2.7367 24.8379 23.6441 -24.5586 10.8703 7.6010 -10.8629 -1.5062 1.0638 12.1330 -0.1509 7.9318 6.1110 -8.8999 -24.4778 -13.1086 -16.9769 -11.4292 -8.6931 -13.1017 21.9307 16.5365 -0.8765 -17.7710 12.3215 -5.6870 -10.9285 -20.5539 -24.5645 2.4700 -3.3281 -2.0439 0.8371 -1.7954 5.6287 1.0296 -14.9946 -8.5031 -9.6063 -16.3803 3.3142 2.2272 5.5040 -28.9215 -5.4826 -2.0155 7.3976 5.4706 -14.5809 -16.1259 -17.3902 -9.0343 -4.4377 22.3220 -21.9407 -15.4756 -15.0402 -7.8312 -0.3045 0.2488 -5.3330 -2.5239 6.9409 2.4537 -18.2345 -9.3108 11.6184 -20.3849 13.2949 -4.0918 -21.3361 0.5795 -6.0348 5.4450 -1.8650 -19.8325 -11.9151 9.4966 -9.3205 17.4352 -18.2177 13.1091 17.9748 5.1342 -20.2158 8.7609 3.3097 -14.9683 7.0029 -9.3012 -8.4878 0.4361 -22.2428 16.1375 -9.7282 -10.0192 -23.5495 -5.9864 -17.5440 -13.5327 2.1098 -24.8628 -2.8620 -10.6232 1.5551 21.4668 -0.1037 0.8256 -10.9101 3.5543 -3.2691 3.7311 16.2304 -3.8823 -20.9296 -2.8378 1.1265 -10.4995 -8.9447 -13.4231 -2.1660 20.3989 -6.1195 10.9040 15.1780 -0.6273 -4.3842 -12.9486 3.0062 -19.5015 -9.4275 2.2004 -7.0624 -2.1304 -0.6751 8.9895 -1.4740 -13.1994 4.1770 -4.5310 -4.4306 -5.7716 1.3304 -8.7250 -14.1312 -13.5518 -5.3120 12.6770 -19.0616 -8.0642 -7.4526 -5.5227 -23.3243 -3.0468 16.7372 3.2518 -6.7091 -13.2167 6.0083 8.4376 -7.2978 11.2967 9.0040 -6.7109 -12.2199 -6.3054 0.9360 -7.2041 -11.8358 -14.5119 5.6832 -0.1666 -0.7219 -10.2265 -13.2797 -10.2152 8.0374 -8.3912 2.2582 -10.3383 30.3670 9.6452 -4.2531 -1.4538 -21.2688 -0.2606 -0.5766 -1.8398 -10.9237 -1.4157 -19.4666 9.9217 8.3274 0.2193 -5.3693 10.8469 -12.0208 -1.7154 -21.6319 -25.4002 5.1642 13.5621 -2.1674 9.0778 -7.4808 6.5898 -19.8476 -3.5197 -8.5276 7.7477 -4.2435 18.3010 -12.8329 5.1851 1.5193 0.0644 -10.3821 9.4501 -22.8916 -8.3931 -10.7823 0.1387 0.8509 -8.4420 8.7662 11.0712 -16.5351 -19.6159 -8.3811 -10.7389 4.8673 -0.8462 -6.2730 -1.6227 25.6978 -9.7465 -3.3804 -33.5603 7.2615 -21.9180 0.7033 -13.4445 -21.8224 4.3382 -17.1017 -2.3335 -23.1626 -10.0897 -3.9949 5.6814 -15.3242 -5.9761 6.2453 13.8011 -9.1539 -1.9794 14.2598 -5.8119 -1.9308 -5.7932 -7.5836 -1.3313 -3.8811 0.1182 -0.3232 14.3140 -5.6417 20.1994 8.6223 7.1714 -5.3580 -14.6613 10.7164 -0.3893 -5.7980 1.2947 11.6985 6.0437 -8.1254 2.9350 -0.4018 -14.8335 -31.4903 -21.5551 5.9744 -29.4380 -30.8226 -0.9144 -18.3146 -32.7237 9.4011 -18.1652 0.8082 -5.5455 -18.1039 -11.0267 6.2989 -8.8274 2.4156 -5.3351 5.4451 4.7980 -22.1636 4.5379 3.5178 -8.3346 -19.3913 -9.5615 -4.3622 3.7121 -28.9874 -10.0124 -20.3946 2.9832 12.0650 -37.8739 8.1664 -18.1169 -1.3458 -3.2697 -17.1179 5.4530 -18.6354 -4.8660 -9.1636 5.8681
-12.6387 -9.2718 -5.2454 -1.9415 -6.7109 -11.9710 -11.3466 -23.7709 -14.5008 -1.9024 -7.4240 -9.5250 -8.7571 4.7308 -12.7449 -14.5215 -0.5331 2.5956 3.5954 4.8504 6.3182 -21.5080 1.3467 -14.7794 -12.0199 -6.8932 -21.5511 -17.4783 -20.2530 4.2133 -15.1011 -5.3900 -19.1300 -18.9458 -10.0054 -23.3536 6.8426 3.1176 -5.0629 0.5600 4.9478 -8.7999 -13.9300 -19.2230 -16.5431 -1.7682 -8.8015 -9.0082 2.4392 -2.4311 -15.7470 -8.9260 -10.9934 -4.8934 4.7772 -5.1579 -2.4957 -6.9908 -7.7439 -11.0958 7.1404 -8.1589 -10.2118 -20.5385 1.6263 -16.7131 -11.2026 -4.2109 -9.5223 -13.3409 1.4694 -34.0175 -10.0497 10.7995 -7.8877 1.1989 -2.4884 -2.8287 2.8855 8.2964 -7.8683 -0.6050 -17.9360 -4.9190 -13.6955 -12.9783 -14.1432 -8.5441 -7.6300 3.8911 4.0763 -15.1088 -4.8613 -5.8839 -13.6003 -32.3882 -14.4618 -10.5072 -11.5119 -11.8838 -1.2297 3.1721 -4.1275 -5.2939 6.9326 -13.6150 5.4920 -6.7052 -11.8731 -4.7299 -6.2212 -8.4764 -9.4584 -2.8439 -8.4323 4.7420 -13.9458 1.4509 -10.0983 1.2149 -4.9009 -5.8702 12.2753 -0.5167 2.7746 -13.1530 -1.9742 -6.8492 -14.7508 3.1756 -1.2949 -14.6983 -12.1371 9.0320 -0.5713 -10.1331 2.2694 -22.7323 -12.7916 -17.2876 -10.0046 -15.4907 -9.0511 -0.9464 -6.7996 -7.3817 2.4254 -18.1234 -2.1061 -8.8823 -9.9635 -3.4912 -6.2425 -14.5748 -15.0633 -5.4504 -1.9307 6.5061 -4.2432 2.4792 -15.3444 -24.1774 -4.2552 4.3661 0.6548 -17.6017 -13.4027 -11.2021 -14.7419 -3.9680 -4.9317 -14.3931 -8.4156 -4.5215 7.5394 -15.8844 -10.7665 -5.6217 3.0771 -10.5107 -11.6701 12.0298 -16.4832 -7.9752 -2.9807 -19.2066 -21.2161 0.9227 0.4318 -16.9916 -8.2024 6.3913 1.6061 -19.9521 -10.1819 9.4223 -19.1411 -20.3509 -3.6343 -8.2910 -26.5979 -12.4738 -4.9341 -0.8122 -6.6173 -11.2780 -5.9279 -16.7288 -3.5091 -13.2799 0.2878 -20.6468 -24.6846 -25.5417 -9.4540 -17.1298 -15.4337 -4.4562 -16.9858 12.4645 -9.6117 -9.5242 -19.8626 -4.3137 -5.9824 -27.3998 -12.9966 -2.1837 -26.4990 1.6340 9.9842 -10.9458 -8.5698 4.1003 -21.9612 -6.8798 0.4411 -13.4229 -7.7157 -8.2568 -12.8525 -5.3665 -6.4583 -15.9686 -7.3254 -9.2093 0.2533 -8.0206 -5.8237 -2.1941 -17.4136 -9.8039 -10.8482 -15.8309 0.5877 -17.7296 -8.4470 -7.5959 -6.9083 -8.0125 -2.1471 -16.7098 -4.6881 5.3490 -17.8489 -17.6494 -9.7315 -7.8863 -7.6687 -1.5467 -16.1778 -33.0894 -6.0953 -17.4013 8.2638 0.0428 -4.4877 -13.1383 -25.5870 -15.9419 3.6747 -13.7074 -17.0993 -12.3955 2.8912 14.1308 -15.4873 -24.1861 -9.8439 -13.1225 -6.1465 -13.2181 -15.0901 -7.3676 -28.2984 -6.5038 -14.8019 -5.8881 4.2449 8.7688 22.8684 5.4111 -0.1185 2.1452 -1.9212 -8.8507 -13.2737 3.5430 8.9855 2.4002 -14.6353 1.6243 -1.6638 -11.0788 -6.9844 -30.7295 -1.6635 -12.1790 -1.7979 -21.6778 -11.4143 -6.4029 -19.6410 -9.6208 -3.6410 -19.5847 -4.5627 -17.0743 6.9353 -2.1809 -17.5908 1.1241 -14.2907 -11.5451 -30.7217 3.5907 -9.5868 -14.4459 -2.2998 -6.6043 -6.3058 1.7172 0.7975 -18.3806 -12.7256 -3.6469 -6.0767 -12.4445 1.3308 -4.5367 -7.1004 3.3827 -0.0342 -5.3221 2.0085 -11.6361 -16.3218 -5.5848 -10.3299 8.6428 -11.1016 -13.6255 -12.9005 -4.8298 -9.1198 -4.8449 -15.5389 1.4284 -3.8299 2.6781 19.5185 -24.7046 11.2201 -5.7971 -15.0035 -6.1654 -21.6429 -3.7318 -8.6122 -17.2365 16.1121 -2.4258 -13.1611 -2.3986 14.6027 -18.8820 -11.4424 -6.6701 -4.3710 -11.2928 -17.1375 -11.2428 -7.3201 -13.4538 -1.2497 -0.1957 -6.5091 -1.5442 -10.7780 -9.8451 -14.7582 -16.7687 -13.6309 -0.1953 -3.3881 -7.4012 -10.6544 -12.4863 -3.5423 -6.9527 -8.0656 4.9798 -10.1806 -23.6724 -9.5548 -15.3682 -9.0074 -5.0657 -4.5833 -3.5566 -26.8540 -4.4134 -7.8140 11.9768 -10.0552 -25.2088 -1.2452 -14.0285 -7.4727 -4.6328 -13.2814 -4.1808 -0.7308 3.5535 -0.3988 -1.8178 -17.0277 10.3266 -0.9966 -8.6228 -0.7429 -2.6246 -16.2371 3.3328 -4.3541 18.8994 -16.2593 -14.8809 -19.8428 0.8354 -12.9246 0.4207 -12.3588 -3.9677 -10.9353 -6.9181 -7.5800 15.2155 -11.2598 -7.2304 -39.0018 -8.4228 8.2395 -15.4430 3.9823 -14.1830 -9.6416 -5.6906 9.6486 -15.3976 -10.6613 -18.7299 4.1214 -9.9882 -32.3684 -14.1848 -2.3104 20.0341 3.5704 -17.9911 -12.3559 -9.9267 -1.0906 -12.8926 -2.8116 -8.6021 -2.1221 -4.3708 -10.9510 -11.4809 -14.9142 2.6745 -0.2667 -3.0624 -2.2921 -5.3211 -18.0315 -14.7620 -22.6519 0.7245 -9.1314 -24.9232 -8.2747 9.5771 9.0226 3.2601 -4.6792 -12.5422 -17.8112 -14.0241 -7.3924 -15.2051
-4.2415 -10.1106 -10.1356 -10.0861 -10.0951 -21.9112 -14.3134 -8.2392 -12.6074 -0.8063 -5.5500 -28.9859 0.7649 -1.5487 -7.2746 -11.1726 -12.0614 -11.5902 -16.7868 -7.9309 -0.9516 6.6985 -12.2482 -9.9210 -16.8933 -2.7364 -3.6297 -10.3009 -18.8279 -6.2233 -2.3852 -11.7001 -11.3305 -17.1566 -2.3298 -4.6142 -1.3443 -14.5719 -5.2165 -12.3927 -10.7129 -5.8255 -12.5476 -21.2967 4.8984 -19.4109 6.8395 -3.9231 -7.6950 -4.7541 -21.8945 -5.3371 -20.5287 -4.0213 -1.0399 -1.5150 -4.2551 -0.8111 -10.2157 -4.8933 20.6837 -6.9306 11.8804 -38.6486 -2.4086 -14.6545 2.7976 -10.4357 2.4154 -12.6783 -8.5835 6.2460 -28.7761 -11.0555 3.3967 -16.8249 -11.4410 17.4193 -21.5478 -5.5444 -5.8493 -18.2668 -6.2908 -3.0973 -6.6198 -8.2255 0.6465 -2.0744 6.4563 -10.8579 10.7393 -17.5933 -16.9727 12.0330 -6.9733 -5.0691 -0.4873 -9.2708 -1.7828 -8.5027 -0.8063 -14.1842 11.2121 -23.2754 2.1385 -9.5001 15.9731 1.9540 -7.2095 1.0790 -16.6765 4.4686 3.1345 -16.4242 3.0620 -11.7309 -18.8887 0.1511 -15.9212 -3.1794 -24.6526 -8.2503 16.0425 -3.1976 -24.5328 -9.7314 -4.8486 1.6599 -16.9828 -12.3233 3.2638 -20.4343 1.1101 -11.7535 -8.9066 -10.7280 -3.2694 -8.3422 9.8957 -4.2887 7.6292 4.3673 -22.7939 -4.5412 -9.1870 -3.2774 -1.0681 -3.6067 -0.9220 -15.5273 18.7230 2.2800 -4.2193 8.6167 -13.0289 -3.7451 -7.1357 -10.6973 -6.5884 -17.4210 2.0128 -11.8042 2.7613 -5.6496 5.0283 5.3940 -5.8470 3.4237 0.3250 8.2276 -15.1152 5.7174 2.4556 -2.7467 -20.4850 -3.6474 -15.1211 -0.2622 -22.1096 -18.4980 -2.5740 -8.9626 -8.1881 -1.0269 -4.1242 17.4677 1.4553 -7.8670 -6.6967 -6.1959 -0.9580 -10.8435 -6.6895 -15.3604 -9.8730 1.5988 5.8628 -29.6510 -9.4509 -4.7287 -2.8314 -3.2161 -11.4349 3.3380 -8.2592 -20.7655 -8.0508 -0.1486 -5.0082 -0.9251 -11.4223 -8.6464 -3.7344 -21.2304 -9.9092 5.3707 -6.1341 -17.3911 -8.6939 10.1959 -8.1998 -1.0923 -17.6134 -14.3128 -19.9326 -9.9905 -3.8100 2.9518 -21.1357 11.6200 8.9602 1.3314 -5.5729 -7.7386 1.6145 5.4120 -7.7513 -2.4379 -6.6417 -9.8065 -16.9865 -13.7334 -1.5359 -10.6638 -0.9672 9.3636 -9.7698 3.5179 -21.5791 3.8318 -4.5960 1.3969 -17.3908 -18.5588 -6.5770 -6.2183 -17.1893 -3.2076 -7.4290 -2.0012 -5.0635 -2.1977 -2.5310 -7.5390 -2.0308 -0.1326 -2.7929 -13.2839 -1.1254 -11.0668 -1.2405 -14.0616 4.8132 -7.7200 2.2079 -6.2582 -5.6982 -7.4775 -30.8427 -4.9764 -15.2233 -11.3584 0.7142 -11.3573 -8.2665 -6.0942 -4.2030 -3.6135 2.1773 -6.0668 -0.9298 -17.2127 -6.5831 8.6228 2.3450 1.3310 9.6973 6.0824 -14.8554 -26.6222 -16.5236 -2.9389 -15.2163 -21.4570 -3.3074 2.8547 -8.6120 -4.4578 -14.1314 -8.2205 0.1255 -5.6580 -0.7772 -17.4946 12.4164 -4.8368 12.4881 -4.1871 -14.6392 -19.0195 6.4867 -0.2980 -17.0129 -3.3934 -19.1296 -12.5228 -6.5150 -16.6605 -0.9216 -16.9532 -9.8897 -16.0099 -3.3674 -8.4975 -19.1777 -4.9171 -7.9325 -12.9857 2.6565 -1.8204 -6.0541 3.8388 3.5518 4.1910 19.9982 -3.9993 -14.6109 9.1475 -7.1463 -14.7090 -6.1278 -32.0995 -12.4663 -14.8147 -12.3053 -15.3866 -5.8313 3.7350 -2.1347 10.3955 -25.4338 -3.2294 -10.7079 -0.9369 23.8362 0.3504 -4.8668 -8.3685 -6.6617 4.1384 -10.1923 -3.5930 -24.6894 -0.3965 -10.1534 -12.3766 -10.6795 -1.4276 8.7980 3.6947 -17.5753 -11.1279 -6.2432 -12.8824 7.8718 -19.2581 1.5530 -1.2699 -8.0664 -12.0506 -2.4930 -4.9921 -3.0217 -19.3350 -8.1021 -0.9672 -9.5512 -11.5824 -29.1128 -3.9977 -16.8665 6.3118 -2.0516 -5.8493 0.0326 -14.1305 -17.0950 -11.8311 3.6288 -13.5256 -16.9625 -11.8539 -16.7762 -5.7673 -2.4551 -12.1846 -8.1738 -20.7284 2.8670 -9.6678 -27.1832 -15.8329 -3.9279 -18.0065 2.6267 -7.4494 -16.8498 -7.4783 -9.7065 -6.0390 7.3043 -2.8808 -7.8323 -4.7855 3.6280 -12.9743 -12.2312 -10.3797 -16.7991 0.4387 -9.4804 -9.0214 7.2479 -9.5949 -0.2719 -5.2695 -26.6927 -12.5287 -19.5603 -12.9299 16.0370 -5.0047 -7.0826 -3.7079 -7.4977 -15.5366 -18.7370 10.2042 2.5357 4.1000 0.1429 -16.3565 -3.2870 12.0625 -10.5160 14.5981 -14.4539 -13.6744 -49.3172 -5.3835 4.2075 -5.8161 10.0329 -0.9667 -13.9532 -11.1873 -14.6781 -4.9843 -23.7398 -3.1195 -2.7102 -3.5353 -12.5399 -1.1143 -10.7201 -20.8423 0.2802 2.2354 -4.9235 -15.6486 -15.2016 5.3499 -12.4427 -9.0146 -20.1620 -7.3199 -0.7859 3.0140 6.7598 -11.9650 -11.2541 -18.2511 -5.8544 -10.3567 -18.8383 -10.8433 11.7415 -5.5118 16.1872 -12.2919 -14.7644 -4.4389
-2.5716 -4.6078 -11.0423 13.0477 0.0691 7.9299 0.3328 2.4469 -4.4128 -6.2242 -11.9804 4.8313 -8.1472 -6.7182 -3.2358 2.8121 -18.7388 -21.1241 9.0088 10.3730 -10.1544 -20.7303 9.0825 1.6661 -2.4181 -1.3642 -3.3356 -0.5358 1.6570 -9.3188 -1.5790 4.1373 6.2212 -8.0170 -5.3116 -11.5774 12.7688 2.1033 6.8466 10.6101 14.3651 -2.3813 -2.9977 -19.5156 -21.1353 -2.8848 0.6618 -15.7080 -12.0719 8.3236 -11.4307 -14.5317 5.3631 -16.9212 -6.3710 11.1066 3.7728 19.4914 4.2578 -3.6491 -24.9125 0.8798 -6.5351 -24.2601 -15.4186 -1.6098 -9.6102 0.5155 -5.6150 4.2463 -2.8320 15.1065 -6.6656 0.7062 -0.7197 1.3606 -6.2410 -18.4064 -7.3560 -8.5634 -21.6923 -1.2985 -1.1186 -3.3191 -1.1046 7.3420 -23.5497 2.4247 -12.3651 -6.7200 -15.8802 0.1969 -11.1815 9.2429 4.0975 -4.2141 -12.9876 -13.3375 1.7506 4.4753 -13.9413 -19.0735 -5.8928 -1.5389 -9.9794 10.3451 6.8998 -11.0723 -1.9901 1.1289 -5.6171 -2.8698 -27.3225 -7.6698 -2.5402 -0.2998 1.7715 -11.2145 -3.4312 -24.4602 -19.8823 -18.7421 -20.7820 -11.2623 -14.6451 5.7170 -4.2168 -2.2016 4.7170 -27.7792 -3.4734 9.9879 -9.5323 -14.2304 -11.8345 -9.7362 -3.0759 -3.4015 -8.0423 -2.4789 -23.4176 -15.5705 -4.2325 -9.3698 -6.5961 3.8424 -4.5285 -0.2258 -7.6705 -10.2067 -11.7277 -16.7989 -5.4910 3.0483 -3.2899 -0.9580 -18.5421 -3.4979 8.6408 -14.1058 -21.0566 -0.8543 2.2254 -1.1982 -20.5475 -3.9714 -2.3453 -15.2308 -3.3291 -33.5912 -11.6821 -5.2357 -11.4581 6.1735 -1.7966 -14.3239 -5.7755 5.3021 -20.6753 3.6075 -10.6652 12.1678 -17.7266 -9.7507 -14.8995 -13.9585 -1.9001 9.4649 -2.8981 -5.6475 -2.2027 -6.4511 -10.7318 4.4466 -0.6557 2.9508 2.3318 -3.6095 -7.3973 3.0124 -25.9082 8.3100 18.7474 -8.8536 15.5204 -3.8086 -0.4615 -6.7404 -11.0752 -1.0709 -15.5975 -0.0857 -13.2986 -1.2234 16.1300 -7.2710 -2.4959 -8.2252 -6.4900 -4.7869 4.6949 -17.6003 0.2444 -9.1259 -6.6546 -0.1450 6.1028 4.8353 -18.2401 -13.1979 -8.4468 -8.4823 -4.9661 7.2842 -3.5531 -11.5219 5.7208 -12.2448 -2.4986 1.7123 -4.5439 1.3715 4.8018 -4.0273 -0.8749 11.0411 10.4204 -19.0893 3.2785 5.0716 12.1997 7.4465 -28.1378 -8.8950 -4.3245 14.5401 -3.2394 10.9128 6.5497 0.8682 -0.8007 -1.2843 -1.1409 -15.4774 -4.7748 15.6326 6.5363 -5.5586 -22.5491 -2.1190 -23.9503 -7.5350 -25.5225 9.1002 -7.7453 13.2242 -3.7335 -2.8439 3.6760 -20.7520 -0.7427 -0.4161 3.1056 -6.4463 -11.4386 -0.7727 0.4135 -3.0304 1.2681 -5.9218 -1.8163 -13.6630 5.1970 -3.8579 -8.2472 -10.7525 -5.5911 -7.0221 -14.2139 9.6165 -10.3831 -0.1504 -19.3993 -16.0519 -3.9557 -2.2486 -2.6837 -0.1396 -4.7385 -2.7330 -9.1127 -17.2301 -9.5518 -3.8014 6.0485 17.4346 -4.8942 -1.5056 -25.2355 -0.0263 -7.3819 -7.6646 2.1205 -1.1783 -11.9602 -9.3548 -4.6916 -10.3289 -5.9262 3.3373 9.8038 3.2990 -16.6605 -13.0587 -6.0127 -15.1968 -1.9090 -13.1718 -4.8547 -5.5847 -6.8307 4.1853 -12.6140 -11.9026 3.5596 -2.8084 -7.7304 -10.2525 2.6307 -2.4379 8.3882 -1.4241 -15.0934 19.5032 -10.9644 21.3799 -7.5498 -7.3271 11.2832 -9.1882 -1.8525 -8.6863 -4.5623 -14.9336 -17.0871 -14.1361 -12.4051 1.8326 -3.0212 2.5920 -29.8662 -6.4004 -21.8457 7.3147 2.0960 -11.9325 17.3080 -1.6864 -9.4539 -12.2639 -13.6242 -7.3621 -14.2680 18.5051 20.6154 -10.0884 13.0959 -3.5890 5.8743 -15.1278 17.6342 2.9427 -11.1794 11.1357 -5.4506 -17.4232 -9.4806 -13.7895 5.1328 -15.0967 2.2282 -18.7904 -2.3264 -0.2780 -1.9381 3.9898 10.8615 12.2451 -3.3303 2.2133 6.7147 -5.2998 19.0876 19.8611 -3.2981 -14.3511 -11.7810 -9.2668 -1.5360 14.8747 5.3068 -3.1770 -10.4523 8.9617 -18.6862 3.1887 -3.8146 8.5524 -11.9669 -13.0064 -17.4293 4.7883 5.5199 1.8869 -8.5610 -2.0434 -5.1946 -12.2164 -13.3611 -1.0632 -7.1841 -15.1340 -9.9331 -12.2534 -4.8754 -14.1046 -16.6334 -7.6225 11.3066 -3.4037 -5.0861 1.9428 -4.4506 -12.4159 -8.6304 -0.0672 4.8840 0.7799 -11.4212 -9.8789 4.9273 3.4753 -12.8889 7.0151 -7.6039 -11.7305 -12.9286 5.6804 -27.7986 1.2142 -6.5595 0.7629 -24.5868 -27.8229 -6.5804 1.1085 -14.1827 -16.0103 -7.6460 -0.6486 -1.8748 -2.0184 -2.2720 -3.7349 -4.4004 0.4926 0.3041 2.3479 -1.5811 14.6118 -13.7923 15.4916 11.7901 -1.4761 -10.8333 -13.7901 4.7170 -8.6429 -15.9524 -9.8169 -7.4469 5.0176 -12.5424 4.5530 -3.7457 3.3591 -15.6496 21.8095 -7.5502 8.3165 3.7089 -12.1927
-10.0193 -8.8530 -6.2370 -14.3161 -8.1154 -20.9943 -6.1835 -15.0931 0.7033 -1.9734 -4.6426 -26.1379 6.7836 -13.7994 1.7526 -0.2358 -3.7341 2.6731 -15.4123 -5.3638 -0.6923 -0.6243 -0.4535 8.6854 -10.7628 0.1449 8.3278 -7.0039 -9.4207 -1.1895 0.7403 -10.3708 -8.7545 -2.4729 -1.1815 -7.1685 -19.3408 -11.6371 -3.1584 -10.6192 -10.3224 -4.7567 -4.5695 -7.9020 9.5752 -14.9929 -2.4270 -14.3349 -4.5991 2.5159 -32.4182 -0.9619 -4.6313 6.5986 -31.7099 0.3919 5.2588 -4.8929 9.5455 -0.3244 -20.5126 -4.2434 -3.5934 -30.9057 -11.8461 -4.9525 -4.3862 -9.4542 -1.1662 -0.6266 -4.6170 1.3560 -17.6280 -9.9997 5.6939 -9.1966 -4.7346 2.8097 -14.6292 -8.2685 -4.3178 -3.7523 -15.0633 -1.6184 -0.2299 -13.1565 -7.9435 -5.4657 0.6225 -8.1105 -14.7101 -9.2247 -3.4842 -11.4562 -8.8236 -3.3227 -1.2655 -0.2438 -9.4944 -2.8269 6.0488 -23.4728 -4.1585 -9.3208 -7.8660 -5.3400 3.1319 2.8466 -10.3416 3.6431 -11.0589 -1.8320 -8.9597 -6.1621 -5.1967 -7.3966 -3.3254 -2.6217 -8.6772 -10.7368 -14.1032 -9.9013 0.8034 -8.2540 -18.4820 -4.1533 -4.4204 9.2785 -6.7068 20.1640 -9.2387 -15.0145 -1.9601 -11.3067 -0.7206 -9.8085 21.8910 24.6657 6.0542 2.0085 6.5559 -8.9334 -5.9357 -5.2932 -5.6401 -13.4811 0.9976 -0.6087 -1.3340 -25.0245 -10.5667 -5.7222 -4.0682 -7.7997 -9.5621 -6.7323 -4.9928 -4.3454 -22.0315 -4.9113 2.5061 -11.6793 1.8026 -4.6064 -21.9480 -16.2433 -5.9610 5.8164 5.6729 -3.2298 -2.4004 -1.3530 1.8084 -8.6672 6.9968 -0.9221 -5.4450 -3.1902 -3.3222 -2.7733 -6.2415 -12.1099 0.1552 -2.8583 8.9634 1.4087 -4.5312 1.4462 5.3896 -2.8511 -10.8102 -11.7618 -3.9229 -13.6851 -1.4609 4.6211 -18.0417 -13.6246 -13.9018 -11.1858 -16.7728 -1.2914 -2.3471 -10.0718 -0.1676 -6.5225 -6.3411 -2.5098 -0.9675 -7.6346 -1.1254 -11.9668 -4.1656 -26.9747 13.4261 10.9642 5.6712 -10.5331 0.5629 -13.0044 4.1190 -4.3572 -13.7339 -7.3555 -17.6957 -5.8341 -3.5999 1.8374 1.0382 -5.1366 1.4872 -7.7331 -4.5718 -4.4140 -1.5882 -2.4131 -3.9598 -6.2678 -4.6894 -7.2704 -8.8507 -9.1376 -12.3250 -1.7624 1.4887 -2.1547 -6.8783 -5.5790 -8.5283 -2.6625 -5.3149 5.2128 37.6775 -24.0754 -4.7945 -15.8554 -6.5691 5.8748 2.4272 -0.1705 2.7454 -6.1908 -10.3256 -3.0597 -0.4673 17.7411 -5.8364 -7.4946 5.4898 -3.0932 -12.6173 -19.3857 -0.6485 -4.4608 0.7550 -0.8862 1.1659 -4.4357 5.0073 8.0492 -19.7031 -7.6297 -2.4186 -3.0463 -7.0971 2.8413 -0.8526 -8.8484 -5.0490 -2.6046 -0.4327 -1.5314 0.7447 -3.2489 -2.8500 -4.7957 9.4140 3.7032 -0.9917 -27.6417 2.7454 2.4526 -2.3563 -23.3823 -9.0773 3.5708 -2.1398 -4.2521 -4.2491 3.6542 -0.4488 -4.4412 -1.8198 -5.6473 -3.6093 -3.1252 -1.6322 -7.8650 9.6680 -22.0156 3.4851 -4.6994 -4.7588 -8.9847 -6.3383 3.5451 -13.3813 0.0066 -4.2920 -19.5594 -14.0998 -12.7242 -4.4831 -2.3725 26.1872 14.4478 8.5471 -9.1422 -6.5369 2.0126 -7.3424 2.4286 5.2310 -0.7012 -13.4136 -2.4662 -8.8509 -7.8694 -8.6232 -2.5322 -7.9807 -8.7150 -9.9826 -1.6800 -0.0242 2.6462 -12.9246 2.5047 -4.8891 -27.0801 -18.6600 5.9774 0.2395 -2.2775 -7.1386 4.9539 2.1285 -2.6594 -7.7932 -5.4411 9.0838 3.2433 3.8425 -2.0559 -10.2676 -8.2591 -12.4671 -0.0395 1.6534 1.8817 -4.9604 -5.7025 5.3203 -8.3102 8.1172 -12.4891 -1.4625 -2.2490 2.2440 -0.6985 6.2726 -3.9727 -3.7373 -18.1967 -5.2194 -3.0222 -13.2659 -7.6799 -13.0099 5.7949 -3.1399 -0.4696 -9.1419 -3.9739 4.2614 -9.9044 -12.9023 -6.5330 -4.4861 -11.8305 -2.8097 -13.5615 -3.2201 -7.4968 -5.3369 7.8773 -0.8517 -5.2755 -3.8056 -4.6920 16.2161 -1.0536 -0.2979 -3.2495 1.4345 -14.3576 -11.2018 4.3342 -1.6157 -3.0734 -10.2944 -6.1138 4.6558 -4.6659 -2.4268 -8.5003 -8.1626 -1.6671 -11.5212 -7.8793 -9.6398 -2.1965 2.8471 -1.7495 -11.1019 10.7196 31.2519 -2.6517 -12.5327 4.0888 -0.8271 -1.5979 4.3632 2.9342 -6.3430 -6.4367 -11.7503 -1.0197 -4.4514 -7.1842 3.3389 -3.5996 7.7110 -0.1495 -17.4030 -1.0701 -11.5700 6.9869 2.2485 -6.5362 0.1839 7.6023 -10.1299 -14.2244 -8.3601 -4.6173 -9.8633 -1.2511 -0.5931 -9.9531 2.5511 -2.1538 15.4968 3.5242 -9.0626 -4.5860 -6.8344 4.1425 21.9049 -10.5855 -11.3938 -12.0879 -6.5180 -11.1224 -8.1796 14.2508 -23.9884 -1.2857 -6.2085 -13.8344 -12.5605 -5.8321 -6.6564 -2.9785 -7.9356 2.4834 0.3813 -4.8848 6.1403 -0.7418 -6.6230 5.3805
-17.5822 -3.8217 1.6254 3.3128 -14.2729 -3.0242 6.7916 -7.2877 2.4258 -7.9941 -23.3361 8.9972 -4.8414 -17.2926 -2.3932 -12.7802 -9.6775 -32.5013 1.5135 -4.6694 6.2229 -23.2431 1.7749 -3.0175 -6.2914 -4.5607 0.1786 4.4719 8.5553 -12.9110 -7.4093 3.2402 5.6872 -9.2053 -17.3671 -25.9616 -13.6628 -10.4688 -0.1016 -12.5342 -4.3607 -4.2554 -8.5270 2.1040 -3.2026 11.7602 -20.4768 -11.1431 -14.9412 -10.2891 -3.9936 9.0441 3.9409 -4.3305 -12.4654 -17.6745 -5.3854 -5.4878 -2.0376 4.5933 -17.7168 -11.5290 -15.2810 -5.3090 -0.4400 -8.4216 -6.5285 9.3343 1.1575 -8.6562 -6.0966 0.5893 -19.8984 2.5803 -3.8808 -5.9980 -12.2199 -0.4943 -8.7125 -2.9839 0.8790 3.5644 -7.1189 -17.8701 -14.9024 -20.3155 -9.2649 -9.6607 -11.5401 -3.3574 -5.3163 1.5758 6.5397 -11.5223 -6.5871 2.0990 8.4605 -11.1472 -3.6053 -13.7941 -8.6466 -20.5019 -14.1273 14.2830 -3.4959 -10.1099 -20.8795 -13.1953 0.3056 -2.5389 -5.9097 -8.8366 -18.2821 -2.3009 -25.1829 4.9320 4.3269 -9.5880 -5.0654 -3.1788 -3.8696 -16.0398 -2.2008 2.0593 10.3427 4.4944 -3.1202 -9.7953 -13.0599 -22.9551 15.1569 11.9619 -7.4255 23.9349 -10.8005 1.7875 -15.9011 -16.5291 -8.7727 -13.3579 0.5432 -28.5705 21.5633 -11.6868 0.1063 -50.0964 -3.8487 -7.2000 -21.6575 -2.4929 -20.1878 -0.5445 -2.2515 -16.1070 11.4568 -5.9137 2.7175 -1.0501 -9.1542 3.5444 2.0651 -2.4441 1.2126 5.3630 -15.8983 3.3685 -7.9341 -2.8814 -19.4665 4.0859 -3.0453 -3.4309 -17.9514 -2.3812 -9.9186 -15.3235 -8.5136 -1.9594 19.5430 0.6307 -7.7667 -2.9330 -17.8407 -15.4454 -22.9766 -18.4224 -18.1024 -3.5923 7.5610 -8.7624 -12.8097 5.9128 -14.6384 13.7425 0.6954 -4.6132 19.3033 28.0666 -4.0679 -3.8572 -16.7598 -3.4481 -11.1643 -12.3902 -13.7001 -0.0429 -4.1121 7.3701 -6.6328 1.3148 0.8229 -11.9372 -18.3229 8.3983 -10.6522 -22.9317 -5.0127 -11.4264 -15.8692 -3.5819 -8.8524 7.2349 -7.0257 3.3946 -2.0131 1.0984 -13.6449 -6.4243 20.8066 -11.0511 -30.5918 -0.5731 -1.6810 -3.7696 -11.1182 0.2889 2.3922 -6.6107 -14.3886 -7.5821 -11.0489 4.5984 -15.1510 -16.9192 -0.8012 -13.1717 9.8877 -17.1503 5.5747 -0.3436 -8.6148 -10.0412 -2.4189 20.8986 5.8666 -22.5487 -6.1976 -14.3228 7.8068 0.2933 -8.0107 -22.9600 -19.9617 6.4580 -12.6374 -2.6325 -17.1537 -7.2404 -1.1588 -2.5804 -35.7466 -6.2512 -21.6709 -3.1758 -8.9626 -0.3393 -26.1853 -3.7046 10.9817 -16.3967 10.9162 -14.8791 -18.8671 4.1766 -9.4999 -1.0120 -11.8252 -21.0253 -18.0985 4.8894 -4.6179 4.7209 7.4147 3.1939 -26.8348 -10.5335 2.9019 -10.4024 5.5265 -3.4572 -11.5427 -13.2731 8.3201 4.2246 -6.1398 -14.9501 -1.4870 -7.7218 -15.7162 -4.3740 -9.9996 1.8751 3.1171 -10.2856 -16.2876 -4.5121 -12.9766 -11.0120 -8.9277 19.5773 -2.4017 -13.7779 -25.2691 -10.9384 4.7357 -5.4221 -12.7830 -10.2426 -9.9775 -11.8561 0.7181 -7.4780 -13.2013 -5.3896 20.4737 -7.3705 6.7629 -8.7161 -10.3040 -5.0338 -10.1750 -3.4073 -8.9879 -11.9070 -12.9242 -6.6692 -0.6689 -15.1267 0.3867 7.8555 1.2444 -15.4728 4.8020 4.0934 -2.1871 -2.2855 -22.2995 0.5016 -10.7996 0.5843 -1.6726 -17.2774 3.6801 -10.6769 -15.5444 -6.9448 -5.9763 -0.3351 -4.7670 -0.0093 -17.8397 4.7323 -7.2908 -19.2611 -11.0479 -7.1983 -10.4198 -4.8891 -8.2125 -14.7125 3.9308 2.8282 8.4037 -11.1914 16.6797 2.4389 -8.1083 -11.8864 -10.0068 0.9433 -21.8496 1.2051 24.4754 -2.9741 -9.0828 0.0408 -1.1586 8.9316 4.9454 0.3223 -6.7555 -21.3287 -7.3385 -9.9444 -20.8701 -6.6509 4.2470 -6.1639 -5.9735 -9.9964 4.7414 4.4249 -3.7603 -12.9504 -1.4142 -11.3830 -13.8455 13.4889 -9.1606 -8.1999 1.1991 8.4158 -6.4414 -15.9457 -6.3075 -2.4170 4.4128 4.8556 -14.2945 -1.0048 -31.0856 -11.2059 -22.2362 -10.3429 -8.6417 2.9983 7.1446 -12.7639 -7.8715 -15.3080 2.2283 4.2135 -16.4066 -9.1802 1.1426 -11.6714 -15.3873 6.5866 -7.1955 -12.8199 -10.7391 -6.2954 -5.2879 -0.5328 4.5063 -2.0743 6.0334 -14.3958 -10.9595 -8.2199 -9.1195 -5.8256 -7.7578 -11.8705 -17.2401 -13.1963 6.1768 2.3214 -43.5339 -4.2669 -6.9713 -18.6044 -33.2070 -8.9519 -5.9937 -17.8112 -7.5579 -24.4552 7.5760 5.0477 9.1444 -9.0744 -14.3602 -6.4574 -1.7264 -10.1160 -2.2771 -19.8044 -18.0339 -0.2633 -4.4628 -11.6290 6.5727 -4.7215 -8.3166 5.0267 -4.7153 -12.8082 -15.8803 -13.1887 -7.6770 -10.2802 1.0250 -10.2811 -0.1964 -2.5016 -6.8447 6.1906 -25.2662 9.4705 -12.8740 1.8531
-3.5323 -12.2099 -9.3113 -15.0952 -6.4582 -6.0386 -9.3174 -4.2942 -25.9348 -19.3625 17.0748 -7.1710 -7.5934 -13.2931 -14.4350 -0.8540 -7.7747 20.5294 7.5784 -16.9101 -13.1838 -11.2182 -14.2357 -6.1836 2.6016 2.4922 3.8939 1.1397 -10.3287 -3.7144 -7.5839 -9.9414 -6.3838 -11.0575 -5.9158 13.7062 -2.0066 -8.3267 11.0579 -11.0586 -7.0032 -9.3752 1.5029 -6.8636 -14.2307 -0.7286 0.6290 0.0945 -0.1472 -7.4996 22.8814 -15.7693 -2.7989 -3.5266 3.2709 9.8018 -0.7742 -20.2141 9.8046 -15.7730 2.0503 0.3907 4.1970 -4.2826 -19.9366 -2.6962 -12.0862 9.5071 -23.5788 -9.9068 7.1221 -11.6220 -22.7942 -13.9781 -0.7473 -4.6725 5.0018 -16.7041 -28.9288 -8.3299 -5.0535 -12.4056 11.4478 9.8096 0.7461 -16.7808 6.5216 2.1304 0.2965 -11.8638 9.4623 17.8663 -7.0170 1.0586 8.3154 -10.5284 -16.6126 -15.2512 0.2952 -11.8991 -18.2690 -27.5850 2.8390 -11.3923 -5.3055 6.0807 -8.8386 1.7832 13.8670 -10.5618 4.1510 -6.1752 14.1105 -11.8229 12.0185 -13.5812 -14.0003 -5.9243 11.6103 10.5357 13.6031 -0.2397 -3.2306 -6.5244 -15.6574 -8.1789 2.7207 -1.2792 -3.4248 0.0083 -17.7431 -21.5499 -6.8584 -11.5408 -3.6524 3.7934 -30.1840 -26.5165 -2.6604 -5.7438 -13.5081 -5.6012 -15.1024 -1.3673 1.2762 -11.7342 18.7193 -0.6539 -8.7437 -1.1725 3.7540 -4.8543 -5.8909 12.5760 -8.2572 -8.9282 1.0643 -2.5472 11.4933 -2.5000 -8.6156 0.3704 -23.0005 -3.7937 -1.8557 -19.8844 3.9130 -13.0810 -11.2899 -3.9727 1.1791 7.8996 -6.7827 -6.0076 11.5125 4.7209 -5.0515 3.9576 -26.2389 -4.2450 9.5384 -2.5350 1.5079 2.1397 -16.1371 -4.2909 9.8892 -16.4024 2.8705 4.2960 -5.5048 -4.2493 9.0270 -9.9113 -5.3918 21.2909 -13.0021 -22.7283 16.4392 7.2930 -15.2031 -2.5343 -12.1307 2.2410 -10.7045 0.4101 -0.0379 -10.4654 11.0617 -6.4040 -17.3736 -7.2393 15.2278 -9.6267 3.7028 -0.0190 5.2424 -5.0845 -9.0159 -9.9444 -20.1381 -9.5421 1.8085 -0.7426 9.2510 -8.3570 -5.8511 -4.2034 -29.3284 -16.3599 -8.2759 2.8762 5.7754 -4.6544 -1.9418 -9.1546 0.7873 -6.4450 11.0790 -4.4494 -0.7045 -7.6978 0.0221 -11.3189 -4.2975 -9.3508 -19.4957 6.7534 -6.9271 -2.7485 2.4251 -5.6746 -1.5352 1.6823 -8.7834 -15.3135 8.8211 -9.5912 0.7581 -6.8715 1.5065 20.2519 -13.1456 -14.4001 -10.6552 -5.5941 1.3574 1.3427 1.9604 -9.9181 3.4425 -1.3058 -5.1310 4.4437 -2.0904 -16.5441 -20.8093 -10.9890 -25.2680 -17.0607 1.0221 -7.8126 0.4274 12.4840 -5.6476 -8.1657 5.5683 7.6166 8.3457 1.8444 14.3559 -18.3004 -12.8581 -6.0309 -7.7960 11.6003 -16.9332 9.3621 10.6937 -14.7322 -24.1780 -11.0289 -15.3770 -0.6528 0.3968 3.3973 4.4992 -11.6176 -19.0640 -14.5937 -1.4420 0.2603 -4.4168 1.0521 9.4382 -28.4496 -11.9740 14.2935 -40.8832 -11.7538 -19.3286 9.2339 13.7690 10.1873 -5.8691 -13.6031 6.9148 -1.9854 7.0973 5.2358 -16.4145 -16.5948 4.4905 11.2767 -18.1562 -16.1224 11.0342 22.1493 4.3298 -8.3413 -3.0813 -13.1064 -10.4452 6.3868 -5.6777 -1.3117 19.6366 19.9785 -7.0152 -10.3757 1.6411 -24.1456 -2.0490 8.9221 -6.6748 -16.9846 13.4032 -11.0938 -0.9213 -9.0530 -17.3716 0.5992 -10.0840 -7.9012 -5.4322 -9.5714 -9.3886 -6.3274 8.4791 -3.8045 3.4804 -12.4394 16.9600 6.4112 -1.6934 -3.0201 13.2876 1.9734 -5.1568 -2.5989 -8.4246 -6.1386 -11.8341 -6.6132 -10.5943 -15.4326 -14.6979 5.1305 -4.0046 -15.2713 -3.7790 -12.0270 -15.1987 -9.2787 -9.6878 -5.6919 -5.3840 -13.3761 -20.6685 -11.6722 -7.0880 16.4218 -6.0543 6.8937 -31.8278 1.3214 -14.6670 -6.1007 1.7568 7.7025 -18.1374 -3.2109 -7.2054 -11.8812 6.0117 -6.6185 16.2402 -11.0867 3.8022 0.0311 -10.0207 -9.9186 -4.0481 -18.4840 -11.3540 0.7864 7.6334 -17.3537 13.8736 4.3980 9.6971 -3.5551 -22.8898 -3.3544 1.2669 0.5947 14.4597 -2.4274 3.7893 -4.2209 -2.2881 0.9506 -7.5290 10.9966 -15.8162 -18.6389 -15.1951 -27.5766 -0.9536 11.5653 3.5737 -6.9341 -6.3170 -14.6782 2.5977 -25.9163 -9.0592 2.7972 -3.8369 17.5215 -15.3226 -4.0144 -16.4467 -6.0683 2.7243 -11.7732 -10.9047 -12.5983 -46.7258 10.9003 2.3810 -34.0114 3.9637 -5.2599 9.4191 -18.1694 -5.4296 -7.4091 -11.4076 -18.4576 -8.2100 -1.7801 -19.1844 -4.3136 -2.0539 -2.0354 -0.5855 -11.7721 -30.1324 -11.1344 -2.1792 -9.8825 -21.3776 4.5279 -19.2888 -25.8979 -8.4975 18.7656 18.6933 -14.6075 5.1176 -14.7277 7.3010 -15.6820 4.8123 -15.6025 -16.2502 5.3988 -3.4394 -12.1305 0.0218 -17.0464
-1.8776 0.6312 -7.3738 -9.4696 0.9616 -4.4683 -10.4569 -11.4891 -2.9781 -8.5571 -10.8012 -14.6573 -8.1850 -7.9907 0.6334 -2.2343 3.5597 -18.6208 -11.0917 -5.5135 -8.1265 -20.8439 -7.2075 -2.7089 0.0875 -5.9175 -17.4508 -11.1070 -13.3102 -3.7303 0.8652 -2.4535 -2.1208 -1.3733 -6.7262 0.8003 -20.5092 -0.4745 -9.2431 -13.4116 -5.6451 -1.9694 -0.7983 -6.9600 -1.4214 -8.6091 -12.5512 -0.8432 -7.7954 -16.6426 -16.3206 -15.5735 -10.0709 -5.0181 -8.8673 2.2914 -10.4993 -10.7402 -22.4346 -7.1559 -12.6255 2.4120 -6.2181 -18.1542 -14.4918 1.4595 -8.8360 -22.5741 -7.0731 -1.2518 -3.4179 -26.3535 -2.5657 -11.8140 -6.1260 -5.3414 -8.9730 -12.3953 6.8050 -4.5173 -3.5685 -6.0889 -13.3804 -9.9148 -14.7366 -0.8034 -13.5677 -12.5043 -0.5113 -4.1078 -16.6117 -13.7851 -12.0016 -13.5742 -12.5900 -11.8170 -11.4518 -4.9628 -8.0200 2.8519 0.6102 7.3378 1.9643 0.6012 -10.0216 -0.2579 -38.1705 -7.4941 -11.1516 -10.2792 -12.3984 -0.4717 -9.5107 4.5587 -5.0893 -15.7089 -1.9515 4.8463 -7.9402 -2.1307 -15.4437 -0.7036 -19.1400 -2.9689 -3.2997 -6.9245 -5.5530 -13.9113 -7.4445 -26.5763 -8.3316 14.9220 -2.6471 -18.9536 -8.6779 -1.8042 -5.4764 -8.9352 -6.2813 -1.8891 -0.6967 2.1076 -10.7710 -8.7982 -4.6698 -15.1845 -21.3762 -5.2230 3.7296 -12.2790 3.5216 -16.0796 -2.7753 -11.2261 -11.3340 -3.4002 -9.4675 -8.6841 -9.1241 -6.3605 1.8564 -10.8834 -7.0618 -14.1413 14.5571 -21.4816 -8.2847 -4.2895 2.5296 -5.4188 -3.1205 -13.4291 1.3910 -4.8737 -18.4626 4.1769 10.6173 -4.2031 -4.9641 -14.7683 -4.6279 -7.7644 0.4631 -5.9566 -21.5352 -24.2494 -2.2963 -1.3412 -14.9841 -10.5720 -1.3942 -10.7514 -21.1018 -16.6641 -9.3387 -24.1318 3.2470 7.5861 -12.4277 -20.4706 -4.6712 -13.1586 -6.2472 -11.5496 -17.9241 -8.5153 -9.2250 -6.8437 -9.7647 -15.4161 -4.7946 2.6618 -5.9964 -14.5556 -22.1836 -14.7831 -14.4039 -4.5535 -2.7812 -13.8773 -6.1654 -3.0444 -7.1665 -10.3882 -17.8425 -18.8529 -6.6361 -3.9199 -19.3756 3.3424 -3.9441 -11.2722 -12.9579 -6.0083 -1.6135 -22.2256 -19.0742 -10.7325 -0.2684 -10.1681 -1.4780 -9.1761 23.5215 3.2961 -10.6371 0.6352 -8.7448 -26.7073 -10.1595 -6.0861 -3.5160 -9.2361 -24.7970 -19.3788 -7.9851 2.0620 -14.0343 -1.2747 -12.5254 -12.8569 -12.0255 -16.8434 5.8139 -2.1897 -3.1233 -20.0477 0.5422 -7.5522 -13.3162 -5.4912 19.1356 8.2343 6.0971 -6.5983 -7.8325 -2.7538 1.6963 -4.3572 3.8600 -1.0734 -10.0774 -2.6935 -5.0157 -13.2876 -13.5929 -13.7512 -6.4797 -3.6887 -12.2417 -13.8266 -16.9197 -0.5990 -6.5621 -8.7324 -3.7570 -1.6043 -9.1811 -3.7896 -19.1647 -9.1904 -29.2320 17.0840 -8.9748 -15.5516 -10.8467 -4.2096 -13.6943 -13.1192 -7.3280 -1.4165 -15.2376 -6.0352 -5.6263 0.6680 -29.0784 -23.6161 -6.7847 -13.6536 6.1883 12.3186 -2.0738 -5.2130 -1.4586 -11.4618 -8.6485 -3.6642 2.4290 2.3203 -8.4337 -27.0563 -14.0636 -3.9163 -13.9730 -5.1852 -13.2724 -3.2308 -6.1274 -15.7685 -6.9315 -1.3240 -11.0008 -4.2329 -9.7374 -8.9673 -18.4485 -6.9927 -17.0592 -9.2740 -6.4738 -7.3315 -11.0639 -3.2826 -5.4091 -9.7779 -14.4339 -4.8031 -2.6403 -5.9953 -4.4222 1.4233 -11.2445 -6.8352 -0.7824 3.6931 -10.9487 -2.7878 -4.1113 -9.2416 -8.4248 -8.3368 8.4276 -18.2377 -18.8061 -3.8041 -5.4882 -7.0680 -21.8506 -9.0863 -9.5146 -5.6780 -21.2175 -7.4432 -7.1916 -4.4656 -12.0650 -12.3119 -6.1586 -5.4121 1.6426 -1.1821 -3.9527 -5.2851 -10.2189 -7.1804 -5.0925 -1.5775 -11.8321 -4.6217 -2.7608 -5.6039 -0.7139 -36.2384 -19.9502 -10.6616 29.7820 -14.2801 -11.4144 -5.6727 -9.3233 -12.5331 -8.2684 -5.3431 -0.5354 -12.9141 -10.7731 -5.8849 0.4075 -11.9388 -9.7094 -9.2913 -25.2042 -6.4869 3.6211 -6.1892 -4.8742 -14.5406 -8.3655 -3.9395 -12.5924 -8.3543 -35.0968 -13.3083 -8.8208 -3.0026 -9.9177 -4.0727 -7.5419 -9.3492 1.2530 -1.9655 -7.5803 -9.1830 -3.5703 -5.1668 -3.1094 -13.8927 -28.0936 -1.8313 -7.9147 -5.5140 -8.6375 0.3573 0.2776 -18.0075 -16.6605 -8.5261 -11.8521 -9.5089 0.4392 -17.3306 -14.5577 -1.8561 -9.3416 -9.7409 -6.5089 -28.9160 -4.7359 -6.8944 28.7957 -10.1205 -13.5750 -2.5096 -23.3202 -14.7246 -13.8998 -7.8360 -3.1758 -9.8913 -1.4387 -0.4036 -14.7702 -17.8912 -13.6235 -7.2425 0.6067 -5.1965 -4.5101 -2.6959 -16.4286 -5.3567 2.5858 -24.7328 -15.2220 -11.5344 -20.1782 -9.1801 -22.1337 -2.0986 -15.5726 -8.7896 -3.9695 -1.5580 -15.8382 -3.4809 -22.1276 -1.8390 -12.1424 -3.3888 -15.8997 -16.1494 -2.7835 3.7935
-1.0821 0.7486 -11.7525 -30.6077 -3.8244 -0.7183 -10.3365 4.1951 -16.1437 -30.3824 -12.1709 11.0499 -6.2479 -15.5694 0.9912 -8.5161 -16.8690 -26.2701 -0.5401 1.8335 -21.1336 -8.0806 -1.3588 -4.8288 0.9002 -7.8922 -0.9987 -0.9552 5.3273 -9.5989 -6.6603 2.9309 4.5765 0.0268 -9.3820 -2.2363 -0.4835 -3.8191 -9.2401 -1.3094 -3.5741 -4.1743 1.6494 -1.9558 -10.4138 -11.5992 -4.4433 3.0431 -13.6257 -3.4058 15.2576 -16.6279 -1.0380 -6.8490 -20.0377 -38.5878 -3.1747 -9.1465 -40.0704 -1.5510 -1.4142 -7.7939 -1.1077 10.2502 -11.5329 -9.0720 -12.8365 -16.7369 -17.6550 -3.1340 -8.2899 7.4350 7.8083 -9.2695 -9.8139 4.2756 -0.3075 -13.8343 -7.4393 -7.4729 -13.7738 -6.9001 -9.7291 -15.0220 -7.9683 9.8856 -10.3703 -6.4069 -11.2345 -8.6522 13.3194 -8.5570 -11.7415 0.4775 1.2577 -3.9429 -12.2069 -14.6790 2.8064 -3.2414 -17.1877 5.2299 -1.1195 -5.2931 -13.0020 -0.8302 -1.9322 -7.9430 -1.0363 -8.3515 6.0932 -7.0568 -17.8678 -7.8753 -4.2730 -10.7096 -1.5029 -5.0980 -3.1115 8.6146 -6.3649 -6.7610 -5.1383 -11.7496 -10.0755 -1.1178 -3.9980 -12.8332 1.9332 5.8785 -16.7777 -10.5553 -1.2817 -9.7222 -13.6166 -4.4504 -21.0745 -9.2627 -4.4288 -0.0205 -11.7196 7.8875 -12.9359 -10.8819 -6.5855 -18.3706 -18.8206 -10.4045 -10.2570 -13.7154 -2.3653 -8.3837 -3.3530 0.6328 -3.4936 1.1340 -9.9188 -14.0085 -11.5710 -13.2148 -11.4456 -11.5561 -3.9501 0.8498 0.7155 -17.8885 -4.8287 -11.2467 2.6381 -13.4562 -7.9342 -1.1964 -1.5642 -12.0710 -15.4187 -3.4476 -4.1266 -4.9804 -13.2060 -8.1369 -4.8785 -13.5900 -12.4184 -15.3302 -19.1157 20.6873 1.0522 -11.5397 5.1022 1.5263 1.6041 -5.1733 -17.9621 -1.1815 -8.1756 -16.1776 -18.1786 0.5987 -21.4028 1.7395 -13.9259 5.8033 0.0790 -1.1628 5.3628 -2.6262 -10.0395 -10.2541 -1.5397 -7.8631 -11.2937 1.7870 -2.1731 9.6113 -38.2640 1.6739 -3.6034 -9.3815 -8.1957 -10.0436 -4.3901 -9.6052 1.0899 -9.8008 3.1231 -15.8233 -1.0134 -10.4640 -25.2048 -5.0706 12.0098 -4.9468 -1.4730 -1.8306 -6.6744 -17.5350 0.3429 -10.6970 -9.6702 2.6390 1.4538 1.3502 -2.9327 4.0205 -6.7864 -8.9317 -4.0236 -10.2871 -1.1528 -7.9965 2.4385 8.0152 -13.2689 4.9632 -9.0233 3.6798 -14.1140 -8.3304 -6.7798 -4.6004 1.1028 6.5405 -12.8270 -12.6086 -6.3285 -32.8507 1.2394 0.2690 -7.8081 -4.7283 -8.5264 4.0955 -18.2785 -7.5359 -9.0057 -4.9065 15.9044 0.0856 -9.8620 5.2942 3.8395 -5.6283 2.7936 -8.7566 10.2902 -11.3038 0.5640 3.5042 -12.3716 -8.3633 -0.5635 -6.9749 0.4974 -6.5957 9.1634 -6.2464 -13.7542 -8.1499 1.0212 0.4758 15.1368 -17.4079 -17.8777 -16.4014 -15.4168 -8.2318 0.5793 -6.9100 -11.7402 -6.8703 3.0553 -8.6608 -9.1867 -5.4742 10.9018 -5.4503 -12.2791 -9.4557 -4.6511 -8.4995 -5.7949 -4.2613 5.2646 -8.6575 -10.2822 7.3333 6.4024 -8.2325 -8.6763 17.4806 -6.5718 -5.5387 2.9413 -3.8332 -14.9921 -11.1891 -13.8901 -18.2597 -14.1632 -17.2145 -9.4956 -15.2230 -8.3054 2.7660 -13.7527 -7.1872 -3.5905 2.3047 -12.8192 -7.5879 -2.1078 14.8164 -8.5453 -13.8739 -7.2466 -10.6947 -4.4665 -7.2389 0.5886 -3.1837 -0.8699 14.7140 -6.2149 -11.9117 -8.8954 -12.9792 -4.0013 -5.9911 -2.6328 -5.3519 -7.7009 23.2621 -26.7753 -3.5862 9.2360 -0.2474 -7.3956 -11.0886 -10.0995 -14.5220 -2.4584 -3.3167 -13.5082 -25.9180 -30.1815 -8.5121 -3.5311 1.5464 -3.3011 -5.5389 1.1945 -6.0672 -15.3985 7.2051 1.0274 -11.6547 -5.8365 -8.0002 -4.5002 -13.6132 -11.1936 -13.5463 -14.9113 -7.5950 -3.4904 9.4287 1.6782 6.4402 0.0814 -18.0928 1.1398 -10.8487 -7.8688 1.3171 -1.0414 -2.8037 -8.1884 -13.8715 -5.3532 -2.6352 1.6016 -7.6142 -9.1282 -10.2909 -8.1467 0.2981 -10.0574 -12.2765 -1.7158 -2.8791 -21.0356 -10.8479 -16.2857 -7.6298 -8.2624 -0.7204 1.3076 -10.7143 -2.2681 -4.3929 -4.6329 -3.5785 -4.0665 -7.2878 -3.3738 -4.2693 -16.2496 -7.4681 4.5271 -11.8524 3.1419 -12.4211 -10.0672 -17.4734 -12.7787 -15.4020 -9.1805 -14.0034 -0.0869 3.4545 -2.8561 -1.8531 -14.4938 -5.5769 -5.8122 -10.4591 -15.9275 -3.1804 6.1703 -3.8290 -4.5475 -10.0266 -28.4457 -20.7870 1.2703 -2.9926 -9.9683 -4.7412 -3.9651 -3.8250 -6.9282 0.9157 -4.3634 -3.4262 -8.3077 -4.3111 0.4224 -9.1991 13.0461 -0.0936 -0.6280 -6.2183 -8.0682 1.2236 21.0065 -16.5335 -19.6188 -8.5720 -7.5793 -16.0754 -5.6930 -0.1486 -8.4984 -9.4965 11.3747 -6.6167 -14.7743 -5.1841 -20.2217 -4.2336 3.8147 -10.5388
