0.481784 0.740643 -0.703646 -0.524494 -1.208227 0.380695 0.320869 0.962429 0.145978 0.486165 -1.246320 -0.256362 -0.134916 0.413598 0.412310 -0.538788 -0.784529 0.017101 -0.215922 0.794413 -0.057543 0.096530 0.118640 0.566376 -0.037374 -0.264757 0.043686 0.357915 -0.144881 -1.389313 0.132348 -0.595217 0.386457 1.015668 -0.667210 -0.739881 0.643675 -0.242053 -0.239602 -0.020832 -0.237144 0.027717 -0.143688 -0.587944 0.118454 0.202214 -0.323405 -0.030709 0.614366 -0.587083 -0.211461 0.242176 0.607582 0.302956 0.302857 0.245087 0.097435 0.707811 0.311183 -0.514369 0.486450 0.613800 -0.292219 -0.820071 -0.272661 -0.222051 0.039809 -0.834786 0.545069 0.326931 0.343246 0.704392 0.675544 -0.790188 -0.000365 0.689288 -1.040183 0.172398 -0.211041 0.234166 -0.192635 -0.299425 0.729229 -0.526153 -0.832667 -0.002551 0.291277 0.604964 0.151427 0.120100 0.119782 -0.145717 0.300900 0.037345 0.424155 0.271087 0.541262 0.439063 0.754718 -0.348372 -0.657318 0.446885 -0.532749 0.084492 0.554168 -0.186740 -0.066908 -0.959400 0.085039 -0.123624 -0.753222 0.986134 -0.435539 0.172904 -0.178310 0.438768 -0.337011 -0.618330 0.588462 0.986192 -0.589559 1.452822 -0.910889 -0.072519 0.103098 0.204260 -0.066688 0.111250 0.682541 -0.858292 -0.205414 -0.987535 -0.428258 0.152481 0.778944 0.406554 -0.010451 0.626344 -0.792993 0.445495 0.241604 0.190722 -0.473216 -0.596480 -0.528165 0.153691 0.470171 -0.123392 -0.114682 1.515205 0.857834 0.345150 -0.437582 -0.374391 -1.259713 -0.371096 0.181379 0.337520 -0.112233 -0.958699 0.318850 0.638548 -0.880556 -1.092260 -0.227906 -0.956878 -0.611106 -0.311238 0.441809 -0.694543 -0.527338 -0.789123 -0.032045 -0.434954 -0.809171 0.866489 0.197559 -0.119104 0.083232 0.297994 0.414561 0.003100 -0.004379 0.024931 0.256891 -0.223142 -0.115917 0.598214 -0.995463 -0.058961 -0.644652 0.282589 -0.576815 0.365813 0.503540 0.549261 -0.262954 -0.398388 -0.258072 0.308649 0.055799 0.341341 -0.699550 -0.218522 0.157807 -0.437673 -0.298363 0.154982 -0.431012 -0.375381 -0.702380 0.109540 -0.240128 -0.436848 0.718813 -1.354579 -0.355700 -0.508810 -0.332478 -0.338310 0.132360 0.210638 -0.127761 0.717540 0.341650 0.180172 0.346566 -0.423252 0.126131 -0.146671 -0.149972 0.059590 -0.297772 0.979154 0.332458 -0.913185 -0.040655 0.432553 0.457899 0.494106 0.602958 -0.485528 -0.752090 0.035214 0.441554 0.055866 -0.179504 -0.120527 -0.094525 0.354678 0.164451 0.242572 -0.229446 0.419867 0.027773 -0.233447 -0.787859 -0.113926 -0.251094 -0.236327 -0.090478 -0.544053 -0.853441 0.524480 -0.412716 0.202950 -0.501604 -0.296090 0.599878 -0.147687 -0.054670 0.006696 0.175342 0.106320 0.204521 0.395408 -1.104495 0.200509 0.652067 -0.151506 -0.506302 0.375798 -0.505414 -0.671292 -0.328799 -0.137662 0.675881 0.816624 -0.044410 -0.058813 0.753039 0.124816 1.149989 0.617672 -0.693549 -0.331608 1.028425 1.476562 0.194282 -0.839248 0.509154 -0.339668 0.355007 -0.792947 0.362419 0.146065 -0.036207 0.296215 -0.584322 0.038803 0.362931 -0.014544 0.210277 0.765552 -1.403409 -1.020494 -0.267626 0.356001 -0.344960 0.903182 -0.529856 0.647806 -0.593797 -0.676467 0.496713 -0.367588 0.631349 -0.351854 0.728930 -0.752728 -0.406778 -0.132504 0.156275 0.404687 0.215012 -0.061811 -0.098074 -0.238676 0.322333 -0.286696 0.086729 -0.124640 0.458846 -0.559455 0.101016 -0.342212 0.283928 0.522186 -0.159337 -0.122951 -0.852023 -0.304361 -0.571860 0.224679 0.180776 -0.577936 -0.040999 0.363536 -0.471798 -0.150652 -0.587683 -0.026577 -0.414586 0.925301 -1.128050 -0.678771 0.188162 0.074953 -0.679164 -0.182302 0.348150 0.714373 -0.090453 0.037039 -0.219638 0.315878 0.743982 -0.675121 -0.226375 -0.256147 -0.759725 -0.860665 -1.033085 -0.159695 0.136894 -0.226782 -0.123357 0.159293 0.529281 0.737358 0.396139 -0.137041 0.096170 -0.062968 0.017334 -0.547069 -0.322656 0.841771 -0.392039 0.713307 -1.342756 0.193781 0.066879 0.061755 0.133012 -1.021229 -0.635149 -0.179119 0.522425 -0.494273 0.473317 -0.030963 -0.604577 -0.679991 0.730726 1.234729 -0.096145 -0.426231 0.252968 -0.242886 -0.291014 -0.214957 1.407585 0.103483 0.215849 0.037366 0.108886 0.046710 0.615908 -0.268342 0.330985 0.590237 0.707630 -0.287654 0.137061 -0.467368 0.353740 0.440486 -0.109108 0.114104 -0.175827 0.426851 0.984641 -0.482866 -0.173938 -1.228717 -0.672065 -0.090592 -0.187163 0.139891 -0.513264 0.056616 0.049521 0.437985 0.150373 -0.038985 0.747414 0.083881 -0.378439 0.188932 -0.203137 0.134857 0.621260 -0.637438 0.537142 0.450637 0.837683 0.307691 0.031488 0.470622 -0.228557 0.580884 0.235774 -0.281323 0.295611 -0.396866 0.226206 -0.905293 -0.061520 -0.253281 0.506661 -0.127251 -0.466779 0.225261 -0.384771 0.158394 0.768121 -0.014789 -0.188106 -0.483595 0.830800 -1.025223 -0.684129 -0.228950 -1.136011 0.243437 -0.557979 0.043298 -0.290433 0.278685 0.319509 -0.388140 0.810393 0.380067 -0.143926 -0.334800 0.547830 -0.812724 0.369298 -0.322990 -0.246926 0.793171
-0.482208 -0.754957 0.706094 0.437915 1.149964 -0.491372 -0.486397 -1.019774 -0.020499 -0.557830 1.154836 0.123799 0.096721 -0.498161 -0.510964 0.500205 0.838505 -0.070282 0.168351 -0.813065 0.234113 -0.227055 -0.042928 -0.621535 0.103632 0.220440 -0.021774 -0.388971 0.280947 1.375931 -0.196208 0.561822 -0.368352 -0.981191 0.674653 0.799901 -0.706196 0.217615 0.370753 -0.034803 0.291995 -0.036184 0.140122 0.545920 -0.231074 -0.221554 0.187960 -0.036796 -0.671350 0.575036 0.289077 -0.334082 -0.678337 -0.153418 -0.326041 -0.343903 -0.073327 -0.673542 -0.290345 0.541115 -0.516133 -0.666704 0.211216 0.764152 0.309332 0.267597 -0.074912 0.786000 -0.543681 -0.440636 -0.285833 -0.791908 -0.678495 0.639935 -0.066636 -0.536389 0.983236 -0.301641 0.256156 -0.310244 0.189758 0.146019 -0.640589 0.594431 0.759885 0.093265 -0.233940 -0.705769 -0.138876 0.000896 -0.272506 0.186439 -0.255970 -0.093602 -0.454819 -0.168147 -0.503881 -0.563842 -0.701648 0.264818 0.585018 -0.451821 0.566591 -0.045752 -0.652564 0.052674 0.054271 0.859447 -0.107221 0.217385 0.725893 -0.955656 0.440453 -0.172612 0.073692 -0.408394 0.324402 0.655870 -0.660165 -0.940471 0.410255 -1.512241 0.931566 0.001667 -0.176595 -0.300922 0.006377 -0.080958 -0.712493 0.684639 0.136349 0.930287 0.214095 -0.089707 -0.856721 -0.483011 0.077455 -0.795600 0.866393 -0.571862 -0.290851 -0.239275 0.486981 0.565838 0.450296 -0.187702 -0.499640 0.059779 0.078585 -1.422874 -0.703743 -0.329913 0.321604 0.335969 1.212186 0.391566 -0.279316 -0.369752 0.042082 0.736228 -0.467900 -0.676499 0.805938 1.086571 0.314846 0.899059 0.569509 0.272899 -0.489490 0.709725 0.434147 0.704758 -0.009748 0.416204 0.914200 -1.039476 -0.182778 0.256125 -0.025669 -0.264164 -0.412042 0.037873 0.093763 0.003486 -0.258677 0.244920 0.130984 -0.589244 0.892062 0.149899 0.680055 -0.239477 0.592440 -0.355235 -0.497161 -0.716652 0.264526 0.383743 0.162481 -0.488751 -0.001817 -0.459762 0.690813 0.105759 -0.219218 0.353298 0.334742 -0.147190 0.401927 0.312815 0.756166 -0.164219 0.258172 0.478809 -0.860283 1.240758 0.325831 0.308864 0.284350 0.279038 -0.174843 -0.242283 0.097546 -0.840722 -0.407805 -0.209041 -0.480204 0.480190 -0.194251 0.189274 0.258534 -0.066429 0.406477 -1.072324 -0.284197 0.896532 0.136804 -0.574120 -0.556194 -0.409773 -0.566565 0.441204 0.700121 -0.147972 -0.539437 0.107965 0.079656 0.049181 0.078682 -0.302116 -0.130810 -0.286772 0.178204 -0.358577 -0.108916 0.125135 0.784620 0.044890 0.224087 0.305623 -0.016661 0.539057 0.710589 -0.532860 0.343494 -0.177299 0.497177 0.235977 -0.616123 0.053043 0.006736 0.013541 -0.075635 -0.106109 -0.209222 -0.445643 0.934016 -0.346374 -0.580838 0.193649 0.580269 -0.462247 0.680438 0.627434 0.366297 0.074105 -0.623453 -0.851006 -0.089011 0.155550 -0.641171 -0.089482 -1.154801 -0.612850 0.534884 0.384131 -0.991002 -1.416425 -0.186850 0.848008 -0.409772 0.412732 -0.326353 0.769565 -0.530765 -0.236565 0.118101 -0.309451 0.628298 -0.149852 -0.361295 -0.004686 -0.337891 -0.871675 1.430884 0.986410 0.185512 -0.203389 0.281404 -0.906441 0.563485 -0.662390 0.510712 0.631835 -0.502889 0.214541 -0.566863 0.376084 -0.575033 0.752522 0.434688 0.109011 -0.084906 -0.418377 -0.398474 0.008145 0.116472 0.076026 -0.486545 0.203986 -0.241069 0.194883 -0.368512 0.574718 -0.072832 0.286576 -0.364258 -0.446619 0.164337 -0.130059 0.779267 0.229106 0.559383 -0.313556 -0.150990 0.549412 0.034580 -0.415169 0.454595 0.007627 0.540019 -0.098873 0.363689 -1.016129 1.159829 0.606743 -0.102507 -0.068305 0.598532 0.234782 -0.337395 -0.631462 -0.058899 0.013810 0.193368 -0.263332 -0.841948 0.609192 0.066433 0.284978 0.812490 0.844911 1.033174 0.266489 -0.121998 0.344945 0.021070 -0.287792 -0.605367 -0.811538 -0.526905 0.203562 -0.106607 -0.094587 0.021739 0.603896 0.297679 -0.868790 0.353146 -0.719018 1.283906 -0.160690 -0.112104 0.012217 -0.087666 0.986252 0.619357 0.197174 -0.493029 0.493286 -0.457421 -0.023336 0.513510 0.716415 -0.755264 -1.186228 -0.029657 0.476930 -0.270232 0.243394 0.290964 0.177288 -1.302940 0.046346 -0.182509 -0.029411 -0.108238 0.197719 -0.635895 0.152046 -0.459233 -0.614274 -0.589594 0.272554 -0.182343 0.501487 -0.158314 -0.555725 0.204790 -0.263428 0.246036 -0.508417 -0.826144 0.424327 0.085314 1.188766 0.530109 0.127660 0.074704 -0.107648 0.446150 -0.156549 0.027739 -0.539118 -0.335896 -0.005297 -0.743784 -0.121164 0.219882 -0.115304 0.252038 -0.177876 -0.696496 0.718762 -0.432864 -0.432267 -0.888004 -0.350046 -0.027593 -0.608268 0.202515 -0.724644 -0.322622 0.323141 -0.372375 0.340055 -0.178348 0.703456 0.004593 0.250962 -0.702879 0.093631 0.386974 -0.169259 0.325573 -0.348230 -0.854864 0.087006 0.047749 0.455921 -0.946646 1.121719 0.657572 0.242308 1.114738 -0.160182 0.472508 -0.144735 0.242458 -0.309098 -0.192823 0.337750 -0.852063 -0.459015 0.165306 0.250152 -0.613910 0.695003 -0.318234 0.311602 0.144339 -0.776310
