0.006734 0.061103 -0.043078 0.133869 0.042304 0.002246 -0.005478 -0.035128 0.056750 0.020515 -0.043846 -0.000246 0.071401 -0.051827 0.029883 -0.009194 -0.063832 -0.083188 0.013914 0.030525 0.027804 -0.030436 0.010768 -0.016848 -0.086580 -0.064921 0.027436 0.006863 0.002998 0.073652 -0.113829 0.027288 0.014291 -0.088115 -0.125090 -0.052201 -0.077328 0.125751 0.073314 -0.000042 0.048821 -0.041162 -0.024161 -0.040490 -0.089777 0.028570 0.068860 0.043214 0.056256 0.057098 -0.062827 -0.052594 0.018580 -0.021215 -0.109023 -0.051816 0.032349 0.024749 0.012680 0.022143 0.019729 -0.067631 -0.024498 0.052622 -0.006678 0.131546 -0.007500 0.026940 -0.010270 0.053179 -0.049128 0.010584 0.077298 0.055466 -0.055102 0.054412 0.139624 0.071104 0.041752 -0.054101 -0.005068 -0.058767 -0.007194 0.003012 -0.072412 0.050065 -0.087561 -0.078848 0.064383 -0.003847 0.064577 0.084230 0.083756 0.163792 0.340768 0.243492 0.290674 0.033932 -0.006454 -0.022241 -0.073343 0.009755 0.167712 0.264533 0.426251 0.332117 0.143011 0.007551 0.061497 0.030837 0.023931 -0.110517 -0.026930 0.024461 0.025413 -0.019140 0.023357 -0.024309 0.365962 0.560667 0.833472 0.789881 0.970046 0.966659 0.135109 0.150314 -0.023016 -0.066690 0.350251 0.503077 0.750625 1.047365 1.373268 1.172432 0.501049 0.010563 0.255317 0.003229 -0.098902 0.007305 0.041900 0.031744 0.022289 -0.050728 0.235437 0.549856 0.740421 0.843536 1.413933 2.199566 0.318634 -0.530921 -1.801458 -1.253242 -0.542043 0.275956 0.861070 0.644734 1.650120 2.616392 2.456270 1.919414 0.713739 -0.137738 -0.637675 0.114495 0.038602 0.099506 -0.063232 -0.002886 0.027550 0.072174 0.368894 -0.100799 0.368595 1.674778 1.486987 2.210701 0.438307 -1.323070 -3.714546 -2.753720 -0.113799 0.647673 1.906277 2.761457 1.269419 1.818717 2.068568 1.225802 0.348415 -0.143236 -0.316752 0.228883 0.022372 0.211696 0.048230 -0.010174 -0.011368 0.285840 -0.083205 0.090426 0.943320 1.813708 1.887428 0.432009 -0.615348 -1.444488 -4.173709 -2.316721 -1.281531 2.413989 2.864167 3.253977 2.332256 1.850195 0.871434 0.606826 0.913792 -0.369333 0.398936 0.494601 0.193475 0.055436 0.022856 -0.001751 -0.099727 0.514993 0.240827 1.070109 1.214053 2.295468 1.188813 0.097493 -1.436849 -2.324285 -2.825912 -1.841226 -1.006587 0.682191 2.323903 2.455220 3.929150 0.696768 -0.287177 -0.273789 0.134662 -0.253393 0.963133 1.301587 0.469912 0.132384 0.088222 -0.028419 -0.017195 0.541148 0.371985 1.510363 1.820262 1.531808 0.737787 -0.223261 -2.216053 -0.865275 -2.231187 -2.335945 -3.055914 -2.062963 0.950235 1.965943 2.308743 0.526185 -1.172013 -1.382565 1.266653 0.481780 1.690664 1.366247 0.836358 0.043028 0.009643 -0.035552 0.079415 0.347241 0.865760 2.062550 0.743404 1.659038 0.315923 -0.783986 0.574164 -1.687518 -1.566554 -2.445553 -2.621807 -1.155897 0.947791 0.491900 -1.109497 -0.573330 -1.298553 -1.162183 0.949102 0.148514 1.986310 0.986185 0.599906 0.060026 0.017824 0.110325 0.172509 0.350850 0.047046 0.889942 -0.692888 1.036788 -0.747949 -1.594369 -1.514253 -1.460710 -1.124547 -1.965118 -2.443231 -0.227093 0.672622 0.168968 0.268991 -1.761835 -0.463677 -1.409047 -0.005145 0.388599 1.969203 0.879252 0.437259 -0.080694 -0.060842 0.060089 0.382551 0.603306 -0.385599 -0.561043 -0.433975 0.328942 -0.576999 -0.932930 -0.978734 -2.021895 -2.546891 -1.916526 -2.216377 -2.232909 -1.920110 0.342101 -0.204319 -0.387349 0.369105 -0.151807 -0.237765 0.914590 1.942235 0.814032 0.914335 -0.035410 0.041727 -0.052227 0.162258 0.885212 -0.305344 -0.162647 -0.431428 0.797321 -0.830058 -0.100596 -2.026809 -2.701359 -3.414059 -6.711021 -6.031510 -3.566540 -4.499929 -1.498723 -2.673656 -0.294177 0.855425 -1.192400 -0.417504 -0.307621 1.076447 0.315290 0.623938 0.038074 -0.026644 -0.041651 0.162290 0.740762 -0.414919 -0.580057 0.097371 -1.168693 0.373135 0.626083 -0.948282 -2.878389 -4.733505 -7.919755 -5.917728 -4.272413 -2.172827 -1.781778 -0.379382 0.394086 0.443949 -0.734148 -0.332143 -0.993851 0.498971 0.317765 0.182380 0.005345 0.010384 -0.102048 -0.056084 0.295215 -1.170925 -0.361812 -1.240471 -1.859592 -0.414543 1.180330 -1.084976 -5.916397 -7.509741 -6.767525 -5.890838 -3.489272 -2.093478 -0.352174 -0.002582 3.399999 0.386232 -0.993248 -1.601816 -0.706037 -0.489043 -0.761411 -0.949195 0.137197 0.082797 -0.041442 -0.404886 -0.451075 -0.515229 -1.150823 -0.060702 -0.225036 1.288182 1.367500 -0.068548 -3.542528 -3.215803 -2.822931 -2.338394 -0.859665 1.466459 1.679371 3.515683 1.525205 -0.557426 -1.009026 -3.838193 -3.171709 -2.188407 -1.589929 -1.163167 0.134423 0.001054 0.032768 -0.418031 -0.540883 -1.443144 0.303729 -0.223092 0.268410 1.409390 1.236671 0.441937 -0.780372 -0.386579 -0.367189 0.725585 1.255032 2.898599 2.992743 1.192103 -0.178625 -1.254240 -2.072944 -3.208656 -3.873038 -2.340035 -1.428600 -0.561345 0.135186 -0.090187 -0.018898 -0.170390 0.014231 -0.128677 -0.402810 0.841972 1.985417 0.665522 -0.681979 0.136048 2.662802 1.086920 1.426608 0.502801 0.291160 2.022455 0.705363 0.963400 -1.325578 -0.839490 -0.970720 -3.133980 -4.100549 -2.239751 -1.845779 -0.459270 -0.347053 -0.044335 0.004303 -0.173555 0.483322 -0.132615 -0.333421 0.637158 1.971921 1.965084 1.239078 1.182383 1.707326 0.157894 0.684483 -0.397733 0.821095 1.515944 0.012026 0.240741 -0.358495 0.100662 -0.077366 -1.776280 -2.229393 -1.270896 -1.060889 -0.358939 -0.261947 -0.032210 0.088996 -0.125478 0.699483 0.048067 -0.062616 0.893368 1.664729 1.789866 1.067109 2.022338 2.773572 1.573920 1.991258 1.166339 1.596373 1.713495 1.238462 -0.215611 0.048175 0.325022 0.594877 -0.567806 -1.187499 -1.002172 -0.694318 0.018458 0.032974 0.003988 0.083810 0.080053 0.563703 0.851879 0.862933 1.001704 0.784381 1.181518 1.623231 2.652966 1.227455 0.853699 1.621995 0.952966 1.543037 0.776427 2.115991 0.659213 1.850692 0.826798 1.003339 0.038542 -0.847590 -0.177245 -0.565278 0.000422 0.026621 0.023369 -0.081464 -0.019496 0.101221 0.094255 -0.292904 1.464975 0.005884 -0.837564 0.457252 0.963498 -0.239510 -0.514733 0.756982 1.104632 1.474858 2.655802 2.307693 2.370445 2.153467 1.941120 0.858664 0.774093 0.362875 0.320008 -0.032744 0.023060 -0.026594 0.020340 0.044648 -0.016398 -0.055543 -0.102566 0.154449 -0.112945 -0.563106 -1.432141 -0.887038 -0.026970 -1.024561 -0.066672 0.137826 0.330326 1.496640 0.989488 1.864096 2.582284 1.887358 1.742123 0.927176 0.663219 0.389899 0.311567 0.094828 0.023631 0.010713 -0.042879 -0.069683 0.067484 -0.045286 0.098036 0.055631 -0.187100 -0.625861 -1.718361 -1.438522 -0.062602 -0.122500 -0.019646 -0.080200 0.192938 0.915846 0.972191 1.419760 1.621079 0.861775 0.762197 0.699144 0.248966 0.118824 0.022951 0.008032 -0.022305 -0.029462 0.006143 0.022155 -0.019525 -0.066253 -0.081627 0.038813 -0.060105 -0.551726 -1.590889 -1.357656 -0.027735 0.024588 -0.004727 0.148479 0.641480 0.704883 1.223496 0.937177 0.858946 0.146358 0.145504 0.320087 0.047433 0.004763 -0.016273 0.013441 -0.066411 0.008270 0.032144 -0.052993 -0.060403 0.035916 -0.024375 -0.020292 0.003284 -0.026276 -0.052902 0.051931 0.020550 -0.058777 -0.029193 -0.002937 -0.038623 0.624374 0.767263 0.047768 -0.012847 -0.057812 -0.033023 -0.075000 0.016588 -0.045459 0.054292 -0.052895 -0.027350 0.000368 0.074400 -0.061361 -0.068045 -0.002759 -0.013410 0.053572 -0.071875 -0.009085 -0.060591 0.011110 -0.000133 0.087075 -0.061611 -0.037999 -0.020968 -0.044767 -0.020179 0.009058 0.024763 0.040892 0.071692 0.085242 -0.008042 0.011018 -0.027203 -0.034272 0.021532 -0.045348
-0.061189 0.066982 0.030156 -0.043097 0.015962 -0.014509 0.008818 0.013049 0.000940 -0.041064 0.076776 -0.071621 0.061047 0.048984 -0.029324 0.067536 -0.008333 -0.022096 0.068273 -0.078904 -0.079579 0.032089 0.019428 -0.006824 -0.042704 0.058266 0.061707 -0.092084 -0.030390 0.036066 -0.065374 0.089421 0.014628 -0.027686 -0.005735 -0.081912 -0.055944 -0.066325 0.028575 -0.002607 0.120410 0.014621 0.012744 -0.061501 0.012976 -0.079429 0.085963 -0.091505 -0.048636 -0.118233 -0.034565 0.028200 -0.001747 -0.014883 -0.003332 -0.002619 -0.025372 -0.008999 0.057131 0.072430 -0.002263 -0.021593 0.122600 0.021565 -0.096474 0.010618 0.049418 -0.085368 -0.059498 -0.005420 -0.002275 -0.071285 0.074463 -0.051444 -0.023649 0.028385 -0.048882 -0.021693 -0.061524 -0.011529 0.017889 0.007598 -0.030830 0.027187 0.101371 0.063799 0.021061 -0.119276 0.072790 0.066986 0.129690 -0.098994 -0.126495 -0.115584 -0.096261 -0.135011 0.070229 -0.066108 0.130562 0.062081 -0.072391 -0.154150 -0.247990 -0.221759 -0.279707 -0.311906 -0.117700 0.080314 -0.013404 -0.102612 0.000396 0.006710 -0.035508 -0.013034 -0.035243 -0.005882 0.090762 -0.010867 -0.001266 -0.077079 -0.263222 -0.223248 -0.047509 -0.055590 0.092730 0.049531 0.044241 0.079600 0.114726 -0.166778 -0.378523 -0.698323 -0.701015 -0.680273 -0.374530 -0.235384 -0.048854 0.003330 -0.029525 -0.059301 -0.029510 0.037093 -0.077429 -0.059935 -0.021867 -0.085372 -0.211128 -0.197957 -0.236865 -0.251766 -0.064778 -0.061387 0.124936 0.107361 0.133787 0.184265 0.023346 -0.178112 -0.525103 -0.497766 -0.860579 -0.799592 -0.639383 -0.247579 0.071607 -0.058363 -0.117974 -0.010071 -0.084251 0.022014 0.060007 0.076823 -0.018862 -0.051264 -0.249424 -0.348253 -0.443422 -0.225572 0.008103 0.019832 -0.022790 0.031935 0.200624 0.377629 0.426022 -0.037728 -0.457646 -0.811033 -1.235392 -1.030093 -0.804432 -0.665112 -0.034016 -0.051358 -0.039740 -0.031869 0.031810 0.053879 -0.032738 -0.056163 0.076254 -0.079309 -0.395015 -0.494128 -0.433223 -0.402678 -0.168584 -0.105725 -0.169927 -0.032697 -0.105457 0.274547 0.146546 -0.312075 -0.634794 -1.094303 -1.222857 -1.198410 -0.951151 -0.907108 -0.276711 -0.205891 0.036494 -0.029934 -0.053463 -0.072751 0.030931 0.041928 0.051639 -0.133316 -0.596319 -0.767862 -0.717358 -0.676013 -0.504485 -0.408126 -0.401510 -0.458765 -0.329858 -0.160494 -0.326254 -0.725310 -1.189365 -1.296061 -1.391572 -1.420727 -0.985702 -0.977720 -0.386031 -0.220738 -0.069923 0.025844 -0.010119 0.005250 -0.042272 -0.059156 -0.041008 -0.363321 -0.823686 -0.968837 -1.030898 -0.896933 -0.913181 -0.753367 -0.941781 -0.997161 -1.145857 -1.004298 -0.822751 -1.135212 -1.325754 -1.317626 -1.613788 -1.415476 -1.101360 -0.863384 -0.375705 -0.223285 -0.096883 0.026756 -0.107931 -0.071109 0.018933 -0.026431 -0.229214 -0.535018 -1.149856 -1.274848 -1.648597 -1.432065 -1.440801 -1.311383 -1.781998 -1.908887 -1.621113 -1.339796 -0.915796 -0.730426 -0.949098 -1.215429 -1.408751 -1.574747 -1.017129 -0.931741 -0.669063 -0.272129 -0.168294 -0.045544 -0.087268 -0.035590 -0.091512 -0.140929 -0.292601 -0.857421 -1.521059 -2.098460 -2.009275 -1.797671 -1.696852 -1.866669 -1.836416 -2.527027 -2.124532 -1.281835 -0.078216 0.189585 -0.458185 -0.854906 -1.197201 -1.637151 -0.941453 -0.865954 -0.873847 -0.474982 -0.134895 0.002091 -0.024051 -0.038217 0.019955 -0.040409 -0.202102 -1.302111 -2.182206 -2.596164 -2.577632 -2.217944 -1.756612 -1.984768 -2.070256 -1.843690 -0.821805 -0.253106 0.516078 0.760644 0.480597 -0.206410 -1.040789 -1.608207 -1.334501 -1.166573 -1.009039 -0.240032 -0.020590 -0.030131 0.014822 -0.087080 -0.015252 -0.248722 -0.599776 -1.796986 -2.894790 -3.022235 -2.500871 -1.843784 -1.103036 -1.022006 -0.818403 -0.576490 -0.375229 0.122816 0.778865 1.133932 0.549316 -0.170037 -1.168996 -1.622781 -1.311453 -0.840345 -0.832194 -0.288635 -0.034985 -0.119389 0.083955 -0.003701 -0.203053 -0.540110 -0.996744 -2.070215 -2.607669 -2.459837 -1.987343 -0.849039 -0.239243 0.004050 -0.476129 -0.629193 -0.664937 -0.267519 0.358446 0.651117 0.049711 -0.675437 -1.632826 -1.975061 -1.283665 -0.687301 -0.588168 -0.155611 -0.026929 -0.071962 0.017875 -0.082239 -0.332137 -0.850167 -1.539748 -2.091891 -2.096806 -1.873480 -1.003148 -0.250360 0.298373 -0.092116 -0.326930 -0.777257 -0.867925 -0.756181 -0.208880 -0.520548 -0.816670 -1.571637 -2.169984 -2.337986 -1.375386 -0.596468 -0.537245 -0.057446 -0.119404 0.023662 0.039409 -0.117049 -0.659344 -1.072167 -1.383989 -1.543342 -1.792007 -1.114915 -0.732393 -0.465770 -0.219881 -0.495289 -0.900673 -1.152685 -1.485670 -1.770237 -1.525586 -1.223489 -1.773891 -2.211067 -2.322581 -2.244333 -1.273606 -0.336283 -0.388781 -0.129155 -0.107790 -0.004037 0.061289 -0.026620 -0.645361 -1.120800 -0.711897 -0.944836 -1.220312 -0.686449 -0.751472 -0.572164 -0.493870 -0.857295 -1.160992 -1.677546 -1.964387 -2.002669 -1.926199 -1.789021 -2.057323 -2.516523 -2.636152 -1.704044 -1.173976 -0.216376 -0.204948 -0.153927 -0.080586 -0.015478 -0.076767 0.075282 -0.503482 -0.740875 -0.527459 -0.340768 -0.577264 -0.624495 -0.431540 -0.578339 -0.647445 -1.035123 -1.643928 -1.865440 -1.988708 -1.872754 -1.829204 -2.151278 -2.540612 -2.352056 -2.032858 -1.235479 -0.499159 -0.048120 -0.026837 -0.113073 -0.113123 0.007697 -0.087657 0.057889 -0.258539 -0.421204 -0.200471 -0.067797 0.039418 0.076825 -0.305532 -0.752439 -0.964158 -1.016566 -1.671152 -1.381377 -1.473483 -1.885197 -1.777704 -2.325526 -1.995931 -1.869475 -1.260108 -0.717233 -0.464854 0.051297 -0.074979 0.004883 -0.035324 -0.014726 -0.022604 0.007625 -0.063513 -0.314162 -0.160560 0.158514 0.123331 -0.313827 -0.701239 -1.109420 -1.083596 -0.855041 -1.031126 -1.074815 -1.287293 -1.402808 -1.655468 -1.660336 -1.678261 -1.146198 -0.689647 -0.469291 -0.138063 0.115536 -0.001659 -0.055820 0.059222 0.041274 0.045528 0.058649 -0.077464 0.137770 0.011605 0.050444 -0.153367 -0.300915 -0.737760 -1.007586 -0.845716 -0.747038 -0.681084 -0.812725 -1.036202 -0.936940 -1.201461 -1.081041 -0.785184 -0.460962 -0.407363 -0.062180 0.018923 0.018400 -0.009954 0.068117 -0.020710 0.005057 -0.078727 -0.109182 0.007691 -0.030087 0.245842 0.193976 -0.183002 -0.543330 -0.546719 -0.627209 -0.379820 -0.450951 -0.437355 -0.436925 -0.453957 -0.266952 -0.480848 -0.509075 -0.502141 -0.261549 -0.044660 -0.001728 0.012813 -0.016262 0.003905 0.012996 0.018838 -0.027993 0.059806 -0.037618 0.007963 0.020015 0.017087 0.113274 -0.028326 -0.315579 -0.410280 -0.424602 -0.392443 -0.326327 -0.247072 -0.177644 -0.136146 -0.152928 -0.106479 -0.124426 -0.103115 -0.132296 -0.008288 0.015425 -0.014228 0.025035 -0.128433 0.052138 0.025344 -0.033651 -0.044097 0.009261 -0.046707 -0.014208 -0.019638 0.051997 -0.006527 -0.130383 -0.101073 -0.148224 -0.106303 0.024753 0.008702 -0.079289 -0.032325 -0.032219 -0.110926 -0.100663 -0.089056 0.015207 0.104887 -0.023169 0.086882 0.008373 0.025037 -0.120664 0.014035 0.006982 0.058904 -0.003302 0.019732 -0.054701 0.089182 -0.086352 0.030679 -0.097919 -0.156848 -0.169507 0.031862 -0.033456 -0.061057 -0.014001 0.033764 -0.058250 -0.007885 0.058951 -0.019765 0.040569 0.017737 -0.110507 -0.058138 -0.017832 -0.098005 0.074420 -0.026201 0.058442 -0.016553 0.084002 -0.029516 0.039621 -0.005667 0.012079 -0.014632 0.055970 0.051015 -0.008228 -0.011708 0.005421 -0.023841 0.020670 0.064077 0.094669 -0.045362 0.044638 0.024902 -0.039720 0.014958 0.102366 -0.019209 -0.038426 -0.097636 0.026772 -0.039698 0.000219 -0.057827 -0.060617 -0.057498 -0.045584 -0.091047 0.093207 0.046049 -0.077928 -0.061663 0.080435 0.011669 0.011122 0.099419 0.008824 0.007079 0.014600 -0.027109 -0.049589 0.004947 0.027954 0.080397 0.059885 -0.095250 -0.006854 -0.002767 -0.015639 0.054430 -0.042799
0.072822 -0.010738 -0.042466 -0.044632 -0.094853 -0.009810 -0.008128 0.104451 0.003624 0.064535 -0.001772 -0.109742 -0.075362 0.016320 -0.055822 0.142141 0.011381 0.028552 0.020266 0.059158 0.037216 0.001532 -0.017986 -0.072155 -0.110694 -0.000398 0.085895 0.052604 0.060440 0.044905 -0.089255 0.059035 0.054438 0.016517 0.030934 0.052201 -0.006289 -0.052029 -0.008926 0.019890 -0.051563 -0.042517 -0.001294 0.044351 0.006004 0.047515 0.030243 -0.026581 0.012945 -0.128596 0.060752 0.018331 0.029837 0.049293 -0.058542 0.012214 -0.016456 0.032918 -0.020858 -0.065673 0.026432 0.000902 -0.019103 0.027308 -0.033528 0.028117 -0.054401 0.024332 0.063396 0.043168 0.041443 0.006358 0.050554 0.108958 -0.092803 -0.110943 -0.132393 -0.070994 -0.025416 -0.105061 -0.018167 -0.046232 0.006490 -0.037999 0.096516 0.018354 -0.038622 -0.059312 0.021982 0.003693 -0.007135 -0.547327 -0.358589 -0.048252 0.245459 0.259070 0.247040 0.030597 -0.037127 0.295274 0.256179 0.247389 -0.277638 -0.382794 -0.518373 -0.535906 -0.087100 -0.014415 -0.053795 -0.117082 -0.076385 0.007760 0.016642 0.033530 -0.108723 -0.003361 0.015480 -0.037217 -0.278531 -0.849785 -0.508650 -0.408228 -0.010000 -0.052803 0.174098 0.111507 -0.074204 0.544856 1.030639 0.776420 0.369352 -0.557446 -1.467425 -1.339015 -0.453004 0.206004 0.244784 -0.119234 -0.093341 -0.047207 0.005305 0.041887 0.040339 0.028459 -0.057049 -0.293030 -0.607404 -0.747238 -0.560288 -0.172039 0.308331 -0.064171 -0.112379 0.524011 0.695685 1.273363 1.851581 1.785420 1.610876 0.516123 -0.663978 -1.632241 -1.382745 -0.039357 0.193754 -0.078832 0.086995 0.060462 0.024137 -0.002018 0.038734 -0.053740 -0.229687 -0.559417 -0.320025 -0.220207 -0.748314 -0.218426 -0.007655 -0.210873 -0.742109 -0.070391 0.796303 1.291297 1.144982 3.283561 3.063952 2.032908 0.019579 -2.316054 -3.033497 -0.381656 0.122314 -0.051619 -0.073909 0.050091 -0.021758 0.014810 -0.006346 -0.030756 -0.430699 -0.530368 -0.819439 0.827500 0.546260 -0.964800 -0.288226 -1.039712 -0.516359 0.118509 -0.218423 2.024853 3.064707 4.206006 4.638891 4.624652 1.985208 -0.978105 -3.020169 -1.697881 -0.094787 0.024199 0.080523 -0.054997 0.033021 -0.021928 -0.109974 -0.134382 -0.347659 -1.287618 -0.546520 0.325323 0.765521 -0.161460 0.286487 0.773700 0.934269 1.323145 1.272389 2.012597 3.516246 3.417836 2.417632 3.123196 1.942257 0.855580 -2.026778 -1.368739 -0.369068 -0.267094 -0.263982 0.028549 0.021378 -0.072068 0.001846 -0.055738 -0.725381 -0.393619 -1.047738 -0.881845 -1.255137 -1.091401 -0.203685 2.250387 2.107443 3.726224 2.125940 0.177758 1.993545 1.617186 1.573045 0.463742 0.763161 -0.174894 0.750290 0.734880 1.619439 0.305771 -0.189219 -0.018142 -0.006455 -0.007072 -0.094317 -0.195703 -0.451784 -1.775354 -1.704922 -0.724479 -0.121656 0.589773 3.501624 3.278349 2.825272 3.962252 2.565103 1.020751 0.454443 -0.550492 -0.635644 -0.922227 1.750224 -1.067814 -0.521593 0.112367 1.106270 0.179954 -0.225738 0.004332 -0.007826 0.035989 0.002241 -0.424542 -1.203943 -2.897042 -0.692896 -0.162371 -0.716825 0.569216 2.642730 3.612694 2.498081 3.575307 1.736422 -0.124934 -1.431812 -2.131523 -3.235907 -1.885062 2.394704 0.656709 1.506727 1.060668 1.580764 0.113236 -0.193934 0.033749 0.008945 0.059722 -0.363463 -0.370612 -1.765932 -1.053859 -0.818200 0.342775 0.140810 1.622775 2.874496 1.787775 2.084261 2.070382 -0.643958 -1.759086 -2.704453 -3.061114 -4.501751 -0.129848 0.026247 0.051720 1.181964 -0.292675 1.818552 -0.804100 0.077413 -0.004333 -0.027742 0.034555 -0.342216 -0.333657 -0.502240 -0.401531 0.695868 0.677358 -0.672617 -1.701398 -0.291386 0.898371 0.804945 -1.988454 -3.239208 -3.397250 -2.109301 -4.101573 -4.851486 -1.784178 -0.811358 0.409384 0.879853 0.638358 2.793900 -0.479137 -0.250507 0.035486 -0.053095 -0.113690 -0.535219 -0.093306 0.284781 1.339542 -0.983274 -0.406655 -1.115649 -2.013849 -2.147122 -2.092137 -3.178214 -3.110432 -2.878046 -3.793960 -2.783801 -3.041120 -3.660337 -2.336707 -1.932931 2.291375 1.609149 1.827235 1.134831 -0.231536 -0.481977 0.013865 0.089699 -0.088985 -0.534331 -0.936259 -0.652596 1.396045 1.418248 -2.559616 -0.948096 -2.392909 -2.176228 -3.312161 -4.994477 -3.533481 -5.581787 -5.697085 -3.421555 -2.964673 -1.980112 -1.502399 1.618720 2.194767 0.358928 1.480957 0.211810 -1.093985 -1.157826 0.009916 0.050219 -0.035059 -0.211585 -0.411205 -1.431415 0.269631 -0.029523 0.287659 0.695751 -0.955087 -3.599881 -2.045968 -5.255527 -3.937259 -4.066202 -3.730042 -3.998670 -2.999786 -0.737827 0.559835 0.271695 1.767240 0.592796 1.475460 0.603995 -0.722444 -1.276015 -0.060657 0.003311 -0.047186 -0.187862 -0.325164 -2.579360 0.126865 -0.174145 0.760079 0.349006 -1.399211 -3.214949 -3.689674 -4.373936 -2.749854 -3.805097 -2.732197 -2.295934 -0.826617 1.589123 1.713977 -0.544818 1.606672 0.776074 1.500730 0.029465 0.212880 -0.244113 0.037837 -0.073458 -0.007231 -0.021943 -0.278549 -2.691375 0.578438 1.631250 2.688999 3.616404 -0.472487 -2.668673 -3.503447 -3.531050 -1.220397 0.785927 -0.768946 1.069250 2.157636 3.290430 1.400394 -0.005511 -0.276688 0.947426 -0.338529 0.093221 -0.048533 -0.249308 -0.125288 0.075314 0.015607 -0.060324 -0.837088 -1.351831 0.304085 2.415584 2.982295 3.828135 0.099812 -2.490030 -3.315478 -1.998116 -1.011876 0.860719 2.666503 2.456438 2.083159 1.246583 1.615055 -0.935509 0.573084 0.625905 -0.158425 -0.879197 -0.370145 -0.139079 -0.230682 -0.012817 0.036024 -0.012718 -1.241521 -1.013812 0.792683 3.129111 3.552672 3.830460 0.012151 -0.975056 -3.113365 -0.934402 1.737359 3.148646 3.040069 2.770642 2.348397 0.301635 -0.444030 -0.876133 -1.558679 -0.494658 -0.565033 -0.786241 -0.051253 -0.077736 -0.012595 0.010238 0.011051 0.035996 -0.794983 -0.847854 0.025743 1.086648 2.629735 1.800489 1.608831 0.549689 -0.962989 0.085014 2.727640 3.496886 3.413497 2.316764 2.216455 0.350994 0.164775 -1.245255 -1.361620 -0.289829 -0.823139 -0.542579 -0.177511 -0.084123 0.014132 -0.074843 0.058084 -0.092617 -0.011461 -0.456080 0.369713 1.085503 1.560853 1.957884 2.651500 1.402695 0.690150 0.761727 1.735115 2.620012 2.623125 1.779031 -0.397539 -0.999450 -0.913024 -0.767074 -0.331742 -0.388295 -0.314706 -0.299311 -0.058328 -0.055691 0.036680 0.013693 -0.038337 0.033229 -0.122022 0.022178 0.244485 1.082878 2.515333 2.423363 1.479538 1.007776 0.552093 1.202729 1.518243 1.672930 1.269777 0.588291 -0.223088 -0.431695 -0.504784 -0.480397 -0.355810 -0.245443 -0.167772 -0.188518 0.022878 -0.007430 -0.010563 -0.015555 -0.016646 0.076475 -0.046852 -0.081166 -0.159895 0.946479 2.491509 1.858892 0.693023 0.559938 0.496739 0.687696 0.937579 0.757323 0.713229 0.167747 -0.131905 -0.232278 0.057302 -0.250793 -0.071675 -0.099258 -0.067157 -0.023859 0.015589 -0.031151 -0.040212 0.045655 -0.008117 0.005824 -0.046519 -0.078179 0.036573 0.229794 1.379587 1.333629 0.629342 -0.412665 0.164402 0.098038 0.041449 -0.256226 -0.259338 -0.298839 -0.156116 -0.165788 -0.008926 0.132937 0.013630 0.121149 -0.005311 -0.052353 0.004977 -0.036076 -0.014344 -0.046694 -0.028979 -0.018427 -0.073878 0.077925 -0.187507 -0.216265 0.092923 0.282445 -0.078009 -0.108639 0.149265 0.117537 0.055420 -0.073675 -0.145568 -0.193650 0.024525 0.074698 -0.002078 0.156391 0.067117 0.068721 -0.005089 0.073151 -0.002941 0.077671 -0.046966 -0.033267 -0.022183 0.047564 -0.084583 -0.039794 -0.055331 -0.020490 -0.032703 -0.060864 -0.019237 0.031768 0.010861 -0.034045 -0.020318 0.021513 -0.007650 0.031604 -0.030776 0.018318 0.057314 -0.004461 0.040675 0.068184 0.042470 -0.061129 0.044021 -0.032296 0.103581
0.058595 -0.007151 -0.065041 0.030684 0.091704 0.054413 0.068016 -0.018199 0.038115 0.002032 0.028485 -0.013083 0.019230 0.004200 -0.008219 0.011734 0.051128 0.000407 0.019244 0.005083 0.058206 0.027996 -0.048649 -0.023478 -0.001153 0.103922 -0.021295 0.011056 0.001087 0.052543 -0.084482 0.083470 0.023851 -0.011855 -0.043673 -0.032429 0.022975 0.007500 0.085530 0.059960 -0.156386 0.018092 -0.015301 0.074470 0.001350 -0.026391 -0.060898 -0.004470 -0.019426 0.001762 -0.055369 0.064210 0.008630 0.000584 -0.018557 0.038205 0.046436 0.040682 0.111195 -0.062145 0.001266 0.034891 0.058232 0.083548 0.012147 0.001770 0.009455 -0.085729 -0.003704 -0.039524 0.000884 0.034076 -0.011369 0.044837 0.023650 -0.081964 -0.133488 -0.057749 -0.010710 -0.017130 -0.125848 -0.019441 0.004871 -0.028092 0.000598 -0.075606 0.046418 0.000462 0.037383 0.050584 -0.127355 -0.810160 -0.912223 -0.489845 -0.364323 -0.120233 -0.040773 -0.051773 -0.010371 0.312498 0.365547 0.359881 -0.105155 -0.129071 -0.250653 -0.300648 -0.153576 -0.030702 -0.002716 0.018529 -0.003324 0.042177 0.038376 0.045578 0.090783 0.064393 -0.033002 -0.157930 -0.244131 -0.793066 -1.305500 -0.709681 -0.391587 -0.248996 -0.000752 -0.169262 -0.080075 0.379579 1.562526 0.651881 0.405883 -0.884859 -1.532173 -1.072078 -0.340298 0.155943 0.451638 -0.024389 -0.149214 0.014630 -0.054704 0.081605 0.026980 -0.005587 -0.025423 -0.178782 -0.591927 -0.684133 -1.112286 -0.661632 -0.678649 -0.453048 -0.586447 -0.625603 -0.386704 -0.275863 -0.042050 0.863423 1.557978 0.902664 -0.844838 -0.856762 -0.994924 0.196351 0.501883 -0.000135 -0.032580 0.004833 -0.007110 -0.039674 -0.067657 -0.009978 -0.063536 -0.080065 0.215001 0.182567 -1.770093 -1.382836 -0.646142 -0.695968 -1.881197 -1.359830 -1.669701 -1.722639 -1.814561 1.957702 2.265944 1.986731 -0.158306 -2.696128 -2.507364 -0.512318 0.143828 0.051766 -0.041420 0.049136 0.014766 0.031966 0.021684 0.058985 -0.402733 -0.101968 -0.825209 -0.815450 -0.681150 -0.075897 -0.058568 -1.493175 -1.678625 -0.508776 -1.213381 -2.013992 -2.110930 1.493307 2.820723 3.388785 1.079811 -1.287997 -3.499870 -1.271941 -0.241224 0.054711 -0.028371 -0.016289 -0.033655 0.014448 -0.004179 -0.010138 -0.473143 -1.732234 -1.016298 -1.880799 0.546533 1.777254 2.018559 0.716941 -1.187969 -1.884338 -2.113726 -2.688266 -0.151902 -0.148444 1.431302 2.355760 2.393886 1.079209 -2.371286 -1.455070 -0.417388 -0.072688 -0.238071 -0.027359 0.021770 0.075633 0.038633 0.059860 0.019740 -1.591632 -1.579564 -1.342444 -0.736501 0.507749 0.470008 0.269562 -0.179686 -0.096742 1.238447 -1.807725 -0.273163 -1.062740 1.351525 2.470493 2.101310 2.646264 0.414642 -1.719830 0.168452 0.785255 -0.008101 -0.056457 -0.006461 0.039185 0.130495 0.001448 0.275432 -2.472059 -2.137585 -0.125398 -1.619256 1.252525 1.689482 1.688492 0.908335 1.688174 2.136196 0.601640 0.358342 -1.544108 -0.549163 1.656287 3.867309 1.436492 1.095655 -2.320405 -1.078553 0.958422 0.092144 -0.009847 -0.039738 -0.071162 0.036156 0.780971 -0.354837 -3.398658 -1.905841 -1.164292 -0.371956 0.618245 1.158662 0.673511 -0.460954 2.412506 1.627235 -1.097015 -1.293655 -3.273230 -3.783587 0.348229 3.329603 1.556508 3.155434 -1.458872 -0.381445 1.293393 0.080908 0.036636 0.097741 -0.023675 -0.206373 0.684752 -0.427181 -1.520879 -1.644965 0.400515 1.018217 1.192365 2.717738 0.403643 2.190202 1.948312 1.388341 -0.382023 -1.814934 -3.088908 -3.262347 -0.234754 0.867185 1.311359 0.903141 -1.235594 0.798410 0.012575 0.182324 0.045271 -0.020308 -0.064228 -0.045487 1.508863 0.699514 -3.102818 -0.247407 1.441517 0.847381 1.293368 0.504068 2.281379 4.106969 -0.515804 -1.002267 -0.971401 -0.499105 -2.204127 -3.208551 -0.825565 0.820131 1.611096 1.088945 -0.638303 0.434717 0.157163 0.059949 0.051533 0.025835 -0.090666 -0.000756 0.717722 0.529082 -1.761059 -1.114180 0.928257 0.873387 -0.041756 -1.189680 -0.835662 -0.336517 -0.317529 0.135072 -0.303116 -0.637268 -0.924452 -1.988432 0.060298 -1.266676 2.529963 0.902414 -0.007537 -1.267545 0.464589 0.123024 0.092897 -0.080555 0.058992 0.000503 -0.179995 -0.884822 -1.616232 1.059341 0.452627 0.954159 -1.379521 -0.680169 -2.150857 -2.721189 0.335423 -2.215289 -2.862887 -2.032452 0.502924 0.644439 -0.770849 0.215694 1.666103 -0.352122 -0.755976 -1.283335 0.097444 -0.245024 -0.027472 0.020254 -0.022748 0.181636 -0.166970 -1.064713 -0.770792 0.987035 2.148068 1.107429 -1.492186 -3.281360 -2.322618 -2.768866 -0.566469 -0.750166 -0.337486 -0.697651 -0.548436 1.707337 0.143184 -0.368152 1.408038 -0.074467 0.430019 -0.836563 0.756991 -0.185840 0.025518 -0.038910 0.001486 0.114730 -0.109651 -1.441796 -1.355009 0.591852 1.514929 0.621358 -3.491794 -3.492436 -4.565314 -4.128101 -1.060648 -1.019549 0.277731 -0.621159 -0.113700 0.295192 1.299813 -0.405138 0.525847 1.265213 -0.525109 0.000199 0.711600 0.010157 0.028725 -0.064447 -0.053513 0.115277 1.984628 0.392441 0.131051 1.196424 1.867343 2.236901 -2.963758 -4.526118 -4.806171 -4.142199 -1.036996 0.894605 -0.791012 -0.410361 -0.303657 0.450365 -0.700125 0.068783 0.529568 1.677654 0.076287 0.148706 0.622785 -0.016811 -0.009509 -0.095134 0.056201 0.002339 1.758192 1.386346 0.092313 1.782700 -0.081048 1.077292 -2.558062 -4.238161 -5.523486 -3.577318 -2.073273 -0.565616 0.241550 -0.731085 -0.310930 -1.514026 1.857802 -1.074555 1.116363 1.578890 -0.177221 -0.697766 0.030885 0.045723 -0.053617 0.013097 -0.000427 0.002594 0.445770 1.837617 1.852656 1.306761 1.099078 1.942579 -1.783111 -2.346555 -4.526336 -3.514275 -0.967777 0.047972 -0.383561 -1.601600 0.279788 0.197657 -1.486153 -0.656002 -0.146751 -0.087800 -0.719207 -0.728475 0.076862 0.082782 0.049926 0.056681 -0.060299 0.036127 -0.295631 0.620594 1.092151 0.564449 1.691970 -0.481951 -1.191882 -1.372383 -3.194312 -2.491304 -1.317736 -0.147755 0.252790 -0.301421 0.131699 -0.371567 -0.161453 -0.903419 0.204672 -0.671659 -1.112703 -0.278779 0.078480 0.088664 -0.020389 -0.005602 0.038169 -0.073236 -0.016284 0.059387 1.232607 0.565468 2.646364 1.471928 0.457841 -1.177752 -1.918461 -1.302864 -0.176038 -0.584470 -0.870836 -1.013902 -0.138876 -0.151272 -0.040812 0.164089 -0.510873 -0.446547 -0.024871 0.054972 0.082430 -0.008591 0.007047 -0.004699 0.076190 -0.025688 -0.025694 0.442017 0.357243 1.464061 2.508213 1.639442 0.835582 -0.660733 -1.597071 -0.160282 -0.015620 -0.162798 -0.367795 -0.238055 -0.108586 0.304838 0.397792 0.206331 -0.146699 0.025693 -0.021706 -0.131356 -0.004981 -0.045503 0.079835 0.059921 0.020193 0.075745 -0.059674 -0.203741 -0.204726 0.993205 2.938295 1.850026 0.981238 0.766436 -0.233022 -0.372772 -0.340946 -0.251105 -0.535795 -0.447269 -0.394401 -0.100877 -0.069832 0.048358 0.038871 0.114664 0.047413 -0.060133 0.048086 0.012877 0.030009 -0.027118 0.077587 -0.022592 -0.087349 -0.052104 0.177181 0.449314 2.040704 1.480185 0.475763 -0.113143 -0.150339 -0.075348 -0.124672 -0.268866 -0.182100 -0.248795 -0.119273 -0.023823 0.109878 0.043941 -0.008751 -0.070661 0.080418 0.015228 -0.084999 0.033641 -0.013260 -0.038436 -0.005654 0.003118 0.026791 0.020549 0.006302 -0.121962 0.297597 0.383581 -0.066027 0.064444 -0.032201 -0.117298 -0.019648 0.042518 -0.179642 -0.223051 0.082757 -0.011473 0.004205 -0.171589 -0.037082 -0.024572 -0.024051 0.011315 0.046112 -0.127159 0.024122 -0.011843 -0.106829 0.046144 0.010141 0.095119 -0.080941 -0.021910 -0.003825 -0.012055 -0.037376 -0.013232 0.009651 0.007031 0.087884 -0.007315 0.041206 0.033702 -0.054267 -0.033683 0.074290 -0.041286 0.028569 -0.092285 0.018367 0.025568 -0.058670 0.010755 -0.011019
0.062582 -0.050657 0.008183 0.082640 0.015386 0.020738 0.033892 0.037911 -0.035430 0.002062 0.048106 -0.023134 -0.032372 -0.070322 -0.025496 0.022050 -0.046804 0.022151 0.047901 -0.074053 0.045546 0.063184 -0.029056 -0.118071 0.110463 -0.055424 -0.007581 0.030388 -0.042157 -0.041372 -0.086193 0.029305 0.037546 -0.101773 0.082322 0.012431 -0.061974 -0.117272 -0.091701 0.034120 0.079012 -0.050926 0.029129 0.022516 -0.107711 -0.038706 -0.156089 0.023649 -0.069245 -0.016926 -0.068983 0.082920 -0.045745 0.049450 0.020469 0.020973 0.101267 -0.082011 0.043766 -0.051911 0.018459 0.027985 -0.002767 -0.064992 0.012833 -0.118095 -0.082582 -0.027723 -0.089233 0.004999 -0.030180 0.048126 -0.008894 -0.037141 0.110473 0.014267 -0.045924 -0.117187 0.025089 0.061026 0.054078 -0.074563 0.063020 -0.093137 -0.100915 0.002474 0.024544 -0.059923 0.109551 0.039430 0.078406 0.059053 0.013564 -0.022658 -0.100175 -0.072538 -0.011285 -0.068871 0.075143 0.074561 0.073860 -0.030345 0.035542 -0.141832 -0.160466 -0.214472 -0.082162 0.081817 0.077853 -0.022407 0.022282 -0.062825 0.067519 -0.041730 -0.025863 0.029383 -0.046677 0.078151 0.249503 0.202872 0.021131 0.143007 -0.614687 -0.483889 0.083524 0.236001 0.291990 0.214983 0.188476 -0.082058 -0.164409 -0.323253 -0.334636 -0.261661 -0.213398 -0.008010 -0.068271 -0.069323 0.082121 0.003335 -0.044889 -0.054609 0.030092 0.066724 -0.021012 -0.021492 0.152927 -0.029992 -0.164345 -0.710619 -0.748670 -0.954536 -0.057857 -0.027331 0.015737 0.526607 0.243368 -0.087238 -0.800805 -0.748934 -0.875657 -0.639437 -0.300409 -0.165026 -0.124473 -0.032596 -0.211816 -0.045549 0.062415 -0.005177 -0.017729 -0.008386 -0.039430 0.423976 0.319983 -0.296210 -0.501917 -0.936306 -0.906691 -1.202521 -0.730735 0.153248 0.682584 1.300860 0.961145 -0.435206 -0.561912 -0.871460 -0.855929 -0.898436 -0.752264 -0.195234 -0.169932 -0.314703 -0.338550 -0.141143 -0.006765 0.016593 0.002396 0.002099 0.137620 0.513323 0.249493 0.054069 -0.240795 -1.414593 -1.392635 -1.725561 -0.905411 0.209214 0.828488 1.759172 1.015468 0.172535 -0.817677 -1.428438 -1.156546 -1.019830 -0.636465 -0.550418 -0.502871 -0.518970 0.069484 -0.015024 -0.017817 -0.038364 0.108226 -0.076433 0.314459 0.362946 0.195271 -0.192589 -0.739437 -1.731823 -1.210242 -1.291057 0.427799 0.320141 1.659932 1.958125 1.407760 0.208583 -0.883043 -1.534366 -1.602759 -1.557138 -1.373564 -0.732726 -0.264797 -0.153026 -0.146115 -0.142632 0.014990 -0.057816 0.031560 0.005919 0.208964 0.519967 0.229999 -0.127620 -0.142204 -0.767291 -0.457521 0.872052 1.464742 1.959964 1.737335 1.055584 0.617318 -0.345388 -1.291810 -1.879685 -2.275719 -2.245550 -2.125495 -0.673383 0.154984 0.446373 0.063048 0.099319 -0.019684 -0.004938 -0.012149 -0.271430 -0.178967 0.342986 0.513008 0.169865 0.371816 -1.155517 0.004735 0.515348 1.303129 1.681647 3.013272 1.552163 1.176470 -0.545527 -1.101717 -2.197437 -2.786997 -2.100469 -1.614785 -0.450496 0.801450 0.517640 -0.220409 0.022101 -0.000246 0.076593 0.027045 -0.336636 -0.584484 -0.173479 -0.111305 -0.099690 -0.434757 -0.471288 -0.304858 0.205169 1.328541 1.685350 2.553276 2.463624 1.294924 0.068214 -0.164858 -1.859820 -3.004790 -2.439793 -1.237946 -0.030947 -0.180654 -0.106955 -0.201387 -0.057533 -0.002690 0.026604 0.040634 -0.256327 -0.562327 -0.408979 -1.223367 -1.113239 -1.232040 -1.359872 -1.138968 0.457132 0.283349 2.084245 4.046060 2.650962 0.992910 -0.100016 -0.363085 -1.299763 -2.570163 -1.923285 -0.580424 0.740219 -0.656347 -0.337585 -0.626004 -0.117009 -0.119059 -0.036143 -0.116264 -0.541178 -0.584335 -1.230154 -2.153687 -2.788761 -1.530270 -1.807134 -1.165216 -0.405085 -0.110830 2.377898 3.529301 2.341058 1.172449 0.017467 -0.245423 -0.673252 -1.103089 -1.018720 0.091013 1.320584 0.584409 0.065923 -0.368887 -0.055777 -0.014215 0.048394 -0.209001 -0.876214 -1.296151 -2.224614 -2.238892 -2.084216 -2.155209 -2.304986 -1.735004 -0.996072 1.120312 2.084670 2.881040 1.857073 1.260559 0.338278 0.639426 0.889601 0.346684 -0.457617 0.187275 0.948278 -0.110033 -0.225847 -0.571631 -0.083953 -0.027798 0.018492 -0.330495 -1.061736 -1.432865 -2.615722 -2.612929 -2.200868 -2.779020 -3.466700 -2.765889 0.164948 1.891966 1.700405 1.893821 1.810806 1.830825 1.201847 0.632824 -0.135337 -1.259713 -0.615626 0.130836 0.767157 -0.432955 -0.435043 -0.082455 -0.009029 -0.071978 -0.050777 -0.550007 -1.339040 -1.709883 -1.984093 -2.204464 -1.968474 -2.993476 -2.135902 -0.568746 1.249385 1.325753 1.570724 1.700652 2.026792 1.881500 1.759433 0.183215 -0.458713 -1.093404 -1.134471 -0.317543 0.952449 0.417246 -0.380621 -0.001084 0.001115 0.014140 -0.108597 -0.644801 -1.386846 -1.536725 -1.334160 -0.448106 -1.122649 -1.956563 -1.501600 -0.150859 1.122346 1.564238 1.535625 1.502914 1.118924 1.898464 1.010759 -0.534756 -1.732688 -1.252379 -0.832635 -0.178897 0.908055 0.239059 -0.495040 0.073629 -0.022320 -0.083535 0.004987 -0.403105 -0.977226 -0.854181 -0.292090 -0.826408 -0.482454 -1.230135 -0.287448 0.826915 0.703644 0.011651 0.339232 1.157915 0.495697 0.348725 -0.061390 -1.267663 -1.299187 -0.855390 -1.067470 -0.000626 0.339292 0.043354 -0.522102 -0.110877 0.019803 -0.088404 -0.028057 -0.199038 -0.735112 -0.197109 0.770645 0.855185 0.909080 -0.244100 -0.022899 0.733007 0.739336 0.228855 -0.202285 -0.361859 -0.328585 -1.143055 -1.312636 -1.585299 -1.477048 -0.801623 -0.127748 0.164327 0.529886 0.010205 -0.338402 -0.141673 0.034981 -0.038749 -0.039382 0.005148 -0.378602 0.337764 1.138811 1.855489 1.235442 0.184713 0.151495 -0.231406 -0.455253 -0.677963 -0.908385 -0.707538 -1.557249 -1.842946 -2.113604 -1.471644 -1.027365 -0.480301 -0.153039 0.084783 0.493280 -0.060578 -0.066522 0.034547 -0.045924 -0.018504 -0.074547 -0.022309 -0.009452 0.531300 1.390932 1.628542 1.143514 0.104318 -0.350129 -0.545125 -0.681841 -1.121408 -1.100999 -1.331044 -1.127960 -1.676794 -1.607381 -1.089730 -0.717669 -0.333593 0.268679 0.519870 0.502803 -0.064927 -0.053260 -0.040738 -0.013921 0.075474 0.044130 0.008526 0.070996 0.507101 1.069190 1.687199 0.899843 0.527192 -0.087691 -0.748627 -0.561907 -0.831628 -0.975495 -0.360709 -0.921788 -1.161264 -0.909567 -0.670006 -0.395952 -0.271837 -0.263187 -0.096431 0.082438 0.133648 0.024301 -0.003459 0.006632 -0.003221 -0.027195 0.096969 -0.049684 0.263530 0.597415 0.732987 0.463106 0.634510 0.147096 -0.353916 -0.014520 -0.738133 -0.459727 -0.389722 -0.720705 -0.703617 -0.364220 -0.534175 -0.370620 -0.256622 -0.255418 -0.064682 0.030469 0.025972 0.033429 0.034277 0.034809 0.009988 0.004275 -0.022147 0.011406 0.001934 0.088667 0.334020 0.093079 0.019474 0.050149 -0.281162 -0.298544 -0.187638 -0.188422 -0.403759 -0.024456 -0.488404 -0.329960 -0.205594 -0.184486 -0.097022 -0.077758 -0.026621 -0.104922 -0.011662 0.015693 -0.042827 -0.020402 0.069280 0.046345 0.036979 -0.038379 0.002375 0.111334 0.318656 -0.197440 -0.000039 0.187957 0.016776 -0.006146 0.022884 0.006517 0.019334 -0.058300 -0.020047 -0.022645 -0.046486 -0.010955 -0.104262 -0.106242 -0.067117 -0.076217 0.041214 -0.066075 0.040511 -0.014063 0.023427 0.107029 -0.025372 0.058318 -0.042812 -0.007664 0.038854 0.054744 -0.089202 0.036917 -0.023145 -0.019595 0.072617 -0.045572 0.038874 0.022727 0.020640 0.022600 0.029029 -0.001476 0.014784 -0.015870 -0.033560 0.028976 0.009169 -0.010110 -0.000602 0.022883 0.012225 0.039048 0.066344 0.127326 0.039667 -0.019874 -0.043047 -0.094188 0.036883 -0.041679 0.084343 -0.001006 0.074700 -0.085002 -0.006634 -0.100645 -0.000706 0.080955 0.060025 -0.021824 0.041255 0.047568 -0.030984 0.035547 -0.083109 -0.003192 0.023004 0.014816
0.040121 0.013036 -0.002775 -0.036310 -0.045735 0.002249 0.051579 0.096399 -0.025192 0.097256 -0.023081 0.061826 -0.060023 0.017356 0.059422 -0.028478 0.033326 0.005266 0.050514 -0.163244 -0.023649 0.021361 -0.054519 -0.088784 0.035230 -0.007417 -0.119568 -0.014606 -0.065968 0.021611 -0.064218 0.006425 0.081671 -0.016127 -0.062343 0.019319 -0.054299 -0.128037 -0.099083 0.010036 0.045563 0.048903 -0.131353 -0.078881 -0.017940 0.028782 0.050117 0.023815 -0.007992 -0.017462 0.028979 0.067623 0.064281 0.057507 0.011909 -0.021841 -0.011089 0.075408 -0.007020 0.029490 0.048611 -0.062939 0.001465 0.011363 -0.030191 -0.051603 -0.025813 0.009694 0.000946 0.046241 -0.030172 0.030121 0.020476 0.049526 -0.024936 -0.116835 -0.052018 -0.122706 -0.111062 0.011149 0.045088 -0.009997 0.006305 -0.036954 -0.006026 0.044613 0.021147 0.059051 -0.024889 0.052492 -0.103937 -0.412496 -0.433539 -0.228950 -0.445074 -0.267919 -0.380178 -0.374889 -0.058671 0.218020 0.110208 0.068253 -0.343564 -0.510880 -0.652948 -0.576278 -0.167280 0.055470 0.065864 -0.005983 -0.013478 0.014820 0.017793 -0.023258 -0.010417 -0.095001 -0.062187 -0.074482 -0.156170 -0.402864 -0.650476 -0.371803 -0.630312 -0.505002 -0.464609 -0.484841 -0.392098 0.261365 0.437962 -0.172585 -0.463975 -1.251051 -1.443473 -1.438351 -0.596598 -0.066476 0.009314 -0.053084 -0.058257 -0.040940 -0.007730 0.053110 -0.065771 -0.004082 -0.148347 -0.217473 -0.420369 -0.708357 -0.383886 -0.354684 -0.266087 -0.179577 0.222590 0.260875 0.490698 0.709698 0.557670 0.995664 0.781140 -0.250799 -1.337980 -1.954913 -1.714774 -0.500795 -0.118238 -0.212778 -0.109467 -0.038176 -0.031558 -0.036006 0.086703 -0.038766 -0.112939 -0.006544 0.205566 -0.067869 -0.281379 -0.441257 -0.588090 -0.156634 -0.121896 -0.189359 -0.374934 0.546767 -0.684113 0.638438 1.241371 1.702364 0.159945 -1.478108 -1.940992 -0.891940 -0.204947 -0.334279 -0.151796 -0.120252 0.014942 -0.056477 -0.076193 -0.051775 -0.250971 0.202672 -0.052039 0.809210 0.762474 -0.256254 0.305717 -1.391126 -0.018348 -0.751193 -0.967228 -1.083715 1.053932 2.002247 3.477059 4.203987 2.019498 1.024442 -0.564378 0.013071 -0.310537 -0.563569 -0.171295 -0.080868 -0.004080 0.025279 0.115727 -0.184087 -0.040948 -0.843587 -0.608654 0.147021 0.666284 0.337032 1.022394 0.586112 -0.388545 -0.648161 -0.007183 -1.084331 0.456167 1.009134 1.421256 2.351759 2.504098 2.844484 1.034815 1.043062 -0.337034 -0.629804 -0.370977 -0.002413 -0.063586 -0.001022 0.056216 -0.222931 -0.484415 -1.032021 -0.905764 -2.033603 -1.586308 -0.598889 0.800986 1.417092 1.449626 1.191268 -0.260973 0.193297 0.094711 1.262620 2.395441 1.365568 1.581080 1.063747 2.365690 3.578537 1.258212 -0.472149 -0.417998 0.075232 0.019749 -0.104699 -0.084203 -0.231958 -0.692707 -1.492381 -2.936933 -2.609873 -1.752657 1.179510 1.724591 2.205458 0.203521 0.683277 2.164226 0.328530 0.211310 -0.092323 0.710298 0.642031 1.014981 0.849988 1.280839 2.781708 1.436940 -0.620927 -0.450143 -0.026664 -0.077930 -0.001348 -0.051197 -0.558900 -1.349111 -3.790145 -2.346064 -0.974694 -0.168981 0.857461 1.941394 1.547100 0.896740 3.142170 3.826688 2.179331 0.376422 0.002534 0.905461 -0.884124 2.175425 1.551534 1.854198 3.140895 2.505011 -0.579100 -0.398830 0.020708 -0.038013 -0.040763 -0.232745 -0.531105 -3.272409 -2.029761 -1.439735 -0.564270 0.175590 0.087929 1.466786 1.024718 2.063411 4.063672 3.058261 1.597858 0.242598 0.122294 -1.016344 1.018494 0.188370 0.891972 1.217174 1.221700 3.029530 -0.847707 -0.440163 -0.109926 0.055080 -0.002918 -0.193735 -0.573220 -2.753711 -0.090847 -0.065394 2.359462 1.055840 -0.096192 -0.228406 0.827867 0.509887 0.761998 1.488158 0.254724 0.325311 -1.660483 -1.963407 -0.547437 0.804733 1.101219 1.634833 0.878851 2.321954 -1.604874 -0.506068 -0.035414 -0.083090 0.087644 -0.241573 0.043507 -1.093656 1.278140 1.055354 1.335397 1.015443 -0.855806 -0.978533 -1.355958 -1.687272 0.382070 2.368303 0.251786 -0.067946 -1.070789 -1.916676 -0.608639 0.613500 1.506862 0.748189 0.688703 1.595618 -1.657335 -0.344938 -0.082766 -0.026615 -0.003255 -0.033213 -0.287790 -1.603365 2.226426 3.542371 1.618450 0.115985 -2.738704 -2.588796 -2.590652 -2.752958 -0.890712 -0.104432 -0.774232 -0.061578 -1.050718 0.320460 -0.833290 1.445766 1.278198 -0.315702 -0.455453 1.159638 -0.790834 -0.434161 -0.035249 0.025103 0.022631 0.520681 0.645176 -1.919300 2.395293 3.364150 2.256856 -0.301023 -2.529547 -3.873502 -2.901402 -4.102890 -2.706957 -0.971007 -0.994903 -2.093259 -1.342114 -0.304035 1.081633 -0.067986 0.381296 0.049123 -0.894016 1.292578 -0.445248 -0.097195 -0.047186 0.044798 0.066180 0.560578 0.659544 -1.959495 1.752209 1.106736 -0.018660 -1.545697 -3.510356 -6.235912 -3.498942 -4.539184 -1.917933 -2.793279 -2.689045 -2.498955 -1.373312 1.489663 0.430460 -0.681713 -0.244938 -0.548157 -0.807444 -0.141935 -0.532186 -0.053590 -0.079997 -0.080510 -0.112793 0.395983 0.901833 -0.117259 1.952631 2.146841 1.322802 -0.454077 -2.794826 -2.711211 -3.050442 -4.351121 -1.777781 -0.568379 -2.768257 -1.553326 1.035829 1.349966 -0.417222 -2.307393 -1.660352 -1.279340 0.333910 -0.568349 -0.351661 -0.301832 -0.047670 -0.021755 0.056580 0.363329 0.224359 1.381126 2.508875 3.930383 3.502659 1.479377 -1.190400 -3.183183 -3.108962 -1.067717 -2.803105 -1.423266 -0.811630 -0.925088 -0.110730 -0.862201 -0.578986 -2.090217 -1.416486 -0.990791 0.387244 -0.726644 -0.289740 -0.139305 -0.146437 -0.120429 0.068834 0.133555 -0.090343 0.756503 2.009428 2.454122 2.816105 0.982759 -1.864370 -2.449238 -2.621739 -0.761079 0.084393 0.841550 0.273803 0.398761 0.633731 -0.695882 -1.336153 -2.301877 -0.391466 0.504382 -0.574133 -0.765518 -0.036661 0.020698 0.002034 -0.009518 0.061069 0.072320 -0.446676 -0.239629 0.567753 0.680594 1.568720 0.950230 1.563068 0.585886 -0.192574 0.310075 2.328675 3.608619 2.765849 1.111396 2.074732 -0.033650 0.471445 -0.225973 -0.533149 -0.044200 -0.439301 -0.146303 0.065499 0.022470 -0.113916 -0.046328 -0.082529 0.056871 -0.178717 -0.167689 0.367688 0.332916 0.722313 1.374088 1.712635 1.272323 0.699495 1.402200 1.280024 1.845550 1.455674 1.015395 -0.179253 -0.375017 -0.405587 -0.867819 -0.333535 -0.257730 -0.092549 -0.045748 0.038407 0.091067 -0.061056 0.056499 -0.000723 -0.064800 -0.045758 0.409659 0.418652 1.168137 1.178444 1.656369 1.476513 1.316897 1.584508 1.338606 1.477645 1.328696 0.427088 -0.101202 -0.669330 -0.508696 -0.549226 -0.496723 -0.590854 -0.125470 -0.119470 -0.043959 0.073774 0.042474 0.041801 0.034112 0.019845 0.086035 0.020273 -0.012593 0.257561 0.728272 1.403205 1.470222 1.222265 0.808701 0.561333 0.688075 1.053813 0.936856 0.555206 -0.092360 -0.377728 -0.183514 0.027520 -0.390294 -0.268100 -0.102542 0.058253 -0.020550 -0.017884 0.059243 0.044208 -0.018668 -0.019555 -0.002304 -0.019868 0.010390 0.257209 0.280809 0.924718 0.862019 0.460674 0.103133 0.193479 0.102207 0.067012 -0.491003 -0.441485 -0.537115 -0.365320 -0.186428 -0.081322 0.093351 -0.016054 0.101364 0.137449 -0.008931 0.082536 0.072128 0.007012 0.041744 -0.023437 0.075859 0.032086 -0.031887 0.101488 0.041322 0.276248 0.172362 -0.044151 0.065740 0.125030 0.108516 0.105506 -0.007602 -0.496885 -0.487461 0.046039 -0.033344 -0.026788 0.155245 0.055712 0.094799 0.049452 0.080913 -0.039715 0.050398 0.049518 -0.079086 0.060823 -0.014154 0.074132 -0.037079 -0.018436 0.032602 -0.007098 -0.016227 -0.094176 0.050746 0.010891 -0.010058 -0.063545 0.008442 -0.037047 0.019081 0.068749 -0.010216 -0.036295 -0.105226 -0.002455 0.021701 -0.001481 -0.051273 -0.007332 0.017039 0.093754
-0.051828 0.013105 0.077082 0.037832 -0.016433 0.069688 0.007997 0.062203 0.050193 -0.048799 -0.041517 0.013849 -0.041716 0.040740 -0.059807 -0.010719 0.037491 0.043526 -0.042792 0.108613 0.056693 0.029689 0.052981 0.006239 0.000500 -0.006214 -0.017796 0.028189 0.051677 -0.017629 -0.010498 -0.039285 0.008270 0.025736 0.097124 0.074531 -0.052461 -0.093285 0.016336 0.013058 0.012187 0.005815 -0.056241 0.022988 0.086528 0.037598 -0.079658 -0.002496 -0.053314 -0.032004 -0.036939 0.041607 0.103496 0.006486 -0.104441 -0.065506 0.069822 0.081565 0.027823 0.035137 -0.007464 0.015352 0.056755 0.097703 -0.041945 -0.095778 -0.075711 -0.025165 -0.089883 0.048730 0.076976 -0.100774 -0.057388 -0.002797 0.035464 0.088413 0.146493 0.226319 0.018628 0.047426 0.018544 -0.013768 -0.010670 -0.068976 0.081107 0.027227 -0.007838 0.071469 -0.017262 0.030502 -0.004910 0.096537 0.041594 -0.006957 -0.332712 -0.347384 -0.271477 -0.361714 -0.233819 -0.241788 -0.063351 0.199685 0.418980 0.714995 0.888241 0.761011 0.278845 0.091026 0.079568 -0.034957 0.147900 0.043024 -0.113366 -0.015738 -0.035781 0.068655 -0.028820 -0.008285 0.229873 0.349294 0.395933 0.373320 -0.357026 -0.509422 -0.589435 -0.803078 -0.716742 -0.376430 0.659280 2.102996 2.450341 2.700228 2.866996 2.542376 0.831638 0.010325 -0.614545 -0.014071 -0.122148 -0.016004 0.030806 -0.020535 -0.032246 0.042282 0.217503 0.525467 0.623209 0.416323 0.360040 0.389760 -0.244573 -0.515842 -0.866609 -1.413472 -1.353579 0.164955 2.159468 3.125515 4.743051 4.640571 4.326030 3.339661 1.302736 -0.630275 -0.946716 -0.809735 -0.174719 0.014640 0.061295 0.003769 -0.031493 0.193763 0.580418 0.561129 1.441749 0.919214 0.569437 1.352174 -0.043008 -0.536252 -2.711457 -1.361818 -1.044714 0.488833 2.955656 3.669616 5.747900 7.209410 6.307791 4.005015 1.497292 0.382892 -0.539881 -1.002444 -0.346955 -0.054142 -0.104246 -0.000043 -0.134514 0.507723 0.514927 0.756073 1.065509 1.022534 1.572931 0.197587 0.148561 -2.008791 -3.445694 -2.570426 -0.540591 0.535029 1.208007 2.866575 4.581008 6.886791 6.009357 3.767212 2.033101 0.141237 -0.679354 -1.173530 -0.295426 -0.170369 0.010025 0.015684 0.075110 0.514678 0.615606 1.567366 -0.033921 1.426099 -0.153337 0.075300 -1.581520 -3.953567 -3.525186 -3.002019 -1.071051 -2.131920 -1.009917 0.343347 0.838730 2.742242 5.139932 4.634748 2.412451 0.630520 -0.635608 -0.983568 -0.800542 -0.021324 -0.060948 0.004963 -0.056413 0.831552 0.455827 1.481471 0.663206 -1.542614 -1.877948 -4.507745 -2.955595 -5.318464 -3.903544 -3.986077 -3.286713 -4.104168 -3.346924 -1.492614 -0.785742 1.898793 2.946870 0.812651 0.696507 0.962779 -0.898974 -0.990795 -0.676271 -0.033638 0.036986 -0.046699 0.087641 0.507042 0.600684 2.219736 -0.167420 -0.536355 -1.637057 -3.984484 -4.236735 -5.654143 -4.758961 -3.858342 -2.136702 -2.595941 -1.937403 -1.906614 -0.438599 2.649524 2.287239 0.795287 0.822074 2.308707 -0.165244 -1.772205 -0.642710 0.046424 0.018952 0.008472 0.127575 0.199893 1.168251 2.079916 -0.622946 1.095268 -3.278292 -4.297282 -4.164863 -2.356548 -2.709878 -1.738576 0.342883 0.469710 -0.095840 1.834102 3.610000 2.973280 0.498670 -0.198851 0.205880 2.537151 0.808406 -1.433961 -0.506821 -0.027242 0.006516 0.012057 0.537428 0.309887 0.533444 1.439877 0.815713 0.069095 -2.662667 -2.540060 -2.308957 -1.532599 -2.118448 1.322739 4.518614 1.815689 1.071286 0.740785 3.163862 2.479189 -1.056792 -2.362241 -2.357264 1.282137 1.787577 -1.605169 -0.565320 -0.169580 -0.079411 -0.203601 0.478903 1.000613 0.485354 2.762674 1.573805 0.592960 -1.166395 -2.898879 -2.358604 -2.811654 -2.786532 -0.728900 3.061054 0.700989 0.666517 -0.108161 1.281220 -1.291672 -2.575190 -4.548920 -5.547561 0.945167 0.978184 -1.942615 -0.822442 -0.133315 0.009398 -0.181613 0.613889 0.568113 1.063680 1.702534 3.129784 0.075484 -0.587531 -4.038804 -4.353488 -2.151478 -0.448533 -0.684411 2.214323 -0.108731 -1.346725 -3.306769 -2.532092 -2.248602 -2.838309 -2.937659 -3.320938 0.502065 0.272479 -2.247014 -0.709090 -0.046858 0.040365 -0.251441 0.289199 -0.196786 -0.630838 3.399372 3.829183 1.316469 -2.372425 -2.266331 -1.856342 -0.250477 0.793229 -0.140553 -1.316879 -3.735111 -5.643460 -3.762924 -1.993460 -0.712385 -1.415693 -3.271321 -2.657655 -1.269049 -0.278569 -1.269460 -0.606508 0.046014 0.082013 -0.097590 -0.802970 -0.473597 -1.028564 2.475205 4.485123 1.421488 1.836856 -0.477055 2.317842 0.170892 1.544430 0.699874 -3.294956 -5.798314 -4.625396 -2.041756 -1.255903 -0.346189 -3.724287 -1.153736 -1.915820 -1.131089 -0.631831 -1.022942 -0.371056 -0.090818 0.021481 -0.075183 -0.819515 -0.632301 -2.084146 2.100380 3.433778 1.747586 -0.505678 1.551000 -1.520343 1.641483 1.606076 -0.586929 -3.483369 -7.458718 -4.561247 -3.344445 -1.625618 0.189917 -0.079225 0.028753 -2.346174 -1.333308 -1.636778 -0.866169 -0.122107 -0.001473 -0.040775 0.007949 -0.428904 -3.522638 -1.217868 0.594723 1.404885 2.231077 2.175107 1.442461 1.064269 -0.516797 -1.163053 -1.668042 -1.053938 -1.828206 -0.664683 -0.003260 1.250117 -0.889142 -1.204720 0.671408 -0.304500 -1.262871 -0.815393 -0.665895 -0.247785 -0.093423 -0.075895 -0.091947 -0.404226 -2.883318 -1.593470 0.618199 2.837140 4.235784 0.970806 1.197437 -0.073591 -0.588737 -0.466893 -1.434943 -2.000372 -4.104998 -3.653795 -2.136912 -1.013436 -1.424811 0.721489 3.000933 0.378236 -0.691957 -0.051539 -0.360301 -0.314296 -0.087654 0.089620 -0.016210 -0.168177 -2.545934 -2.004535 -1.299119 3.908694 4.800055 1.081269 0.588797 1.336319 0.591709 -0.412785 -2.369118 -2.482101 -3.103256 -1.102801 -2.861948 -2.083305 0.537371 2.210534 2.636460 1.287498 -0.358490 -0.060452 -0.220496 -0.090755 -0.059662 0.001584 -0.003738 0.126088 0.747413 1.866701 1.991526 3.203105 2.002142 3.057122 2.800565 2.395142 1.104012 -0.159813 -1.438444 -1.428449 -1.756291 -1.152586 1.230583 0.409451 2.576853 2.290566 1.979692 0.679250 0.238970 0.418110 -0.040865 0.017104 0.039908 -0.143168 0.015131 0.023177 -0.041239 0.795448 0.655478 2.119263 2.180143 1.653080 2.181862 1.344728 0.640371 0.519343 -0.256770 -0.423932 -0.316032 1.514647 2.698445 2.756632 2.406602 2.251807 1.397541 1.127855 0.132662 0.136541 -0.002213 0.055541 0.010045 0.035703 0.007917 0.011052 -0.020432 0.461905 0.006921 0.387659 1.041376 1.495741 1.752206 1.828959 1.368823 0.012987 -0.581685 -0.784901 0.067360 1.344012 2.784551 2.665655 1.750632 2.427230 1.680644 0.697879 0.192791 0.219171 0.058139 -0.020486 -0.067773 0.055678 0.011011 0.008518 0.007610 0.404382 0.197022 -0.166515 -0.218947 0.269693 0.756464 0.375527 0.061902 0.055825 0.394085 0.421342 0.577868 1.809453 2.409385 1.493658 0.977822 0.733325 0.743337 0.249138 0.110935 -0.026354 0.022751 0.046470 -0.001673 0.058930 -0.029428 -0.062639 0.054471 0.028048 -0.100223 -0.247983 0.023615 0.046521 0.331532 0.575032 0.313958 0.116157 0.172833 0.272757 0.316181 0.865350 0.905487 1.105113 0.157055 0.255061 0.441769 0.138880 0.018872 -0.024441 0.052744 0.039523 0.054537 0.048255 -0.005394 -0.053753 -0.070892 0.015847 0.160192 0.212431 0.014396 -0.076337 -0.040563 0.204815 0.103870 0.041995 0.068932 -0.017705 0.193737 0.234025 0.040645 0.001134 -0.010167 -0.062452 0.029681 0.079947 -0.014616 -0.043365 -0.005686 -0.005899 -0.024984 -0.001296 0.012617 -0.064662 0.114656 -0.076878 -0.038028 0.011924 -0.013455 -0.026238 0.015862 -0.051332 -0.078610 -0.095779 -0.104696 -0.032865 -0.005934 -0.012788 -0.068588 0.022611 -0.091220 0.098450 -0.039385 0.004350 0.069031 -0.003606 -0.038912 0.013054 -0.007755
-0.026149 0.003650 0.001393 -0.058081 0.010614 -0.051512 0.015443 0.023547 -0.001432 0.091348 -0.054026 -0.048657 0.058285 -0.013652 -0.066265 -0.018907 -0.056882 -0.006556 0.082987 -0.004581 0.033181 -0.066337 0.017494 -0.016784 0.056803 0.050149 -0.044179 0.014253 0.053536 -0.014266 0.010120 -0.025104 -0.009666 -0.037679 -0.143215 -0.055778 -0.025454 0.119203 -0.030031 -0.035026 -0.052291 -0.016302 0.026108 0.004294 -0.033754 -0.007281 0.002391 -0.098482 0.017009 0.028175 0.089580 0.071904 0.054740 -0.008632 0.003021 0.075368 0.044987 0.014303 -0.029703 0.073258 0.038552 -0.049559 0.061167 -0.025213 -0.034968 0.077825 0.024743 -0.000810 -0.019794 -0.009115 0.079204 0.129786 0.019340 -0.004402 -0.029883 -0.046224 -0.010739 -0.112230 -0.038167 0.050388 -0.067794 0.073175 0.020598 -0.036757 -0.016709 -0.049453 0.010090 -0.022925 -0.004836 -0.056852 0.020500 -0.058164 -0.051530 -0.054215 -0.043689 -0.061836 -0.116859 0.042422 0.093568 0.010946 0.028465 -0.027986 -0.094866 0.000027 -0.117647 -0.128450 -0.016032 -0.022691 0.074328 0.062806 -0.072395 0.051498 -0.090995 0.009405 0.069406 -0.020919 0.015164 -0.081238 0.000154 -0.043365 -0.092121 -0.062854 0.079434 0.030058 0.050458 0.016447 0.091570 0.055976 -0.036060 -0.110429 -0.155475 -0.292231 -0.275664 -0.298642 -0.164747 -0.011966 0.072591 0.022372 0.033654 0.001199 -0.095986 -0.000590 0.067021 -0.014744 0.051986 -0.071326 -0.091332 -0.055751 -0.151574 -0.006762 -0.079566 -0.260865 -0.335423 -0.315491 -0.354303 -0.487303 -0.619090 -0.731675 -0.591925 -0.508059 -0.604952 -0.437068 -0.350164 -0.154982 -0.030878 -0.029377 0.026817 -0.004587 0.073747 -0.067091 -0.045086 0.057137 -0.070479 -0.152569 -0.270753 -0.031266 -0.234004 0.000520 -0.264911 -0.418335 -0.551117 -0.678628 -0.748831 -0.932011 -0.918249 -0.727745 -0.697148 -0.591023 -0.582126 -0.521866 -0.448570 -0.044759 -0.087839 0.024182 0.081573 0.107309 0.034933 -0.057560 0.091852 0.086361 -0.145662 -0.208793 -0.353391 -0.162688 -0.114509 -0.314061 -0.336937 -0.403403 -0.814218 -0.953761 -1.063894 -1.121324 -1.182632 -0.870694 -0.677885 -0.444245 -0.564723 -0.525865 -0.609375 -0.047641 0.072341 0.143795 -0.014930 -0.040879 -0.027033 0.015414 -0.099982 0.008490 -0.043959 -0.226369 -0.403875 -0.273067 -0.382995 -0.368501 -0.473707 -0.455268 -0.875074 -1.095348 -1.332657 -1.266523 -1.061111 -0.689597 -0.281072 -0.478548 -0.495507 -0.631077 -0.588131 -0.195285 0.065558 0.051519 0.164171 0.006016 0.021114 0.100819 0.062876 -0.054903 -0.084859 -0.257337 -0.542259 -0.366200 -0.468702 -0.559621 -0.636983 -0.821215 -0.913164 -1.218705 -1.269617 -1.403494 -0.787761 -0.385904 -0.379760 -0.392352 -0.596124 -0.891725 -0.840145 -0.471258 0.042125 0.032105 0.049182 -0.098699 -0.058011 0.004764 0.071896 -0.008378 -0.085565 -0.586699 -0.641153 -0.590307 -0.865355 -0.748070 -0.613740 -0.452127 -0.737846 -0.824516 -1.092019 -0.799045 -0.409991 -0.398214 -0.413183 -0.518801 -0.912044 -1.076911 -0.886970 -0.736242 0.066380 0.020795 0.059172 -0.028688 0.098524 -0.001566 -0.001583 -0.035328 -0.472585 -0.679483 -1.068807 -0.878880 -0.950009 -0.871675 -0.593326 -0.433192 -0.380353 -0.500708 -0.735403 -0.692410 -0.747842 -0.300559 -0.385091 -0.789749 -1.033239 -1.388172 -0.978945 -0.645287 -0.050754 -0.088415 0.098585 -0.000324 0.110700 0.016859 0.086824 -0.064004 -0.637976 -0.859432 -0.926382 -1.121339 -0.977151 -0.852541 -0.373970 -0.308907 -0.040193 -0.358113 -0.858836 -1.109850 -0.690293 -0.683963 -0.758351 -0.957234 -1.174805 -1.318635 -1.125601 -0.621816 0.136484 0.050731 0.058350 0.071065 -0.069847 0.032179 0.019664 -0.165806 -0.803640 -1.099347 -1.106410 -1.324087 -1.175427 -0.850552 -0.643130 -0.355589 -0.523973 -1.241227 -1.386259 -1.132612 -1.071140 -0.957925 -1.093140 -1.113050 -1.413769 -1.378321 -1.058098 -0.734596 0.082843 0.034223 0.337597 -0.063235 0.144726 -0.012785 -0.093379 -0.063282 -0.949937 -1.033128 -1.377620 -1.517865 -1.445412 -1.224922 -1.027161 -1.099156 -0.846957 -1.151088 -1.195334 -1.118367 -0.929484 -0.790994 -0.798313 -1.013049 -1.101414 -0.944264 -0.999000 -0.927084 -0.216231 0.064841 0.027428 0.088662 0.056723 -0.057383 0.020122 -0.142196 -1.018182 -1.236654 -1.486518 -1.741775 -1.682500 -1.433993 -1.061676 -1.084164 -1.022572 -1.076619 -1.143764 -1.009728 -0.723633 -0.307999 -0.503525 -0.701985 -1.155048 -1.155644 -1.209572 -1.027192 -0.268385 -0.011418 0.062190 0.028696 0.017439 0.017899 -0.075024 -0.254397 -0.935906 -1.073852 -1.382475 -1.786217 -1.509510 -1.273310 -0.890005 -0.798673 -0.935676 -0.543780 -0.513158 -0.151628 -0.084703 -0.269266 -0.522073 -0.865208 -1.195744 -1.184367 -1.218914 -0.880352 -0.448310 -0.029749 -0.108792 0.038273 0.005470 0.010682 -0.015638 -0.292740 -1.084365 -0.935972 -1.276806 -1.618640 -1.587418 -1.333180 -0.988166 -0.644487 -0.587981 -0.559484 -0.677661 -0.639906 -0.536815 -0.629500 -1.020944 -1.086947 -1.393997 -1.447466 -1.123022 -0.680701 -0.264273 -0.110631 -0.031574 -0.000574 -0.070987 0.008546 -0.060692 -0.128733 -0.753809 -0.864434 -0.995724 -1.173148 -1.381066 -1.355829 -0.904810 -0.642835 -0.348185 -0.442007 -0.562742 -0.756622 -0.947858 -1.023522 -1.123965 -1.252966 -1.309024 -1.097718 -0.761738 -0.532932 -0.281618 -0.184142 -0.114251 -0.001957 -0.023689 -0.005292 -0.047610 -0.052637 -0.566195 -0.756246 -0.891889 -1.078841 -1.053963 -0.930288 -0.646637 -0.564635 -0.458856 -0.419211 -0.627050 -0.687065 -1.050924 -1.183724 -1.262056 -1.076149 -0.992442 -0.806084 -0.519758 -0.308689 -0.227558 -0.114530 0.052348 -0.009196 -0.076545 0.047068 -0.042839 -0.135700 -0.143410 -0.450053 -0.484307 -0.603175 -0.439879 -0.375319 -0.498827 -0.415520 -0.562544 -0.625400 -0.597964 -0.853110 -0.972123 -1.090094 -1.051219 -0.908477 -0.637369 -0.596785 -0.429388 -0.322447 -0.261277 -0.009006 -0.026648 0.050109 -0.050533 -0.028723 0.028905 0.006131 0.025948 -0.024831 -0.185041 -0.127694 -0.172452 -0.153879 -0.310914 -0.412176 -0.531343 -0.767648 -0.738844 -0.761748 -0.854175 -0.845811 -0.670783 -0.530581 -0.560630 -0.376689 -0.336665 -0.237010 0.006876 -0.053879 0.059122 0.025981 0.001330 0.029249 -0.029655 -0.176260 0.073766 0.079490 0.220389 0.180747 0.079897 0.083152 -0.441351 -0.627872 -0.796525 -0.732443 -0.616104 -0.632977 -0.662455 -0.622883 -0.431450 -0.443983 -0.391945 -0.329670 -0.163752 0.038823 -0.046463 0.038322 0.019479 -0.019694 -0.011695 0.084450 0.053876 0.001393 0.008712 0.097492 0.223779 0.281304 0.339499 0.264593 -0.228681 -0.522484 -0.573061 -0.695529 -0.583542 -0.546567 -0.495394 -0.359889 -0.453843 -0.252362 -0.169117 -0.071787 -0.083518 -0.091401 0.002711 -0.012369 -0.008755 -0.002270 -0.064143 -0.012404 -0.002717 -0.116805 0.023536 0.133823 0.032369 0.221492 0.191085 0.136087 0.072667 -0.201747 -0.258941 -0.363282 -0.292374 -0.452580 -0.408473 -0.278002 -0.303585 -0.159855 -0.029619 0.044534 0.016816 -0.002182 0.059888 0.014558 0.101847 -0.057325 0.098910 -0.151361 -0.039695 -0.013145 0.113499 0.040441 0.033766 0.255666 0.145164 0.197979 0.071333 -0.010887 -0.063190 0.001039 -0.026089 -0.070759 -0.122010 -0.061326 0.064083 0.034789 -0.097546 0.008620 0.053849 0.003593 -0.051646 -0.041315 -0.031184 -0.003368 0.041801 0.017734 0.004660 -0.045755 0.044355 0.014919 0.047395 0.080640 0.094066 -0.087893 0.045280 0.035701 -0.036828 -0.030652 -0.001315 -0.023405 0.032930 -0.056392 -0.045801 0.056512 -0.070529 -0.060996 0.004083 0.010289 0.026534 0.011000 0.041480 0.054080 0.013259 0.030044 -0.064152 0.060969 -0.043899 0.013017 0.063143 -0.129335 0.034577 0.008034 -0.021005 -0.034220 0.043673 -0.001140 -0.066254 0.015329 -0.133620 0.065159 0.052436 -0.120220 0.059439 -0.033836 -0.008784 -0.020104 -0.020192 0.020581 -0.008980 0.034403
-0.022926 0.010780 -0.056864 0.070611 -0.001942 -0.019389 0.023734 0.094553 -0.075284 -0.021591 -0.039212 0.080655 -0.018374 0.006575 -0.041368 0.037627 -0.003081 0.024705 -0.038112 0.005594 0.102707 -0.026431 0.037834 0.017548 -0.036366 0.019187 0.022788 0.022623 -0.042442 -0.039070 0.120481 0.044836 -0.017885 0.032527 -0.100827 0.071326 0.031660 -0.147512 -0.047863 0.003392 -0.049628 0.022243 -0.025289 -0.004983 -0.014841 -0.024651 0.051930 -0.029873 0.059794 0.034635 0.064233 0.010138 -0.019689 0.030436 0.053976 -0.023834 -0.118800 -0.079470 0.007450 -0.100455 -0.057882 -0.058526 0.044283 -0.038853 -0.061961 -0.018589 -0.011022 -0.025000 -0.046656 -0.028661 0.055211 0.057046 0.030186 0.002559 -0.066327 -0.215530 -0.126264 -0.230066 -0.085377 -0.019347 -0.014623 0.027679 -0.059382 -0.073431 0.028998 -0.020327 -0.044053 -0.026262 -0.000192 -0.035063 0.007510 -0.137829 -0.212409 -0.302092 -0.340145 -0.299136 -0.042278 -0.182517 0.067065 0.208326 -0.026388 -0.144800 -0.216811 -0.433234 -0.662517 -0.480826 -0.157516 0.005359 0.061890 0.021574 -0.091656 -0.052384 -0.081486 -0.034269 -0.041902 0.021479 0.046290 0.094781 0.048239 0.018093 -0.298507 -0.242306 -0.780084 -0.536210 -0.129422 0.045524 0.156394 0.403503 0.233072 -0.277479 -0.403432 -0.927463 -1.106756 -1.140944 -0.423077 -0.310436 -0.147256 0.012847 -0.009230 0.108163 0.062480 -0.037658 0.059070 0.016559 -0.087115 -0.086428 0.109829 -0.058182 -0.462279 -0.813307 -0.743083 -0.469323 -0.268885 0.917564 1.592265 2.087396 0.883400 0.581841 -0.161449 -0.285735 -0.918445 -1.239703 -1.267802 -0.643033 -0.237473 -0.218260 -0.084792 0.073100 -0.035493 0.023342 -0.055494 -0.088160 -0.023088 -0.383227 -0.411679 -0.588772 -0.113496 -0.240819 -0.074357 -0.637451 -0.167576 0.911828 2.082270 2.924552 2.098615 1.378494 0.349794 -0.634610 -1.748110 -1.620594 -1.629869 -1.091418 -0.424645 -0.237240 -0.193570 -0.011998 0.045987 -0.070124 -0.021699 -0.054229 -0.060586 -0.277280 -0.531374 -0.598741 -0.599881 -1.602768 -1.139219 -1.069888 -0.251209 0.795502 0.958467 2.450651 2.912317 1.898736 1.543478 -0.052952 -1.483998 -2.243285 -1.907657 -1.662879 -0.741248 -0.359772 -0.111035 -0.075408 0.076468 0.163203 0.049292 -0.026432 -0.004839 -0.379450 0.255980 -0.655037 -0.496362 -1.144231 -0.231449 1.236250 1.650075 0.225496 1.347897 3.032653 3.367053 1.714645 1.836646 1.219752 -0.826189 -2.305881 -1.907473 -1.945397 -0.804790 -0.296432 -0.414481 -0.017261 -0.069315 -0.012274 -0.016624 -0.029547 0.528648 0.313868 -0.035626 0.238296 0.478613 -0.211321 0.111952 2.329463 2.592309 2.729929 1.366310 0.688427 1.908643 2.036113 1.840946 1.330137 -0.441124 -1.649095 -0.482711 -1.090251 -0.622903 -0.327358 -0.396460 -0.023946 -0.040176 0.053134 -0.022525 0.015211 0.372578 0.537562 -0.668771 0.243179 -0.010391 -0.893518 1.031863 1.844229 2.094361 2.505844 2.926764 1.426778 1.159366 0.660084 0.175628 -0.110813 0.425936 -0.237042 -0.697541 -1.196914 -0.887728 -0.755176 -0.534213 0.042936 -0.087616 0.011691 0.070589 0.349026 -0.440624 -0.403110 -1.379336 -1.085428 -1.708131 -0.951545 0.182864 0.254034 1.577453 2.290905 1.712314 2.515103 1.671666 -0.112009 -0.666148 -1.560123 0.156752 -0.392615 -0.643505 -1.727830 -1.064531 -1.362329 -0.433675 -0.101513 0.042450 0.015470 -0.131532 0.341695 -0.766246 -0.827588 -3.148510 -2.812840 -3.099154 -2.579377 -1.163609 -0.997398 0.037607 2.014323 1.720422 0.794829 1.397116 -0.056446 -0.606083 -0.847132 -1.395236 -0.364781 -0.594445 -1.547005 -1.831266 -1.591167 -0.439767 -0.001914 0.079006 0.050007 -0.246456 -0.117470 -0.994790 -1.917078 -4.153242 -4.256751 -3.499181 -2.714810 -1.254333 -1.311377 -0.777998 -1.162172 0.354804 1.188189 0.722998 -0.423863 -2.460833 -1.329971 -0.014464 -0.884856 -0.353463 -1.126281 -0.284487 -1.610293 -0.646297 -0.047002 0.038728 -0.035300 -0.256399 -0.323310 -1.236457 -1.162910 -3.447609 -4.612738 -2.496796 -1.538617 -0.937813 -2.726870 -2.415559 -2.043784 0.251996 0.464573 1.032958 -0.338237 -1.427213 -0.030413 0.755407 1.135397 0.448502 0.256671 -1.351849 -1.984427 -1.420909 -0.020769 0.008543 0.096228 -0.328230 -0.484793 -0.674597 -1.003090 -2.731756 -4.516856 -2.702688 -2.514825 -2.764291 -3.826027 -2.465424 -1.296879 -0.933001 0.502489 1.047082 0.516156 1.228919 1.010583 1.418591 0.044816 0.132446 0.713198 -0.489736 -1.700139 -1.471976 -0.047182 -0.080887 -0.024445 0.203639 -0.075304 -0.686386 -0.276802 -2.202480 -2.665007 -0.749000 -0.276357 -0.793470 -1.932423 -2.812955 -1.720858 -0.867777 -0.124319 0.669484 0.300986 1.143588 0.907095 0.994481 0.080819 -0.279622 0.880463 0.191361 -1.941767 -1.262586 -0.092081 0.018264 -0.045573 0.241160 0.063329 -0.631362 0.825262 0.370912 -0.868958 -0.945334 -0.289715 -1.804215 -2.693704 -3.100398 -1.808151 -0.480309 0.424124 0.588480 0.715686 0.072573 -0.855410 -0.281871 0.135713 1.025995 0.800302 0.721581 -1.126509 -0.505762 0.070840 0.074721 0.046493 0.176789 0.384605 -0.458728 2.002454 1.050423 0.331968 -0.183141 -1.494340 -1.802519 -2.426829 -4.835138 -2.098282 -0.357677 -0.688200 -0.259523 -0.181560 -0.240209 -0.073483 -0.017839 0.127692 0.583728 -0.070706 -0.426797 -1.068767 -0.549940 -0.223457 0.029562 -0.051889 0.201330 0.347475 0.203953 2.048058 2.956976 1.759616 0.899668 -1.368742 -2.173642 -2.147729 -3.378810 -0.534754 -0.191161 0.616153 -0.421162 -0.472894 -1.121585 -0.773216 -0.538566 -0.159372 -0.226100 0.305070 -0.857258 -0.552285 -0.302538 -0.055890 0.032279 -0.051018 0.089320 0.271007 0.290335 1.160898 2.427245 0.957770 0.564149 -1.356235 -1.367771 -1.950601 -1.705399 0.599659 1.573381 -0.262561 -0.542004 -0.937554 -0.930677 -1.117909 -1.272634 -0.966205 -0.640021 -0.292227 -0.681376 -0.219446 0.006829 0.092504 0.120323 -0.053469 -0.019814 -0.025441 0.195203 0.800503 2.122362 1.819256 0.081916 -0.562630 0.523508 -1.063709 -0.592645 1.846343 1.178936 1.252003 0.163525 0.061042 0.017151 -0.013072 -0.085506 -0.172584 0.094831 -0.267270 -0.216361 -0.193694 -0.079281 -0.023692 -0.025158 -0.066012 -0.082211 0.169448 0.249082 0.860762 1.487544 0.439750 -0.557273 0.143366 0.371887 -0.308340 -0.425483 0.816925 1.270629 1.090392 0.672890 -0.331766 -0.070171 0.000186 0.158005 -0.138409 0.185649 0.058599 -0.014344 -0.046480 -0.032520 -0.007684 -0.031460 0.038965 -0.011581 0.035238 -0.004630 0.438681 0.758862 0.732087 -0.277761 -0.900180 0.290198 -0.744969 0.814309 1.077372 1.292023 0.642560 0.176555 -0.044493 0.503022 0.373405 -0.021056 -0.222074 -0.059002 0.106787 0.061252 -0.163517 0.133516 0.005287 0.089354 -0.069582 0.041306 -0.047821 0.030028 0.041393 0.366790 0.890993 -0.336098 -0.914024 -0.055942 0.318902 0.359270 0.435420 0.250033 -0.127394 -0.302099 -0.453568 0.019366 0.164687 0.000941 -0.009075 0.060099 0.001087 0.032391 0.098844 -0.006528 0.015366 -0.031245 0.091934 0.066447 0.069189 -0.000257 -0.087891 0.123768 0.407220 -0.506047 -0.712501 -0.311974 0.017602 0.044119 -0.095273 -0.585674 -0.630486 -0.521649 0.021681 -0.112941 0.047880 0.027502 0.111806 0.075408 -0.019545 -0.045804 -0.002576 0.002838 0.003849 0.005321 0.095823 -0.015934 -0.090191 0.031627 -0.148804 -0.048732 -0.029796 0.011565 0.056708 0.011539 0.005962 -0.102398 0.024426 -0.034403 -0.640286 -0.566158 -0.024683 0.007463 -0.011336 -0.056594 0.033406 -0.010605 0.058672 -0.036099 0.002390 -0.005891 -0.038901 -0.049376 -0.031528 0.019749 -0.001837 -0.097772 0.026121 0.043362 0.010981 0.050065 0.021290 0.017981 -0.024998 -0.028007 -0.030791 0.008210 -0.013063 0.000961 -0.006576 -0.046681 0.013427 -0.118660 0.042835 -0.021246 -0.014741 0.038505 0.067075 0.015384 0.096714
0.094128 -0.089619 -0.020729 -0.026055 -0.067028 -0.085928 -0.014839 -0.081858 0.025591 -0.056463 -0.000971 0.066382 -0.012668 -0.007902 0.093661 0.064679 -0.105719 -0.048069 -0.000054 -0.000122 -0.000657 -0.078193 0.021057 -0.016159 -0.035126 -0.094630 -0.008334 -0.047910 0.072688 -0.001941 -0.011636 0.005959 0.054270 -0.030785 0.018991 -0.065229 0.010948 -0.149301 0.058194 -0.062140 -0.062292 0.013793 0.051886 -0.034080 0.018177 -0.049396 -0.018428 0.013741 0.032262 -0.014412 0.110590 0.033813 -0.052460 0.024977 0.053472 0.015382 0.064568 -0.023231 -0.050067 -0.013513 -0.014151 0.115853 -0.039814 -0.123999 0.079290 0.049792 0.021360 0.025599 -0.062909 0.021534 0.011877 0.052980 0.020471 0.045304 -0.035848 -0.026526 0.063317 -0.069245 -0.050181 0.070541 -0.008335 0.081801 -0.053505 0.024195 -0.088936 -0.024554 -0.031782 -0.063362 -0.063330 -0.010220 -0.033143 -0.264393 -0.560177 -0.727355 -0.751152 -0.331258 0.023855 -0.004380 -0.034511 -0.066060 0.040101 -0.101507 -0.235251 -0.154500 -0.265715 -0.261836 -0.171483 -0.070697 -0.035540 -0.008931 -0.044831 0.056636 -0.021916 -0.014707 -0.009260 0.018855 0.017818 -0.039328 -0.089543 -0.222897 -1.156261 -0.645412 -0.503451 -0.332476 0.045036 0.179982 0.061438 -0.154333 -0.332082 -0.470155 -0.582644 -0.800830 -0.731411 -0.676486 -0.457900 -0.103453 -0.089116 -0.040538 0.195630 0.000285 -0.036280 -0.032878 0.056337 0.042506 -0.025974 -0.169329 -0.419285 -0.486817 -1.181687 -1.097341 -0.812314 -0.115552 -0.248625 -0.551060 -0.724998 -1.415084 -1.592430 -1.533221 -1.563187 -1.669155 -1.600226 -1.016115 -0.677808 -0.297955 -0.067694 0.131869 0.250326 0.017479 0.048935 0.053783 0.034590 -0.022174 -0.136363 -0.370947 -1.023540 -1.509764 -1.349177 -1.166440 -0.663169 -0.009730 0.138117 -0.899330 -1.419602 -2.068690 -2.806468 -3.072469 -3.143738 -2.641748 -2.224399 -1.604388 -0.807669 -0.492581 0.062824 0.292504 0.334916 -0.011844 -0.096619 0.069887 -0.026350 -0.078660 0.125905 -0.492020 -1.148720 -2.292314 -2.021767 -0.982505 -0.381233 0.091292 0.731029 -0.121373 -0.198464 -2.952754 -3.175552 -3.603079 -2.885029 -2.824851 -2.970494 -2.177922 -1.040590 -1.481186 -0.104070 0.410149 0.296309 -0.005315 -0.062481 -0.009285 0.061740 -0.116336 0.062353 -1.049769 -1.419859 -2.572909 -1.622453 -0.405767 0.347054 0.968874 -0.245095 0.686137 -0.570997 -1.125546 -2.254301 -2.218892 -1.531476 -1.033436 -2.051414 -2.006868 -2.296274 -1.575792 -0.057794 0.181136 0.061858 -0.012364 -0.065603 0.032316 0.053066 -0.150375 0.094483 -1.185701 -2.171654 -2.067104 -1.062512 0.942178 1.535722 1.323920 2.391714 0.277001 1.250307 1.026825 -0.646650 -0.640092 0.731747 1.031311 0.331401 -1.637896 -2.000199 -2.504241 -0.305730 0.436852 0.099218 -0.015620 -0.090462 -0.017958 0.083598 0.022024 -0.315267 -1.396848 -1.894725 -2.191815 -2.103380 -0.799477 -0.889854 1.062361 0.281914 -0.866853 -1.036352 0.476199 -0.302884 0.485674 0.388640 -0.182880 0.543432 -0.814087 -2.360792 -2.415833 -0.046895 0.655908 0.559060 0.057545 -0.072390 -0.010937 -0.105988 0.311749 0.913656 -0.514757 -2.895806 -2.912722 -1.397590 2.418039 1.252958 1.164856 -0.878753 -1.078802 -0.980365 -1.072512 -0.450737 -0.464784 -0.149791 0.123617 0.439951 -0.390418 -2.372747 -2.463694 0.168473 1.346715 0.443087 0.006474 0.020565 0.028779 -0.044306 0.313626 0.652464 -2.156726 -2.428246 -1.519165 0.682068 1.130553 1.690277 0.316335 1.216781 -0.597606 -0.628814 0.879963 2.367471 -0.147331 0.587064 -0.947365 0.861936 -0.643745 -2.814226 -2.265813 -0.345279 0.934842 0.166469 0.008641 0.075656 0.162988 0.217799 0.090788 -0.330765 -2.089486 -0.886374 -0.489142 1.247325 0.533024 -0.018895 -1.767478 -1.688686 0.528161 1.739202 2.155416 2.541041 1.802751 2.313793 -0.560983 0.374815 0.459741 -1.251035 -2.468890 -1.459501 0.352376 -0.371068 -0.014161 0.023088 0.221497 0.359143 1.149832 -0.323473 -0.120385 0.347596 0.796751 0.915690 -1.304973 -1.526214 -3.062047 -0.827241 1.574999 1.081437 1.777551 0.707210 0.810623 0.793006 -0.856496 0.349987 -0.209999 -1.728403 -2.318671 -1.180605 0.109394 0.064129 0.025799 -0.000476 0.201288 0.892487 2.167283 -0.031870 -0.991109 0.103811 1.246268 0.698217 -1.175858 -3.074955 -3.481866 -0.856630 0.741259 2.373072 1.781646 1.898749 0.230931 1.151985 -0.614919 -0.915483 -0.648605 -2.041606 -2.251359 -0.946449 0.167344 0.477802 0.136788 -0.022366 0.181389 1.571341 2.001595 1.798202 -0.706746 -0.162678 -0.261924 -1.528016 -3.189421 -3.416805 -3.590669 -0.634300 0.344676 1.034139 0.568065 -0.062954 -0.231106 0.911361 -0.000521 -0.036538 -1.891158 -2.101563 -2.233044 -1.068176 0.349199 0.518829 0.052430 0.046493 0.142284 1.759328 2.155863 1.082304 -1.443703 -0.714075 -1.515255 -2.643493 -3.683503 -3.124374 -0.222768 0.467136 0.757400 1.545460 0.003364 -1.168585 -1.512439 -0.581015 0.051171 0.693637 -2.140057 -1.058095 -1.933914 -1.103449 -0.119860 0.327513 -0.013012 -0.123984 -0.059357 0.949081 2.481459 1.450839 -1.662227 -2.359310 -3.097799 -3.357528 -2.278608 -2.430460 -0.105600 1.391347 0.575079 0.661154 -0.901286 -2.835790 -2.017430 -0.930021 -0.830274 -0.734581 -1.409627 -1.350628 -0.915013 -0.655487 0.048884 0.316357 0.042989 -0.009339 0.048599 0.698793 1.575665 0.441693 -0.892903 -1.884416 -3.870538 -2.818785 -2.533308 -1.866158 -0.400101 1.073297 0.937484 -0.132952 -1.477165 -1.610574 -0.846156 0.059108 0.476643 -0.177574 -2.099922 -0.523094 -0.229581 -0.430068 0.397145 0.090939 0.046555 -0.039808 0.052410 0.180869 0.808583 -0.394537 -1.315476 -3.188258 -3.212712 -2.927247 -2.796131 -1.717502 -0.501647 0.368819 -0.363967 0.321876 -0.656336 -0.919656 -0.567908 0.349141 -0.320952 -1.465453 -0.758540 -0.791445 -0.070991 -0.489220 0.232418 -0.015151 -0.038600 0.032079 0.009631 -0.062765 -0.008867 -0.614342 -1.448312 -2.928698 -3.437107 -3.049038 -2.848983 -2.142535 -0.945958 -0.590597 0.558462 0.685083 -0.795374 -0.985710 -1.170066 -0.462061 -1.034937 -0.754339 -1.202625 -0.578798 -0.377638 -0.200450 0.151068 0.104008 0.065689 0.001367 0.077231 -0.072637 0.005263 -0.365014 -0.872851 -1.893393 -1.790281 -2.193477 -2.308288 -1.740963 -1.636888 -0.713818 -0.816570 -0.849539 -1.742118 -1.838228 -1.432705 -1.105132 -1.330125 -1.340612 -0.663556 -0.437029 -0.007938 0.171567 -0.025728 -0.026207 -0.047780 0.067534 0.022609 0.029493 0.045723 -0.208703 -0.560272 -0.947995 -1.108664 -1.640278 -1.836614 -1.408095 -1.423692 -0.610810 -0.561235 -1.003588 -1.589350 -1.491812 -1.383093 -0.550235 -0.265737 -0.408129 -0.374922 -0.034674 0.034894 0.013047 -0.023060 -0.046806 -0.088913 0.131475 0.071968 -0.038926 -0.031728 -0.068376 -0.259314 -0.489264 -0.716409 -0.648537 -0.689210 -0.557908 -0.336694 -0.400435 -0.552431 -0.501697 -1.411386 -0.990736 -1.169717 -0.385257 -0.276227 -0.187716 -0.098482 0.011115 0.091114 -0.085362 -0.009261 -0.028614 -0.045434 0.031364 -0.093820 0.057253 -0.014069 -0.036030 -0.099740 -0.308656 -0.277992 -0.358611 -0.365279 -0.020888 -0.048112 -0.092441 -0.065974 -0.571738 -0.600157 -0.503508 -0.459247 -0.167104 -0.028819 -0.122545 -0.188300 -0.021955 -0.022623 -0.076481 0.056895 -0.041553 -0.008518 -0.007270 0.009595 0.036949 -0.075590 -0.087431 -0.044781 0.033686 0.041611 -0.015484 -0.012988 0.048247 -0.070966 -0.184219 -0.057771 0.026296 -0.455211 -0.537187 0.000144 0.112620 -0.053864 -0.087609 -0.034995 -0.055230 0.055473 -0.063044 -0.136898 -0.085622 -0.064524 -0.010874 -0.013053 0.001950 -0.088584 -0.065699 -0.039145 0.063342 -0.004814 0.104578 0.136820 0.072252 -0.052192 0.029669 -0.062602 0.042764 0.022371 0.001910 -0.045238 -0.023639 0.082764 0.035605 0.044238 -0.059263 0.007471 0.043306 0.097608 -0.004012 -0.055539
-0.022731 0.029008 -0.027951 0.076910 -0.026958 -0.005194 0.019145 0.003702 -0.028475 -0.061515 0.036314 -0.009179 0.037378 0.082573 -0.007039 -0.013635 -0.063328 -0.042215 0.039727 0.015183 0.045776 -0.029543 -0.041221 -0.022232 0.004111 -0.080938 -0.014035 0.055004 -0.005416 -0.002410 0.046076 0.031244 0.044674 -0.028221 0.013251 -0.079930 -0.088878 -0.011261 -0.017865 -0.020596 0.027939 -0.001633 -0.049195 -0.012576 -0.027128 -0.056634 0.056062 0.004487 0.031779 0.098494 0.053819 -0.131736 -0.021883 0.039442 0.080996 -0.012042 0.006556 -0.063063 -0.045527 0.018850 0.016640 -0.021357 0.000440 0.039673 0.025125 -0.035097 0.007741 -0.033461 -0.041126 0.044926 0.053977 -0.061843 -0.001229 -0.061196 0.001978 -0.016424 -0.002480 0.044270 -0.032277 -0.020437 0.065392 0.006309 0.026973 0.010918 -0.090948 0.048787 -0.083877 -0.018332 -0.014766 -0.013925 0.071657 0.107421 0.133805 0.142163 0.131561 0.136276 0.032241 0.031325 0.054218 0.144423 0.009003 0.026109 -0.086604 0.021512 0.034035 0.127776 0.031561 0.031296 -0.064571 -0.073401 -0.047452 0.072778 0.118547 -0.007263 0.009127 -0.019284 0.017208 -0.084233 0.173159 0.018107 0.266848 0.164112 0.115396 0.156262 0.130943 0.154219 0.097553 0.197365 0.094970 -0.138525 -0.076535 0.063382 0.167856 0.179825 0.224982 0.219424 -0.047630 0.015699 -0.073968 -0.015796 -0.008727 -0.044221 0.002616 0.000772 0.014974 0.079591 0.073808 0.327853 0.204722 0.181302 0.221030 0.090808 0.049410 0.254279 0.164684 0.171313 0.144298 -0.027367 -0.044871 -0.045489 -0.067573 0.128745 0.167485 0.189252 -0.094319 -0.006709 -0.103687 0.101523 -0.000930 -0.073219 -0.090975 -0.030435 0.059539 -0.003639 -0.088849 0.192459 0.207015 0.256807 0.162878 -0.125508 -0.282120 -0.146981 0.032888 0.232241 0.205379 0.085004 -0.050803 -0.210203 -0.125398 -0.144183 0.020561 0.188333 -0.131647 0.012534 0.103807 0.056353 -0.148827 -0.095711 -0.024474 0.115813 -0.135241 -0.044768 0.050440 0.073602 0.308016 -0.012656 -0.210271 -0.324262 -0.539263 -0.514750 -0.455002 -0.179573 0.022584 -0.056997 -0.245132 -0.624417 -0.424450 -0.488725 -0.460383 -0.044883 0.000188 0.058791 -0.009276 -0.007380 -0.081374 -0.028254 0.036706 -0.022612 0.009871 0.044092 0.183203 0.359631 0.164120 -0.286652 -0.672211 -0.659414 -0.634940 -0.717882 -0.616792 -0.412358 -0.314667 -0.329175 -0.491166 -1.017283 -0.928957 -0.696270 -0.461184 -0.388052 0.000361 0.135067 0.227745 0.038740 0.055567 0.071852 0.072058 0.030225 -0.021881 0.199951 0.143932 0.279372 -0.154113 -0.716077 -1.099070 -0.922000 -1.086081 -0.857782 -1.165605 -1.007221 -0.781294 -0.670125 -0.974470 -1.368676 -1.424685 -1.216787 -0.579272 -0.266458 -0.050347 0.230589 0.028178 -0.072941 0.031521 -0.029615 0.008324 -0.008950 0.146747 0.122335 -0.015481 0.002435 -0.553745 -1.262355 -1.006634 -1.217760 -1.083615 -0.899478 -0.949754 -1.031383 -0.910489 -1.355996 -1.406768 -1.665019 -1.484367 -1.206345 -0.758595 -0.508476 -0.074909 0.091045 0.231222 0.008815 -0.050138 -0.072772 0.029479 -0.173297 -0.336066 -0.245270 -0.462692 -0.791220 -1.169189 -1.845132 -1.541336 -1.302099 -0.809010 -1.036471 -1.074781 -1.225432 -1.379054 -1.486585 -1.622000 -1.891307 -1.479690 -1.476178 -1.050881 -0.714594 -0.303368 -0.175426 0.091923 0.048003 0.038011 -0.047265 0.030412 -0.132147 -0.720497 -0.652343 -1.201873 -1.606464 -1.946392 -1.769060 -1.495989 -1.170889 -1.131800 -1.138591 -1.829908 -2.118574 -2.153753 -1.640271 -1.780098 -1.739800 -1.713732 -1.430431 -1.044650 -0.726572 -0.293084 -0.048396 0.104149 0.162903 -0.055285 -0.054066 -0.131075 -0.311721 -0.648514 -1.164988 -1.796837 -2.101065 -2.173997 -1.765735 -1.784811 -1.299134 -1.640034 -2.722057 -2.856028 -2.401828 -2.552824 -2.192079 -2.175463 -1.862920 -1.804994 -1.524332 -1.203122 -0.866335 -0.270497 -0.197619 0.169380 -0.006612 -0.076075 -0.091316 -0.096792 -0.340514 -0.976537 -1.369822 -2.056965 -2.785564 -2.476010 -1.653164 -1.412996 -1.645657 -2.302502 -2.786669 -2.748439 -2.525035 -1.999981 -2.199000 -2.077836 -1.680295 -1.465112 -1.469255 -0.916836 -0.769636 -0.386734 -0.164914 -0.018895 0.037070 0.034508 -0.126974 -0.362032 -0.487777 -0.895719 -1.388940 -2.335373 -3.094023 -2.373228 -1.712488 -1.423807 -1.762806 -2.437656 -2.623764 -2.805441 -2.216193 -2.024802 -1.546837 -1.752567 -1.499349 -1.452761 -1.368209 -0.959779 -0.586712 -0.483194 -0.273935 -0.213323 -0.066938 0.069078 -0.084603 -0.291444 -0.560849 -0.924747 -1.483950 -2.243436 -2.670050 -1.921490 -1.011075 -1.090647 -1.338258 -2.221107 -1.942077 -1.528486 -0.940662 -0.648577 -1.018595 -1.019354 -1.261365 -1.270644 -1.187398 -1.205050 -0.882854 -0.674491 -0.597269 -0.274859 0.063931 -0.025829 -0.074372 -0.243884 -0.418317 -0.904801 -1.359305 -1.841276 -2.119882 -1.396949 -1.006108 -1.021720 -1.551806 -1.460133 -1.110044 -0.868298 -0.398473 -0.242711 -0.390739 -0.811676 -0.992313 -1.117927 -0.976132 -0.992470 -0.781347 -0.525415 -0.535182 -0.246805 -0.035701 -0.017773 0.085145 -0.145542 -0.259859 -0.695802 -0.946239 -1.024897 -0.995388 -0.883518 -1.085865 -1.266056 -1.234232 -0.974476 -0.544230 -0.252765 -0.232163 0.336625 -0.208077 -0.624720 -0.926181 -0.902140 -0.680462 -0.956823 -0.885259 -0.817421 -0.556111 -0.168241 0.001446 -0.078794 0.009355 -0.022718 -0.251619 -0.458256 -0.588458 -0.730664 -0.464688 -0.326970 -0.651822 -0.584211 -0.643216 -0.719866 -0.159943 -0.096814 0.411481 0.097935 -0.197582 -0.683878 -0.668503 -0.734865 -0.453533 -0.540008 -0.343206 -0.295085 -0.253478 -0.091593 -0.082852 0.055102 -0.023487 -0.066610 -0.058237 -0.040127 -0.190488 -0.053368 0.011137 0.131188 0.157478 -0.083497 -0.113548 0.051992 0.032248 0.081632 -0.024658 -0.124475 -0.171344 -0.502762 -0.627009 -0.452615 -0.395492 -0.248872 -0.249084 -0.270999 -0.165413 0.043710 0.062437 -0.038546 0.027930 0.128818 0.092423 0.002202 -0.017655 0.093597 0.192660 0.341245 0.408846 0.124985 -0.149662 -0.128807 -0.095041 -0.178031 -0.064880 -0.330148 -0.182412 -0.410203 -0.226889 -0.106381 -0.196668 -0.059951 -0.199239 -0.109203 -0.140775 0.003293 0.021282 0.015376 0.085943 -0.023508 -0.013140 0.032664 0.033889 0.271277 0.002940 -0.000019 0.077362 0.181854 0.024453 -0.168744 -0.113292 -0.113794 0.089279 -0.150099 -0.133846 -0.196528 0.063445 -0.049544 0.090505 0.046526 0.029234 -0.005124 -0.031491 0.000190 0.077416 0.039212 0.019889 -0.009335 -0.016320 0.034410 0.119729 -0.002974 -0.038382 -0.042501 0.108361 -0.036379 -0.073384 -0.149204 -0.021030 -0.040600 0.043912 0.041679 -0.030285 -0.153804 -0.086765 -0.028609 0.070797 0.006744 -0.011792 0.046314 -0.082871 -0.092758 0.052230 -0.015435 0.017620 0.102236 -0.018141 -0.047266 0.002360 0.034028 -0.044309 -0.061201 -0.137820 -0.084139 -0.092834 -0.098165 0.010702 -0.053040 -0.061185 0.057433 -0.066140 -0.000460 0.018577 -0.078426 0.051168 0.011350 0.035737 -0.036231 0.044520 0.095904 -0.000664 -0.005832 0.011115 -0.058225 -0.030192 0.001725 -0.010773 0.050131 -0.054142 -0.021267 -0.069379 -0.037727 -0.002532 -0.037223 -0.035780 -0.115877 0.037291 0.030891 -0.033467 0.004414 -0.060254 -0.042369 0.025034 -0.083244 0.136797 0.041658 -0.048384 -0.063134 -0.026112 0.004124 -0.109073 0.057846 -0.019099 0.018376 -0.092775 -0.013692 -0.080317 -0.042129 0.085428 0.015665 0.029979 0.051219 0.044679 0.114297 0.024008 -0.030916 -0.062815 -0.011045 0.084020 0.083148 0.005126 0.011675 0.018529 -0.098260 -0.013733 -0.038921 0.023859 -0.020215 0.025529 0.063634 0.015439 0.013382 -0.067513 -0.004034 0.018022 -0.062737 -0.021682 0.023197 -0.001882 0.002923 0.032634 -0.042444 -0.044742 -0.035020 -0.005298 0.094659 -0.008142 -0.029537 -0.032593 0.018283 -0.073210 0.049424 0.037956 -0.099276 -0.061607
-0.034690 -0.001401 -0.049770 0.041832 -0.055080 -0.069229 -0.069953 -0.073586 0.057117 -0.062840 -0.053166 -0.090069 -0.066953 0.001354 0.007841 0.055147 -0.087965 -0.055131 -0.077091 -0.035651 -0.030009 0.047907 -0.020835 -0.005486 -0.086785 -0.053572 0.006608 -0.048217 0.051308 -0.011024 0.032428 0.063133 -0.019919 -0.085175 0.058335 -0.041596 -0.049941 -0.070764 -0.062664 -0.013733 0.007127 0.023007 -0.046982 -0.011275 -0.033310 -0.017776 -0.032919 -0.004807 -0.018624 0.056105 -0.044146 0.063804 0.065242 0.029782 -0.000408 0.033051 0.056291 -0.055394 -0.003695 0.057753 -0.091996 0.023644 -0.039278 -0.025540 -0.022841 -0.133227 0.050411 0.070065 -0.008216 -0.009263 -0.005328 0.033745 0.031747 -0.052515 -0.008669 -0.059500 -0.027490 -0.087084 -0.044848 -0.042251 -0.018522 -0.043952 -0.018701 -0.031099 0.008035 0.033845 0.001786 -0.060833 -0.111402 0.053728 -0.048013 -0.223670 -0.400285 -0.191595 -0.388639 -0.214184 -0.161977 -0.181849 -0.008474 0.057117 0.060387 -0.079462 -0.170874 -0.261440 -0.389385 -0.375184 -0.183910 -0.134608 0.015497 -0.032075 0.029307 -0.025123 0.016375 -0.053998 -0.049066 0.064458 -0.065156 0.007369 -0.101058 -0.334254 -0.639207 -0.341008 -0.265105 -0.266829 -0.137215 -0.013329 -0.043096 0.105641 0.332325 -0.010359 -0.109931 -0.654236 -0.948695 -0.829918 -0.384049 -0.201320 -0.124148 -0.025356 0.077126 -0.056332 -0.017943 0.087157 0.046572 0.003836 0.034282 -0.137432 -0.308575 -0.392746 -0.753688 -0.634743 -0.326875 -0.033218 0.200757 -0.022189 0.236871 0.603042 0.571827 0.476154 0.055960 -0.277957 -0.750165 -0.879700 -0.950892 -0.561354 -0.237614 0.167845 0.035232 -0.010173 0.074451 0.031287 -0.087942 -0.020822 -0.180686 -0.516291 -0.861235 -0.877791 -0.771616 -0.927839 -0.474692 -0.024958 0.051357 0.599465 0.681919 0.788786 0.283214 0.428404 0.182403 -0.236894 -0.889898 -1.227134 -1.327389 -0.874365 -0.173329 0.036694 0.122022 -0.105957 -0.029483 0.028888 -0.099240 0.089094 -0.242807 -0.510870 -0.883322 -1.373775 -1.431350 -1.131713 -0.392576 -0.362275 0.743715 1.190437 1.005392 0.588288 0.556032 0.361906 0.208993 -0.140359 -0.738044 -1.308161 -1.577151 -1.346708 -0.665022 -0.144271 -0.004490 -0.076719 0.043199 -0.044722 -0.074435 -0.032279 -0.145625 -0.802327 -1.063162 -1.737280 -1.779449 -1.412988 -0.579481 0.334698 0.951453 1.439257 1.452483 1.194448 0.863936 0.151373 -0.044164 -0.322760 -0.771685 -1.340531 -1.902644 -1.726182 -1.223223 -0.465940 -0.234790 0.004916 0.069967 0.074903 -0.028653 -0.049731 -0.364019 -0.973019 -1.345981 -1.982385 -1.784722 -1.277749 -0.218296 1.140195 1.717100 2.114054 2.016322 1.555883 0.223794 -0.111956 -0.937514 -1.279371 -1.597570 -2.208541 -2.124928 -1.646078 -0.852611 -0.170194 -0.293786 -0.034551 0.061239 -0.039856 0.043431 -0.185016 -0.333960 -1.122340 -1.700929 -1.946738 -1.221895 -0.120846 0.021160 0.978878 1.400362 1.680368 2.004422 1.153490 0.485040 -0.724393 -1.965662 -2.439102 -2.168592 -2.445367 -2.243180 -1.571591 -0.877735 0.103078 -0.225863 -0.017860 -0.032901 -0.013927 0.022762 -0.244683 -0.909026 -2.148228 -2.242596 -2.688813 -1.336074 -0.249392 0.112502 1.011452 0.695731 0.952749 1.148053 0.412013 -0.728702 -1.950234 -2.668231 -2.816568 -2.411108 -2.012227 -2.338971 -1.886728 -0.420239 -0.126146 -0.220881 0.024016 0.043101 -0.085321 -0.142611 -0.286517 -1.295863 -2.384541 -2.614605 -2.233993 -1.292207 -1.090511 -0.325568 -0.167724 -0.293592 -1.016863 -1.123139 -2.155917 -2.219104 -2.611774 -3.552765 -3.026222 -2.430239 -2.130451 -1.658412 -1.194623 -0.757526 -0.213793 -0.317225 0.017091 0.029843 -0.052496 -0.204583 -0.675950 -1.440084 -3.008732 -2.645025 -2.113995 -1.551544 -1.819184 -2.000122 -2.449960 -2.592340 -2.535538 -3.017726 -3.484037 -3.025528 -3.335695 -3.962556 -3.244830 -2.670503 -2.147512 -1.819479 -1.487428 -0.698258 -0.082761 -0.401865 0.017207 -0.000524 -0.060208 -0.260538 -0.644425 -1.492674 -2.920318 -2.718784 -1.668739 -1.884676 -2.991942 -3.296704 -3.591193 -3.746312 -2.909552 -3.177474 -3.400127 -4.234785 -3.645537 -3.411491 -2.907811 -2.372794 -2.111836 -1.808423 -1.157470 -0.589641 -0.115300 -0.199123 -0.099675 0.022251 -0.125915 -0.439075 -1.000958 -1.720920 -2.600643 -1.851638 -1.615725 -2.041504 -3.321947 -3.434155 -3.678063 -3.620961 -2.602828 -3.165016 -3.939437 -3.306951 -2.315219 -1.469931 -1.923297 -1.698366 -1.723383 -1.953769 -1.303181 -0.306661 0.251116 0.117718 -0.121307 -0.035092 -0.057546 -0.469721 -0.986979 -1.569293 -2.792337 -1.943754 -0.611689 -1.762269 -2.500308 -2.724877 -2.844787 -1.954297 -2.506972 -2.285640 -2.013135 -1.417357 -1.440628 -1.078232 -1.120231 -1.867373 -1.599474 -1.079759 -0.585424 -0.201625 0.449648 0.251753 -0.041972 -0.014399 -0.150149 -0.396945 -0.941886 -1.639826 -2.220690 -1.379582 -0.609262 -0.498030 -1.535131 -1.933194 -1.363920 -2.050636 -1.629773 -1.353334 -0.820100 -0.862335 -0.815193 -1.039453 -1.155705 -1.428271 -1.134484 -0.874856 -0.661204 0.106830 0.253258 0.272897 -0.010780 -0.051085 0.020624 -0.217458 -0.495564 -1.391205 -1.637778 -0.888200 -0.476799 -0.671338 -0.695586 -1.078852 -1.271946 -1.132864 -1.447325 -0.908227 -1.141224 -1.898423 -1.694636 -1.763036 -1.354362 -1.698877 -1.058489 -0.772541 -0.224929 0.053174 0.304412 0.101498 -0.016837 0.004887 0.040689 -0.151172 -0.425183 -0.840298 -1.298813 -1.062499 -0.723493 -0.599612 -0.360709 -0.560430 -1.046347 -0.972253 -1.446772 -1.474805 -1.399509 -1.494694 -1.663470 -1.517819 -1.817863 -1.480341 -0.860501 -0.810165 -0.330981 0.106359 0.120834 0.031341 0.009709 -0.014119 0.005929 -0.069140 -0.313857 -0.552471 -0.858018 -0.632483 -0.295929 -0.408805 -1.046741 -1.122335 -1.286483 -1.471021 -1.259580 -0.674452 -0.709753 -1.094292 -0.975052 -1.378666 -1.273699 -1.192327 -1.053218 -0.531802 -0.219641 -0.115902 0.185488 0.033350 0.014224 0.061973 -0.035481 -0.018769 -0.130615 -0.247358 -0.402207 -0.605761 -0.446863 -0.995317 -0.665307 -1.065579 -1.035390 -1.032120 -0.407358 -0.204662 -0.213477 -0.541523 -0.726826 -0.753861 -0.684742 -0.714592 -0.511566 -0.172324 -0.213001 -0.016501 0.152367 -0.006105 0.044214 0.001299 0.030929 -0.047214 0.108106 -0.051934 -0.077593 -0.015848 -0.173495 -0.243695 -0.483253 -0.297602 -0.294148 -0.187408 0.405610 0.161353 0.114213 -0.388466 -0.721342 -0.546351 -0.350025 -0.355919 -0.051326 -0.153505 0.061355 0.202801 0.104304 0.033102 0.076551 0.003123 -0.113214 -0.014460 0.026210 -0.040353 0.073988 0.219520 0.312558 0.076278 -0.102620 0.134394 0.289231 0.374967 0.649213 0.472388 0.380751 -0.039529 -0.344783 -0.316417 -0.263349 -0.094784 -0.099865 -0.013832 -0.014346 -0.052495 0.021765 -0.009800 -0.011931 0.090145 -0.062551 0.001346 -0.026863 -0.101253 -0.045696 0.071988 0.398012 0.240156 0.077294 0.092717 0.292964 0.159665 0.333933 0.168946 0.194067 -0.085627 -0.223750 -0.118597 0.080552 -0.091718 -0.159825 -0.043394 -0.034442 0.025481 -0.060091 0.133000 0.024352 -0.026982 0.088600 -0.009649 0.009096 0.076177 0.103345 0.017460 0.103137 0.076895 0.030669 -0.116135 0.132196 0.004232 0.041099 -0.175940 -0.250295 -0.240735 -0.188557 -0.210872 -0.008293 0.131403 0.030773 0.052698 0.064436 0.039149 0.012979 0.046457 0.147773 -0.004685 -0.042217 -0.100004 -0.067262 -0.109836 -0.053158 -0.129099 -0.127435 0.044010 -0.078830 0.004985 0.089483 0.000567 0.106680 -0.083483 -0.055631 -0.076337 -0.081194 -0.052895 -0.151514 0.090035 0.076850 0.110877 0.046806 0.045197 -0.040749 -0.060403 0.018324 0.002656 -0.133501 0.045588 0.042654 0.024151 0.120803 -0.028056 0.055324 -0.008693 0.078901 0.041147 0.031248 0.003217 0.032200 0.111149 0.061654 -0.046905 0.054702 -0.027193 0.037411 0.045547 -0.062626 -0.054955 -0.005677 0.009886 -0.094141 0.039217 0.069754
0.000243 -0.030769 -0.056833 0.021405 -0.058418 0.037471 0.054627 -0.095471 0.030280 0.032204 -0.015167 0.008312 -0.118692 0.005070 0.032937 0.008708 -0.003055 -0.039112 -0.063285 0.047062 -0.060910 0.013213 -0.007246 -0.030297 -0.016036 -0.031686 0.058833 -0.072230 -0.008866 -0.012717 0.098212 0.028769 0.007779 -0.095220 0.043616 -0.109722 -0.066125 -0.055356 -0.092747 0.077287 -0.029698 0.007311 0.075440 -0.047319 0.070218 -0.006897 0.092790 0.025614 0.054613 -0.066509 -0.009074 0.018079 -0.014061 0.065795 -0.073776 -0.073995 -0.004174 -0.061972 -0.000380 0.026791 0.051248 0.063739 -0.007293 0.021154 0.071166 -0.033437 -0.073572 0.019568 -0.015487 -0.037516 -0.062420 0.008038 -0.017592 -0.048622 0.066308 0.007326 -0.016884 0.015481 0.001083 0.024675 0.064978 0.001691 0.015085 0.043498 0.035752 -0.034015 -0.081664 -0.024770 -0.001772 0.025780 0.008579 0.019981 -0.070652 -0.052784 -0.036088 -0.099384 0.008978 -0.012045 0.030875 0.124188 0.063094 0.101202 -0.072209 -0.031260 -0.015413 -0.100017 -0.012254 -0.018510 0.005306 0.005030 -0.027871 0.043121 0.058904 0.027573 -0.010667 0.019678 -0.027649 -0.054857 0.204949 -0.035709 -0.025023 -0.007175 -0.118542 -0.022024 -0.021076 0.073004 0.099815 0.159056 0.245540 0.145134 0.236536 -0.070534 -0.107076 -0.268167 -0.081980 -0.091276 -0.058023 0.057480 -0.039141 -0.007815 -0.037468 0.021602 0.038115 0.066441 0.025850 0.090768 0.061925 0.033808 -0.084802 0.107991 0.138665 -0.076837 0.264515 0.157187 0.331033 0.578776 0.732625 0.516812 0.460339 0.522747 0.166370 -0.034558 -0.363666 -0.310842 -0.243716 0.045130 0.064605 -0.001105 0.008552 -0.024037 0.023405 0.131421 0.029672 -0.039464 -0.068556 -0.035983 0.020237 0.006657 0.101853 0.370471 -0.075933 0.228661 0.333593 0.784719 0.834991 1.096505 0.958328 0.727473 0.398470 -0.090565 -0.450072 -0.376139 -0.132112 -0.010940 -0.032224 -0.101051 -0.022320 -0.047573 0.024647 -0.028211 -0.082505 0.026121 0.038983 -0.089142 -0.055181 -0.119862 -0.058281 -0.171354 -0.032186 0.130491 0.174783 0.615838 0.668923 0.730101 0.772687 0.557661 0.515849 -0.060457 -0.541235 -0.469469 -0.295735 -0.051520 -0.056969 -0.006504 -0.020905 0.037801 0.018907 0.024261 0.063170 -0.058053 -0.085583 -0.130110 -0.327835 -0.355329 -0.350332 -0.151755 -0.103113 -0.053005 0.220091 0.464224 0.619339 0.284039 0.342346 -0.069568 0.094462 -0.307650 -0.504273 -0.828941 -0.398940 0.016152 -0.061390 -0.039795 -0.074574 0.063145 0.009403 0.076637 -0.133514 -0.049204 -0.074630 -0.234217 -0.470743 -0.578749 -0.502268 -0.016625 -0.156748 0.068387 -0.066179 -0.232365 -0.242101 -0.339256 -0.624261 -0.814854 -0.787208 -0.956315 -0.525437 -0.682869 -0.193984 0.049880 -0.104693 -0.072202 0.024735 0.004204 -0.023290 0.020893 0.035043 -0.072123 -0.329705 -0.264413 -0.411395 -0.502115 -0.234506 -0.278584 -0.228590 -0.082960 0.101729 -0.186766 -0.110913 -0.810685 -1.437084 -1.653274 -1.226861 -1.191471 -0.702853 -0.603183 -0.359737 -0.006370 -0.149339 0.050225 -0.076174 0.032347 0.051646 -0.240053 -0.502651 -0.601496 -0.767684 -0.712804 -0.923696 -1.024179 -0.717362 -0.311390 -0.127765 -0.365678 -0.042123 0.030680 -0.549442 -0.945011 -1.688072 -1.946617 -1.739424 -1.497433 -0.872970 -0.872891 -0.226228 -0.157816 -0.082017 0.063189 -0.028205 0.015953 -0.000931 -0.263374 -0.733867 -1.029253 -1.248336 -1.430911 -1.530693 -1.387163 -1.036433 -0.439017 -0.738995 -0.809285 -0.727032 -1.432407 -1.346333 -1.233199 -2.063921 -1.975423 -2.061277 -1.856643 -0.992081 -0.408991 -0.270794 -0.159793 -0.078911 0.011760 -0.079474 -0.263756 -0.016800 -0.493899 -0.723109 -1.396077 -1.732054 -1.717348 -1.761985 -1.731868 -1.593626 -1.470407 -1.478953 -2.281091 -2.380304 -2.315585 -1.987540 -2.061735 -2.491749 -2.036463 -1.963968 -1.846955 -1.286048 -0.525295 -0.144628 -0.073396 -0.104367 0.014860 0.042538 -0.079413 -0.297376 -0.561346 -1.077446 -1.846607 -1.979506 -1.931036 -2.021442 -1.851468 -1.964999 -1.892204 -2.294820 -2.831288 -2.722330 -2.396635 -2.175758 -2.269083 -1.985510 -1.671390 -1.703258 -1.605779 -1.101473 -0.374243 -0.169715 -0.102847 -0.151194 -0.009684 0.044691 -0.239846 -0.606846 -1.059760 -1.554471 -1.643790 -1.881516 -1.919741 -1.795275 -1.980738 -1.887605 -2.233674 -2.691465 -2.429195 -2.794837 -2.735996 -2.217141 -1.264135 -0.956717 -1.051599 -1.435257 -1.417222 -0.932657 -0.094536 -0.081230 -0.189136 -0.077350 0.019443 -0.009048 -0.063870 -0.821374 -1.077057 -1.634445 -2.006769 -1.644373 -1.129324 -1.300945 -1.256212 -1.356538 -1.444831 -1.632009 -1.785087 -1.597204 -1.263569 -0.485950 -0.404538 -0.262319 -0.809359 -1.259427 -1.168057 -0.746980 -0.109444 -0.192763 -0.189554 -0.064227 -0.042391 -0.045446 -0.162586 -0.711787 -1.091453 -1.453750 -1.204675 -0.949269 -0.604204 -0.423622 -0.545490 -0.913693 -0.946797 -1.102444 -0.993340 -0.871046 -0.392042 -0.075951 -0.159135 -0.578478 -0.899451 -1.304618 -0.746713 -0.508230 -0.075325 -0.011329 -0.048778 -0.054107 -0.028970 0.005975 -0.054836 -0.417485 -0.683352 -1.019832 -0.698518 -0.213535 0.185487 0.077019 -0.315262 -0.477608 -0.561510 -0.734733 -0.693622 -0.544127 -0.533369 -0.403379 -0.589816 -1.050103 -1.020342 -1.010373 -0.419419 -0.186637 -0.234430 -0.094241 -0.171444 0.027238 0.045927 0.085063 0.070540 -0.223469 -0.461711 -0.395843 -0.534650 0.081478 0.409151 0.519379 0.383615 0.241365 -0.175483 -0.526854 -0.536696 -0.661732 -0.633782 -0.665103 -1.015365 -1.079628 -1.066658 -0.639338 0.043465 -0.186557 -0.008404 0.043449 -0.129870 -0.081343 -0.073717 -0.013385 -0.036050 -0.143693 -0.119539 -0.152860 -0.031058 0.555369 0.804139 0.939087 0.526205 0.338721 0.166383 -0.386740 -0.581492 -0.410844 -0.680075 -0.869764 -0.800834 -0.927169 -0.720844 -0.170916 -0.237418 0.060586 -0.027670 0.010381 0.000239 0.063753 -0.068039 0.053284 -0.062742 0.092551 0.009594 0.213752 0.272935 0.556802 0.736832 0.744794 0.782499 0.494696 -0.158835 -0.476671 -0.604793 -0.815050 -0.605467 -0.580566 -0.562423 -0.431827 -0.217357 -0.061140 0.004409 0.121277 0.053822 -0.022888 0.031058 -0.070584 -0.007815 0.051074 -0.029740 0.000431 0.103745 0.157694 0.358186 0.719085 0.711704 0.616557 0.638202 0.515381 0.024000 -0.163269 -0.208587 -0.310094 -0.063828 -0.093460 -0.121656 -0.071251 0.076838 0.099764 0.164570 0.142176 0.020798 0.017814 -0.017912 -0.002566 -0.012413 -0.038105 0.031556 -0.015867 0.004004 0.079344 0.302359 0.484977 0.472386 0.449556 0.272763 0.224235 0.085770 -0.021689 0.056977 -0.002352 -0.011511 0.035169 0.109006 0.139955 0.114469 0.181380 0.157783 0.077244 0.033522 0.037623 0.118163 -0.091067 -0.065653 0.076631 0.062379 0.001940 0.094341 0.041082 0.032781 0.199284 0.427035 0.199539 0.047454 0.075113 -0.000468 0.084234 0.160420 0.072833 0.155618 0.334598 0.300065 0.237602 0.062670 0.070983 0.094110 0.015951 0.004896 0.038550 0.031255 -0.026958 -0.058488 -0.001928 0.063393 -0.003574 0.029515 -0.027532 0.102246 0.154068 0.130645 -0.007018 -0.040252 0.070199 0.007318 0.042451 -0.006535 0.056575 0.028049 0.090494 0.174491 0.048884 0.055419 0.148701 0.108612 0.027278 0.021070 0.014402 0.043096 -0.046688 0.008669 0.103960 0.061172 0.048281 0.019113 0.050133 -0.006832 -0.040784 0.008319 -0.019358 -0.000979 0.047634 0.059778 0.021972 -0.005593 -0.007232 0.033902 0.023216 -0.005384 -0.054163 -0.028944 -0.005206 -0.046351 0.034886 0.096626 -0.021939 -0.016129 -0.058370 -0.021287 -0.047215 0.004178 -0.011245 0.075110 -0.002768 -0.037946 0.010101 0.034447 0.037422 0.007292 -0.042298 -0.009720 -0.009244 0.101423 -0.070300 -0.081632 -0.048146 -0.001101 0.006752 -0.035063 0.011742 0.032149 0.010778 0.009726 -0.058454 -0.028846 -0.026466 0.033840
