-0.066055 0.041815 0.023229 0.011769 0.036898 0.031391 -0.049656 0.031446 0.058095 0.013716 -0.111041 0.070982 -0.001462 -0.047253 0.002313 -0.026275 0.095211 0.057538 0.078621 -0.067865 -0.010853 0.037353 0.065558 0.008770 0.003399 0.085145 -0.092244 0.041981 0.019582 -0.062673 -0.035767 0.033785 -0.004318 -0.051836 -0.003073 0.033737 0.112440 -0.018852 0.031792 -0.052026 -0.109818 -0.041122 0.134348 0.005301 0.035988 0.073134 -0.080606 -0.009900 0.123300 -0.022697 -0.101493 0.026121 0.085742 -0.005456 -0.059428 -0.080723 0.129895 0.049679 -0.004857 0.018556 0.083779 -0.046004 0.060400 -0.113181 0.037056 0.042262 -0.053486 0.025100 0.013397 0.096918 0.037422 -0.042415 -0.083017 0.080096 0.048346 -0.048976 -0.003328 0.081248 0.044325 -0.032771 -0.072687 0.089551 -0.020098 -0.017081 -0.079540 -0.050636 -0.081766 0.022550 -0.011290 -0.070808 -0.124507 -0.131647 0.012482 -0.015432 -0.010584 -0.023471 0.055604 -0.081597 -0.086787 -0.036451 -0.098567 -0.098961 -0.162758 -0.062737 -0.124147 0.007642 0.003108 0.032781 -0.048864 -0.014800 0.076063 0.071802 0.042036 -0.068772 0.021788 -0.158454 0.016283 -0.055856 -0.077985 0.121621 0.139761 0.205881 0.039025 -0.107400 -0.218316 -0.382400 -0.222250 -0.148828 -0.184800 -0.227635 -0.160791 -0.253610 -0.143476 -0.109046 0.010097 0.015361 0.006818 0.084007 -0.113995 0.084159 0.012019 0.018515 -0.052655 0.015157 -0.008194 0.085938 0.261754 0.220232 0.451218 0.123761 -0.158166 -0.396326 -0.407639 -0.498090 -0.290023 -0.225865 -0.046412 -0.169044 -0.659207 -0.722683 -0.579538 -0.277809 -0.119508 0.047568 -0.026460 0.079208 -0.009480 -0.012411 -0.032305 0.032888 -0.122696 -0.038752 0.125526 0.224363 0.470105 0.344936 0.372152 0.222612 -0.041989 -0.300773 -0.622409 -0.448558 -0.351409 -0.092312 -0.166049 -0.347153 -0.784625 -1.398748 -1.016667 -0.583435 -0.144122 -0.055417 0.053001 -0.194030 -0.049628 -0.072509 0.097235 -0.016995 0.008592 0.132726 -0.004711 0.121888 0.291038 0.015565 0.142744 0.222035 -0.012430 -0.012799 -0.507509 -0.832786 -0.670945 -0.341058 -0.328194 -0.212601 -0.856236 -1.767057 -1.204024 -0.569851 -0.023107 -0.215900 -0.031514 -0.089343 0.074100 -0.025737 -0.024384 0.122131 0.033114 0.033464 -0.205659 0.201019 0.571340 0.187680 0.807403 0.359449 -0.081558 -0.746666 -0.804091 -1.094334 -0.638662 -0.009578 0.122275 0.011642 -0.708157 -1.197391 -0.735525 -0.548715 -0.545901 -0.314723 -0.071409 -0.092151 0.015849 0.017950 -0.006185 0.099942 0.109251 0.084587 0.192175 0.521560 0.497638 -0.153903 -0.367831 -0.512814 -0.689082 -1.022804 -1.049722 -0.740785 -0.712403 0.085074 0.553938 -0.011468 0.087754 -0.606294 -0.657778 -0.346849 0.099360 -0.513053 -0.141840 -0.048053 -0.021181 0.004109 0.008945 0.024065 0.209707 0.122304 0.431562 0.344512 -0.102280 0.037040 -0.523829 -0.655857 -0.972449 -1.241103 -0.780293 -0.680344 -0.176542 0.564934 0.890442 0.612776 0.156475 0.560584 0.224908 -0.113241 -0.076295 -0.186741 -0.319703 -0.141262 -0.039714 0.012383 -0.100514 0.051929 0.196430 0.047900 0.490886 0.158531 -0.718753 -0.318215 -0.852535 -0.546394 -1.006080 -1.292463 -1.043736 -0.657657 0.291325 0.924855 0.786785 0.459223 0.064101 0.179754 0.728348 0.440727 -0.312841 -0.606494 -0.255500 -0.031639 0.013988 0.031765 0.072102 -0.015947 -0.038486 -0.334172 0.085715 -0.481371 -0.863632 -1.352930 -1.274029 -1.212785 -0.923371 -1.001369 -0.512290 -0.072962 -0.282624 0.139793 0.700278 0.660693 0.645269 0.570996 1.060930 1.188921 -0.364610 -0.343565 -0.801236 -0.225732 0.106421 -0.027098 -0.003512 0.054286 0.155446 -0.361976 -0.070775 -0.505969 -0.408941 -0.879935 -0.417057 -0.112167 -0.427233 -0.390433 -0.291012 -0.822942 0.057063 0.880505 0.920265 0.376931 0.321632 0.016532 0.459264 0.619975 0.024298 -0.710792 -0.605393 -0.094759 0.055139 -0.065383 -0.015745 0.039518 0.186298 -0.067435 -0.186895 -0.392486 -0.184564 -0.300002 -0.300826 -0.091950 0.330809 -0.278300 -0.870468 -0.389792 0.335340 0.817376 0.507020 0.643866 0.606813 0.720506 0.981164 0.744980 -0.161687 -0.016364 -0.169304 0.234828 0.003496 -0.031445 0.075218 0.107177 0.271662 -0.219729 -0.399702 -0.678141 -0.261444 -0.695696 -0.144341 0.136141 0.022432 -0.027403 -0.011859 -0.174755 0.838476 0.767879 0.391560 -0.050757 0.681324 0.916966 1.084743 0.481788 0.085886 -0.026083 -0.004298 0.332852 -0.169943 -0.096474 -0.016183 0.004384 0.229143 -0.113041 -0.156105 -0.368248 -0.210970 -0.932370 -0.556444 -0.072016 -0.718826 -0.327965 0.540522 0.415950 0.582793 0.546802 -0.091215 0.270242 0.322113 0.615452 1.195607 0.586350 0.001062 -0.120239 -0.093509 0.247843 -0.082374 0.003845 0.006683 -0.044645 0.236579 0.281018 -0.101494 -0.376552 -0.520077 -0.005649 -0.564724 -1.090227 -0.561122 0.493977 0.310965 0.041334 -0.401866 0.198173 0.181411 -0.116677 0.115082 0.250552 0.308528 -0.240674 -0.460349 -0.537818 -0.408575 -0.167072 -0.079661 0.102599 0.091737 0.025233 0.183592 0.536981 0.365129 -0.169028 -0.585105 -0.410936 -0.773118 -1.212870 -0.616316 0.234965 -0.032954 0.302940 -0.168175 -0.003650 -0.174988 -0.064174 -0.014123 0.129198 -0.205781 -0.416069 -1.090433 -1.037534 -1.019053 -0.687064 0.037692 0.012452 -0.049209 0.014208 0.301646 0.688501 0.514113 0.326845 -0.405949 -0.602620 -0.972397 -1.213451 -0.796178 -0.680203 -0.480282 -0.538331 -0.379898 0.228085 0.660610 0.108012 -0.001104 -0.534198 -0.531793 -0.956969 -1.380530 -1.147538 -0.808312 -0.688996 -0.061872 0.011172 0.068479 -0.038631 0.188075 0.672371 0.522942 0.066180 -1.012972 -1.252642 -1.257639 -1.226631 -1.147248 -0.175518 -0.299973 0.226980 0.765959 0.646339 0.213365 -0.087535 -0.247468 -0.384776 -0.599831 -0.812207 -0.724817 -0.620975 -0.656592 -0.482533 -0.090314 -0.055818 -0.073071 0.086376 0.092220 0.209193 0.333509 -0.272588 -0.859012 -1.218430 -1.409360 -1.044355 -0.894080 -0.308136 -0.071853 0.634296 0.863476 0.982596 0.383619 -0.098423 -0.385847 -0.390884 -0.490692 -0.519514 -0.317222 -0.417200 -0.437227 -0.208745 -0.081962 0.105806 -0.015376 -0.018227 -0.022706 0.000060 -0.074397 -0.077782 -0.406811 -0.909927 -1.215978 -0.972016 -0.668751 -0.168568 0.424314 0.572022 0.934382 0.663136 0.555636 -0.043389 -0.130782 -0.635680 -0.477193 -0.339463 -0.391336 -0.272647 -0.251396 -0.130834 -0.038960 0.048038 0.010340 0.005475 -0.145730 -0.119719 -0.171121 -0.134244 -0.499204 -0.679548 -0.889925 -0.890198 -0.487981 -0.228781 0.313715 0.334308 0.718126 0.677001 0.382920 0.111119 -0.074649 0.095618 -0.197905 -0.369433 -0.254103 -0.232203 -0.156949 -0.016594 -0.087744 0.054147 -0.015996 0.117974 -0.081101 -0.061434 -0.105829 -0.137253 -0.282817 -0.454455 -0.709616 -0.640200 -0.186345 0.109003 0.202602 0.458705 0.341990 0.333458 0.080228 0.002624 0.124444 0.176624 -0.077705 -0.184480 -0.019826 -0.102263 -0.023307 0.016202 -0.011691 -0.009687 -0.127427 0.024725 -0.083730 -0.070681 -0.119335 -0.085702 -0.067187 -0.380651 -0.538674 -0.311467 -0.080711 -0.057174 0.082902 0.197107 0.158369 0.032380 -0.054107 0.009604 -0.023162 0.062227 0.034841 0.004907 -0.160303 -0.008729 -0.055613 0.032056 0.056693 0.011095 0.044263 -0.068248 -0.091894 -0.038544 0.019389 -0.012633 -0.088621 -0.095303 -0.160010 -0.033806 -0.050249 -0.003337 0.079145 -0.031724 0.149158 -0.177911 -0.177258 0.065396 0.076797 0.069561 0.068370 0.015954 0.074675 0.019017 0.034288 0.073483 0.025035 -0.098412 -0.055818 -0.061736 0.014433 -0.029942 0.096554 -0.017533 -0.013839 -0.044467 -0.056495 0.018212 -0.021742 0.015047 -0.025240 0.006624 -0.053866 0.045186 -0.015200 0.101810 0.043139 0.007812 -0.074242 0.013581 0.030685 -0.086337 -0.047488 0.007162 -0.079653 -0.054545
0.064369 -0.004290 -0.014201 0.090108 0.050331 0.004681 -0.030886 -0.028769 -0.112275 -0.082080 0.087728 0.101402 -0.065962 -0.103642 -0.004208 -0.089893 0.006230 -0.003190 0.083032 -0.022524 0.039082 0.009713 -0.029579 -0.052416 -0.070227 0.084879 0.097436 -0.005136 0.040983 -0.001147 -0.084658 0.011250 -0.059735 -0.074743 0.084268 -0.098254 0.087306 0.018522 0.114268 0.068501 -0.022606 0.105792 -0.144108 -0.045856 -0.043532 0.003731 -0.050610 -0.011450 -0.145030 -0.009954 -0.070996 0.078366 0.054398 -0.003352 0.028976 0.007638 -0.070154 -0.018022 0.062443 -0.098030 0.008965 -0.088839 -0.026983 -0.027597 -0.032113 0.029405 -0.036143 -0.083545 -0.004516 0.041902 0.067592 0.022928 -0.029609 0.028646 -0.044586 -0.044708 0.076615 -0.077283 0.002202 0.024479 0.000830 0.039322 0.127538 0.057421 -0.014959 0.140603 -0.033443 0.005454 0.105268 0.022088 0.067250 0.098222 0.018193 0.045270 -0.001897 0.019651 -0.032059 0.027332 0.003992 -0.097477 0.016258 0.001474 -0.081644 0.019282 0.029535 -0.027212 0.014886 0.067569 -0.041308 0.034547 -0.024120 -0.042197 0.001994 0.018609 -0.040269 -0.114602 0.030508 0.007424 -0.020837 -0.088074 0.086338 0.103486 0.053389 0.044933 -0.003150 -0.006496 0.103232 0.044829 -0.118493 -0.170518 -0.047735 -0.058169 -0.039900 0.007090 0.035647 0.057857 -0.003107 0.107921 0.149396 0.016736 -0.029378 0.029301 0.040980 -0.097762 -0.022319 -0.001568 -0.018704 -0.031397 0.055687 -0.016236 -0.008791 0.078274 -0.124882 -0.092800 -0.039762 -0.162402 -0.247440 -0.257607 -0.385317 -0.282657 -0.221380 -0.173909 -0.042941 0.041047 0.021747 -0.017253 0.041032 0.053216 -0.061445 -0.018948 0.024186 -0.109185 -0.046353 -0.089397 -0.030951 -0.008299 -0.021475 -0.006822 -0.032903 0.045272 -0.117991 -0.142458 -0.345147 -0.391905 -0.523187 -0.573022 -0.459131 -0.605869 -0.414317 -0.321996 -0.213291 -0.007644 -0.105289 0.003707 0.081267 -0.020594 0.002538 0.000786 0.044981 0.093517 -0.065056 0.018887 -0.035083 -0.115547 -0.016407 -0.010205 -0.084148 -0.147082 -0.179093 -0.284296 -0.371941 -0.326030 -0.674180 -0.632420 -0.630114 -0.652869 -0.585122 -0.423138 -0.241623 -0.026998 0.131981 0.195685 0.098571 -0.020907 -0.019908 0.082021 -0.031953 0.015950 -0.081824 -0.168900 -0.142484 -0.171602 -0.082374 -0.099602 -0.118818 -0.192375 -0.327432 -0.341534 -0.552593 -0.770783 -0.797300 -0.802399 -0.791676 -0.711247 -0.805899 -0.475154 -0.279527 0.048835 0.132046 0.058268 0.080261 -0.001336 0.025648 -0.086987 -0.088146 -0.079822 -0.082917 -0.188580 -0.372945 -0.379969 -0.284882 -0.278903 -0.229840 -0.246014 -0.453899 -0.500660 -0.790173 -0.833022 -0.941755 -0.835976 -0.710268 -0.715458 -0.649030 -0.472561 -0.293373 -0.001614 0.141540 0.078234 -0.086583 0.050617 0.022088 -0.072975 -0.030538 -0.037768 -0.104025 -0.326840 -0.259841 -0.388554 -0.378535 -0.360599 -0.423182 -0.513130 -0.421755 -0.613829 -0.662284 -0.826276 -0.856337 -0.792040 -0.754585 -0.575603 -0.626213 -0.533781 -0.392344 -0.078496 -0.006617 0.068706 0.140291 0.056825 0.016237 0.040140 0.040649 -0.089263 -0.185196 -0.307052 -0.447205 -0.466421 -0.391214 -0.398630 -0.276401 -0.473463 -0.421515 -0.469571 -0.648936 -0.997909 -0.971871 -0.835853 -0.648414 -0.703078 -0.588890 -0.425688 -0.487020 -0.077752 0.025396 0.211822 0.104419 0.012251 -0.016959 -0.016214 -0.093626 -0.198339 -0.183634 -0.269839 -0.344964 -0.399886 -0.413752 -0.325938 -0.348195 -0.297841 -0.225524 -0.284362 -0.571854 -0.747350 -0.834573 -0.764228 -0.626429 -0.679220 -0.530389 -0.426054 -0.450454 -0.173745 -0.076468 0.140846 0.046741 0.009454 0.025292 0.068038 -0.034653 -0.174937 -0.280262 -0.493732 -0.382929 -0.369150 -0.245648 -0.177037 -0.109139 -0.128822 0.001528 -0.075519 -0.400508 -0.733759 -0.829890 -0.585168 -0.616306 -0.512872 -0.567459 -0.453206 -0.222125 -0.156636 -0.038646 0.060938 0.093345 0.036473 -0.050299 -0.046567 0.050885 -0.149633 -0.383848 -0.448724 -0.319925 -0.241000 -0.104899 -0.051637 0.069107 0.139324 0.150189 0.026217 -0.355466 -0.671874 -0.760944 -0.660842 -0.531855 -0.576783 -0.441150 -0.272028 -0.230536 -0.037996 -0.001500 0.111713 0.125605 -0.030045 0.074640 -0.022025 0.080403 -0.163017 -0.391623 -0.530662 -0.514636 -0.372396 -0.156788 0.045152 0.229838 0.093870 0.157157 -0.194563 -0.408544 -0.620377 -0.630853 -0.627721 -0.605570 -0.552665 -0.365810 -0.206074 -0.174311 -0.063330 0.000758 0.061432 0.108997 0.123500 -0.015357 -0.039829 -0.013565 -0.116579 -0.313793 -0.530626 -0.584985 -0.371289 -0.185262 -0.184027 -0.068712 -0.174078 -0.193383 -0.225771 -0.425943 -0.475129 -0.642625 -0.812824 -0.642464 -0.472163 -0.488420 -0.334085 -0.140783 -0.137002 -0.029792 0.006143 0.126919 -0.060645 0.103947 -0.008883 0.084212 -0.121712 -0.309465 -0.623005 -0.551079 -0.442695 -0.376041 -0.220997 -0.256316 -0.253142 -0.294486 -0.459292 -0.587076 -0.439312 -0.498992 -0.572957 -0.631016 -0.454845 -0.484662 -0.342150 -0.260492 -0.144856 -0.074316 0.132490 -0.016561 0.101237 0.048900 0.013292 0.006668 -0.077238 -0.223521 -0.549282 -0.621691 -0.470156 -0.303841 -0.266140 -0.232215 -0.334239 -0.437872 -0.368615 -0.298837 -0.270403 -0.359572 -0.535958 -0.436255 -0.433807 -0.506509 -0.402829 -0.258888 -0.235928 -0.106155 0.050559 -0.063590 -0.000461 0.014876 0.021627 0.017692 0.031514 -0.160566 -0.350397 -0.555992 -0.503850 -0.425697 -0.403751 -0.521123 -0.409381 -0.462052 -0.245853 -0.291039 -0.284771 -0.352702 -0.334274 -0.259878 -0.386989 -0.372969 -0.352754 -0.342554 -0.077804 0.013327 0.002593 0.072193 -0.070682 -0.014011 -0.007478 -0.057552 -0.048499 -0.099997 -0.308995 -0.444319 -0.521308 -0.589916 -0.463037 -0.473779 -0.366682 -0.379726 -0.266795 -0.275595 -0.341532 -0.301500 -0.352128 -0.330886 -0.357964 -0.406352 -0.320467 -0.297294 -0.047683 -0.042675 0.041729 -0.057115 -0.034636 0.044978 -0.092101 0.134245 0.066266 -0.070809 -0.262140 -0.377089 -0.603050 -0.521989 -0.380271 -0.406143 -0.235577 -0.249422 -0.189005 -0.194949 -0.187752 -0.286226 -0.320744 -0.406364 -0.427098 -0.317536 -0.376943 -0.109177 -0.032691 -0.012231 0.002473 -0.028858 0.014929 -0.021733 -0.021157 0.031479 -0.027995 -0.044108 -0.278536 -0.346348 -0.375501 -0.392774 -0.427786 -0.078957 -0.161105 -0.164861 -0.179145 -0.140442 -0.253890 -0.288278 -0.231195 -0.339058 -0.332419 -0.278300 -0.096023 -0.104819 -0.081151 0.010281 0.072003 -0.027783 -0.017839 -0.016202 -0.062935 -0.000151 -0.044246 0.008411 -0.102368 -0.242078 -0.380517 -0.330551 -0.171498 -0.190336 -0.060186 -0.060423 -0.194048 -0.049373 -0.044107 -0.165240 -0.238389 -0.269296 -0.175033 -0.331609 -0.097598 -0.065694 -0.075128 -0.071878 -0.055735 0.047586 0.066749 0.043591 0.020601 0.027917 0.028576 -0.022329 -0.142473 -0.265242 -0.195154 -0.222854 -0.193318 0.034685 0.005423 -0.120928 -0.124753 -0.034868 -0.173554 -0.137999 -0.207106 -0.103392 -0.124846 -0.118880 -0.060838 -0.034675 0.100888 0.000053 0.036805 -0.059165 0.026682 -0.013737 -0.058737 0.048552 0.063415 -0.050847 -0.096966 -0.148019 -0.162348 -0.035943 -0.027500 -0.077834 -0.072474 0.009638 -0.047058 -0.048189 0.021353 -0.002662 0.072738 -0.068416 -0.088918 -0.034334 -0.105243 0.100220 -0.006853 -0.095051 0.075292 -0.040125 -0.000825 0.064035 0.082023 -0.057295 0.088237 0.109140 0.047980 -0.025957 0.022302 -0.064627 0.130117 0.012995 0.026609 0.049111 -0.031290 -0.054320 -0.080438 0.016844 0.024298 0.030383 0.024006 -0.020415 0.064130 0.068209 -0.051451 0.026756 0.071515 -0.068567 0.071066 0.115082 -0.002264 0.072521 -0.082650 -0.026907 -0.031693 0.019029 -0.082522 -0.015171 0.068219 0.004848 0.047856 0.050769 -0.035228 -0.019807 -0.061284 -0.024468 -0.060310 -0.041291 0.050245 -0.035028 0.051267 -0.042601 -0.087451 0.055170 0.040511 0.019241 0.060151
0.083632 0.015045 -0.010656 0.012180 -0.007003 -0.010595 -0.008386 -0.020126 0.069795 0.002854 -0.047489 -0.029877 0.068810 -0.005885 -0.062945 -0.053121 -0.057968 -0.011774 0.020763 -0.080178 0.040296 -0.082945 -0.050021 -0.100051 -0.030856 0.013998 -0.013022 -0.041380 0.110980 -0.081077 -0.017171 -0.120341 -0.000182 -0.042071 -0.018034 0.000378 0.084450 -0.047276 -0.015273 -0.129754 -0.085425 0.111829 0.061931 -0.012803 -0.033610 -0.046890 -0.113391 -0.041556 -0.007792 0.006116 0.018411 0.041348 -0.015911 -0.039332 0.025573 0.039748 0.036972 -0.056997 -0.040017 -0.030873 0.015174 -0.028616 0.100441 0.118296 0.062401 0.017931 -0.076555 0.057930 0.007907 -0.004320 -0.023370 0.015142 0.041928 -0.057597 -0.032423 -0.018195 -0.018791 0.062566 -0.040062 -0.001362 -0.014434 0.043701 0.028565 0.036004 -0.021903 -0.021349 0.048552 -0.028142 -0.034335 0.026491 0.012862 0.049931 0.025854 -0.023821 0.128350 -0.060460 -0.110137 0.016672 -0.106376 -0.039351 0.212945 0.016460 0.060916 0.238622 0.196091 0.154078 0.123373 0.068146 0.106220 -0.087269 0.014025 0.009748 -0.137204 0.011021 -0.061837 0.047276 0.074074 0.095673 -0.025621 0.303221 0.177792 0.162534 -0.006799 -0.176640 -0.284039 -0.294811 -0.054113 -0.074294 0.108934 0.377932 0.543377 0.746860 0.697938 0.374793 0.078206 0.045404 0.023281 0.020335 -0.010196 -0.079985 -0.088245 -0.091682 -0.065270 -0.038916 0.041787 0.208976 0.141735 0.314625 0.267550 0.174442 -0.157706 -0.553829 -0.853326 -0.904785 -1.014226 -0.331479 -0.236854 0.333152 0.587098 0.706209 0.739755 0.333665 0.183827 0.081483 0.086886 0.058605 0.024712 -0.056117 0.067143 -0.028673 -0.015997 0.006119 0.181657 0.105394 0.316885 0.491022 0.104574 -0.118694 -0.444340 -1.044686 -1.633922 -1.552600 -1.194779 -0.946616 -0.329206 0.002242 0.206074 0.634154 0.396559 0.364885 0.295694 0.244238 0.458185 0.083379 0.062201 0.092936 -0.000443 -0.035061 0.076577 0.077737 0.194599 0.325732 0.435383 0.355549 0.280220 -0.043402 -0.937882 -1.584695 -1.660108 -1.491902 -0.997195 -0.659906 -0.177351 0.116796 0.145858 0.421008 0.413030 0.078414 0.215702 0.123092 0.593542 0.281443 -0.005904 0.054098 0.012708 -0.012079 0.082717 0.263975 0.298121 0.513803 0.098729 -0.186509 -0.204617 -0.502326 -0.765818 -1.312675 -1.292019 -1.139285 -0.750886 -0.180772 -0.029097 -0.342416 -0.074293 0.432033 0.949941 0.413668 0.139033 -0.152703 0.138185 0.224131 0.058595 0.046239 0.086121 0.015046 0.129669 0.450889 0.583758 0.457466 -0.144108 0.063965 0.181107 -0.268557 -0.312683 -0.985775 -0.917698 -1.372622 -0.457706 -0.128244 -0.321803 -0.964501 -0.759284 0.172078 0.429438 1.260661 0.304986 0.338806 -0.261507 0.054641 0.072171 0.033921 0.048764 -0.071460 0.073017 0.413102 0.458802 0.611296 0.094881 0.383458 0.324596 -0.058431 -0.461280 -1.452231 -1.071190 -1.032807 -0.512769 0.128021 -0.664180 -0.683474 -0.605212 -0.035900 1.033930 1.353527 0.810293 -0.082413 -0.271163 0.033352 0.156836 0.041165 0.036172 0.048324 -0.079923 0.503673 0.469135 0.382699 0.271975 0.418134 0.309582 0.132812 -0.489900 -1.173593 -1.350042 -1.621406 -0.398584 -0.155911 -0.614326 -0.585580 -0.334960 0.642095 1.417841 1.288981 0.440015 0.058852 -0.529640 0.226357 0.328104 -0.023988 -0.057684 -0.016370 0.033777 0.677457 1.006050 0.639313 0.464974 0.869837 0.414937 0.606521 -1.143348 -1.919814 -2.069538 -1.164309 -0.603692 -0.713231 -0.301578 0.215462 0.149637 0.851772 1.371924 0.691836 0.327185 -0.682573 -0.100546 0.216512 0.289327 -0.000277 -0.069178 0.053471 0.154864 0.606025 0.923837 0.943369 0.210622 0.647382 1.265001 0.015045 -1.444067 -2.114492 -1.566021 -1.185548 -0.475670 -0.014753 0.146805 0.260840 0.195734 0.496615 1.240692 0.503603 -0.241955 -0.785040 -0.113262 0.208995 0.036670 -0.088301 -0.042473 -0.002162 0.122536 0.265018 0.791109 0.510406 0.250161 0.516181 0.825580 -0.090347 -0.772712 -0.945319 -0.900229 -0.575573 0.193520 0.513542 0.424120 0.327689 0.507363 1.053250 0.660067 0.191287 -0.304427 -0.778097 -0.204480 0.259978 0.193289 -0.063395 0.014058 -0.032011 -0.102582 0.507833 0.298335 0.882034 0.372385 0.661492 0.389194 0.633272 0.000583 -0.290245 -0.785116 -0.152200 -0.434021 -0.400917 -0.017545 0.177750 0.239605 0.334643 0.456484 -0.276359 -0.062160 -0.556564 -0.052474 0.099721 0.178452 0.003401 -0.003808 0.033228 -0.070525 0.364063 0.100577 0.235332 0.468129 0.653943 0.706569 0.006392 0.163547 -0.241805 -0.425159 -1.129937 -1.391546 -1.187736 -0.631008 -0.505716 -0.319326 -0.285447 -0.051107 -0.445868 -0.133930 -0.246828 -0.096051 -0.160703 0.073081 -0.119546 0.021560 -0.036553 -0.089564 0.186933 -0.340109 0.025385 0.256023 0.533632 0.466256 0.753355 -0.119365 -0.578175 -0.659848 -0.920455 -1.062988 -0.754734 -1.053312 -0.848741 -0.624232 -0.415416 -0.066790 -0.142526 0.006294 -0.164589 -0.478197 -0.083498 0.005813 0.027927 0.015065 0.013017 0.064526 -0.305788 -0.323756 -0.012138 -0.085813 -0.113025 0.130134 0.221330 -0.098876 0.029407 -0.246860 -0.518214 -0.295763 -1.024631 -1.323443 -0.403777 -0.028421 -0.152885 0.101111 0.328974 0.664121 0.217249 0.057562 -0.005188 0.073792 -0.052574 0.049829 -0.071217 -0.097399 -0.115609 -0.379701 -0.146490 -0.388770 -0.485388 0.344144 0.279442 0.012249 0.001559 -0.003355 -0.560534 -0.456188 -1.104445 -0.821280 -0.466478 -0.091478 0.074675 0.219216 0.072082 0.607467 0.202909 0.155727 -0.194275 -0.000661 0.005324 -0.016667 -0.108160 -0.021622 -0.118547 -0.498545 -0.289065 -0.220388 -0.120201 0.190880 0.061494 0.116329 0.063756 -0.653717 -0.686504 -0.668878 -0.600379 -0.492009 -0.075008 -0.114459 0.404472 0.545648 0.677248 0.564591 0.145859 -0.237054 -0.095013 -0.060073 -0.081583 0.000821 -0.127626 -0.051646 -0.020195 -0.233037 -0.440105 -0.566704 -0.352223 -0.224506 0.006676 0.171957 -0.409590 -0.453442 -0.321942 -0.612977 -0.090689 -0.333941 0.221968 0.206274 0.509272 0.907975 0.800927 0.376198 0.004733 -0.008905 -0.022977 0.073552 0.008199 0.110471 -0.028387 0.043517 -0.021922 -0.296506 -0.522850 -0.554265 -0.289665 -0.358509 -0.090425 -0.213692 -0.586205 -0.636831 -0.606059 -0.454538 -0.214607 -0.042971 0.430077 0.869131 0.644484 0.509534 0.392207 0.136141 0.214342 -0.041644 -0.075746 -0.045161 -0.099167 -0.022711 -0.083707 0.077034 -0.025980 -0.149005 -0.599823 -0.721269 -0.434545 -0.700965 -0.717436 -0.449903 -0.507887 -0.379619 -0.499119 -0.307388 -0.441149 -0.244922 0.344693 0.803556 0.492741 0.731857 0.311942 0.135056 0.052702 -0.004118 -0.139143 -0.027990 0.041073 0.092705 -0.017343 -0.062488 0.054883 -0.082250 -0.240387 -0.431870 -0.572217 -0.647452 -0.415147 -0.288726 -0.271895 -0.192292 -0.137787 -0.097486 -0.115722 0.033877 0.506254 0.674792 0.487265 0.310231 0.105762 -0.001254 -0.042416 0.043328 0.082615 0.001035 0.094622 0.021733 -0.031189 -0.085049 0.030573 -0.077442 -0.060868 -0.058996 -0.150611 -0.345968 -0.199541 0.023142 0.105620 -0.068488 -0.082089 -0.097400 0.154465 0.238019 0.377132 0.468608 0.288937 0.059283 0.142005 0.021884 0.030810 0.040069 0.112767 -0.054898 -0.057910 -0.063743 -0.039156 0.023370 0.009592 -0.013294 -0.000293 0.084309 -0.038040 0.020961 -0.034704 -0.014168 0.000577 0.004590 -0.007659 0.118461 0.016209 0.058101 0.030822 0.157976 0.025965 0.081997 -0.037509 0.049150 0.014175 -0.068939 -0.046798 0.042955 -0.072663 -0.126607 0.107308 -0.067951 0.057545 0.014240 0.023406 0.067183 -0.028705 -0.018415 0.046664 -0.096546 0.056516 0.034251 -0.063094 -0.005622 -0.004778 -0.010963 -0.031351 0.096961 -0.003956 0.045576 0.053824 0.112784 -0.004333 0.022699 0.040305 0.064465 0.012584
-0.044957 0.023839 -0.121862 -0.029721 -0.087939 0.028337 0.055409 -0.002062 0.012544 0.020181 -0.111413 -0.107583 0.025139 0.081339 -0.029060 0.007846 0.033506 -0.032705 -0.012821 0.003916 0.100873 0.004920 -0.028658 -0.023815 0.042054 -0.052187 0.131195 0.012189 -0.034410 -0.033077 -0.027011 -0.052681 -0.008616 -0.048505 -0.055394 -0.012405 0.023869 -0.018950 0.007031 -0.068509 -0.060609 -0.157130 0.090291 -0.012324 -0.052297 -0.020068 0.063134 -0.092720 0.043913 -0.069109 -0.001047 -0.006690 -0.006346 -0.063262 -0.035561 -0.058116 -0.032560 -0.163003 0.017077 0.095919 -0.011474 -0.062365 -0.047867 -0.022624 -0.035190 0.025506 0.038329 0.076200 0.068274 0.055966 0.031035 0.007384 0.043809 0.005937 -0.022537 -0.037172 -0.016737 0.028990 0.024913 -0.029225 0.040696 -0.010721 -0.056501 -0.080030 -0.050298 -0.022834 -0.100822 -0.058648 -0.034083 -0.062192 -0.016227 0.071602 0.085524 -0.095669 -0.036468 0.069571 0.047075 0.059625 0.015382 -0.030719 0.030355 0.072463 0.025795 0.094888 -0.006921 0.002338 -0.069871 0.031678 -0.023932 -0.022782 0.051573 0.091439 -0.029198 -0.045938 -0.016934 0.063524 -0.023493 -0.047068 0.055421 -0.091570 0.036825 0.000787 0.074251 0.002923 0.041951 0.071121 0.025322 0.062356 0.063956 0.006834 -0.015965 0.061969 0.119648 0.003162 -0.033403 0.019665 -0.093221 -0.024054 0.113019 0.039482 -0.017617 0.052037 0.064790 0.016566 0.056202 0.135101 0.003087 -0.014220 0.116407 0.173283 0.138929 -0.052361 -0.010231 0.081331 0.059070 0.034687 0.061636 0.034869 0.241549 0.038575 0.089897 0.056088 -0.049732 -0.099711 -0.030888 0.075855 0.012128 0.022868 -0.050619 0.071433 0.024387 -0.010629 -0.038389 0.104776 0.031778 0.077528 0.098334 -0.011237 0.049892 -0.025992 -0.027795 0.009522 -0.029189 0.051865 0.011399 0.159343 0.089123 0.077347 -0.009559 -0.078253 -0.030860 -0.122408 -0.047724 0.057783 0.147693 -0.013857 -0.053924 0.122890 0.004886 0.068988 -0.012611 -0.020937 0.071914 0.052613 0.140618 0.031032 0.039221 -0.014805 0.142405 0.081678 0.070864 0.165407 0.100929 0.062839 -0.155831 -0.052937 -0.139740 -0.247622 -0.175850 -0.275293 0.030199 0.140318 0.052758 0.036295 0.069908 0.057055 -0.098103 -0.010340 0.137347 0.031890 -0.056073 0.125058 0.053822 -0.019087 0.077540 -0.023351 0.073876 0.029486 0.045149 0.146221 0.235997 -0.125651 -0.165421 -0.316668 -0.303167 -0.343266 -0.357739 -0.378523 0.089697 0.181748 0.050647 -0.007046 -0.005618 0.033648 -0.019570 0.056550 0.053300 0.044557 -0.055848 -0.012517 -0.053090 0.033159 0.063034 -0.011086 -0.028659 -0.152793 -0.050147 0.030133 0.094692 -0.104320 -0.498336 -0.578798 -0.648836 -0.533198 -0.477832 -0.428151 -0.021010 0.197111 0.031753 0.026606 -0.028176 -0.083187 0.011687 0.091517 -0.008580 0.011015 -0.198589 -0.119185 0.016422 0.181321 0.008626 -0.254838 -0.249349 -0.351140 -0.185038 -0.036210 -0.046142 -0.354064 -0.585683 -0.685152 -0.741381 -0.711599 -0.649401 -0.572879 -0.030193 0.206508 0.078903 -0.009115 0.031454 -0.052687 -0.017278 0.047453 0.006823 -0.159905 -0.331334 -0.101149 0.099428 0.029820 -0.174480 -0.419699 -0.588326 -0.607842 -0.383085 -0.266394 -0.336826 -0.517350 -0.622010 -0.790450 -0.738322 -0.681028 -0.627369 -0.628888 -0.150575 0.313489 0.188123 0.074814 0.027109 -0.005415 -0.005423 0.012554 0.005340 -0.424461 -0.339219 -0.062671 -0.077394 -0.023087 -0.384069 -0.649232 -0.821808 -0.984481 -0.815113 -0.619121 -0.628937 -0.618848 -0.803977 -0.711859 -0.536292 -0.813054 -0.711741 -0.642822 -0.153882 0.233579 0.078701 -0.104687 -0.097027 -0.010059 0.015704 0.007044 -0.234193 -0.561386 -0.517144 -0.172549 -0.209152 -0.324568 -0.599458 -1.012436 -1.183520 -1.402500 -1.153649 -0.885730 -0.785104 -0.756651 -0.576587 -0.460724 -0.722533 -0.825923 -0.702410 -0.708114 -0.319708 0.302505 0.039232 -0.078992 0.033521 -0.024536 -0.137618 -0.020386 -0.309054 -0.865913 -0.550787 -0.313265 -0.129099 -0.452671 -0.911806 -0.943139 -1.282658 -1.324373 -1.015928 -0.872087 -0.734483 -0.408801 -0.365419 -0.456182 -0.606278 -0.729002 -0.737192 -0.625154 -0.210686 0.248440 0.108133 0.047875 -0.022081 -0.080952 -0.141125 -0.156519 -0.372159 -0.933743 -0.480008 -0.242864 -0.201352 -0.400156 -0.598073 -0.697295 -0.867700 -0.928595 -0.954130 -0.787812 -0.416888 -0.028688 -0.032768 -0.275604 -0.523577 -0.748976 -0.574467 -0.426760 -0.063280 0.181214 0.051048 0.092866 0.006343 0.005567 -0.093380 -0.233536 -0.490290 -0.934259 -0.595849 -0.158087 -0.088160 -0.153982 -0.195065 -0.306071 -0.500367 -0.573804 -0.504875 -0.175280 0.127644 0.106367 -0.028692 -0.284428 -0.511743 -0.671214 -0.558084 -0.369717 -0.010159 0.197507 0.097063 -0.044503 0.046598 -0.021066 -0.108470 -0.210359 -0.368963 -0.902085 -0.453712 -0.028462 0.153798 0.220384 0.132654 0.059398 -0.039677 -0.067272 0.099703 0.118042 0.290054 0.202016 -0.113035 -0.352062 -0.423877 -0.469242 -0.343178 -0.270877 0.043032 0.274303 0.081720 0.077934 -0.008977 -0.043265 -0.089977 -0.272080 -0.454483 -0.823623 -0.562932 -0.149943 0.153589 0.268877 0.312615 0.365132 0.276714 0.135867 0.258909 0.192486 0.067167 -0.055438 -0.285900 -0.326531 -0.425518 -0.207424 -0.255926 -0.027849 0.072314 0.144468 0.072361 -0.064691 -0.048851 0.093154 -0.107561 -0.190541 -0.370795 -0.743341 -0.564602 -0.180965 0.089664 0.304930 0.394597 0.336271 0.268189 0.223111 0.127301 -0.042918 -0.070259 -0.262160 -0.175642 -0.265941 -0.308614 -0.140233 0.006514 0.064148 0.091500 0.132093 0.130357 0.083462 -0.017413 -0.010352 0.027789 -0.125873 -0.251171 -0.465810 -0.452445 -0.123821 0.163269 0.113399 0.225124 0.222053 0.184813 0.143117 -0.006934 -0.118070 -0.205727 -0.316921 -0.246884 -0.103384 0.001078 0.061074 0.095969 0.080499 -0.041312 0.213459 0.075974 -0.034825 -0.063638 -0.062063 -0.006184 0.071864 -0.286121 -0.270326 -0.240326 -0.049385 -0.070765 -0.061830 0.040924 -0.023697 0.094503 -0.085501 -0.182828 -0.197608 -0.318784 -0.312865 -0.055065 -0.009006 -0.055192 0.156908 0.062580 0.096747 0.093062 0.175677 -0.036064 -0.008754 0.079588 0.082460 0.009161 -0.080509 -0.103027 -0.221803 -0.271202 -0.225926 -0.089759 -0.096035 -0.029182 0.030291 -0.155122 -0.132348 -0.281088 -0.053316 -0.058162 -0.086413 0.111952 0.134915 0.154143 0.181463 0.234120 0.048263 0.102593 0.012056 -0.059848 0.010157 -0.042614 0.012599 -0.012277 0.046340 -0.032143 -0.102739 -0.079011 -0.115294 -0.152247 -0.083068 -0.014975 -0.047322 -0.117657 -0.158222 -0.130177 -0.090440 -0.143962 0.047200 0.121624 0.199861 0.085593 0.099777 0.126741 0.021635 0.066332 0.012198 -0.036768 -0.020701 -0.014425 -0.102586 -0.064688 0.115532 -0.045224 -0.100647 -0.040198 -0.141718 -0.083608 -0.109829 -0.105679 -0.095585 -0.038936 -0.165763 -0.009167 -0.071325 -0.055996 0.075954 0.080844 0.189158 0.180372 0.085840 0.001788 -0.059947 -0.018020 -0.017668 0.101915 0.020888 -0.097065 -0.027255 -0.091403 -0.095541 -0.022829 -0.072771 0.046824 -0.127050 -0.135386 -0.063943 0.020500 -0.005124 -0.071008 -0.036804 -0.039052 0.074670 -0.084928 -0.019880 -0.005540 0.107372 0.120485 -0.038772 0.064098 -0.095536 -0.057408 0.043543 0.046752 0.013618 -0.036597 0.034525 0.031886 -0.031868 0.097551 -0.058308 -0.018905 0.045757 -0.018047 -0.086153 -0.108794 0.008578 -0.008466 0.021950 -0.046457 -0.170020 -0.000435 -0.091169 0.024479 0.039069 -0.006080 -0.026033 0.031118 -0.028813 -0.078556 -0.001360 -0.061116 -0.025561 -0.019739 0.034627 -0.079938 -0.021089 0.090430 -0.028110 -0.037410 0.046544 0.008514 -0.057292 0.017895 0.034622 -0.017918 0.041008 -0.028071 0.011076 -0.128192 0.016148 -0.008368 -0.084165 0.014049 0.006751 0.004612 0.012522 0.080848 -0.023302 -0.031181 0.033268
-0.060649 -0.022855 -0.011943 0.008187 0.024872 -0.095281 0.042024 -0.057431 0.079210 -0.033030 0.006381 0.026307 -0.071150 0.087936 -0.003228 -0.043188 -0.026780 -0.018646 0.109083 0.042959 0.077311 0.010736 -0.010766 -0.068917 -0.010537 0.086124 -0.022713 0.072729 0.042043 0.011565 0.018203 -0.025364 -0.096786 0.081166 -0.006263 0.017525 0.020946 -0.001849 0.012296 0.022213 0.110920 0.029846 -0.021047 -0.011919 0.095265 0.062207 0.021705 -0.016398 -0.020488 0.043329 -0.009792 -0.057558 0.017186 0.003132 -0.005957 0.063218 0.024648 -0.002275 0.026609 0.004189 0.060547 -0.039951 0.020031 -0.017789 -0.013399 -0.033237 0.027273 -0.065810 0.058213 0.027325 -0.021265 -0.025783 -0.084745 -0.052493 0.081866 0.029600 0.059311 0.002823 -0.071218 -0.134948 0.016421 0.122233 -0.032568 -0.053270 0.030715 0.041806 -0.010990 0.059061 -0.030867 -0.114555 0.066909 -0.021989 -0.025961 0.055625 0.040028 0.027017 0.086297 0.031385 0.032872 -0.016560 0.031216 0.104295 -0.075766 0.025208 0.015059 0.068892 -0.017341 0.048583 -0.041566 -0.005133 -0.031685 -0.010553 0.093925 0.021588 0.023034 -0.105587 -0.013439 -0.010637 0.028509 0.007962 -0.126038 -0.023387 -0.020840 -0.086359 -0.042753 0.013468 0.058241 -0.046094 -0.052075 -0.109464 -0.130907 -0.104805 -0.078085 -0.076789 0.006558 0.004737 0.054406 0.111499 -0.053614 0.093929 -0.089742 0.040505 -0.062268 0.018121 -0.050997 -0.093182 -0.088224 0.003862 -0.000345 -0.033402 0.019559 -0.127387 -0.036667 -0.037812 -0.192293 0.003168 -0.135175 -0.280248 -0.215547 -0.226218 -0.165011 -0.147843 -0.275465 -0.117186 -0.012499 -0.036300 0.008112 0.051823 0.049499 -0.068056 -0.026288 0.006385 0.021903 0.004614 0.052847 -0.041452 0.041288 -0.130020 -0.157106 -0.108908 -0.050223 -0.043988 -0.083107 -0.201175 -0.184014 -0.213354 -0.301164 -0.380163 -0.298638 -0.173258 -0.175306 -0.059293 -0.044567 -0.047391 0.016526 -0.060177 0.084721 -0.042514 0.066125 -0.009686 -0.020766 -0.044071 -0.077435 -0.031439 -0.131161 -0.228890 -0.176216 -0.054539 -0.177046 -0.133913 -0.091252 -0.122286 -0.299210 -0.372816 -0.578485 -0.554843 -0.401012 -0.280831 -0.267710 0.017365 -0.036542 -0.061646 -0.063347 0.043990 0.005450 0.024600 0.034951 0.046270 0.020521 -0.056877 -0.084196 -0.238750 -0.238618 -0.325900 -0.285410 -0.300413 -0.103803 -0.016354 -0.041166 -0.217812 -0.415708 -0.543757 -0.884523 -0.728606 -0.584298 -0.423001 -0.165041 -0.021740 -0.064367 -0.044016 0.005294 0.095159 -0.017822 0.031882 0.097993 0.019573 -0.098294 -0.171882 -0.200537 -0.391105 -0.485702 -0.577292 -0.420104 -0.351547 -0.175763 0.059667 -0.026490 -0.313733 -0.547634 -0.723140 -0.925325 -0.841755 -0.738293 -0.535764 -0.294524 -0.227478 -0.193786 -0.069705 0.028082 -0.099253 -0.019635 0.015153 -0.087671 -0.123753 -0.155200 -0.180971 -0.321951 -0.567615 -0.761642 -0.689972 -0.694976 -0.418036 -0.311419 -0.198392 -0.217759 -0.382456 -0.639498 -0.740307 -0.780359 -0.868014 -0.703612 -0.607098 -0.509203 -0.239804 -0.285146 -0.081558 0.034963 -0.009874 0.014037 0.035718 0.057641 -0.125281 -0.242871 -0.345650 -0.574374 -0.874599 -0.923003 -0.927983 -0.732042 -0.597016 -0.286784 -0.334747 -0.264813 -0.408733 -0.490129 -0.448093 -0.627636 -0.624440 -0.671141 -0.659330 -0.556754 -0.455396 -0.259293 -0.211610 -0.080191 -0.072301 -0.055838 0.000394 -0.076188 -0.150501 -0.237768 -0.491551 -0.711873 -0.993259 -0.950411 -0.780796 -0.489869 -0.344789 -0.216053 -0.267327 -0.209241 -0.080460 -0.322137 -0.428315 -0.491817 -0.311328 -0.464506 -0.569944 -0.621208 -0.495146 -0.282344 -0.221658 -0.100844 -0.000919 0.020328 -0.056772 -0.082717 -0.176837 -0.265133 -0.540056 -0.840449 -1.046298 -0.957739 -0.575374 -0.208707 -0.011494 0.121604 0.189298 0.128279 0.197217 0.131294 -0.007185 -0.078375 -0.270911 -0.435934 -0.641063 -0.634110 -0.464654 -0.272932 -0.201350 -0.124801 0.014137 -0.026871 -0.040867 -0.068327 -0.288009 -0.441481 -0.823727 -1.141447 -1.145581 -0.693932 -0.331674 0.138851 0.343947 0.333536 0.178484 0.057567 0.108054 0.006717 -0.035681 -0.171020 -0.399084 -0.449558 -0.635282 -0.498022 -0.272441 -0.234976 -0.225957 -0.013612 0.103734 0.022293 -0.006314 -0.042307 -0.123477 -0.416926 -0.806304 -1.090700 -1.164707 -0.628360 -0.091884 0.260866 0.273366 0.045727 -0.098525 -0.094001 -0.004998 -0.112876 -0.296729 -0.345111 -0.493258 -0.555853 -0.515363 -0.434456 -0.112820 -0.085814 -0.134422 -0.075804 0.029398 0.054372 -0.034368 -0.016073 -0.276394 -0.426444 -0.695386 -1.041126 -0.893101 -0.524254 -0.147576 0.015248 -0.102472 -0.228064 -0.296821 -0.313047 -0.378084 -0.474716 -0.450766 -0.534453 -0.636987 -0.602537 -0.503743 -0.244528 -0.094434 -0.106750 -0.161061 0.018576 0.011091 -0.108520 0.060850 -0.091800 -0.273777 -0.385151 -0.507917 -0.667991 -0.829024 -0.610162 -0.335649 -0.274700 -0.330377 -0.530096 -0.505336 -0.643658 -0.426075 -0.438904 -0.484114 -0.636954 -0.805660 -0.722630 -0.563675 -0.265566 0.014332 -0.009767 -0.121649 -0.104167 -0.048934 -0.000299 -0.027583 -0.020066 -0.198223 -0.151633 -0.269452 -0.326702 -0.516175 -0.487369 -0.366653 -0.576690 -0.707222 -0.674265 -0.530073 -0.281504 -0.138811 -0.285185 -0.411484 -0.630564 -0.735729 -0.695010 -0.366118 -0.316912 -0.065137 -0.133473 -0.066357 -0.069595 0.036000 0.083030 -0.023553 -0.044890 -0.060909 0.016900 0.039106 -0.048383 -0.212018 -0.408549 -0.517018 -0.862686 -0.942588 -0.688196 -0.374655 -0.247766 -0.054638 -0.273384 -0.354215 -0.478505 -0.580694 -0.473550 -0.388461 -0.237326 -0.106874 -0.050058 -0.089671 -0.049879 -0.112194 0.007379 -0.014643 -0.094849 -0.107084 -0.005691 0.208558 0.071426 0.035664 -0.243076 -0.785262 -0.977403 -0.970816 -0.827218 -0.411517 -0.304437 -0.304966 -0.341182 -0.344718 -0.509972 -0.444345 -0.354231 -0.193966 -0.070460 -0.044722 -0.007412 -0.054091 -0.040865 -0.042735 -0.033223 0.052955 -0.099336 0.087514 0.116150 0.241397 0.266345 0.038307 -0.210477 -0.539198 -0.678132 -0.762321 -0.564340 -0.480839 -0.337401 -0.319760 -0.317313 -0.353915 -0.368461 -0.354511 -0.273444 -0.077695 -0.151535 -0.017326 -0.056556 -0.170567 -0.038942 0.024248 0.088409 0.034291 -0.001864 -0.032447 0.150446 0.202380 0.245404 0.193378 -0.235885 -0.395953 -0.537444 -0.636434 -0.437717 -0.327258 -0.398942 -0.241765 -0.338248 -0.334541 -0.338160 -0.230661 -0.306047 -0.215352 -0.034450 0.020545 -0.008048 -0.079733 0.036385 -0.039752 0.057871 -0.028547 -0.001181 -0.035739 0.096097 0.147932 0.125429 0.262221 0.079147 -0.145630 -0.396260 -0.220193 -0.310170 -0.252618 -0.304365 -0.255586 -0.194746 -0.326464 -0.249832 -0.198274 -0.085629 0.042227 0.116173 -0.015272 -0.043163 -0.048411 0.079185 0.016320 -0.018807 -0.058260 0.060585 -0.008342 -0.006213 0.140272 0.124383 0.202712 0.153311 -0.016545 -0.107586 -0.107918 -0.181805 -0.129140 -0.067291 -0.210114 -0.187031 -0.069815 -0.058100 -0.161783 -0.054478 -0.016009 0.052294 -0.043978 0.011533 0.026731 -0.099516 0.019495 -0.033096 0.039029 0.043584 -0.076027 0.014727 0.107236 0.078506 0.160951 0.054747 0.176803 0.021516 0.154833 -0.036210 -0.043377 -0.024865 0.025410 0.021756 -0.061373 -0.056877 -0.148985 0.011393 0.015290 -0.063355 0.036304 0.035227 0.095044 -0.034235 -0.092425 -0.036313 -0.021443 0.066438 0.069763 -0.050008 0.029203 0.029273 0.043033 0.084968 -0.006239 0.040745 0.020078 -0.017566 0.033213 -0.002885 -0.011518 0.097361 -0.096844 -0.107938 -0.128291 0.007917 -0.063608 0.075502 -0.039062 0.085928 -0.130083 0.087509 -0.007793 0.025181 -0.030522 0.032366 -0.080372 0.010117 -0.050054 -0.103767 -0.019255 -0.061923 0.001674 -0.039435 -0.015414 0.075559 0.022813 -0.006345 -0.009749 0.018800 0.045824 -0.058273 0.012163 -0.030169 0.018925 0.005486 0.065173 0.002443 0.020376 0.063551 -0.023487
0.070276 0.057060 -0.092702 0.010636 0.041171 -0.049833 -0.050716 -0.031098 -0.006208 -0.025204 0.003427 -0.045075 -0.049543 0.008531 0.007479 -0.066935 -0.061662 -0.076463 -0.014720 0.032707 -0.036308 -0.171045 -0.037135 -0.018448 0.020956 0.046210 -0.005859 0.030199 0.006176 0.081531 -0.069590 -0.014145 -0.003885 -0.018527 -0.086184 0.098919 0.044925 0.012701 -0.008041 -0.005326 0.013164 -0.064250 -0.016779 -0.013017 0.061888 -0.183562 -0.042824 0.022748 -0.057370 0.027520 -0.089780 -0.003088 -0.050533 0.126677 -0.039708 0.035928 0.049728 0.020258 0.092717 0.005932 0.028940 -0.044138 0.070153 0.068619 -0.048747 -0.024504 0.021584 0.062586 0.009896 -0.009649 -0.001681 0.035879 -0.009132 0.048680 -0.016212 0.030162 -0.011481 0.035875 -0.024689 -0.022038 -0.014849 -0.060930 0.006183 -0.024855 -0.019351 0.031795 -0.000792 -0.056644 0.013804 0.017707 0.035826 0.053881 0.007260 -0.025879 0.048137 0.148117 0.005307 0.128206 0.021050 -0.054809 0.073986 -0.116357 0.063835 0.020243 -0.013897 -0.024031 -0.085006 -0.071277 -0.042044 0.076499 0.035463 -0.149141 -0.038715 -0.002862 -0.079445 0.145116 -0.042222 -0.048963 -0.082726 0.009210 0.041394 0.034706 0.294869 0.209359 0.124014 0.072762 0.012263 -0.022140 -0.057695 -0.092626 -0.103258 -0.058359 -0.075297 -0.149498 -0.091094 -0.067700 0.059398 -0.059441 -0.033458 -0.024513 -0.028072 -0.087804 0.073785 -0.121833 0.042109 0.037119 -0.122184 0.039847 0.156825 0.190928 0.294175 0.149202 -0.005295 -0.128637 -0.224328 -0.271520 -0.300719 -0.302426 -0.317665 -0.310979 -0.194884 -0.028665 -0.141985 -0.014680 0.048401 0.062331 -0.018113 -0.084000 0.079566 -0.001107 0.005835 0.016281 -0.044380 -0.128560 -0.035449 0.061355 0.126498 0.201091 0.187837 0.081239 -0.017421 -0.224077 -0.269752 -0.584911 -0.539705 -0.613932 -0.493270 -0.533211 -0.303916 -0.306324 -0.143182 -0.088325 0.140268 0.055725 0.096039 -0.021912 0.165969 0.054097 0.014040 0.075374 0.051473 -0.174642 -0.055451 0.032417 0.072540 0.109246 0.146067 0.151653 -0.095293 -0.432800 -0.590203 -0.755801 -0.708265 -0.713891 -0.650365 -0.568985 -0.448060 -0.205023 -0.101201 0.166217 0.281460 0.251766 0.041611 0.036436 -0.008922 0.037481 -0.021594 0.091301 -0.059470 -0.195424 -0.236321 -0.038575 0.123607 0.255026 0.211929 -0.064252 -0.341279 -0.699035 -0.922405 -1.089753 -0.885629 -0.760322 -0.617554 -0.459211 -0.463484 -0.228364 -0.020427 0.097022 0.294527 0.320553 0.118345 -0.076065 0.094777 -0.007160 0.009913 0.073612 -0.129496 -0.261719 -0.190994 -0.086442 0.187895 0.300744 0.121280 -0.207996 -0.728197 -1.048086 -1.189850 -1.197506 -0.927285 -0.723654 -0.427369 -0.406522 -0.216169 -0.212933 0.090836 0.002621 0.196608 0.236902 0.236598 -0.034671 0.035492 -0.082364 -0.128139 -0.047299 -0.049335 -0.282658 -0.286996 -0.126770 0.173389 0.229828 -0.008126 -0.373966 -0.820834 -1.171659 -1.249805 -0.963589 -0.874135 -0.375246 -0.262186 -0.238224 -0.318654 -0.276197 0.010640 0.093531 0.360188 0.259506 0.168277 0.120306 0.069063 0.054948 -0.002246 -0.083850 -0.179247 -0.404815 -0.329750 -0.061080 0.122741 0.019393 -0.169725 -0.421829 -0.778737 -1.123072 -1.209310 -0.933639 -0.495588 -0.184664 -0.094993 -0.240223 -0.322111 -0.366979 -0.176082 0.011936 0.252001 0.268898 0.215003 -0.024580 -0.036349 0.036402 0.033008 -0.087114 -0.287641 -0.455087 -0.290079 -0.161138 -0.041847 -0.140912 -0.301760 -0.609607 -0.709795 -0.838243 -0.827853 -0.803449 -0.283360 -0.088771 -0.235425 -0.329282 -0.513309 -0.416632 -0.191239 -0.052938 0.176659 0.212132 0.155967 0.153560 0.053486 0.099508 -0.063488 -0.202364 -0.480947 -0.521706 -0.222836 -0.182468 -0.116965 -0.202479 -0.362595 -0.511678 -0.617115 -0.897611 -0.829593 -0.659360 -0.339080 -0.078589 -0.275955 -0.412041 -0.768294 -0.473076 -0.216833 -0.089245 0.122518 0.200737 0.085320 0.101777 -0.051095 -0.041071 -0.169292 -0.227595 -0.594601 -0.536875 -0.161579 -0.124364 -0.000865 -0.034861 -0.251886 -0.413923 -0.509762 -0.575251 -0.499573 -0.504211 -0.393057 -0.144554 -0.152873 -0.488177 -0.635068 -0.763773 -0.417647 -0.118747 0.141755 0.326533 0.256444 0.123233 -0.036325 -0.044155 -0.006337 -0.442264 -0.684309 -0.658046 -0.231666 -0.077715 -0.087310 -0.190339 -0.182788 -0.263808 -0.163024 -0.309903 -0.412861 -0.268425 -0.444513 -0.252583 -0.325149 -0.522960 -0.780423 -0.785564 -0.370272 -0.127860 0.148310 0.241197 0.228416 0.050875 0.037202 0.057854 -0.217846 -0.472481 -0.507167 -0.602188 -0.394015 -0.091049 -0.175116 -0.054745 0.019930 -0.011157 -0.133269 -0.178448 -0.348815 -0.288531 -0.181395 -0.274201 -0.502316 -0.619113 -0.753796 -0.734466 -0.547594 -0.145360 0.081000 0.159063 0.149983 0.084598 0.006715 -0.010899 -0.289167 -0.319980 -0.571505 -0.632560 -0.387614 -0.129055 -0.101069 -0.049492 0.101348 0.199971 0.149954 -0.139446 -0.326728 -0.206303 -0.299216 -0.402289 -0.628152 -0.751493 -0.732594 -0.512088 -0.403624 -0.164070 -0.019207 0.179374 0.087890 -0.059707 0.114260 -0.065120 -0.210748 -0.356353 -0.391474 -0.421949 -0.327995 -0.040941 -0.013561 0.169477 0.218985 0.357685 0.196769 -0.101091 -0.232272 -0.331798 -0.476652 -0.568260 -0.571177 -0.732485 -0.626882 -0.583782 -0.258319 -0.125808 0.003051 0.051918 0.059787 -0.021739 0.084650 0.027281 -0.167231 -0.322392 -0.361095 -0.529873 -0.240016 -0.186917 0.076177 0.247960 0.352870 0.355776 0.143976 -0.111912 -0.355440 -0.492823 -0.591124 -0.658001 -0.757319 -0.601359 -0.505849 -0.344697 -0.295403 -0.180397 -0.105532 0.055310 -0.022042 -0.005793 0.004533 0.028495 -0.087140 -0.174007 -0.198912 -0.279344 -0.322224 -0.164982 0.159609 0.255224 0.297479 0.220245 -0.032124 -0.404295 -0.539294 -0.505580 -0.572051 -0.773785 -0.627340 -0.552389 -0.388043 -0.199643 -0.104811 -0.112279 -0.057245 -0.005948 0.054326 0.034597 0.007698 0.060134 -0.025490 -0.122774 -0.146828 -0.156585 -0.252806 -0.192490 0.053072 0.239295 0.161667 0.125718 -0.042081 -0.324374 -0.433454 -0.620002 -0.506831 -0.592865 -0.560738 -0.443562 -0.220494 -0.103657 -0.106088 -0.007289 -0.024833 -0.069211 -0.020454 0.111355 0.010385 0.007309 0.053579 0.004998 0.005924 -0.223415 -0.105003 -0.249189 0.005957 0.031006 0.059624 -0.089839 -0.276355 -0.383025 -0.440119 -0.446076 -0.474183 -0.416298 -0.326207 -0.284548 -0.235483 -0.075133 -0.143015 -0.071653 0.069720 0.073618 0.062110 0.081724 -0.105673 -0.033907 0.043201 0.045258 -0.044718 -0.188854 -0.125099 -0.181471 -0.085627 -0.023113 -0.106318 -0.147513 -0.210359 -0.277520 -0.368045 -0.361687 -0.307380 -0.176469 -0.157539 -0.118884 -0.095685 -0.181277 0.071047 -0.025400 0.015875 0.017581 -0.004570 -0.023207 -0.019272 -0.030029 -0.028174 -0.080821 -0.043937 -0.111451 -0.050374 -0.239139 -0.112358 -0.095780 -0.065351 0.037627 -0.009793 -0.137211 -0.076954 -0.123220 -0.134556 -0.116768 -0.139449 0.061575 -0.073193 0.037342 -0.047621 -0.010103 -0.112721 -0.040463 -0.016548 0.051456 -0.028067 0.005037 0.039971 -0.080442 0.018045 -0.045287 -0.030701 -0.015704 -0.149117 -0.122581 0.054305 -0.116912 -0.049662 0.068994 -0.047558 -0.074087 0.037963 -0.068547 -0.038100 -0.058785 -0.002857 -0.013877 -0.088072 -0.025622 0.071271 -0.064804 -0.092653 -0.039281 -0.062954 0.058023 0.056598 0.082904 -0.006069 0.060120 -0.015588 -0.109356 -0.022426 -0.089737 -0.031430 -0.034087 -0.039261 -0.082510 0.021551 0.022122 -0.076818 -0.022267 0.026063 0.021502 -0.079519 0.157227 -0.071924 0.017946 -0.033005 0.050895 -0.101995 0.038095 0.015786 -0.050159 0.037712 0.078193 0.016442 -0.060408 -0.031904 -0.101587 -0.004537 -0.013895 0.091732 -0.042411 0.023802 -0.013332 -0.021648 0.056249 -0.111756 -0.059677 -0.137787 0.013829 0.007130 0.117352 -0.014053 0.049403 -0.006315 0.092384 0.008356 -0.026653
0.122658 -0.020708 -0.007667 0.026006 0.002633 -0.019715 0.049168 0.032139 0.014397 -0.010693 0.042458 -0.012025 0.009001 -0.016599 0.040957 0.034616 -0.006354 -0.027460 0.020876 -0.051278 -0.014243 0.075866 -0.013002 0.018046 0.016144 0.131492 0.130907 -0.044181 0.034148 0.021661 0.007108 0.069675 -0.047491 0.098211 -0.019906 -0.017177 0.033469 0.065175 -0.073712 0.094682 -0.014368 -0.049975 0.001303 -0.018322 -0.012694 0.120040 -0.004185 -0.100407 -0.059914 0.088553 -0.079300 -0.093079 0.013589 0.049955 0.026131 0.103977 0.024412 0.034851 -0.012058 -0.099020 0.027038 -0.045735 -0.014885 0.081104 -0.086478 0.040710 0.045672 0.076332 0.063563 0.040784 0.016525 0.053154 -0.050466 0.010443 0.057036 -0.008121 -0.031244 0.021755 -0.033863 -0.032180 -0.065968 -0.106537 -0.007326 0.072837 -0.025339 0.029954 0.006579 0.008433 -0.021034 -0.077196 -0.085074 0.015919 0.088105 0.169141 0.066940 0.089991 0.149992 0.034422 -0.052917 0.000365 -0.069144 -0.051700 -0.046690 -0.158290 -0.117222 -0.023850 -0.016552 -0.035607 -0.028920 0.079034 0.065856 -0.033526 -0.027331 0.030835 0.014922 0.000653 -0.016356 -0.005230 -0.029391 -0.004024 0.069078 0.228870 0.175033 0.231779 0.128005 0.046861 -0.072098 -0.028868 0.047371 -0.019907 -0.199450 -0.201546 -0.246670 -0.217806 -0.016786 -0.110869 -0.083928 -0.018244 -0.039573 0.053635 0.079487 -0.083019 0.058504 0.156425 0.058486 0.027022 -0.023240 0.072816 0.150523 0.264614 0.297074 0.173575 0.011727 0.034065 -0.080838 -0.130969 -0.177452 -0.146795 -0.275621 -0.454070 -0.379880 -0.267309 -0.235216 -0.076635 0.044822 0.061168 0.019269 0.038142 0.176007 -0.072788 0.033098 0.008947 0.010706 -0.072034 -0.182823 -0.081791 0.185038 0.246640 0.343699 0.127389 0.077034 -0.037085 -0.183930 -0.354665 -0.244327 -0.422795 -0.449471 -0.557583 -0.592162 -0.452276 -0.397069 -0.091258 -0.100441 -0.101471 0.136856 -0.044625 0.054318 0.072040 0.052917 -0.008615 -0.075000 -0.155499 -0.199719 -0.055130 0.282299 0.311095 0.353162 0.108052 -0.119083 -0.352146 -0.454699 -0.555076 -0.383056 -0.477352 -0.449736 -0.546247 -0.633947 -0.595564 -0.475727 -0.106290 0.038695 0.072666 0.110202 -0.017264 0.004515 -0.016093 0.037676 -0.036296 -0.242219 -0.257812 -0.285852 -0.115797 0.306197 0.329853 0.236050 -0.076548 -0.356033 -0.788774 -0.853267 -0.883524 -0.709015 -0.509082 -0.471836 -0.433047 -0.480987 -0.468211 -0.327745 -0.023336 0.123410 0.275538 0.193543 0.075993 0.115979 -0.027176 -0.088704 -0.039995 -0.199260 -0.439678 -0.541050 -0.258191 0.095912 0.143603 -0.008291 -0.494211 -0.725093 -1.094510 -1.213156 -1.136457 -0.868132 -0.456423 -0.176690 -0.129297 -0.237953 -0.421088 -0.184333 -0.072510 0.072887 0.141079 0.283850 0.105839 0.042275 0.072722 -0.017561 -0.027073 -0.316624 -0.549797 -0.586850 -0.472334 -0.074307 0.015506 -0.284174 -0.598206 -0.956548 -1.232158 -1.446101 -1.281009 -0.827847 -0.352809 -0.055473 -0.046713 -0.146453 -0.270165 -0.265697 -0.102278 0.147396 0.190512 0.263860 0.034967 0.017988 0.083535 0.060633 -0.166297 -0.261693 -0.621459 -0.771947 -0.546840 -0.252574 -0.123580 -0.250575 -0.612343 -0.891012 -1.322501 -1.504487 -1.213352 -0.723350 -0.247926 0.122662 0.181038 0.087864 -0.185991 -0.309936 -0.076420 -0.013472 0.075925 0.290375 -0.059070 0.028156 0.039730 0.066837 -0.041745 -0.261772 -0.573317 -0.761617 -0.605131 -0.414764 -0.112642 -0.115587 -0.310192 -0.670753 -0.867765 -1.155103 -0.839597 -0.295709 0.052135 0.210216 0.328775 -0.050522 -0.087568 -0.196650 -0.110246 -0.036024 0.185833 0.141305 0.025561 -0.009089 0.088276 0.092849 -0.150958 -0.408850 -0.512333 -0.798478 -0.711973 -0.319798 0.144308 0.219447 0.028410 -0.198680 -0.430621 -0.735437 -0.567589 -0.004626 0.360983 0.411804 0.224565 0.066646 -0.042176 -0.105122 -0.070318 -0.013131 0.138044 0.208048 -0.024781 0.037087 0.049025 0.025162 -0.066263 -0.304995 -0.465168 -0.940130 -0.660455 -0.114786 0.338606 0.563488 0.163050 -0.179905 -0.403270 -0.569901 -0.267138 0.146501 0.531158 0.304097 0.160377 -0.142445 -0.309588 -0.354183 -0.072489 0.104554 0.136056 0.281697 0.127099 0.097587 -0.090240 -0.097107 -0.143335 -0.306008 -0.524515 -0.954930 -0.707229 -0.022722 0.480378 0.378361 0.160314 -0.253264 -0.445876 -0.381293 -0.198359 -0.006200 0.053358 -0.005142 -0.141310 -0.339997 -0.512090 -0.416115 -0.130319 0.024864 0.099943 0.271100 0.057913 0.018380 -0.062335 -0.036314 -0.143455 -0.269617 -0.300031 -1.062428 -0.745953 -0.261530 0.228733 0.185074 0.002271 -0.262723 -0.343617 -0.505215 -0.485335 -0.486287 -0.212551 -0.486138 -0.530924 -0.565980 -0.596120 -0.435135 -0.160456 -0.004764 0.116305 0.179428 0.014209 0.013256 -0.062472 -0.135943 -0.100235 -0.260728 -0.404339 -0.836397 -0.644102 -0.327367 0.065019 0.128635 -0.070149 -0.215990 -0.542082 -0.667189 -0.683889 -0.558987 -0.510091 -0.749552 -0.785701 -0.837753 -0.796212 -0.612182 -0.295154 -0.099270 0.024267 0.108436 0.036657 0.028491 0.066910 -0.004097 0.004323 -0.083443 -0.185323 -0.599324 -0.386131 -0.254208 0.063009 0.010483 0.047251 -0.076877 -0.309921 -0.427022 -0.478484 -0.635661 -0.784783 -0.828153 -0.866994 -0.808909 -0.687599 -0.492362 -0.338691 -0.178969 -0.045501 0.025011 -0.105573 -0.021346 -0.097640 -0.033523 -0.138709 0.027116 -0.084225 -0.422939 -0.285732 -0.181383 0.033749 -0.013894 0.042994 -0.068528 -0.149435 -0.356598 -0.429054 -0.523455 -0.723230 -0.738042 -0.832452 -0.697927 -0.559868 -0.432178 -0.262463 -0.133508 -0.005368 0.015607 0.014110 -0.068016 0.015962 -0.031841 0.023001 -0.108306 -0.130920 -0.355311 -0.241623 -0.117619 0.008984 0.157494 0.077341 0.151277 -0.114956 -0.228923 -0.296315 -0.398045 -0.583212 -0.506406 -0.642235 -0.551493 -0.480681 -0.264872 -0.161346 -0.201254 -0.056487 0.010999 0.075272 -0.003164 -0.065771 0.066750 0.150396 -0.050711 -0.077635 -0.210963 -0.180930 -0.022761 0.186140 0.202802 0.174309 0.070577 -0.003830 -0.164386 -0.204047 -0.197229 -0.479861 -0.521811 -0.357062 -0.373471 -0.435636 -0.243247 -0.102786 -0.065866 -0.065060 -0.069173 -0.059036 0.046247 -0.011078 0.009701 -0.009250 -0.096324 -0.230528 -0.254495 -0.188302 0.064031 0.089268 -0.020689 0.087365 -0.019446 -0.030568 -0.049214 -0.190979 -0.246999 -0.249733 -0.258954 -0.266070 -0.218758 -0.167146 -0.080567 -0.055950 -0.095908 -0.018394 -0.024342 0.036426 -0.050260 0.070065 0.063905 0.069047 -0.125648 -0.118531 -0.236714 -0.247491 0.028338 0.070398 0.053017 0.006731 -0.082271 -0.110927 -0.129148 -0.088962 -0.095790 -0.187259 -0.190714 -0.299169 -0.200855 -0.029678 -0.072853 -0.169370 -0.054813 0.072574 -0.055369 0.041672 0.067235 0.062958 0.115148 -0.008674 0.023668 -0.042588 -0.206298 -0.125321 -0.016754 0.011393 0.040381 -0.067794 0.048122 -0.019302 -0.131687 -0.145507 -0.067582 -0.074137 -0.104401 -0.045659 -0.074718 -0.037868 0.039755 0.112820 0.065922 0.026670 0.069551 -0.031342 0.032199 -0.010690 0.086461 -0.058632 0.013304 -0.041916 -0.046023 -0.118367 -0.104485 0.025335 0.043887 0.051592 -0.020877 0.032403 -0.014768 0.051050 0.036496 -0.006788 0.034767 -0.091536 0.073212 -0.031726 0.024746 -0.034686 0.052128 0.051872 -0.017914 -0.049602 0.015194 0.016795 0.001591 -0.004638 -0.049252 0.140795 0.021462 0.067136 0.095512 -0.024791 -0.030639 -0.028332 0.008109 -0.010512 0.015740 -0.056642 -0.072163 -0.016725 -0.077694 -0.069471 0.045009 0.021494 0.091214 -0.013113 -0.016218 0.023365 0.036543 0.012550 -0.003399 -0.016359 0.087077 -0.011079 -0.017689 -0.012903 0.059004 0.059108 0.065016 0.089296 -0.064553 -0.082475 -0.014410 0.021457 0.040071 0.066880 -0.085774 -0.001521 0.064201 -0.012138 -0.082042 0.003341 0.037597 -0.066681 -0.064985 0.081426 -0.098596 0.030468
0.020970 -0.051273 0.022928 -0.030196 -0.005322 0.053544 0.009683 0.006410 0.039306 -0.086828 0.013173 0.052871 -0.018956 0.031933 -0.012364 -0.063559 0.083087 -0.070822 0.012876 -0.010948 0.045709 -0.072989 0.024629 0.053818 0.066627 0.088788 0.014535 0.030882 -0.006733 -0.019564 -0.020576 0.002169 0.137527 -0.035404 0.028313 0.006532 0.039467 0.035372 -0.015950 -0.009697 -0.028786 0.125130 0.028695 -0.052231 0.008900 0.009201 -0.037799 0.001322 -0.043255 -0.110009 0.017064 0.068788 0.042501 -0.006618 0.065646 0.056911 0.061192 -0.046527 -0.041612 0.016428 0.048754 0.008907 -0.029227 0.034198 0.007310 -0.018039 0.088542 0.031133 0.051862 -0.027838 -0.042870 -0.026847 -0.007574 -0.021307 0.044235 0.056049 -0.074280 0.062702 0.128849 0.037295 -0.021329 -0.041618 -0.059869 0.016839 -0.037437 -0.021982 -0.000807 0.079257 0.016594 -0.022741 0.026144 0.045556 0.092297 0.073134 0.020755 0.041458 0.023601 -0.033417 -0.091872 -0.029658 -0.012639 0.040818 0.081474 0.054290 -0.110637 0.049942 -0.003263 0.017129 -0.052244 -0.009851 -0.049374 -0.017389 -0.074324 -0.016156 0.016155 0.028503 -0.051750 0.009270 -0.086962 0.104586 -0.055605 0.064683 0.222643 0.073391 -0.009471 0.041642 -0.034511 0.035110 -0.058597 0.004385 -0.035309 -0.069173 -0.033454 -0.012839 -0.127464 0.050976 -0.035730 0.112161 -0.003271 0.045364 0.000435 0.045806 0.034982 -0.013399 0.006663 -0.089320 -0.103700 -0.192452 -0.080256 -0.133494 -0.021632 -0.062596 -0.311751 -0.198306 -0.259773 -0.193643 -0.252339 -0.154016 -0.244410 -0.235478 -0.336921 -0.120143 -0.195491 -0.035557 0.046158 0.041346 0.114579 0.000959 0.074691 -0.047154 -0.014887 0.021727 -0.094313 -0.097619 -0.258032 -0.244448 -0.145241 -0.099234 -0.133095 0.103355 -0.135716 -0.400691 -0.262364 -0.414892 -0.468653 -0.482059 -0.426777 -0.518644 -0.416590 -0.345715 -0.358916 -0.207026 -0.050012 -0.015159 0.051313 0.069389 0.049988 0.016059 -0.121428 0.034510 -0.051835 -0.097806 -0.221428 -0.394324 -0.383248 -0.210151 0.015263 0.002148 -0.091388 0.064913 -0.190193 -0.273866 -0.426655 -0.284579 -0.276715 -0.374794 -0.357105 -0.543743 -0.368211 -0.122294 0.099889 0.193683 0.074747 0.051780 -0.049418 0.000599 -0.076459 -0.013009 -0.047345 -0.403914 -0.447489 -0.638449 -0.442834 -0.143370 -0.105563 0.119338 0.170273 -0.010795 -0.018806 0.044395 -0.184154 -0.372440 -0.318220 -0.429149 -0.520648 -0.478694 -0.349297 -0.104468 0.106023 0.285082 -0.030601 0.060449 0.063621 0.015657 -0.024815 0.054908 -0.115760 -0.394901 -0.632409 -0.684686 -0.411803 0.040103 0.096262 -0.046043 -0.171329 -0.433155 -0.284867 -0.131803 -0.307495 -0.457012 -0.516828 -0.314107 -0.369044 -0.282683 -0.462871 -0.478855 -0.066860 0.310690 0.089653 -0.027481 0.014356 0.042305 0.012239 -0.069874 -0.143540 -0.540315 -0.709317 -0.801995 -0.520920 0.086097 -0.110224 -0.276911 -0.712321 -0.873825 -0.792798 -0.524411 -0.431774 -0.316578 -0.325151 -0.184344 -0.315065 -0.385508 -0.590111 -0.607237 -0.359452 0.425673 0.138282 0.010450 -0.006951 -0.058266 -0.002537 -0.075407 -0.100816 -0.569538 -0.870641 -0.559770 0.020466 0.125527 -0.211572 -0.623320 -1.277210 -1.726884 -1.347230 -0.867992 -0.506507 -0.407518 -0.352487 -0.217059 -0.332086 -0.440375 -0.928056 -0.946054 -0.584727 0.230735 0.089226 0.089542 -0.000059 -0.065563 -0.075688 0.110061 0.003721 -0.559964 -0.353568 -0.103829 0.116426 0.140450 -0.361852 -0.811521 -1.342790 -1.352829 -0.976435 -0.529413 -0.383907 -0.431829 -0.410862 -0.110274 -0.177674 -0.660042 -0.949337 -0.868327 -0.746251 0.214414 0.007149 -0.068550 0.062811 0.017791 -0.017296 0.069353 -0.073980 -0.519030 -0.145960 0.189200 0.435791 0.398829 -0.005092 -0.584978 -0.759907 -0.809991 -0.475114 -0.382527 -0.328616 -0.087332 -0.163265 -0.312225 -0.267912 -0.479116 -0.922580 -0.986793 -0.515890 0.248033 0.128873 -0.006751 -0.069269 0.015279 0.059273 0.212615 0.118218 -0.497571 0.092291 0.476038 0.764246 0.356928 0.148183 -0.220460 -0.569190 -0.474719 -0.367154 -0.466347 -0.497314 -0.220488 -0.166913 -0.232108 -0.247609 -0.389490 -0.428075 -0.471308 -0.266650 0.198497 0.324165 -0.056171 -0.024047 0.062339 0.113241 0.274244 0.032497 -0.734826 -0.039659 0.292663 0.568488 0.114436 -0.085462 -0.466026 -0.518675 -0.558546 -0.658900 -0.671503 -0.551058 -0.543936 -0.333116 -0.294516 -0.164295 -0.174350 -0.308557 -0.301453 -0.169483 0.293100 0.116930 -0.027795 -0.082248 0.032361 -0.061783 0.218133 0.051990 -0.786269 -0.412785 -0.069796 0.025500 -0.428252 -0.562474 -0.800960 -0.913004 -0.882215 -0.788709 -0.898980 -0.868054 -0.703200 -0.499184 -0.076982 -0.218919 -0.301059 -0.544101 -0.478338 -0.241384 0.260792 0.042436 0.096006 -0.027287 -0.096478 0.184734 0.083449 -0.179382 -0.931103 -0.558512 -0.075522 -0.116876 -0.634317 -0.889898 -0.832852 -0.892250 -0.916070 -0.785642 -0.497216 -0.592285 -0.520235 -0.484169 -0.505691 -0.473494 -0.551903 -0.661352 -0.602941 -0.238704 0.336213 0.264987 0.021439 -0.049710 -0.083741 0.016985 0.147281 -0.135714 -0.863031 -0.628895 -0.198894 -0.258230 -0.260991 -0.665268 -0.541262 -0.276797 -0.193978 -0.129542 -0.111215 -0.409865 -0.435921 -0.232678 -0.457712 -0.401000 -0.715210 -0.589929 -0.510088 -0.179982 0.186852 0.155523 -0.007133 -0.103043 -0.024920 0.028881 0.102582 -0.070448 -0.514917 -0.524722 -0.498254 -0.304334 -0.337907 -0.400222 -0.129384 -0.069597 0.136170 -0.019404 -0.171360 -0.186099 -0.395724 -0.093220 -0.236154 -0.434077 -0.582968 -0.472165 -0.476734 -0.041631 0.126967 0.199343 -0.020251 0.053778 0.019272 -0.044848 -0.014434 -0.099897 -0.707599 -0.658211 -0.558234 -0.478202 -0.389467 -0.298364 -0.099555 0.015815 0.164244 -0.020540 0.023816 -0.244100 -0.262423 -0.280147 -0.268058 -0.320151 -0.436336 -0.285507 -0.263719 -0.080690 0.161862 0.174791 0.051580 -0.067156 -0.037702 0.099620 -0.017737 0.010389 -0.421151 -0.644553 -0.725211 -0.764541 -0.305170 -0.163223 -0.047921 0.164171 -0.062590 0.047128 -0.073944 -0.146817 -0.302802 -0.200573 -0.337507 -0.258231 -0.295745 -0.087703 -0.066364 0.079992 0.167237 0.064953 0.004632 -0.003949 -0.054067 0.027407 0.079880 -0.067347 -0.445692 -0.644135 -0.596670 -0.469764 -0.317819 -0.068947 -0.025431 0.114661 -0.095303 -0.182635 -0.147768 -0.181582 -0.159805 -0.249071 -0.188484 -0.253612 -0.221124 -0.101803 -0.064825 0.045992 0.170199 0.136677 0.001227 0.030713 0.075925 0.005056 -0.082471 -0.082490 -0.300825 -0.506550 -0.488747 -0.377604 -0.210421 -0.182402 0.043219 -0.023424 -0.232654 -0.002529 0.074492 -0.211430 -0.216984 -0.030523 -0.203507 -0.049672 -0.136786 -0.019897 0.060438 -0.062305 0.019232 -0.023380 0.101763 -0.076761 -0.007244 -0.000178 -0.001254 -0.035340 -0.206963 -0.391525 -0.336885 -0.317090 -0.240677 -0.034258 -0.030577 -0.002689 -0.078502 -0.158538 -0.102011 -0.164480 -0.111860 -0.010222 -0.053891 0.011712 0.045862 0.027503 0.147798 -0.074589 -0.060277 -0.048227 0.033117 0.094229 -0.042804 0.039013 -0.026536 0.011416 0.014718 -0.142620 -0.261377 -0.236200 -0.039898 -0.021405 0.051082 -0.011941 -0.065700 -0.024172 0.093437 0.059617 -0.035210 -0.071672 0.009728 -0.026517 0.013020 0.026694 0.069331 -0.088089 0.004254 -0.021179 0.016507 0.010372 0.042516 0.067568 0.111390 0.175170 0.075831 0.016107 -0.106836 -0.106544 0.009309 -0.116626 -0.012898 -0.044927 -0.038607 0.083894 -0.058765 0.060310 -0.065408 0.054184 0.033816 0.174300 -0.031138 0.020133 -0.049868 0.012616 0.108209 0.053201 0.044645 -0.086666 0.019399 -0.054200 -0.032752 0.014377 -0.073594 0.031844 -0.002974 -0.068268 0.064644 0.066741 -0.053374 -0.047457 0.054632 0.092089 0.063062 -0.083086 -0.048784 -0.021510 -0.014762 0.102064 -0.084065 0.034155 0.070504 0.011420 -0.010492 -0.059998 -0.041459
-0.000878 0.036105 0.000701 -0.045362 -0.040459 -0.031950 0.031966 -0.003095 -0.077628 0.014678 -0.012557 0.008316 -0.024922 -0.068494 0.011682 0.045821 -0.035396 0.042251 0.097845 -0.093845 -0.006814 0.012289 -0.077200 -0.099139 -0.111218 0.065733 0.007866 -0.016023 -0.051773 -0.012111 0.093371 0.011805 0.010389 0.023511 -0.027995 -0.017845 0.116369 -0.005043 -0.059756 -0.078032 0.066442 0.003706 0.013730 -0.026717 -0.057918 -0.027605 0.010117 -0.104635 0.060543 -0.008373 0.075084 -0.096568 -0.013281 0.007278 -0.035495 -0.054816 -0.006073 0.036694 -0.000869 -0.039052 0.023643 -0.051956 0.028008 0.141995 0.105200 -0.031255 -0.050048 0.025731 -0.014152 0.025620 0.028719 -0.040607 -0.015436 -0.048903 0.001256 -0.068971 0.069292 0.045769 0.034594 -0.000074 0.130095 -0.084381 -0.038935 0.069285 -0.046225 0.170779 0.011152 -0.098591 0.045728 -0.025281 -0.082352 0.096880 -0.016974 -0.008373 0.062002 -0.138554 -0.102368 -0.039927 -0.121541 -0.103040 -0.022455 -0.017160 -0.158406 -0.249143 -0.227317 -0.083491 0.018768 -0.018915 0.039001 -0.028527 0.105125 0.007129 -0.025416 0.051731 -0.074136 0.028211 -0.080859 0.100566 -0.027763 0.217428 0.106627 -0.046554 -0.017527 -0.144211 -0.306556 -0.479191 -0.251097 -0.215900 -0.126509 0.082221 0.173231 0.083872 0.067745 0.138918 0.028008 -0.020524 -0.003787 -0.009132 -0.001205 -0.026303 0.019488 -0.032663 0.029806 -0.016008 0.051214 0.142486 0.069002 0.306339 0.200707 -0.119412 -0.419647 -0.681284 -0.856691 -0.943611 -0.749235 -0.240552 -0.089069 0.279862 0.332639 0.462036 0.262870 0.341604 0.207631 0.172714 -0.109471 -0.136215 -0.066478 0.039280 -0.076676 0.022040 0.047060 0.038603 0.213641 0.157262 0.190801 0.182970 -0.133077 -0.463778 -0.720328 -1.206750 -1.452697 -1.356330 -0.967267 -0.354534 0.004660 0.088929 0.169613 0.577639 0.276177 0.162235 0.367550 0.101757 -0.152640 -0.183819 -0.010156 0.033957 0.040278 -0.040980 -0.156071 0.030139 0.088593 0.334908 0.332507 0.202511 -0.091797 -0.665406 -1.168066 -1.456977 -1.633723 -1.227708 -0.864420 0.087337 0.326323 0.311902 0.036479 0.041667 -0.003713 -0.070437 0.428925 0.158390 -0.181570 -0.370164 0.005388 0.061339 -0.001497 -0.123457 0.022864 0.090426 0.110447 0.315929 0.121129 -0.155027 -0.466173 -1.134132 -1.252353 -1.656360 -1.489910 -1.214129 -0.612151 0.266145 0.547281 0.169388 0.210018 0.084736 0.319161 0.163622 0.136395 0.081187 -0.394784 -0.382923 -0.098362 0.048184 0.041980 -0.047451 -0.098806 0.230780 0.357618 0.238337 0.244707 -0.220000 -0.427129 -0.989891 -1.305149 -1.439672 -1.480015 -1.449458 -0.386009 0.370319 0.577766 0.189966 0.275252 0.489745 0.004330 0.515902 0.529190 0.138871 -0.405620 -0.424528 -0.054371 -0.046051 0.015720 0.110201 -0.005406 0.292511 0.154195 0.301402 0.093263 -0.022118 -0.435057 -0.496305 -0.947828 -1.353115 -1.654938 -1.352839 -0.254094 0.571475 0.561584 0.737085 0.478464 0.394594 0.367658 0.492908 0.422098 0.316225 -0.216367 -0.532153 -0.012520 -0.041611 0.086489 -0.045725 -0.026049 0.158907 0.155047 0.361781 0.077175 0.051909 -0.353222 -0.342687 -0.718589 -1.497753 -1.874724 -1.572075 -0.239572 0.746695 0.901571 1.020217 0.533478 0.401572 0.434119 0.187807 0.357020 0.277557 -0.279291 -0.397778 -0.109432 0.061046 -0.036033 0.048989 -0.072727 0.073489 0.474998 0.392510 0.013888 -0.154682 -0.263789 -0.226227 -0.910572 -1.569621 -1.891689 -1.411470 -0.408694 0.334189 1.200532 0.722998 0.554589 0.315392 -0.038383 -0.008419 0.206428 -0.023789 -0.057342 -0.358334 -0.034124 0.048589 0.045981 -0.059836 -0.092613 0.056584 0.453545 0.749472 -0.057979 -0.473700 -0.335954 -0.682021 -1.390156 -1.876203 -1.704032 -1.445413 -0.151449 0.787231 0.563106 0.406650 -0.045921 -0.229908 -0.299137 -0.199387 -0.067713 -0.147076 0.021623 -0.311271 -0.111289 -0.014618 0.080378 0.054102 -0.208341 -0.169650 0.502538 0.890709 0.031692 -0.868354 -0.509374 -0.885622 -1.400769 -1.606740 -1.523774 -1.167270 -0.302385 0.168045 0.197301 -0.427003 -0.522064 -0.213157 -0.377366 -0.405295 -0.285766 -0.216414 -0.003348 -0.349647 -0.227976 -0.037622 -0.009587 0.048769 -0.182747 -0.214045 0.274307 0.998393 -0.106673 -0.864024 -1.067830 -0.879810 -1.066794 -1.199334 -1.494614 -0.955469 -0.454575 -0.321920 -0.275718 -0.578836 -0.373731 -0.050893 -0.090023 -0.555589 -0.122513 -0.294569 -0.074619 -0.327152 -0.066595 0.040920 -0.017327 -0.026657 -0.276764 -0.240548 0.413009 0.984547 0.046158 -0.676853 -0.886363 -0.800702 -0.834596 -1.223302 -1.108344 -1.108333 -1.042482 -0.591357 -0.644595 -0.348050 -0.450328 0.007342 -0.073437 -0.409411 -0.103164 -0.163581 -0.131840 -0.333262 -0.044363 -0.104647 0.084218 -0.027562 -0.187420 -0.201799 -0.005080 1.193782 0.500621 -0.224503 -0.251721 -0.066714 -0.676064 -0.890164 -1.021075 -0.992319 -0.900418 -0.637026 -0.724554 -0.073843 -0.188162 -0.248499 -0.351137 -0.468999 -0.139379 -0.288658 -0.383523 -0.477250 -0.150596 -0.021241 0.027514 -0.101774 -0.151750 -0.345376 -0.009190 0.912713 0.584669 0.252362 -0.111231 0.003537 -0.527508 -0.525703 -0.810676 -0.837507 -0.787265 -0.492605 -0.364368 -0.315208 -0.427905 -0.418925 -0.596209 -0.304211 0.115114 0.066907 -0.443569 -0.400730 -0.100853 -0.113333 0.005703 -0.038140 -0.123908 -0.198244 -0.170259 0.521242 0.454914 0.480495 0.184905 0.070969 -0.203416 -0.407806 -0.597268 -0.550500 -0.523026 -0.620628 -0.456805 -0.440685 -0.705748 -0.418140 -0.263410 -0.024057 0.101650 -0.242684 -0.309399 -0.283861 -0.170694 -0.089172 0.046204 -0.022740 -0.123547 -0.120460 -0.002678 0.452319 0.671369 0.305168 0.326569 0.122524 -0.077899 -0.243467 -0.341369 -0.566876 -0.637091 -0.639809 -0.659275 -0.409534 -0.378581 -0.193531 0.029252 0.196947 0.203985 -0.359055 -0.304968 -0.265748 -0.124999 -0.029152 0.035860 -0.044784 -0.093835 -0.021029 -0.171114 0.343923 0.448774 0.251113 -0.047449 0.032129 0.075705 -0.001850 -0.219002 -0.213909 -0.487779 -0.475071 -0.661689 -0.036395 0.008354 0.187517 0.330161 0.440539 0.095376 -0.153957 -0.268423 -0.317632 0.074286 0.023121 0.065594 0.081837 -0.005000 -0.020370 -0.164330 -0.119043 0.275637 0.123914 -0.172941 0.049661 0.107477 0.093142 -0.130067 -0.211494 -0.498339 -0.260329 -0.201578 0.025496 0.239643 0.252117 0.304669 0.463475 0.270772 0.155376 -0.068016 -0.115593 -0.049134 0.003907 -0.026232 0.000087 -0.019123 -0.027817 -0.170082 -0.263263 -0.188631 -0.367388 -0.391640 -0.448752 -0.071457 0.036448 0.040950 -0.172735 -0.362410 -0.347456 -0.179561 -0.076354 0.376046 0.303402 0.454009 0.339941 0.053590 -0.011919 -0.095407 -0.035842 -0.008749 0.006578 0.057637 0.007671 0.024651 0.022105 -0.066979 -0.123095 -0.166631 -0.513139 -0.616835 -0.447889 -0.160672 -0.044079 0.022963 -0.080719 -0.095838 -0.176643 -0.041991 0.086007 0.203801 0.089014 0.242082 0.200885 0.129291 -0.097569 -0.102650 -0.060157 -0.131614 -0.017977 -0.017353 -0.037088 -0.015326 -0.080657 -0.060498 -0.039073 -0.201336 -0.385485 -0.379647 -0.358039 -0.210983 0.055835 0.049010 -0.129835 -0.041808 -0.009171 0.020045 0.126475 0.121540 0.148572 0.135488 -0.001633 0.005498 -0.010384 -0.042995 -0.012354 -0.070458 0.012250 -0.038824 -0.031400 0.131646 -0.038424 -0.057540 0.011208 -0.031749 -0.063618 -0.053242 -0.108961 0.044290 0.041717 -0.080156 0.005943 -0.081344 -0.039244 0.185075 0.066493 -0.014774 -0.016528 -0.064243 0.029825 -0.064304 -0.038905 -0.022586 0.044105 -0.074469 0.042049 0.071175 -0.015361 -0.003467 0.007279 -0.033598 -0.062079 -0.001054 -0.082031 0.007358 0.083723 0.099166 -0.049907 0.021839 0.015020 -0.084001 0.036107 0.066552 -0.085989 0.020512 0.031417 0.030601 0.102137 0.028028 0.075332 0.023674 -0.111647 0.025961 0.004684
-0.000244 0.063587 -0.007316 -0.074688 0.045444 -0.026190 0.047931 0.017707 -0.062029 0.054011 -0.039741 -0.015968 0.023210 0.005427 -0.034699 -0.032538 -0.008422 0.014842 0.023757 0.019074 0.045342 0.029722 0.091824 0.044190 0.037612 -0.066598 -0.000066 -0.074689 0.027191 0.030699 -0.088516 -0.092428 0.041719 0.055327 -0.004622 -0.005576 -0.056107 0.015590 0.050388 -0.055860 -0.018238 -0.019005 -0.054449 -0.065815 -0.097206 -0.066368 0.034902 0.081927 -0.023685 -0.131421 -0.034192 0.026977 -0.024092 -0.045115 0.032174 -0.016934 0.012490 -0.009097 0.051486 -0.115482 0.047963 -0.017959 0.030480 0.027936 0.090428 0.117520 0.032469 -0.074676 -0.072195 0.051208 -0.032355 0.083676 -0.027372 0.024822 0.080838 0.015247 -0.020342 0.023702 -0.041209 0.066527 -0.035737 -0.020462 -0.016713 0.074733 -0.086590 0.003209 0.001349 0.060356 -0.020553 -0.062214 -0.094713 -0.072697 -0.076120 0.095862 -0.009788 0.053938 -0.080086 0.045876 -0.081659 -0.024605 -0.026730 -0.042601 -0.025281 -0.112979 0.017404 0.003698 -0.024693 -0.061820 -0.025870 -0.075273 0.015043 -0.006503 0.002844 -0.000367 -0.082915 0.040693 0.033838 -0.031556 -0.162025 -0.059212 -0.103795 0.037307 -0.021011 0.040396 -0.093950 -0.117147 -0.145354 -0.105568 -0.206133 -0.261555 -0.204844 -0.258703 -0.105863 -0.001874 -0.046646 -0.009245 -0.065819 0.034995 0.032030 -0.019247 0.008167 -0.042944 0.024864 0.016439 -0.015968 -0.067431 -0.151839 -0.166968 -0.016579 0.053468 -0.112346 0.101543 -0.057201 -0.118082 -0.311507 -0.421823 -0.448846 -0.461392 -0.616180 -0.415742 -0.335231 -0.185258 -0.182476 -0.003704 -0.059342 -0.010874 -0.048187 -0.095030 -0.027173 0.048800 -0.024091 0.071756 0.093494 -0.005519 0.014353 -0.089826 -0.010466 -0.026090 0.058377 -0.004665 -0.120765 -0.383397 -0.603568 -0.816368 -0.794785 -0.677588 -0.681218 -0.660053 -0.563986 -0.603894 -0.220582 -0.144032 -0.073693 0.031303 0.074871 0.065851 0.018681 0.043872 0.098544 0.079735 0.024944 -0.064794 -0.261236 -0.212231 -0.084483 -0.057746 0.087803 -0.105650 -0.236968 -0.468741 -0.838594 -0.939156 -1.025958 -1.012097 -0.839020 -0.738482 -0.724916 -0.598697 -0.516993 -0.224743 0.000187 -0.060954 0.095589 -0.030330 -0.029575 0.048779 0.014489 0.052317 -0.052500 -0.262127 -0.299757 -0.410694 -0.178112 0.071411 -0.223916 -0.364430 -0.405091 -0.629648 -0.695226 -0.623551 -0.684925 -0.572242 -0.484633 -0.387623 -0.449345 -0.594054 -0.583776 -0.352844 0.061456 0.110403 0.153272 0.041876 -0.004653 -0.000082 0.012352 -0.030087 -0.144237 -0.127533 -0.380089 -0.261334 -0.126515 -0.162587 0.132579 -0.336929 -0.373158 -0.342872 -0.493807 -0.422101 -0.137129 -0.055737 0.425223 0.171021 -0.041779 -0.204515 -0.536687 -0.549150 0.001253 0.159661 0.097296 0.030240 0.040276 0.088502 0.175999 0.091595 -0.085269 -0.296944 -0.431918 -0.184412 0.057442 0.314729 0.188971 0.006372 0.019903 -0.228907 -0.242605 -0.192517 0.128420 0.714121 0.558941 0.592319 0.042488 -0.440496 -0.770526 -0.684757 0.001571 0.088456 0.110233 -0.027555 -0.005077 0.176637 0.196447 0.053335 0.039492 -0.191140 -0.287434 0.138576 0.468468 0.542225 0.581862 0.234002 0.069180 -0.358270 -0.223164 -0.105245 0.306243 0.623292 0.803900 0.683771 0.316367 -0.136074 -0.737252 -0.805228 -0.157680 0.249641 0.186688 0.004584 0.060411 0.013091 0.117936 0.120377 -0.067996 -0.410904 -0.162055 0.073325 0.512653 0.376165 0.163328 -0.174793 0.009403 -0.043176 -0.246005 -0.121385 0.123870 0.512324 0.739063 0.359987 0.473056 0.034400 -0.744612 -0.794336 -0.120250 0.100897 -0.006731 0.065149 0.012574 0.014822 0.235779 0.197921 -0.258846 -0.610076 -0.242114 0.357591 0.684225 0.780821 0.233801 -0.076820 -0.162882 -0.106774 -0.074338 0.286027 0.322433 0.309395 0.338771 0.066901 0.237135 -0.050560 -0.668091 -0.863376 -0.091059 0.231258 0.031688 -0.052367 0.046301 0.039765 0.377901 0.385194 -0.436223 -0.424893 0.158476 0.733176 0.631672 0.217715 -0.088219 -0.470613 -0.318487 0.144179 0.566482 0.422588 0.217040 0.157168 0.212794 0.372478 0.164900 0.067094 -0.688727 -0.600878 -0.046288 0.281696 0.207423 0.010318 0.091020 0.031062 0.319658 0.599154 -0.158745 -0.219140 0.063987 0.404692 0.438194 -0.262584 -0.580524 -0.790655 -0.200783 0.287509 0.505103 0.339839 -0.141638 -0.208119 0.172660 0.070247 -0.140778 -0.241889 -0.672088 -0.443432 -0.023030 0.261074 0.154533 -0.058029 0.024227 0.034206 0.385802 0.507698 0.166898 -0.440680 -0.150072 -0.270159 -0.352709 -0.852555 -1.119205 -1.185043 -0.242641 0.123087 0.564699 0.119991 0.062633 -0.036293 0.056917 -0.170765 -0.077060 -0.413628 -0.792335 -0.402419 0.057476 0.201656 0.165316 0.049691 -0.039044 0.000278 0.344165 0.451180 0.146929 -0.471190 -0.674051 -0.716470 -0.880338 -1.118307 -1.142108 -0.495810 0.092261 0.391045 0.580305 0.275026 -0.015296 -0.179900 0.086079 0.261286 0.110646 -0.107184 -0.528332 -0.423804 0.019670 0.298498 0.169273 0.045194 0.040861 -0.004100 0.423241 0.533113 0.044297 -0.321907 -0.738702 -0.862456 -1.145087 -1.354074 -1.113795 -0.465835 0.144492 0.326346 0.251026 0.088494 -0.183820 -0.112704 0.115965 0.302670 0.164361 0.043908 -0.018607 -0.050685 0.158307 0.118000 0.185127 0.066681 0.016754 -0.048190 0.338866 0.576745 0.233599 -0.336095 -0.820858 -1.140196 -1.140498 -1.214136 -0.903998 -0.448588 0.129634 0.273291 -0.138254 -0.276981 -0.181049 0.059700 0.039469 0.180590 0.028530 -0.179661 -0.179193 -0.190405 -0.007841 -0.041479 0.039064 0.050305 -0.014334 0.020001 0.240981 0.396176 0.097248 -0.457247 -0.855632 -0.966378 -1.004988 -1.002335 -0.813450 -0.391808 -0.033033 -0.003639 -0.007522 -0.161958 -0.105678 -0.041175 0.043669 0.003101 -0.107667 -0.120973 -0.000930 0.015559 0.032709 0.136100 -0.058851 -0.039385 -0.044380 0.027564 0.091723 0.097143 -0.056161 -0.452885 -0.689976 -0.824562 -0.851236 -0.788519 -0.636881 -0.454009 -0.224270 -0.156359 -0.280297 -0.076835 -0.085550 -0.040864 -0.222025 -0.221670 -0.321360 -0.074680 -0.006637 -0.000417 -0.043019 0.043064 -0.062904 -0.048515 -0.017833 0.020444 -0.015201 0.039819 -0.163806 -0.398389 -0.439218 -0.505721 -0.549232 -0.581708 -0.570556 -0.377099 -0.346802 -0.219556 -0.348569 -0.384900 -0.243318 -0.130934 -0.189254 -0.278121 -0.134363 -0.072206 -0.029970 -0.020866 0.026637 0.040500 0.033997 -0.084150 0.036873 -0.040903 0.005531 -0.027326 -0.115732 -0.274672 -0.218439 -0.249821 -0.322557 -0.244332 -0.278715 -0.231158 -0.226112 -0.298336 -0.195702 -0.156324 -0.195815 -0.249694 -0.168400 -0.119369 0.026320 -0.036386 -0.087077 -0.036363 -0.068846 0.127720 -0.051711 -0.087745 -0.062747 0.028623 0.118990 0.027322 -0.026998 -0.045944 -0.056438 -0.198255 -0.157147 -0.136862 -0.219275 -0.042470 0.002767 -0.026847 0.001345 -0.160757 -0.016688 -0.156174 -0.019496 0.073291 -0.014321 0.052881 -0.040516 -0.038335 -0.066675 0.049086 -0.103490 -0.049342 0.038134 -0.054137 0.072188 -0.012398 0.032962 0.050154 0.028402 -0.110289 -0.107327 -0.067865 -0.013650 -0.025708 0.055132 0.012128 0.079822 -0.007992 -0.025375 0.008937 0.025953 0.011803 0.010593 -0.019402 0.031177 -0.025017 -0.092522 -0.078431 -0.141917 0.024581 -0.139021 0.061402 0.047287 -0.002385 0.029069 0.087551 -0.074313 -0.025250 -0.093628 -0.038562 0.028503 0.113458 -0.068587 -0.086147 -0.036462 -0.061790 -0.031285 -0.033973 0.088442 -0.072284 0.059263 -0.064740 0.013995 -0.061592 0.040044 0.025032 0.000991 0.000136 0.053014 -0.085354 0.004837 -0.008285 0.082252 -0.005095 0.078478 -0.004288 -0.086862 -0.090256 -0.075658 0.047576 -0.013694 -0.033888 0.040334 -0.032083 0.010156 -0.023824 0.059168 0.007829 -0.039609 -0.042835 -0.092323 0.098182 -0.047047 0.043415 -0.036255 0.021873
0.062740 0.070758 0.003200 -0.017702 -0.006468 -0.089633 0.045559 -0.058108 -0.014573 -0.120379 -0.068479 0.020975 -0.015369 0.134877 0.061317 0.048440 -0.001837 0.037920 -0.144392 0.073171 0.038856 -0.025163 -0.080832 0.069489 -0.058556 0.042213 -0.012629 -0.030920 0.078906 0.118743 0.039407 -0.007622 -0.007197 0.072418 -0.047381 0.080210 -0.032684 -0.037606 -0.037113 -0.113108 -0.076670 0.023416 0.019440 0.002626 0.114420 0.063499 0.044853 0.020468 0.008662 -0.000138 -0.014899 -0.043301 0.098221 0.043850 -0.042397 0.016855 0.116706 0.076794 0.014362 -0.075327 -0.004496 -0.029957 0.025514 0.123463 0.042299 0.031136 -0.002118 0.013655 -0.039917 -0.047341 0.016191 0.013754 -0.058733 -0.089441 -0.064726 -0.037294 -0.144692 -0.026530 -0.057334 0.000969 -0.008704 -0.059649 -0.015474 -0.053084 0.055871 -0.064903 -0.000449 0.016439 -0.044904 -0.005616 0.046089 0.247143 -0.030468 0.092757 -0.202424 -0.213980 -0.050540 -0.176682 -0.142284 -0.048665 -0.058493 -0.099189 -0.486680 -0.600316 -0.597592 -0.279192 -0.005352 -0.045699 0.001995 -0.076515 -0.065980 -0.024201 0.060405 0.069350 -0.045314 0.033699 -0.070689 -0.030135 -0.068748 0.095192 -0.114496 -0.014643 -0.081492 -0.295200 -0.352925 -0.365592 -0.241670 -0.286567 -0.160120 -0.357242 -0.229487 -0.404278 -0.328480 -0.317827 -0.196337 -0.077491 -0.101841 0.108876 -0.024957 -0.095032 0.003684 -0.125249 -0.043663 0.059226 0.020398 0.024870 -0.125465 0.297941 0.132253 -0.320338 -0.363807 -0.337886 -0.355634 -0.154098 -0.012104 0.067211 0.088278 -0.184414 0.013973 -0.090123 0.295711 0.372859 0.466623 0.115106 -0.223087 -0.090693 -0.100213 -0.048693 -0.043607 -0.070674 -0.041772 -0.067543 -0.052029 0.027001 0.059932 -0.205066 -0.458008 -0.811878 -0.648502 -0.537897 -0.650572 -0.550611 -0.547068 0.015905 0.385026 0.243119 0.351836 0.219433 -0.094236 -0.073070 0.357542 0.355565 -0.166446 -0.135198 -0.146699 -0.059332 0.017253 -0.086611 -0.119003 0.107312 -0.160475 0.132484 -0.307936 -0.313689 -0.631692 -0.798651 -0.758155 -0.930902 -1.203472 -1.013091 -0.311133 0.663198 0.748135 0.659835 0.363667 0.701654 0.569948 0.111032 0.220482 0.755355 -0.115687 -0.458188 -0.055086 0.045644 -0.001399 -0.056669 0.041784 0.172393 -0.071908 -0.042094 -0.587453 -0.434662 -1.095957 -1.349014 -1.587398 -1.591781 -1.356454 -0.700405 -0.528917 0.318974 0.803826 0.419546 1.284451 0.952747 0.610699 0.614725 0.253652 0.769602 0.117782 -0.419245 -0.250691 -0.023151 -0.093979 -0.006220 0.060527 0.045078 -0.168996 -0.372939 -0.401226 -0.524279 -1.085485 -1.496334 -1.655721 -1.461610 -1.304251 -1.221054 -0.351763 0.806759 1.015203 1.346694 1.590623 1.651016 0.947423 0.755438 0.782201 1.240706 0.075495 -0.366878 -0.131335 -0.021585 0.081008 0.030781 0.098514 0.065697 -0.089125 -0.156735 -0.523569 -0.278554 -0.998104 -0.793292 -1.136698 -1.203393 -1.134864 -0.808849 0.263255 0.524240 0.902617 1.499399 1.303945 1.424042 1.220126 0.792889 0.682662 1.958055 0.367746 -0.410183 -0.165277 -0.164788 -0.023928 0.018090 0.093349 0.020533 0.117220 -0.328235 -0.235956 -0.312687 -0.901361 -0.676379 -0.638118 -0.976705 -0.759929 -0.544426 0.425016 0.931581 0.972078 0.738393 0.913121 0.376358 0.193897 0.630617 0.841623 1.822892 0.482807 -0.383770 -0.121253 0.035397 -0.077250 0.062573 0.210771 0.109568 0.107228 -0.034479 -0.249463 -0.661103 -0.453405 -0.354934 -0.401373 0.167949 -0.538625 -0.256019 -0.083312 0.174702 0.513222 -0.143312 -0.253208 -0.149181 0.076097 0.406277 0.652863 1.314747 0.614137 -0.376941 -0.224141 0.015198 0.104457 -0.042633 0.262779 -0.123188 0.280095 0.557241 0.084231 0.261265 0.144707 -0.304281 0.019291 -0.290704 -0.642841 -0.729265 -0.597232 -0.161054 -0.654709 -1.125331 -0.860713 -0.598251 -0.185179 0.172580 0.692045 1.265741 0.276406 -0.461304 -0.165483 -0.082286 0.082039 -0.016929 0.213024 0.017741 0.432837 0.957028 0.765327 -0.115187 -0.070729 0.062070 0.006176 -0.728624 -1.460406 -1.123984 -0.772531 -1.104306 -1.397872 -1.624784 -1.091091 -0.399491 -0.123479 0.010307 0.214892 0.386893 0.031246 -0.467062 -0.211859 -0.058928 -0.002677 0.049746 0.119596 -0.274217 0.435825 1.412164 0.645849 0.625340 -0.161414 -0.326784 -1.018990 -1.595992 -1.930227 -1.744793 -1.414846 -1.565242 -1.582025 -1.657234 -0.768839 -0.035280 0.116016 -0.377417 0.134721 -0.307689 0.017841 -0.345070 -0.076069 -0.116333 0.007872 -0.005702 -0.024083 -0.320324 0.409379 1.602153 1.136939 0.549800 -0.372383 -0.200251 -0.844406 -2.004426 -2.014665 -1.886252 -1.891856 -1.964223 -1.409428 -0.606895 -0.698635 0.063148 -0.055598 -0.619275 -0.511039 -0.555304 -0.189964 -0.410527 -0.228903 -0.076617 -0.002371 -0.034171 -0.171246 -0.272203 -0.103200 1.894661 1.284170 0.469996 0.164013 -0.071457 -0.982342 -0.828974 -1.560559 -1.712057 -1.700991 -1.950576 -1.008216 -0.236637 0.087493 -0.114175 -0.303387 -0.867616 -0.763578 -0.808822 -0.333630 -0.422753 -0.153294 0.017138 0.009768 0.146760 -0.079661 -0.629679 0.220863 1.225596 0.983084 0.742828 0.143192 0.234874 -0.317630 -0.467882 -0.894702 -1.024093 -1.920272 -1.476235 -0.830911 -0.563987 -0.326979 -0.206118 -0.730862 -0.845835 -0.469320 0.133623 -0.472696 -0.268856 -0.058656 0.014956 0.034173 -0.072274 -0.051579 -0.649280 -0.313298 0.432564 0.438848 0.594572 0.270711 0.159854 0.115733 -0.018277 0.139376 -0.796003 -1.107776 -1.170001 -0.798582 -0.070801 -0.192345 -0.498386 -0.555607 -0.435657 -0.355211 -0.193105 -0.220604 -0.122834 -0.031146 0.072955 0.003859 -0.029436 -0.157362 -0.523275 -0.405369 -0.017302 0.322940 0.235815 0.179240 0.456655 0.601770 0.920408 0.639963 -0.038461 -0.439727 -0.460909 -0.631403 -0.533634 -0.296564 -0.312886 -0.520635 -0.499114 0.145250 -0.431616 -0.142309 -0.207168 -0.115647 -0.039208 -0.005284 0.000181 -0.125626 -0.250434 -0.334481 0.200504 0.388379 0.142918 0.319688 0.436037 1.164632 1.065310 0.628922 0.343695 -0.219327 -0.636987 -0.593190 -0.220607 -0.427234 -0.027043 0.014274 -0.013391 -0.045050 -0.178880 -0.195603 -0.151228 -0.045098 -0.025006 0.000632 0.058831 -0.023497 -0.022824 -0.406323 -0.329903 0.207448 0.341611 0.583983 1.079860 1.410487 1.361717 1.212093 0.489274 -0.008300 -0.131744 0.065532 -0.085098 -0.155816 -0.104457 0.052643 0.186827 0.153988 0.141975 -0.004241 0.007820 -0.058134 -0.013239 0.020529 -0.019283 0.023980 -0.031592 -0.298248 -0.480677 -0.223723 0.091023 0.027766 0.547772 1.248503 1.149302 0.614958 0.515949 0.256858 0.071461 -0.032021 -0.095453 -0.107512 -0.121068 0.222131 0.107953 0.072265 -0.114082 -0.058771 0.026082 0.041335 0.039299 0.034733 0.085309 0.044308 -0.092032 -0.068945 -0.254834 -0.221618 -0.406351 -0.128089 0.166436 0.193612 0.326382 0.373738 0.375632 0.337028 0.344786 0.154718 0.198012 0.058861 -0.118169 -0.209689 0.072141 0.046048 -0.140712 -0.062675 -0.104161 -0.046366 -0.048835 0.010849 0.064228 0.018036 -0.032938 -0.037553 -0.093980 -0.248914 -0.504781 -0.525746 -0.392745 -0.217770 0.039224 0.132373 -0.024542 0.047909 -0.125885 0.001118 0.007286 0.089082 -0.071297 0.018767 0.066615 0.027652 -0.044989 0.045458 0.105391 -0.034468 0.033184 -0.060737 -0.013976 0.044868 -0.034148 -0.024531 -0.108725 -0.108904 -0.090761 -0.095011 -0.068459 -0.043241 0.144895 -0.128027 0.039749 0.010315 -0.023464 0.034467 0.100721 0.004098 0.055404 -0.005422 -0.004079 0.095021 -0.012631 0.014330 0.063194 -0.004030 -0.000003 -0.040246 -0.052730 0.053697 -0.027834 0.011484 0.041088 -0.055439 0.075700 0.020993 0.042110 -0.057456 0.002644 0.016398 0.011162 -0.015605 -0.053968 -0.041068 0.034005 0.083217 -0.044971 -0.039559 -0.012256 -0.088505 0.039688 -0.073949 0.076735 -0.040527 -0.052567
-0.053860 0.004387 0.017780 0.056761 0.018173 0.005461 -0.059514 0.073274 0.016094 -0.013787 0.068421 0.031147 -0.012106 0.105142 -0.009795 0.007713 -0.004229 -0.028933 -0.029578 -0.018426 0.130668 -0.054862 -0.037667 0.022898 -0.082736 -0.049277 -0.011528 -0.012480 0.003288 0.005337 0.046066 -0.079464 -0.073350 0.027231 0.001060 -0.093565 0.063692 0.003768 -0.039380 -0.112902 -0.021335 -0.030868 0.017829 0.018947 -0.017562 -0.007773 -0.020485 -0.011109 -0.008420 -0.063384 -0.011988 -0.050089 0.031523 -0.011996 0.064204 -0.131218 -0.091044 0.050822 -0.026822 -0.000207 0.006193 -0.091789 -0.050366 0.067647 0.022074 0.005156 0.098137 0.062163 0.004296 -0.123182 0.025202 -0.070096 -0.026595 0.042099 -0.106281 -0.066217 -0.046106 0.093451 -0.077479 -0.024037 0.045823 -0.027339 -0.038254 -0.115651 0.050165 0.050744 -0.033889 0.032900 0.020555 -0.073260 -0.017546 0.108856 -0.114261 0.078340 -0.094724 0.038875 0.048103 0.001081 0.004569 0.041487 0.021927 0.078682 -0.079118 0.022039 -0.068572 -0.109008 -0.054150 -0.064672 0.003570 0.002937 0.031471 0.020214 -0.076577 0.151694 0.072588 -0.021352 -0.025665 -0.081325 0.039052 0.003333 -0.103524 -0.039787 -0.011462 -0.075790 0.092579 0.026955 -0.020859 -0.005412 -0.067787 -0.044991 -0.131764 -0.094798 -0.074629 -0.204766 0.015949 -0.005719 -0.031464 0.018777 0.086127 0.056319 0.026628 0.035291 -0.069250 0.033455 -0.021913 -0.036866 -0.020153 -0.055390 -0.035150 -0.071327 -0.021051 -0.110629 -0.010040 -0.006791 -0.077552 0.032452 -0.098390 -0.314721 -0.246924 -0.309132 -0.394842 -0.268368 -0.288420 -0.018369 -0.081182 0.002745 0.047128 -0.041802 0.093121 -0.026303 0.044694 -0.118979 -0.000318 -0.070771 0.025536 -0.193930 -0.094389 -0.155723 -0.068371 -0.114666 -0.028983 -0.143899 0.149702 0.019993 -0.001995 -0.255712 -0.400729 -0.496267 -0.476500 -0.552442 -0.349411 -0.174050 -0.095393 0.047211 -0.021850 0.009212 0.027274 0.049427 -0.034087 0.026273 -0.028557 -0.134878 -0.089538 -0.171917 -0.307516 -0.214041 -0.175491 -0.053560 -0.110946 0.033216 -0.069996 0.005931 -0.127844 -0.258959 -0.500477 -0.721738 -0.718555 -0.735326 -0.535520 -0.309581 -0.065425 -0.050009 -0.009985 0.002460 0.041607 0.114925 -0.098491 -0.054898 -0.106642 -0.218237 -0.204399 -0.264386 -0.387635 -0.292689 -0.214509 -0.053927 -0.089274 0.051606 0.076547 0.020500 -0.130778 -0.147389 -0.347031 -0.721308 -0.775836 -0.792793 -0.654358 -0.403429 -0.149853 -0.080763 -0.037270 0.031678 0.088523 -0.045712 0.015029 0.031652 -0.157838 -0.246448 -0.434115 -0.574009 -0.415649 -0.540199 -0.242919 -0.132084 -0.135756 0.006256 0.010364 -0.023323 -0.180828 -0.197805 -0.442371 -0.564888 -0.872322 -0.874148 -0.753300 -0.570282 -0.161587 -0.027522 0.050632 -0.010227 0.035180 -0.022115 0.069886 -0.045029 -0.168754 -0.368184 -0.571778 -0.583301 -0.600129 -0.619109 -0.360419 -0.180984 -0.161451 -0.048904 -0.075224 -0.271264 -0.324470 -0.460876 -0.414167 -0.586799 -0.505483 -0.813046 -0.911145 -0.612209 -0.306099 -0.074516 -0.088870 0.103865 0.026116 0.034149 -0.055289 -0.213950 -0.248174 -0.561763 -0.621636 -0.780986 -0.605826 -0.384105 -0.398264 -0.337714 -0.244159 -0.319534 -0.350328 -0.428700 -0.563220 -0.444559 -0.422229 -0.405239 -0.465763 -0.590671 -0.876908 -0.549559 -0.281109 -0.058281 -0.045818 0.041914 -0.008189 0.048262 0.108778 -0.080185 -0.362052 -0.545106 -0.738110 -0.763881 -0.553763 -0.470478 -0.186893 -0.252328 -0.342170 -0.607375 -0.563740 -0.475087 -0.526112 -0.453076 -0.472363 -0.350799 -0.414446 -0.512837 -0.744882 -0.725732 -0.348659 -0.047991 -0.102671 0.013686 -0.016160 0.065773 -0.012447 -0.120513 -0.313914 -0.590146 -0.773599 -0.664892 -0.480580 -0.290182 -0.294788 -0.313655 -0.387106 -0.394029 -0.652067 -0.588687 -0.471130 -0.378660 -0.332835 -0.219948 -0.326399 -0.363810 -0.599038 -0.607666 -0.504750 -0.110072 0.005922 -0.101137 0.037259 -0.001223 0.023692 -0.089810 -0.289082 -0.773672 -0.746551 -0.635904 -0.357580 -0.250706 -0.298013 -0.221412 -0.364645 -0.416091 -0.530499 -0.514602 -0.433553 -0.307845 -0.316605 -0.364756 -0.327377 -0.327248 -0.549219 -0.504270 -0.314814 -0.024477 -0.001027 0.027061 0.062548 0.003331 -0.005499 0.086663 -0.304498 -0.622652 -0.701524 -0.606149 -0.389317 -0.226982 -0.291396 -0.395129 -0.423631 -0.451249 -0.501435 -0.480945 -0.437413 -0.540751 -0.496342 -0.351067 -0.360992 -0.329521 -0.528191 -0.493497 -0.325074 -0.010502 0.003156 0.081716 0.089601 0.039075 0.094287 -0.024605 -0.225166 -0.601771 -0.717256 -0.622186 -0.533077 -0.410800 -0.479021 -0.481714 -0.514417 -0.514557 -0.514670 -0.445779 -0.546523 -0.527235 -0.458865 -0.360263 -0.437330 -0.322128 -0.467048 -0.400309 -0.186838 -0.074292 0.033647 0.017944 -0.087276 -0.028904 0.180498 0.083743 -0.218103 -0.533972 -0.648830 -0.761728 -0.610902 -0.577377 -0.588420 -0.528197 -0.478412 -0.455466 -0.499438 -0.390542 -0.441966 -0.431647 -0.484455 -0.447502 -0.384920 -0.554675 -0.430586 -0.294555 -0.110099 0.000564 0.041313 -0.145041 0.014767 -0.042906 -0.009058 0.097561 0.032218 -0.461402 -0.724743 -0.755548 -0.777148 -0.641644 -0.751517 -0.500704 -0.461252 -0.276232 -0.353429 -0.174571 -0.426867 -0.401221 -0.334490 -0.320714 -0.415037 -0.390948 -0.424638 -0.213988 -0.056153 -0.035180 -0.063771 0.065298 0.069786 0.002266 -0.003655 0.116264 -0.021686 -0.383996 -0.638095 -0.708022 -0.697906 -0.667767 -0.602086 -0.476748 -0.297854 -0.196260 -0.133202 -0.048957 -0.118390 -0.172538 -0.345224 -0.349232 -0.325142 -0.341328 -0.293510 -0.107786 -0.080155 -0.020500 0.042611 0.109962 -0.087823 0.025856 -0.001263 0.108918 -0.013336 -0.242788 -0.499211 -0.607662 -0.595958 -0.662438 -0.583873 -0.389784 -0.165520 -0.100280 0.008728 -0.042068 -0.046648 -0.175522 -0.189046 -0.347700 -0.336489 -0.322871 -0.351454 -0.134714 -0.016198 -0.091948 -0.010027 -0.047246 0.012745 -0.113804 0.041285 -0.014040 -0.011316 -0.314840 -0.412801 -0.514936 -0.557194 -0.638908 -0.415132 -0.272408 -0.184038 -0.012448 0.132642 -0.008018 -0.027976 -0.163287 -0.286834 -0.369307 -0.336275 -0.252865 -0.073755 -0.096498 -0.010324 0.093752 0.075770 0.019552 -0.026912 0.037720 0.030259 0.103182 -0.052729 -0.179371 -0.280615 -0.346741 -0.441593 -0.302931 -0.265529 -0.152904 -0.003497 0.073848 0.111292 0.055413 -0.088200 -0.170843 -0.282170 -0.303308 -0.189188 -0.268408 -0.081660 0.036235 -0.060335 0.061733 0.019172 0.023689 0.011722 -0.008178 0.007957 -0.084944 -0.139870 -0.069374 -0.155652 -0.226147 -0.308288 -0.318872 -0.179226 0.014840 -0.010674 -0.000641 0.029376 -0.086687 -0.105472 -0.094311 -0.188409 -0.151407 -0.153745 -0.100111 -0.047590 -0.009429 0.028866 -0.085338 0.024971 0.012390 0.151142 -0.003974 -0.010621 0.024036 0.020309 -0.071038 -0.162945 -0.249322 -0.182097 -0.200983 -0.153123 0.016405 0.005712 0.033968 -0.023929 -0.080248 -0.067607 -0.106691 -0.130588 -0.144090 -0.101370 -0.133242 -0.120703 0.037398 0.012256 -0.084926 0.132466 0.010999 0.006585 -0.019101 -0.090960 0.123501 -0.094590 -0.002777 0.023938 0.006545 -0.167853 -0.121775 -0.017394 0.086067 -0.114417 -0.008819 -0.068444 -0.044853 -0.002028 -0.073852 -0.048993 0.006486 -0.012394 0.128001 -0.062036 0.089607 -0.044177 -0.064828 0.068389 0.013494 0.084829 0.074801 -0.004566 -0.050947 0.045599 0.077084 0.054722 0.028386 -0.033430 0.023980 -0.086883 0.059698 -0.016355 -0.010547 -0.013241 -0.027303 0.082790 -0.002185 -0.013270 -0.057672 -0.066933 0.101648 -0.060086 0.049377 0.015015 0.026616 -0.070616 0.051058 0.042208 -0.007695 0.018764 0.023456 -0.009698 -0.091995 -0.092255 -0.046805 0.011376 0.005169 -0.070171 -0.077493 -0.038671 -0.044876 -0.043127 -0.054829 -0.074540 0.011893 0.071257 -0.014477 -0.050112 0.009334 0.069966 0.003838 -0.097771 -0.064086 0.059042 -0.075273
-0.053895 -0.082946 0.076110 0.049027 0.055654 0.046858 -0.040817 -0.059911 0.060985 -0.108316 -0.018026 0.046929 0.039297 -0.092276 -0.053886 0.006945 0.054125 0.041635 0.008457 0.044190 -0.038768 0.006717 0.044250 0.044842 0.055885 -0.014443 0.069039 -0.043929 0.055746 0.069541 -0.076090 0.110406 -0.117768 -0.060433 0.011383 -0.066108 0.107546 0.011311 0.000646 0.002354 0.042313 0.005908 -0.056370 -0.053236 0.072848 -0.030894 0.020576 -0.043761 0.040489 0.057469 -0.020759 0.023873 0.033193 -0.073329 0.034793 -0.044248 0.118534 -0.087092 -0.064760 -0.033550 0.089197 0.002978 0.050160 0.011141 0.022849 0.197555 0.041757 0.074716 0.110542 -0.045561 0.113955 -0.024657 0.087548 0.095411 0.139139 0.082436 0.050257 0.104982 0.045293 -0.003076 0.027627 0.072811 -0.105044 -0.091497 -0.026941 -0.007854 -0.040746 -0.060864 0.042719 0.089752 0.310505 0.238261 0.626809 0.475882 0.329937 0.438609 0.304131 0.222280 0.128955 0.058305 0.232753 0.356974 0.638025 0.683253 0.680823 0.355077 0.243895 0.240393 0.277091 -0.014903 0.123708 0.016086 -0.062787 0.008481 -0.050847 -0.046145 0.076262 0.121853 0.298858 0.577035 0.803426 0.538082 0.448564 0.396111 0.231710 0.298948 0.254105 0.621580 0.568889 0.899684 1.010929 1.336113 1.137034 0.737876 0.483376 0.656405 0.579289 0.075809 0.094449 0.050089 0.064025 0.004269 -0.039567 0.095842 -0.065388 0.213139 0.520080 0.579212 0.572558 0.368430 0.771646 0.318434 -0.052667 0.087115 -0.261145 -0.150120 -0.124906 0.465719 0.842227 0.841713 1.479209 0.829841 0.555874 0.763707 0.655975 0.216432 0.020525 0.020405 0.039522 -0.093021 -0.023987 -0.080737 -0.064411 0.110019 0.300552 1.030769 0.654462 0.451177 0.292149 0.608568 0.100744 -0.061910 0.090775 -0.672655 -0.247513 -0.180200 0.273480 0.193822 0.644959 1.151662 0.736555 0.678283 0.749553 0.544667 0.157842 0.145996 0.006662 -0.019524 -0.040705 -0.038878 -0.194308 -0.524780 0.241498 0.556301 -0.317187 -0.492952 0.013713 -0.014341 0.113794 0.269196 -0.448717 -0.936043 -1.526922 -0.796096 -0.409539 0.921645 0.946021 1.128785 -0.042954 0.801303 1.414975 0.992822 0.171552 -0.001533 0.077644 0.033082 -0.071370 -0.131660 -0.152611 -0.686241 0.227172 0.145337 -0.636657 -0.256517 0.953475 0.454211 0.653363 0.360632 0.265809 -0.294328 -0.702404 -0.678181 -0.072784 0.174864 -0.271215 1.046460 0.721758 0.160761 0.785131 1.100823 0.212653 -0.081146 -0.040632 -0.031796 -0.021320 -0.036018 -0.489665 -0.578462 -0.229717 -0.187376 0.150858 0.118549 0.228866 -0.210657 -0.094010 -0.175039 0.318598 0.290225 -0.196052 -0.178068 -1.544545 -0.621858 -0.363803 0.061152 0.344539 0.186358 0.692640 0.897007 0.320546 0.067759 0.169612 -0.055164 0.037865 0.092165 -0.282051 -0.179096 0.810283 -0.277734 0.180072 -0.568934 -0.304437 -0.593385 -0.406765 -1.145408 -0.862944 -0.666480 -0.412338 -1.352800 -1.157045 -1.461682 -1.547089 -0.508493 -0.202479 0.218908 0.776842 1.254745 0.318519 0.037239 -0.015071 -0.073800 -0.028068 0.124976 -0.068270 -0.544498 0.538449 0.056153 -0.064190 -0.149223 -0.863513 0.829155 -0.400390 -1.358632 -1.548156 -1.626722 -0.933971 -1.082124 -1.422798 -1.595551 -1.743786 -1.221615 -0.399741 -0.593961 0.313194 1.520931 0.437272 -0.002115 0.092317 -0.032188 0.010746 0.430735 -0.063942 0.169485 0.625782 0.983512 0.687461 0.571996 -0.188704 0.331518 -0.925762 -1.099468 -1.169077 -0.613878 -1.092474 -1.709716 -2.362632 -1.736374 -0.996143 -1.715955 -0.556792 -0.548577 0.639604 1.365310 0.320584 0.038767 0.002289 -0.061318 -0.128350 0.272597 0.374229 -0.931602 0.853189 0.924390 0.847380 0.854131 0.539497 0.353336 -0.409950 0.235760 -0.878505 -1.216925 -1.764585 -1.267472 -1.525489 -1.442252 -0.814229 -0.242189 -0.465039 -0.153502 0.839609 1.046945 0.496510 0.198290 -0.041781 0.088970 -0.159133 0.338472 0.376599 -0.658709 1.427302 2.310397 2.309565 1.156395 0.752973 1.842478 0.566502 0.460690 -0.309873 -0.637879 -1.258343 -1.574368 -0.837445 -1.124204 -0.020273 -0.360999 0.526199 0.444737 0.160325 0.695661 0.610177 0.079148 0.022845 0.000936 -0.190308 0.434572 0.717433 -0.698830 1.269224 2.062480 1.011416 0.663527 1.058946 1.476736 1.026019 0.107279 -0.730350 -1.514399 -1.244569 -1.526703 -1.178757 -1.258667 -0.157529 0.839439 0.646913 0.061367 0.122620 0.482683 0.589692 0.005613 -0.004609 -0.072649 -0.081553 0.407398 0.520337 -1.126258 0.631842 1.917839 2.225843 0.782687 1.511841 1.116968 0.357178 -0.706140 -1.644498 -0.822027 -1.206881 -1.063909 0.093610 0.218264 0.619314 -0.068432 -0.495586 0.333037 -0.156241 0.844469 0.372808 0.069660 0.012321 -0.027760 -0.121306 0.171607 0.148883 -1.637601 0.784910 1.289266 1.123324 0.420548 1.145550 -0.093230 0.509743 -0.380365 -0.302519 -0.060816 -0.210769 0.217760 -0.265852 -0.175118 0.084840 -0.184526 -0.549203 -0.679677 -0.286718 0.965535 0.434870 0.069208 -0.000203 0.007890 -0.188946 -0.160406 -0.871183 -1.112344 0.564212 1.884446 0.794989 0.728447 0.466783 0.358396 1.316931 0.275153 0.623356 1.224827 0.868910 1.113848 0.855394 0.455184 0.494516 -0.594713 -0.634412 -0.223193 0.399648 1.305698 0.399240 -0.003575 -0.096129 0.046842 -0.083108 -0.033119 -0.606883 -0.576373 0.454187 1.411173 0.212580 -0.796293 0.484441 0.709563 0.296860 1.169653 0.376933 0.719704 0.773095 0.390179 1.446119 0.948493 0.070124 -0.433715 -0.405335 0.034404 0.318888 0.572875 0.179955 0.021577 -0.089661 0.074431 -0.131195 -0.255135 -1.164847 -0.720367 -0.011087 0.782825 1.416862 0.687775 0.378084 -0.008927 0.313671 -0.044613 0.425863 -0.273796 -0.345067 0.553622 0.579263 -0.158629 0.207607 -0.157552 -0.161490 0.598963 0.510231 0.694878 0.207358 0.082740 -0.040980 0.010451 -0.092548 -0.304929 -0.817696 -1.173538 0.093130 0.174824 0.356387 0.645839 0.162783 0.712061 0.135996 -0.689748 0.340165 0.330672 0.389272 0.333465 0.360004 0.424513 0.479985 0.295937 0.495560 0.064128 0.218098 0.343170 0.160270 -0.006388 -0.112526 0.037792 0.041420 -0.177374 -0.352481 -0.673668 -0.465148 0.093204 0.025467 0.192852 0.340861 -0.080287 -0.885874 -0.842017 -0.996152 -0.363047 -0.351726 0.130854 0.329209 0.424281 0.023934 -0.219714 -0.161998 -0.306385 -0.033079 0.207560 0.072031 0.004325 -0.015127 0.031060 -0.014486 -0.133998 -0.294154 -0.433904 -0.557570 0.487433 0.319253 0.139366 -0.099265 -0.201570 -0.052999 -0.669564 -0.838335 -0.676064 -0.995910 -0.726618 -0.553428 -0.382908 -0.321413 -0.009289 -0.197163 0.033278 0.050241 -0.042522 0.080063 0.019743 0.008074 0.039711 0.073817 0.051022 0.044877 -0.041432 -0.139384 0.231992 0.206806 -0.005219 0.006879 -0.226133 -0.309946 -0.550669 -0.408179 -0.459751 -0.862943 -0.687642 -0.234317 -0.021112 0.018805 0.012709 0.021310 0.085065 0.076963 0.036279 -0.021050 -0.091553 -0.013449 0.075832 -0.046427 -0.015066 0.027176 0.044735 -0.043391 0.189855 0.243067 0.198650 -0.041460 -0.064065 -0.013830 -0.092510 -0.101458 -0.106367 -0.078582 -0.203206 -0.119685 -0.217909 -0.105981 -0.148797 -0.018656 -0.000491 0.024957 0.011818 -0.002089 0.050002 0.081567 0.002383 0.081850 0.014361 -0.015402 -0.037635 0.076560 0.006027 0.128378 0.045156 0.010246 0.046436 0.017406 -0.062172 -0.021497 0.006363 -0.059059 0.018590 -0.079424 0.131276 -0.008590 -0.088610 -0.013465 -0.063477 0.041002 -0.148180 0.034915 0.096138 0.044512 0.020545 -0.025097 0.020745 0.020004 -0.000290 -0.027776 -0.073557 0.059110 -0.010940 -0.017006 0.026611 0.017293 -0.006273 -0.041299 -0.013778 0.017553 -0.077919 0.000959 0.075630 -0.008166 -0.012106 0.045635 -0.029815 -0.024714 0.043921 -0.062008 -0.124141
