-0.543964 -0.355414 0.445208 0.881245 -0.436221 -0.133791 -0.562731 0.037529 -1.032622 -0.612741 -1.009940 -0.363334 -0.297286 -1.105948 -0.958231 -0.540838 0.405716 0.170837 0.391579 -0.436989 -0.198370 -0.247122 -0.658044 0.283103 0.569887 0.083146 0.776091 0.859150 -0.564888 0.270390 -0.147019 0.059269 0.765247 -0.687184 -0.301845 0.021304 -0.935225 -1.171668 0.343752 1.074967 0.592139 -0.070404 0.684799 0.134827 -0.395335 0.006282 -0.175268 0.552777 0.464713 1.367556 0.133621 0.433459 -1.328966 1.073152 0.055467 0.042555 0.306256 -0.132208 -0.699241 -0.728463 0.775005 0.200828 -1.016315 -0.742967 0.078845 -0.313029 -0.533761 -0.249720 -0.828451 0.504906 0.022959 0.307255 0.386285 0.925357 -0.490268 -0.542879 0.492691 0.633859 1.076803 -0.885966 -0.711657 -0.040913 0.340606 -0.751892 1.311410 -1.637479 0.623607 0.459498 -0.326457 -0.401136 -0.046943 0.053135 -0.604811 0.320041 1.282084 -0.138327 0.676852 0.708316 0.340801 -0.986724 -0.543213 -0.341547 0.796736 -0.219534 -0.939150 0.360901 1.397077 0.067862 -0.477160 -0.050522 -0.304807 -0.057039 0.092948 -0.820491 -1.289322 -0.622886 -0.141639 1.020596 0.645523 0.136273 0.319700 -0.252857 -0.207868 0.862764 -0.378770 1.234200 0.097320 -0.237023 -1.018944 0.235111 1.618923 -0.642391 0.427764 0.177007 0.386135 -0.470707 0.082891 -0.306149 -0.476299 -0.050830 -0.495958 0.122619 0.857838 -0.083716 -0.341994 -0.436863 -0.565517 -0.084576 0.987127 0.294852 0.617895 0.819076 0.916180 -0.180602 0.064280 -0.229802 0.216531 0.294401 -0.236206 0.151683 0.629934 -0.487667 -0.048594 0.669915 -0.798671 -0.303140 0.680075 -1.561030 0.492173 0.513797 -0.581585 0.458565 0.098639 0.498287 -0.476909 0.289455 1.299941 0.355122 0.388203 -1.167530 -0.018702 0.192118 -0.850523 0.349880 -0.981820 -0.456453 -0.431188 -0.011477 0.084260 0.075246 0.153556 0.030449 0.674277 -0.006758 0.379825 -0.229995 -0.573392 -1.054308 -0.229536 -0.073250 -1.341383 -0.147603 0.984637 -0.306463 0.595634 0.894977 -0.255533 -0.760439 0.290285 -0.440934 -0.177502 -0.239859 -0.972230 -0.149656 -0.411749 -0.347343 0.422188 0.669883 0.144684 0.683808 -0.161176 0.008465 -0.020136 0.110098 -0.276008 -0.130852 -0.529278 -0.175183 -0.398222 -0.987947 -0.784246 0.092684 -0.894007 -0.130875 0.497930 -1.286405 -0.953365 -0.216068 0.121721 0.408679 -0.462795 0.558069 0.317579 -0.315357 0.037462 -0.223381 1.021902 0.985898 -0.457355 0.171101 -0.154264 -0.330775 -0.738377 0.945184 0.660223 0.202261 -0.306349 0.669867 -0.479951 -0.013933 -0.115425 0.614354 0.171376 0.003501 -1.086026 1.644436 -1.142585 1.228158 0.037655 0.385018 0.347289 1.020323 -0.555710 0.243193 0.022761 -0.441905 0.445554 -0.258013 -0.509207 0.177840 -0.391043 -0.215314 0.034285 -0.248584 -0.646552 0.574293 -0.226082 0.280918 0.549379 0.725695 -0.342441 -0.741494 -0.201094 -0.587683 -0.026972 -1.224462 -0.613928 1.082900 0.841969 0.435594 -0.574885 -0.790201 -0.566452 -0.479923 0.407295 0.723060 -1.388841 0.289360 0.209088 -2.149318 0.602276 1.294134 0.108320 -0.429648 -1.350014 -1.111554 -0.655663 -0.217301 0.047840 -0.476773 -0.115820 0.760329 0.121389 0.140563 0.552152 0.153129 0.183387 -0.978099 -0.152383 -0.236743 -0.116638 -0.624880 -0.109594 0.592313 1.044772 0.143670 0.389533 0.513682 1.806961 0.502699 -0.399266 0.408396 0.850465 0.306194 0.349190 -0.916452 -0.122888 0.565880 0.542070 0.487030 -0.549415 -0.128696 -0.664276 0.715447 0.223261 0.315104 0.372774 -1.338750 -0.548122 -0.882639 0.097569 0.120928 0.089079 -0.746995 -0.280854 0.495180 -0.147467 0.730695 0.507867 -0.104287 1.416490 -0.079438 0.154890 -1.120348 -0.186318 -0.111507 -0.931007 0.052326 -1.427315 -0.740559 -0.701852 -0.964350 1.008501 -1.498592 0.527112 -1.166272 -0.488456 -0.387523 1.128817 -0.172288 0.479895 0.879736 0.118070 0.771124 0.686009 -1.212383 0.431081 -0.002069 1.139744 -0.171766 0.129884 0.462998 0.270037 1.038017 -0.106408 0.423080 0.146099 0.536947 0.161460 -0.540712 -0.587514 -0.746466 -0.010454 -0.430574 0.076595 -0.269506 1.000989 0.021603 -0.397818 0.506766 -1.453561 0.914905 0.856298 -0.235343 0.053198 0.479800 -0.819170 1.094036 0.790950 0.297622 1.025502 0.647945 0.784044 -0.547362 -1.204079 0.990589 0.076960 -1.127277 0.906981 -0.501301 -0.465331 -0.287727 0.668672 -0.543615 0.466260 -1.098565 -0.378976 -0.412528 -0.853908 0.705876 -0.492142 -0.192188 -1.213755 0.076485 -0.445902 -0.610732 0.364360 -0.175444 0.210368 -0.774915 0.845304 -0.843575 0.253433 0.400904 -0.507032 -0.877928 0.651650 -0.418628 -0.298643 -0.020942 0.126408 0.184758 0.459919 -0.440835 -0.378976 -0.131746 -1.364930 0.965128 0.271603 0.145173 -0.523530 -0.552208 -0.919920 -0.165116 0.261469 -0.648283 -0.032529 -0.524749 -0.854860 -0.031329 -0.921587 -0.316704 -0.481695 -0.891671 0.310558 -0.987678 0.044625 0.894535 -0.546751 -0.416450 0.209411 1.167096 0.024813 0.387504 -0.092156 0.560043 0.254421 0.614391 0.745362 -0.427035 -0.731038 0.324053
0.422961 0.124439 -0.416351 -1.007181 0.390820 -0.084347 0.498718 0.023535 1.077381 0.766640 0.791324 0.436652 0.069840 1.097122 0.788807 0.495532 -0.409422 -0.208037 -0.419387 0.291271 0.179622 0.233008 0.493779 -0.215828 -0.688798 -0.179340 -0.953037 -0.706226 0.554923 -0.176055 -0.038208 -0.144735 -0.782905 0.779892 0.173249 -0.194433 0.871027 1.040703 -0.370290 -1.079335 -0.598056 0.165555 -0.583644 -0.227175 0.408852 0.008304 0.110188 -0.522217 -0.455264 -1.407019 -0.331418 -0.458086 1.209508 -0.945585 -0.083669 -0.220769 -0.268195 0.233159 0.761848 0.532324 -0.862638 -0.278556 1.006675 0.795927 -0.110205 0.189527 0.373538 0.208466 0.880668 -0.601128 0.004854 -0.403992 -0.392282 -1.028655 0.435318 0.586622 -0.456768 -0.691476 -1.036607 0.877197 0.712386 0.009400 -0.272915 0.630656 -1.340751 1.615066 -0.715693 -0.332631 0.311617 0.318513 0.095304 -0.070262 0.678271 -0.543030 -1.486370 0.070466 -0.712766 -0.613029 -0.263340 0.814577 0.626622 0.374915 -0.819569 0.209731 0.970203 -0.441363 -1.448582 -0.137082 0.406630 0.108678 0.225552 0.096701 -0.209007 0.843905 1.202381 0.550856 0.156154 -1.014678 -0.751052 -0.118030 -0.363819 0.176882 0.173060 -0.852869 0.155447 -1.261045 -0.258722 0.326299 0.908316 -0.197108 -1.749225 0.608673 -0.400815 -0.326130 -0.417760 0.379073 -0.177080 0.310653 0.527744 -0.097537 0.444920 0.011537 -0.896582 0.127879 0.347584 0.392575 0.564922 0.020061 -0.932850 -0.189501 -0.594948 -0.701686 -0.967508 0.218126 -0.033175 0.227445 -0.141932 -0.327303 0.229480 -0.003134 -0.636802 0.512414 0.097779 -0.613952 0.803709 0.268155 -0.738946 1.538218 -0.561998 -0.486170 0.505645 -0.473953 -0.188527 -0.489590 0.466316 -0.292909 -1.253886 -0.514963 -0.465717 1.030791 -0.075458 -0.280310 0.826500 -0.408642 0.825615 0.415370 0.409902 -0.101363 -0.072917 -0.192533 -0.006550 -0.087068 -0.672817 -0.062087 -0.429829 0.233634 0.649961 1.168546 0.112551 0.028973 1.376011 0.027239 -0.886835 0.418822 -0.692180 -0.828082 0.289590 0.876656 -0.472257 0.493129 0.219328 0.103855 0.773786 0.212341 0.264217 0.222037 -0.361088 -0.665031 -0.160656 -0.645679 0.058600 -0.094961 -0.129952 0.013477 0.176073 0.243224 0.551152 0.062111 0.447944 0.948480 0.612229 -0.119935 1.031408 0.163762 -0.493426 1.211901 1.000772 0.056848 -0.216181 -0.318626 0.378396 -0.597032 -0.402742 0.320767 -0.157613 0.160369 -0.971311 -0.983547 0.480202 -0.251111 0.051267 0.302345 0.628934 -0.937583 -0.659944 -0.214551 0.103304 -0.658505 0.444408 0.131740 0.195484 -0.509623 -0.223053 0.045509 0.924340 -1.601618 1.212071 -1.226068 0.094934 -0.346538 -0.341163 -1.013769 0.409799 -0.185190 -0.013620 0.594909 -0.395619 0.138837 0.418109 -0.275372 0.239818 0.230980 -0.181730 0.281323 0.647254 -0.615633 0.232060 -0.487481 -0.514470 -0.532647 0.318654 0.631255 0.284168 0.637168 0.006622 1.130496 0.500626 -1.127017 -0.747825 -0.379489 0.516704 0.584783 0.547793 0.502164 -0.438843 -0.858443 1.316585 -0.366977 -0.022417 1.957652 -0.599716 -1.232151 -0.066533 0.310921 1.278949 0.999550 0.561567 0.213230 -0.063854 0.485326 0.094378 -0.710758 -0.142397 -0.019737 -0.523411 -0.294990 0.033437 1.029870 0.139864 0.340654 0.051914 0.553390 0.118639 -0.633039 -1.012895 0.086896 -0.483822 -0.604233 -1.860322 -0.534345 0.444077 -0.432772 -0.804366 -0.549078 -0.219872 0.845864 0.046240 -0.602599 -0.495637 -0.516246 0.544743 0.164963 0.616357 -0.721124 -0.229352 -0.367003 -0.347476 1.175330 0.685731 0.896588 -0.096176 -0.116855 -0.057810 0.862467 0.437017 -0.504116 0.032933 -0.651129 -0.632286 0.148553 -1.421267 0.074382 -0.170689 1.106016 0.069816 -0.044317 1.074189 0.161486 1.464854 0.683769 0.582875 1.044550 -0.972899 1.426087 -0.565417 1.133980 0.480952 0.484803 -1.039737 0.215858 -0.601904 -0.748198 -0.108929 -0.678381 -0.605350 1.181522 -0.493008 -0.067098 -1.141498 0.176310 -0.228555 -0.457303 -0.286214 -1.037426 0.187758 -0.557964 -0.177392 -0.638800 -0.223198 0.548850 0.364657 0.765112 -0.122969 0.369514 -0.034210 0.120357 -1.076757 -0.146101 0.391569 -0.628153 1.499487 -0.825623 -0.904165 0.165829 -0.122817 -0.554940 0.888796 -1.040019 -0.787446 -0.157945 -1.035274 -0.646417 -0.750560 0.480448 1.117731 -0.908186 -0.088290 0.980628 -0.884452 0.397006 0.444145 0.144340 -0.732435 0.433855 -0.396405 1.134197 0.290690 0.378914 0.881147 -0.621318 0.522813 0.309837 1.188218 -0.048240 0.509692 0.486523 -0.517478 0.159186 -0.148427 0.695521 -0.917807 0.935057 -0.342178 -0.429694 0.469402 0.942160 -0.600111 0.322877 0.194975 0.114720 -0.302120 -0.171515 -0.402082 0.357621 0.558524 0.202186 1.191986 -1.087811 -0.096818 -0.100343 0.498556 0.528699 0.648806 0.063889 -0.147593 0.578264 0.091702 0.481614 0.759138 0.054621 0.734529 0.198383 0.476803 0.917684 -0.358708 0.947462 0.019319 -0.837195 0.440757 0.383895 -0.172935 -1.097900 -0.000760 -0.326300 0.057051 -0.508300 -0.141674 -0.682613 -0.812938 0.383318 0.570017 -0.282732
