0.530888 0.772356 -0.697035 -0.509264 -1.192410 0.398407 0.331990 0.992036 0.184721 0.522892 -1.223204 -0.241773 -0.116483 0.457725 0.433753 -0.529576 -0.762067 0.013285 -0.195072 0.817974 -0.031849 0.091290 0.130934 0.595473 -0.012249 -0.237593 0.062449 0.386564 -0.135254 -1.420258 0.150143 -0.586369 0.397520 1.050364 -0.659460 -0.708769 0.659548 -0.238760 -0.219135 0.004313 -0.209668 0.017890 -0.149024 -0.586770 0.151235 0.241854 -0.308709 -0.013417 0.630446 -0.576701 -0.208459 0.257338 0.618475 0.324354 0.347404 0.259797 0.121751 0.742967 0.346920 -0.505010 0.516807 0.638433 -0.264286 -0.798847 -0.248527 -0.212120 0.071648 -0.838658 0.580913 0.334286 0.354566 0.717005 0.714600 -0.784840 0.039500 0.733878 -1.030961 0.192988 -0.198772 0.254703 -0.178291 -0.280923 0.761012 -0.520077 -0.834607 0.021909 0.304248 0.631511 0.189242 0.158420 0.135527 -0.124950 0.353999 0.064603 0.471384 0.301128 0.577908 0.454215 0.782028 -0.344147 -0.649987 0.495278 -0.500753 0.096515 0.576111 -0.182289 -0.074771 -0.945712 0.100837 -0.118020 -0.739488 1.019092 -0.416146 0.207436 -0.169371 0.482736 -0.313165 -0.626775 0.606910 1.024710 -0.592532 1.494875 -0.908338 -0.050803 0.134445 0.222369 -0.036145 0.105782 0.724282 -0.853155 -0.185529 -0.992762 -0.433157 0.156720 0.788927 0.441455 0.011841 0.649975 -0.772379 0.473658 0.251923 0.200623 -0.449934 -0.601232 -0.509533 0.180495 0.488006 -0.091529 -0.091896 1.555518 0.888516 0.374325 -0.441016 -0.394997 -1.237316 -0.347333 0.199677 0.357426 -0.106951 -0.968040 0.352963 0.692417 -0.887508 -1.105529 -0.203642 -0.971050 -0.622771 -0.275590 0.486269 -0.689515 -0.523937 -0.771641 -0.016767 -0.415799 -0.814982 0.901488 0.210860 -0.104996 0.121428 0.343496 0.445170 0.015479 0.010825 0.049954 0.276335 -0.209535 -0.079711 0.623607 -0.970319 -0.037209 -0.638028 0.317706 -0.578735 0.400006 0.531842 0.557779 -0.230440 -0.394061 -0.239427 0.329426 0.079991 0.351503 -0.702027 -0.198400 0.197541 -0.440053 -0.268107 0.164407 -0.413095 -0.351325 -0.682286 0.129848 -0.210978 -0.415878 0.749787 -1.361044 -0.354163 -0.516701 -0.310625 -0.322370 0.129686 0.234241 -0.110223 0.757669 0.372650 0.205384 0.372056 -0.415319 0.144264 -0.117671 -0.143486 0.072779 -0.273346 0.976416 0.361709 -0.902777 -0.033322 0.464945 0.491489 0.519316 0.654856 -0.483012 -0.748154 0.041780 0.483770 0.070049 -0.156222 -0.099526 -0.069523 0.379851 0.213543 0.239742 -0.191594 0.429149 0.055423 -0.217755 -0.769108 -0.099132 -0.231971 -0.195873 -0.080525 -0.539814 -0.859287 0.569700 -0.408435 0.212344 -0.484261 -0.269604 0.612819 -0.136618 -0.035262 0.027647 0.207150 0.129565 0.227877 0.405015 -1.097645 0.235808 0.688760 -0.140053 -0.498344 0.388583 -0.487189 -0.666295 -0.315730 -0.116227 0.703405 0.854990 -0.029923 -0.028801 0.804937 0.142095 1.185060 0.641954 -0.666590 -0.299296 1.079329 1.528521 0.238862 -0.812827 0.525909 -0.320670 0.372471 -0.795172 0.357007 0.160427 -0.011010 0.303763 -0.564268 0.038855 0.382421 -0.004417 0.219694 0.789471 -1.409619 -1.026903 -0.261882 0.370886 -0.307187 0.925176 -0.521630 0.681873 -0.605358 -0.666034 0.542092 -0.373605 0.693801 -0.346242 0.762427 -0.746279 -0.371379 -0.095581 0.168589 0.436422 0.232045 -0.053368 -0.093581 -0.224058 0.342715 -0.280796 0.101152 -0.119924 0.477618 -0.552659 0.124657 -0.323011 0.299652 0.552547 -0.159569 -0.127974 -0.848893 -0.294507 -0.554334 0.252569 0.212297 -0.576627 -0.032957 0.385682 -0.462869 -0.150815 -0.547581 -0.028068 -0.399312 0.964126 -1.129831 -0.665613 0.210333 0.090411 -0.659113 -0.152113 0.387167 0.734179 -0.061863 0.062681 -0.190815 0.357020 0.772035 -0.685920 -0.212981 -0.209421 -0.740671 -0.870178 -1.047443 -0.148287 0.159031 -0.214479 -0.098848 0.189841 0.569324 0.750258 0.412267 -0.121552 0.141070 -0.042220 0.034891 -0.515717 -0.294948 0.888180 -0.374301 0.755384 -1.347766 0.210975 0.090006 0.081151 0.162080 -1.016183 -0.612178 -0.155356 0.546613 -0.470711 0.508454 0.018475 -0.593814 -0.681628 0.763896 1.285574 -0.066793 -0.405480 0.262924 -0.231497 -0.275852 -0.201584 1.440959 0.152974 0.246600 0.081506 0.170967 0.085749 0.652215 -0.253399 0.344899 0.606477 0.731884 -0.276164 0.150614 -0.438045 0.374273 0.465815 -0.099624 0.138618 -0.141031 0.449217 1.015606 -0.466368 -0.144914 -1.237520 -0.659761 -0.059013 -0.165692 0.172084 -0.489158 0.076787 0.068138 0.461925 0.188007 -0.032202 0.785091 0.104522 -0.358875 0.200726 -0.157885 0.149535 0.641680 -0.600426 0.565097 0.497244 0.890370 0.345276 0.076160 0.512259 -0.224110 0.597885 0.251363 -0.253949 0.318810 -0.415069 0.252364 -0.921079 -0.048452 -0.264733 0.524333 -0.092693 -0.461853 0.226630 -0.370480 0.179440 0.806304 -0.002428 -0.163400 -0.460381 0.858443 -1.018490 -0.673300 -0.206644 -1.142950 0.262427 -0.555718 0.057823 -0.261818 0.298364 0.346014 -0.376317 0.834795 0.409365 -0.117827 -0.304916 0.563461 -0.816331 0.389187 -0.300144 -0.221494 0.835054
-0.538420 -0.805520 0.719908 0.474935 1.129191 -0.445874 -0.481152 -1.071501 -0.124184 -0.584081 1.108585 0.135547 0.048960 -0.509085 -0.501264 0.513984 0.768416 0.012213 0.123365 -0.816993 0.203404 -0.124205 -0.045266 -0.620797 0.065561 0.186426 -0.045441 -0.384488 0.261707 1.391121 -0.203053 0.544102 -0.360858 -1.017655 0.639996 0.749451 -0.741133 0.238281 0.325936 -0.078985 0.257797 0.052633 0.234835 0.558534 -0.246192 -0.232007 0.241964 0.014277 -0.692964 0.579539 0.302272 -0.301810 -0.656467 -0.169871 -0.386965 -0.329649 -0.075568 -0.683558 -0.302025 0.555610 -0.499721 -0.645777 0.194264 0.748609 0.278439 0.272125 -0.070299 0.831626 -0.562746 -0.402541 -0.280079 -0.743381 -0.715457 0.643523 -0.112781 -0.564879 0.950459 -0.260987 0.276565 -0.338757 0.169421 0.131602 -0.657390 0.625374 0.800617 0.033621 -0.206776 -0.680422 -0.187035 -0.008848 -0.208642 0.141314 -0.312771 -0.078209 -0.493253 -0.205672 -0.492959 -0.578139 -0.690984 0.294001 0.607838 -0.517959 0.542419 -0.034324 -0.623033 0.088078 0.091297 0.815334 -0.089241 0.224959 0.715844 -0.971950 0.442076 -0.167984 0.125630 -0.440611 0.272076 0.674986 -0.654092 -0.921919 0.440594 -1.500107 0.961842 0.000151 -0.200258 -0.292046 -0.033479 -0.091960 -0.727303 0.686589 0.102023 0.944904 0.289507 -0.065523 -0.809119 -0.444815 0.056298 -0.768711 0.839955 -0.557332 -0.271728 -0.190201 0.475474 0.558629 0.420416 -0.210939 -0.467107 -0.012006 0.052332 -1.457877 -0.759626 -0.377400 0.354996 0.387487 1.135271 0.359772 -0.288829 -0.371623 0.095479 0.809044 -0.466481 -0.727508 0.871078 1.080377 0.304145 0.968732 0.585501 0.246739 -0.510999 0.725368 0.473273 0.728289 -0.013351 0.411355 0.978857 -1.062292 -0.158989 0.241618 -0.029530 -0.310704 -0.427687 0.082839 0.071435 0.025105 -0.260193 0.269479 0.065332 -0.613479 0.820365 0.160905 0.677105 -0.302979 0.602722 -0.365561 -0.544419 -0.655773 0.197016 0.384672 0.147262 -0.477558 -0.011351 -0.438336 0.706116 0.156259 -0.222437 0.417755 0.283282 -0.107620 0.440098 0.278631 0.718055 -0.158196 0.220185 0.453660 -0.855438 1.295831 0.327313 0.341473 0.250515 0.313265 -0.124534 -0.201397 0.045480 -0.860966 -0.385093 -0.211448 -0.470030 0.466303 -0.185761 0.129052 0.308917 -0.040476 0.398680 -0.971264 -0.267681 0.883158 0.135572 -0.587774 -0.564718 -0.410595 -0.652381 0.451087 0.690172 -0.141390 -0.588944 0.139816 0.066296 0.041381 0.062501 -0.283609 -0.221787 -0.197581 0.160664 -0.345767 -0.119317 0.139714 0.717927 0.083843 0.229041 0.275160 -0.014244 0.538705 0.743532 -0.579962 0.366179 -0.149976 0.508071 0.162566 -0.605862 0.039712 -0.015269 -0.004846 -0.086190 -0.114877 -0.226318 -0.377798 0.928159 -0.371606 -0.619697 0.206798 0.625479 -0.422495 0.642927 0.629913 0.361259 0.093708 -0.616121 -0.849707 -0.079647 0.138307 -0.700792 -0.111866 -1.169177 -0.579078 0.463199 0.333034 -1.068331 -1.460542 -0.259433 0.819607 -0.377293 0.376220 -0.363248 0.784514 -0.504261 -0.225236 0.118050 -0.262278 0.630405 -0.091372 -0.377610 0.037579 -0.333761 -0.856485 1.432540 1.035701 0.222593 -0.187804 0.245793 -0.880005 0.577773 -0.694412 0.550066 0.632468 -0.548992 0.270279 -0.611572 0.438956 -0.569598 0.760086 0.377491 0.076076 -0.071470 -0.457312 -0.416801 0.045787 0.135657 0.064019 -0.481973 0.266957 -0.240457 0.214794 -0.362263 0.548001 -0.019995 0.266698 -0.356149 -0.471071 0.178817 -0.052424 0.772613 0.247379 0.515933 -0.325239 -0.137624 0.527725 0.065779 -0.413168 0.463091 0.061448 0.460751 -0.055873 0.338180 -1.013016 1.211631 0.614633 -0.086678 -0.043423 0.569877 0.154413 -0.357770 -0.635305 -0.063694 -0.003533 0.205980 -0.322234 -0.867974 0.645188 0.071837 0.202243 0.764809 0.906535 1.057984 0.265143 -0.095694 0.321235 -0.003533 -0.279914 -0.599122 -0.765893 -0.501024 0.215248 -0.141394 -0.072180 0.020707 0.563181 0.288272 -0.911492 0.354317 -0.755292 1.278510 -0.173760 -0.076362 -0.000398 -0.069125 0.991161 0.595082 0.197806 -0.497371 0.517324 -0.488297 -0.102184 0.510795 0.724542 -0.737054 -1.233073 -0.030829 0.442674 -0.226678 0.280382 0.251906 0.211722 -1.379014 -0.021681 -0.224108 -0.131965 -0.194231 0.142867 -0.664600 0.170818 -0.393896 -0.619443 -0.614522 0.266381 -0.142641 0.463844 -0.174906 -0.565672 0.198542 -0.255093 0.189761 -0.489969 -0.831125 0.412237 0.082753 1.233530 0.537570 0.096179 0.094275 -0.155814 0.418351 -0.185807 0.038400 -0.574061 -0.365643 0.041135 -0.753319 -0.123679 0.203996 -0.119057 0.185739 -0.157315 -0.673122 0.689652 -0.420483 -0.461075 -0.932669 -0.374299 -0.021707 -0.644005 0.240090 -0.687826 -0.331243 0.275299 -0.364866 0.395431 -0.188852 0.755432 0.014354 0.312200 -0.657952 0.073536 0.401953 -0.104053 0.335262 -0.313594 -0.858636 0.053205 0.018826 0.410534 -0.950644 1.111125 0.670798 0.237190 1.157501 -0.136886 0.496775 -0.125257 0.215532 -0.267414 -0.215027 0.353177 -0.816879 -0.490190 0.125369 0.194160 -0.564360 0.716385 -0.354610 0.273140 0.162386 -0.823422
