0.089095 -0.024243 -0.106855 0.082288 -0.028081 0.059118 0.136167 0.068700 -0.047816 0.006905 -0.031331 -0.049966 -0.016925 0.016050 -0.021026 -0.033156 -0.075426 0.116808 0.104058 0.029099 0.004097 -0.038175 -0.054574 0.009460 -0.028435 0.071963 0.048583 0.067999 0.078192 -0.054366 -0.047225 0.026149 0.046126 0.011442 0.076309 -0.050851 -0.059817 0.052447 -0.042647 0.052563 -0.094169 0.037682 -0.082907 -0.125826 0.059127 -0.032849 0.004950 0.013075 -0.126152 0.068274 0.027631 0.025420 0.010767 -0.035136 0.016467 -0.023840 0.035788 -0.034218 -0.028693 0.026990 -0.017900 -0.046725 0.031918 -0.075934 0.071214 -0.046324 0.045569 -0.081469 -0.062021 -0.046443 -0.057916 -0.002647 -0.043466 0.059716 0.044106 0.003489 -0.028529 0.104850 0.048301 0.104768 -0.131573 0.100539 0.011333 0.003033 -0.039074 -0.017149 0.074821 0.068703 -0.010099 -0.004518 -0.002935 -0.138526 -0.064071 0.013160 0.043225 -0.043955 -0.054256 -0.101967 0.071193 -0.016639 -0.051093 0.046271 0.066298 0.087757 -0.057886 -0.014127 -0.064491 0.054342 0.030314 -0.041755 0.010694 0.027574 -0.200747 0.003059 -0.021902 -0.062754 0.001921 -0.060643 0.001399 -0.002977 0.004363 -0.024545 -0.121054 0.008452 0.015505 0.048712 -0.052096 0.034152 -0.094280 -0.044646 0.052132 0.183418 0.068316 0.134266 0.053782 -0.055145 -0.138468 -0.028031 0.039873 -0.065653 0.042929 0.024431 0.059374 0.109578 -0.005396 -0.015028 -0.015799 0.081402 -0.078592 -0.098928 -0.047484 -0.204645 -0.124388 -0.125041 0.008930 -0.082256 0.008627 -0.051237 0.137122 0.225924 0.299411 0.121004 0.028121 0.111117 -0.020498 -0.068154 0.037053 -0.038302 -0.104377 0.066533 -0.006065 0.043961 0.036431 -0.008899 0.017931 0.015807 -0.113623 -0.239592 -0.200804 -0.206698 -0.175705 -0.207569 -0.127336 -0.213721 0.119141 0.067660 0.270592 0.417943 0.256391 0.363046 0.188726 0.036720 0.136247 -0.043810 -0.016409 0.094495 0.028083 0.081086 0.005244 0.070287 0.072596 0.025146 0.041117 -0.146224 -0.083200 -0.198497 -0.168548 -0.315879 -0.331302 -0.174589 -0.250483 -0.281989 -0.082486 0.067778 0.191787 0.367732 0.321664 0.502286 0.308960 0.063159 -0.086392 -0.050231 -0.053608 -0.051129 0.036773 -0.036506 0.075408 -0.042806 0.006763 -0.022885 0.037521 -0.006611 -0.203528 -0.327184 -0.349783 -0.390718 -0.330332 -0.300189 -0.305970 -0.322607 -0.158957 -0.120268 0.140438 0.255388 0.308695 0.267899 0.267829 -0.014529 -0.049374 -0.081121 -0.086972 0.010866 0.051575 -0.055030 -0.005787 0.050031 0.089591 0.126573 0.055742 -0.114330 -0.196338 -0.423644 -0.415579 -0.409480 -0.457335 -0.375371 -0.368514 -0.325498 -0.343857 -0.160870 -0.063170 -0.060204 0.121101 0.195732 0.159182 -0.030080 -0.152872 -0.047710 -0.098151 0.021664 0.014393 -0.103907 0.044914 -0.056204 0.096833 0.095982 0.094439 -0.098261 -0.391549 -0.429479 -0.587692 -0.549440 -0.349327 -0.339587 -0.462318 -0.410551 -0.360659 -0.440831 -0.220309 -0.040427 -0.132853 0.084726 0.074689 -0.012831 -0.203602 -0.210716 -0.107348 0.050374 0.096479 0.071710 0.001009 0.011098 0.059529 0.097508 0.158320 -0.197788 -0.455488 -0.542681 -0.457539 -0.288114 -0.167429 -0.126859 -0.383206 -0.390018 -0.567582 -0.503174 -0.457184 -0.385335 -0.144711 -0.169998 -0.089151 -0.089831 -0.223229 -0.142360 -0.141439 0.024864 0.067141 0.016515 -0.020183 -0.043967 0.020826 0.284674 0.090321 -0.221722 -0.470099 -0.589384 -0.449192 -0.254831 -0.218546 -0.274379 -0.432515 -0.561747 -0.644166 -0.679894 -0.547838 -0.486735 -0.322489 -0.361896 -0.223851 -0.180076 -0.251262 -0.240537 -0.167026 -0.024948 -0.077559 0.054317 0.019624 -0.058639 0.009329 0.093517 0.077308 -0.179442 -0.338603 -0.470714 -0.423855 -0.378503 -0.228078 -0.314950 -0.507961 -0.820913 -0.815142 -0.755405 -0.693734 -0.670858 -0.486814 -0.402342 -0.136254 -0.229794 -0.342010 -0.118361 -0.158995 -0.002175 -0.072191 -0.059166 0.003413 -0.014986 0.052798 0.081458 -0.083784 -0.305668 -0.443887 -0.475912 -0.363308 -0.260393 -0.388521 -0.444743 -0.685901 -0.757547 -0.844153 -0.892410 -0.716765 -0.602556 -0.538468 -0.380111 -0.240090 -0.180602 -0.265951 -0.101118 -0.173578 -0.001391 -0.045091 -0.029071 -0.019740 -0.169115 0.062027 0.169678 -0.014170 -0.297609 -0.335570 -0.439910 -0.317298 -0.408651 -0.421765 -0.591557 -0.859829 -1.039255 -0.988838 -0.808878 -0.677021 -0.576707 -0.363144 -0.255679 -0.258936 -0.219300 -0.281523 -0.186778 -0.050244 -0.081530 -0.041040 0.064514 -0.194911 -0.115357 0.061132 0.117203 -0.012801 -0.203820 -0.388702 -0.356173 -0.544450 -0.557771 -0.638917 -0.743614 -0.880219 -0.765873 -0.767512 -0.738590 -0.510517 -0.220750 -0.364582 -0.174097 -0.197638 -0.084609 -0.288888 -0.062288 0.029587 0.030729 -0.007186 0.048241 -0.164461 -0.142747 0.063023 0.072992 -0.068527 -0.269112 -0.306972 -0.327469 -0.516456 -0.681132 -0.704079 -0.727649 -0.716418 -0.583046 -0.670827 -0.346904 -0.336079 -0.143015 -0.051031 -0.069717 -0.084036 -0.279606 -0.177405 -0.120521 -0.106835 0.053156 0.035213 -0.014210 -0.102056 -0.092994 -0.022776 0.090465 0.014003 -0.087994 -0.342695 -0.250070 -0.416434 -0.654994 -0.488433 -0.600993 -0.434629 -0.528983 -0.501201 -0.074467 -0.067980 -0.057359 0.025774 -0.029685 -0.121514 -0.172671 -0.236020 -0.153776 -0.030100 -0.041806 -0.071200 -0.001726 -0.099434 -0.121081 -0.001821 0.136065 0.042409 -0.115194 -0.194236 -0.259947 -0.418907 -0.506210 -0.487111 -0.557987 -0.321901 -0.144393 -0.132900 -0.076949 0.075434 0.026475 0.069476 -0.017997 -0.015333 -0.066908 -0.165916 -0.046154 0.021155 0.019121 0.034504 0.001764 -0.052931 -0.088563 0.006963 -0.033504 0.021186 -0.014393 -0.069009 -0.222713 -0.206740 -0.206232 -0.264856 -0.270108 -0.164863 -0.090012 -0.003121 0.063336 0.044895 0.133417 0.094520 -0.038176 -0.040821 -0.118403 -0.111635 -0.003784 -0.011040 -0.001401 0.129807 -0.089526 0.048198 0.024848 0.060673 0.053536 0.026088 0.048652 -0.055130 -0.060986 -0.111562 0.013462 0.011034 -0.072897 -0.102224 -0.104568 0.037708 0.121284 0.188394 0.105548 0.054687 0.026481 0.141977 -0.058409 -0.127137 -0.066916 0.029555 0.037109 0.003352 -0.042629 -0.065595 -0.129157 0.010987 0.014214 -0.043710 0.057321 -0.015729 0.088994 -0.138813 0.136504 0.027815 0.019228 0.002554 0.040851 -0.085773 -0.009801 0.119045 0.085707 0.072014 0.116679 -0.019298 0.007186 -0.059812 -0.065929 0.016694 -0.036120 -0.034943 -0.074481 -0.033348 -0.007557 0.082858 0.047538 -0.058877 -0.038156 -0.090671 -0.034869 0.128937 0.131300 0.066020 -0.015576 0.016423 0.072713 0.072041 -0.048715 0.110585 0.029226 0.084379 0.021174 -0.009875 -0.002363 0.011522 0.095671 0.003947 -0.042517 -0.048605 0.119766 -0.015939 -0.123484 0.021814 0.111823 -0.031257 0.027066 -0.033633 0.058546 -0.067533 0.010082 0.005127 -0.029385 -0.065446 0.011456 0.002284 0.035401 -0.051981 0.131241 0.012321 0.057677 0.017878 -0.171062 0.006564 0.028671 -0.058167 -0.098018 -0.031021 0.108781 -0.006879 -0.011160 0.009519 -0.093181 -0.162548 0.099026 0.027305 -0.075291 0.021303 0.042865 0.037446 0.095949 0.077036 0.121903 -0.002238 0.012996 -0.001887 -0.023025 -0.060541 -0.076419 -0.035018 0.004256 -0.010164 0.093790 0.019634 -0.006370 0.004176 0.036812 0.002222 -0.017150 0.048312 -0.027242 -0.012350 -0.011458 -0.072152 0.014531 0.069921 -0.034045 0.072583 -0.031850 0.073276 0.037992 0.118866 0.017605 -0.027801 -0.032642 0.026199 0.006866 -0.015616 0.008680 -0.006323 -0.017416 0.038566 0.020194 -0.005866 0.052971 0.023541 -0.050983 -0.074954 -0.050976 -0.018614 0.063501 -0.018187 0.010842 0.002491 0.033265 0.048900 0.032027 -0.032370 0.073554 -0.009555 0.000073 -0.058327 0.119693 -0.040597 0.093687 0.076493 0.080918 -0.056891 0.090905 0.034964 0.005613
-0.007673 0.006648 -0.090052 -0.005959 -0.006045 0.040341 -0.078264 0.080276 -0.045653 0.096198 0.019628 0.097956 -0.022876 -0.025974 -0.036738 0.021766 0.002667 -0.029652 0.049402 0.017849 -0.035183 -0.019326 -0.066936 -0.022260 -0.086734 0.024572 -0.033930 -0.001639 0.041881 0.039385 -0.034273 -0.006791 0.000379 0.048478 -0.149742 0.049739 0.025163 -0.022891 0.035698 0.064628 -0.058854 0.082720 0.049460 -0.019364 0.001246 -0.018743 0.100008 -0.029837 -0.055394 -0.021865 -0.142654 -0.004387 -0.101834 0.112190 -0.026521 -0.041806 0.138089 0.059457 -0.065991 -0.066633 -0.082064 -0.026061 -0.149615 0.040925 0.092241 -0.006588 -0.066981 -0.135576 -0.006575 -0.037672 -0.030631 0.058812 -0.014487 -0.010853 -0.075303 -0.025341 -0.142923 0.022981 0.116174 -0.079090 -0.070996 0.022588 -0.008827 -0.011544 -0.068316 0.007805 0.024356 -0.032430 -0.054820 -0.027725 0.050422 0.023112 -0.081736 -0.035173 -0.038019 0.036729 -0.045090 0.031470 0.098265 -0.104127 0.093158 -0.006220 0.077578 0.027256 -0.000511 0.109772 0.034727 -0.018101 0.073990 0.048406 0.043763 0.102423 0.018476 -0.050183 -0.064396 -0.029081 -0.042452 0.027110 -0.044685 -0.036710 -0.025516 -0.011434 -0.203954 -0.130147 -0.009657 0.088194 -0.069532 -0.024198 -0.022164 -0.013536 -0.064618 0.026474 0.048863 -0.012822 0.012759 0.070631 0.101655 -0.025647 -0.056326 -0.063283 0.094051 -0.037808 0.106285 0.002348 -0.067266 -0.082252 0.057263 0.080107 -0.026003 -0.149660 -0.236370 -0.045867 -0.019679 0.070788 0.051785 0.036932 0.038294 0.094099 -0.159673 -0.104151 -0.165849 -0.134972 -0.099375 0.014065 -0.083800 0.019196 0.094542 0.004881 -0.095775 -0.032171 -0.023400 -0.139198 -0.042951 0.099886 -0.005858 -0.086891 -0.038663 -0.234958 -0.331089 -0.340892 -0.087815 0.248214 0.283899 0.327649 0.059237 -0.013312 -0.277435 -0.364411 -0.406943 -0.410259 -0.304809 -0.117624 0.012283 -0.025103 0.033524 0.003757 0.072018 0.120677 -0.028533 0.084467 0.074378 -0.051733 0.034193 -0.279576 -0.156008 -0.223151 -0.275442 0.026615 0.183265 0.119544 0.179225 0.411906 0.332692 -0.029729 -0.103511 -0.656487 -0.761255 -0.550341 -0.437826 -0.297638 -0.047188 0.109914 -0.022169 -0.073649 -0.052441 0.057882 -0.038692 0.019651 -0.023393 0.123538 0.105940 -0.145388 -0.514677 -0.396305 -0.111646 0.005185 -0.003345 0.233880 0.335146 0.720614 0.580129 0.201350 -0.105805 -0.620532 -0.730779 -0.639903 -0.544444 -0.262352 -0.120209 0.149854 -0.031636 -0.063219 -0.020101 0.011321 0.013124 0.037747 0.105526 0.122368 -0.060097 -0.211573 -0.362877 -0.431603 -0.037982 0.195068 0.259157 0.270475 0.470005 0.258051 0.493772 0.081827 -0.014153 -0.691390 -0.893309 -0.871251 -0.465164 -0.343797 -0.049621 -0.051802 -0.011208 0.166409 -0.058178 0.035230 0.024848 -0.019002 0.038369 -0.083797 -0.194489 -0.383966 -0.459489 -0.432825 -0.120470 -0.041224 0.158662 0.520244 0.411569 0.456982 0.455572 0.280129 0.027692 -0.556474 -0.790383 -0.712672 -0.657738 -0.577288 -0.175172 -0.112855 -0.087555 -0.029371 0.029320 -0.025825 -0.003464 -0.063490 0.025265 -0.096263 -0.217064 -0.473010 -0.347186 -0.419953 -0.226623 -0.180398 0.049227 0.363454 0.475069 0.490916 0.619465 0.345699 0.131486 -0.280782 -0.402530 -0.802969 -0.582086 -0.646075 -0.211327 -0.040654 0.030031 -0.187877 0.013172 -0.033042 0.015333 0.053748 -0.149357 -0.246962 -0.384367 -0.420337 -0.469853 -0.445498 -0.471291 -0.298380 0.004778 0.075123 -0.012230 0.250698 0.382448 0.446177 0.321790 -0.077912 -0.283725 -0.347341 -0.707070 -0.805559 -0.019852 -0.130629 -0.018485 0.028615 -0.040319 0.000757 0.048673 0.117417 -0.118355 -0.478404 -0.606416 -0.619040 -0.497500 -0.523606 -0.619149 -0.651043 -0.351114 -0.353902 -0.111705 0.065500 0.302231 0.388989 0.277264 0.262868 -0.147130 -0.222878 -0.721678 -0.761515 -0.185156 -0.173309 -0.071877 -0.098100 -0.062002 0.003781 0.057786 0.081476 -0.228466 -0.540841 -0.641398 -0.511427 -0.600487 -0.668276 -0.961049 -0.870403 -0.422817 -0.350766 -0.105495 0.140115 0.357216 0.322404 0.292995 0.217618 -0.127039 -0.250758 -0.877191 -0.956835 -0.161997 -0.166438 -0.061040 0.009429 -0.050953 0.032384 0.096375 0.219979 -0.326621 -0.704574 -0.421814 -0.394654 -0.316791 -0.346342 -0.378602 -0.429580 0.004950 0.124381 0.334651 0.510313 0.586708 0.594265 0.431399 0.105332 0.094921 -0.545470 -0.951938 -0.664552 -0.419582 -0.072963 -0.060985 -0.042144 -0.034018 0.004754 0.150202 0.110765 -0.166912 -0.466630 -0.527816 -0.383357 -0.401010 -0.191645 0.062423 0.179158 0.677311 0.824137 0.623028 0.740661 0.989653 0.483092 0.043798 0.024001 -0.142721 -0.452279 -0.676721 -0.544397 -0.210565 -0.144986 -0.025683 -0.069733 -0.015410 -0.072099 0.059375 0.211797 -0.163352 -0.439649 -0.470956 -0.403515 -0.218747 -0.260293 -0.091118 0.327033 0.732411 0.868857 0.809573 0.852063 0.621384 0.451039 -0.023724 -0.193856 -0.277057 -0.588361 -0.502626 -0.304736 -0.130746 -0.069399 -0.025300 -0.083211 -0.004917 0.033605 0.160921 0.290660 -0.049767 -0.102656 -0.420612 -0.515742 -0.599183 -0.534474 -0.299153 0.177399 0.562679 0.829022 0.696380 0.604954 0.473168 0.186969 -0.345321 -0.179038 -0.346806 -0.397251 -0.475159 -0.373048 -0.133140 -0.155341 0.023248 0.064489 -0.051801 0.102626 0.120892 0.091592 0.079307 -0.125850 -0.416280 -0.539380 -0.600159 -0.564344 -0.395079 0.026843 0.266356 0.671311 0.439019 0.465062 0.153503 0.125605 0.085442 -0.178530 -0.221115 -0.084692 -0.064023 -0.133203 0.016395 -0.055490 -0.085913 -0.050711 -0.045686 0.052389 0.039937 0.199871 0.139591 0.004537 -0.197613 -0.316563 -0.435944 -0.639617 -0.418034 -0.084524 0.030191 0.220353 0.378798 0.165357 0.047092 0.091421 -0.206628 -0.127164 -0.122679 -0.185429 -0.102268 0.043336 -0.071534 -0.001807 0.012229 -0.060421 -0.009471 -0.057654 0.003756 0.042450 0.006198 0.082004 0.038200 0.013808 -0.235343 -0.347440 -0.506462 -0.306910 -0.166680 0.175771 0.308374 0.128810 0.105336 -0.138568 -0.171174 -0.250078 -0.241527 -0.201389 -0.131374 -0.065058 -0.081004 -0.008504 -0.076697 0.032663 0.070362 0.069332 0.083058 0.037756 -0.030993 0.201028 0.019813 -0.055021 -0.268430 -0.383260 -0.393350 -0.162049 -0.194016 -0.098228 0.123487 0.067695 -0.038066 -0.174449 -0.100136 -0.099199 -0.072578 -0.110928 0.087136 -0.030422 0.104916 -0.039688 -0.035380 -0.060395 -0.050836 -0.040271 0.111893 -0.025500 -0.046723 -0.022676 0.144438 -0.086467 -0.285415 -0.547657 -0.400199 -0.294142 -0.218949 -0.112620 -0.042074 0.060146 -0.035942 -0.067943 -0.189499 -0.006886 -0.025438 -0.184751 0.051520 -0.035899 0.053816 0.016834 -0.074705 0.010210 -0.092623 0.055504 -0.015761 0.073200 -0.077044 0.093270 0.040094 -0.001795 -0.397539 -0.448662 -0.193131 -0.237875 -0.007225 -0.026755 -0.047964 -0.066160 0.052337 -0.045541 -0.020464 -0.037408 0.017642 0.009922 -0.037219 0.031268 -0.009099 0.017357 0.035398 -0.012916 0.026778 -0.035291 0.002480 -0.005054 0.037503 0.067589 0.000883 -0.111209 -0.291207 -0.160913 0.026563 0.040274 -0.001651 -0.111871 0.038690 -0.012810 0.088825 -0.030352 -0.041605 -0.003210 0.044271 -0.164027 0.035934 -0.088304 0.016506 -0.035934 -0.066429 -0.098075 -0.083522 -0.041593 -0.004029 0.034056 -0.025065 -0.082887 -0.036765 0.029996 -0.100833 -0.008376 -0.050767 -0.097452 -0.017349 -0.076028 -0.031670 -0.089206 -0.033955 -0.096343 0.019071 -0.000481 0.036451 0.015493 -0.050891 0.037324 0.014990 -0.056075 0.038928 0.024458 0.049871 0.056359 -0.020882 -0.015197 0.051214 0.017171 -0.042674 -0.043578 -0.069610 -0.071785 -0.020103 0.051176 0.005525 0.014454 -0.029233 0.015918 0.040986 -0.064488 -0.126900 0.079609 -0.020697 0.076370 0.013200 -0.062057 -0.034726 0.125828 -0.012786 0.035241
-0.084660 -0.073167 0.026218 0.019128 -0.023119 0.042224 -0.031459 -0.121692 0.132725 -0.037607 0.011247 -0.037512 -0.029061 -0.001221 0.004318 0.059309 0.018567 -0.027518 0.039675 0.011071 -0.065939 0.018211 -0.061778 -0.010897 0.021673 0.031775 0.014281 0.071340 -0.033704 -0.000220 0.010741 -0.034426 -0.015047 0.096698 -0.020401 -0.021404 0.094011 0.070646 0.064435 -0.168868 0.010762 -0.028124 -0.040480 -0.002185 -0.088404 -0.024226 -0.020777 -0.038384 0.061279 -0.035625 -0.038468 0.019680 0.059372 0.076652 -0.016036 0.067188 0.004530 -0.005578 0.057963 -0.083603 -0.063786 0.120311 0.070964 0.002291 -0.059285 0.045874 0.041409 0.071043 0.021615 0.065980 0.089544 0.018741 -0.036494 0.116355 -0.012435 0.051182 -0.009980 -0.032829 0.001049 -0.039570 -0.037446 0.035357 0.020655 -0.013817 0.093733 0.064134 -0.092591 0.001449 -0.035749 0.056745 0.027973 -0.032071 0.068252 -0.081027 0.064883 -0.100498 -0.057774 -0.102756 -0.051977 -0.033574 0.029320 -0.022406 -0.038801 0.079198 0.095596 0.061619 0.011910 -0.023020 -0.076194 0.086099 0.059030 -0.011370 0.004091 0.049387 -0.073493 0.067104 -0.038785 -0.048565 0.003299 0.061630 -0.113578 0.067316 0.013341 0.008650 -0.177965 -0.002585 -0.041459 -0.107682 -0.089727 -0.045672 -0.152538 0.078422 0.024918 0.011104 -0.124028 0.040117 0.000937 0.047139 -0.012794 0.043615 -0.036398 0.003876 0.016338 -0.048581 -0.042955 0.072886 0.023332 -0.011127 0.010834 -0.065770 -0.133442 -0.079122 0.003343 -0.128275 -0.066440 -0.183488 -0.113560 -0.065825 -0.107679 -0.055147 -0.024886 -0.022096 -0.056286 -0.038227 -0.025442 -0.039424 0.011371 -0.092609 -0.045412 -0.012417 0.058656 -0.042423 0.014860 0.081371 0.047928 0.063168 -0.020205 -0.171592 -0.178039 -0.278871 -0.248033 -0.161063 -0.192713 -0.253109 -0.183384 -0.120045 -0.190543 -0.020122 0.014907 0.102270 -0.067425 0.073583 0.058892 -0.015903 -0.016111 -0.127216 -0.007407 -0.057321 0.079117 0.027612 0.121590 0.052948 -0.047167 -0.080775 -0.150020 -0.321827 -0.411827 -0.345914 -0.333322 -0.338607 -0.234822 -0.424051 -0.285783 -0.184516 -0.215696 -0.192212 -0.011418 -0.135209 -0.079676 -0.090942 -0.066433 0.110354 -0.057770 -0.005001 0.093154 0.135896 -0.016108 0.077045 0.054211 0.012237 0.091610 -0.022902 -0.178097 -0.284444 -0.460185 -0.355534 -0.323157 -0.287647 -0.332307 -0.264406 -0.424210 -0.229220 -0.157118 -0.141073 -0.089577 -0.117940 -0.225884 -0.173881 -0.114918 -0.159856 -0.177837 0.070571 0.129377 -0.048103 -0.075039 0.000078 -0.037965 0.058317 -0.031398 -0.195269 -0.371876 -0.589228 -0.531226 -0.473873 -0.419006 -0.232279 -0.359405 -0.305399 -0.385599 -0.308389 -0.217551 -0.218676 -0.219698 -0.231565 -0.270483 -0.249471 -0.314991 -0.162017 -0.065628 -0.047681 0.075303 -0.007033 0.031360 0.016870 -0.004094 0.013601 -0.082578 -0.235340 -0.490530 -0.574677 -0.566183 -0.335114 -0.206315 -0.091089 -0.124087 -0.253099 -0.268375 -0.384826 -0.336360 -0.405466 -0.320600 -0.380314 -0.293394 -0.240314 -0.166553 -0.097603 -0.109050 -0.025178 0.012119 0.011625 -0.058072 -0.085918 -0.029834 0.037034 -0.109922 -0.436378 -0.605479 -0.608114 -0.579936 -0.324539 -0.061433 -0.089087 -0.178018 -0.368207 -0.393925 -0.455315 -0.535330 -0.451573 -0.391804 -0.440690 -0.436292 -0.440406 -0.346442 -0.228363 -0.027935 -0.039310 -0.040006 -0.044546 -0.031186 0.036168 -0.044920 -0.097631 -0.370292 -0.593126 -0.709922 -0.568223 -0.444806 -0.119178 -0.114246 -0.136663 -0.164291 -0.446760 -0.640147 -0.562180 -0.556706 -0.510606 -0.478243 -0.503098 -0.467077 -0.540466 -0.331439 -0.285122 -0.095137 -0.062981 0.053262 0.032451 -0.039321 -0.164741 -0.112214 -0.183913 -0.442555 -0.692056 -0.785360 -0.616510 -0.365475 -0.173380 -0.133869 -0.346371 -0.521390 -0.571829 -0.645619 -0.710926 -0.617689 -0.649641 -0.531706 -0.517894 -0.506213 -0.450407 -0.293961 -0.049220 -0.083738 -0.100433 0.050461 0.050051 -0.020455 0.032785 -0.072685 -0.215259 -0.578586 -0.734273 -0.782475 -0.765252 -0.331590 -0.396504 -0.270703 -0.513546 -0.540322 -0.665853 -0.753798 -0.691448 -0.704007 -0.538769 -0.488712 -0.317734 -0.417556 -0.403487 -0.200970 -0.231161 -0.192717 -0.088142 0.018093 0.015758 0.003347 0.136048 -0.137581 -0.198480 -0.596433 -0.750894 -0.737368 -0.600813 -0.555280 -0.534354 -0.468517 -0.635666 -0.600648 -0.681673 -0.716318 -0.561751 -0.625625 -0.551657 -0.459294 -0.346344 -0.451194 -0.375829 -0.206998 -0.251196 -0.145821 0.133016 -0.030547 -0.000691 -0.100582 0.052163 -0.021884 -0.188922 -0.539507 -0.865742 -0.849199 -0.708622 -0.581864 -0.526863 -0.660318 -0.627461 -0.493615 -0.420995 -0.610041 -0.591484 -0.542723 -0.390967 -0.323385 -0.303298 -0.290818 -0.267665 -0.279730 -0.189075 -0.097744 0.111646 -0.094926 -0.014442 0.051461 0.086806 -0.195408 -0.235519 -0.505778 -0.768354 -0.672129 -0.732440 -0.700761 -0.745237 -0.588365 -0.474676 -0.503349 -0.356019 -0.297788 -0.400422 -0.344128 -0.226555 -0.239309 -0.225722 -0.322498 -0.140173 -0.141122 -0.251181 -0.057611 -0.043711 0.196339 0.018798 -0.022306 0.081135 -0.149914 -0.107763 -0.495232 -0.681838 -0.813117 -0.581507 -0.834526 -0.783130 -0.563975 -0.515537 -0.271770 -0.312104 -0.098867 -0.183621 -0.086161 -0.012326 -0.103932 -0.174326 -0.094791 -0.154781 -0.128505 -0.141046 0.044927 0.011666 0.073870 -0.039339 -0.050958 0.021022 -0.044621 -0.060451 -0.252426 -0.369086 -0.699101 -0.653999 -0.698098 -0.627270 -0.667718 -0.416039 -0.341597 -0.129057 -0.194493 -0.238932 -0.157383 -0.088203 -0.240006 -0.009437 -0.191908 -0.085146 -0.110545 -0.103691 -0.113594 0.011034 -0.082930 0.082723 -0.010390 0.007746 -0.124718 -0.083108 -0.089191 -0.278866 -0.457886 -0.405305 -0.512518 -0.627071 -0.518893 -0.253910 -0.092930 -0.059800 -0.008914 -0.074303 -0.122331 -0.126509 -0.132298 0.002609 -0.115300 -0.165090 -0.094822 -0.062982 0.003565 -0.066813 -0.022273 0.044825 0.036080 -0.023555 0.000423 -0.021258 0.053433 -0.231031 -0.330680 -0.280803 -0.379157 -0.396187 -0.388390 -0.286745 -0.163910 -0.115349 -0.115808 -0.199240 -0.021482 -0.176721 -0.074462 -0.047175 -0.030334 -0.118335 -0.098098 -0.007435 0.059402 0.067379 -0.084925 0.061080 0.044559 -0.050052 -0.134498 0.083635 0.021056 -0.050821 -0.174312 -0.118321 -0.324568 -0.334966 -0.191433 -0.145608 -0.121285 -0.061755 -0.084887 -0.167434 0.005091 -0.179021 0.045119 -0.014969 -0.029105 -0.044357 0.030355 -0.079224 -0.050289 -0.040128 -0.065600 0.008010 -0.162036 0.034509 0.024718 0.081178 0.168956 0.018408 -0.002884 -0.130256 -0.108306 -0.180503 -0.155797 -0.036312 -0.133250 0.007852 -0.162900 -0.186508 -0.074353 0.050287 0.094717 -0.024065 0.052536 -0.050925 -0.026674 -0.012188 0.028221 -0.020242 -0.002906 0.042418 -0.006275 0.034858 0.024700 0.035921 0.148847 0.052643 0.043587 0.055626 -0.053303 -0.071473 -0.114582 -0.042142 -0.004358 -0.124020 -0.061056 -0.014743 0.032671 0.017976 0.028925 -0.064059 -0.037951 0.000553 -0.042323 -0.001637 0.026274 0.010105 -0.033194 0.067440 0.127077 0.009296 -0.027021 -0.041391 0.045223 -0.004427 -0.006040 0.045584 -0.021213 -0.090214 -0.024958 -0.043469 0.039134 -0.078121 0.006474 0.001203 0.034262 0.028116 -0.017300 0.035977 0.001269 -0.002097 -0.036042 -0.032987 -0.057735 -0.014975 -0.048265 0.138310 0.011417 0.018120 -0.033641 0.008851 0.167262 0.069330 0.015014 0.159046 0.123574 -0.049441 -0.066196 0.028678 0.022464 0.026018 -0.018682 0.010536 -0.105524 0.054976 0.101356 -0.050255 -0.021653 -0.003100 0.076568 -0.002162 0.016589 -0.052533 -0.095970 -0.025799 0.023939 0.015566 0.069205 -0.060409 0.021748 -0.018612 0.037608 -0.032856 -0.008414 -0.022335 0.041192 0.032933 -0.066494 0.010833 -0.068733 0.043582 0.001524 0.013040 0.042623 -0.042274 -0.029674 0.034502 -0.069746 -0.006689 -0.002479 0.023626
-0.014802 0.059752 -0.089333 -0.081564 -0.040821 -0.020603 0.064085 -0.077253 0.041072 0.153966 0.023602 -0.114180 -0.016087 0.030286 0.023121 -0.030717 0.032721 0.047689 -0.091255 -0.052514 0.094710 0.017654 0.000281 -0.077021 0.016508 -0.057998 -0.084616 0.027376 -0.134536 -0.147026 -0.005291 0.063093 -0.032895 0.023993 0.049499 -0.019237 0.052955 0.005016 0.025569 0.000388 0.018600 0.047614 0.079678 0.001609 -0.025447 -0.124907 -0.028332 -0.015815 0.162245 0.181025 0.051508 0.014868 0.055445 -0.055985 -0.046172 0.078772 -0.029024 0.061457 0.067693 -0.021837 -0.014647 0.041903 0.040557 0.009530 -0.025826 -0.020141 0.047304 -0.026756 0.030567 -0.042338 -0.032034 0.030206 -0.045434 0.065809 -0.035266 -0.021994 -0.039043 -0.003550 -0.085959 0.107738 -0.027235 -0.013065 0.036875 0.015882 0.005489 0.044367 -0.038582 -0.115347 -0.027417 0.040456 0.041124 -0.082775 0.044766 -0.004947 -0.236263 -0.106058 0.033140 0.013760 -0.015930 -0.081633 0.025914 -0.017415 -0.020097 0.053142 0.047198 0.110380 -0.042337 0.060879 -0.005465 -0.000918 -0.013717 -0.035536 -0.103964 0.055794 -0.008583 -0.032209 0.082076 -0.016256 0.037816 -0.113853 -0.029176 0.004520 -0.038790 -0.074472 -0.057841 -0.002530 0.010034 -0.051121 -0.077241 -0.024017 -0.069025 0.106033 0.146320 0.145388 -0.026230 0.030124 0.064482 0.033818 0.019348 0.038540 -0.044756 0.011973 0.066059 -0.141278 0.000575 0.001814 0.064162 0.032315 -0.079118 -0.182317 -0.307538 -0.139237 -0.152390 -0.055488 -0.177502 -0.113797 -0.086304 -0.145033 0.010230 -0.007312 0.238928 0.137871 0.070923 0.095923 0.060581 0.074886 -0.031686 0.080609 0.047964 -0.102432 0.013164 0.000531 0.084213 0.111592 0.021504 0.062746 -0.176034 -0.323012 -0.225805 -0.208089 -0.296541 -0.333908 -0.243550 -0.344225 -0.334672 -0.198575 -0.093596 0.049127 0.092860 0.181983 0.199680 -0.038273 -0.116210 -0.012940 -0.026421 0.107827 0.091431 0.104952 0.057757 -0.088142 0.005276 0.106138 0.002312 -0.105525 -0.242751 -0.406381 -0.379173 -0.353325 -0.289673 -0.281801 -0.247461 -0.304850 -0.290869 -0.171380 -0.150262 -0.009225 0.073802 0.089384 0.029972 -0.111219 0.049367 0.016601 0.009408 0.007625 0.013601 -0.005024 0.019046 -0.036042 0.094931 0.140373 0.069221 -0.157282 -0.327104 -0.393388 -0.474723 -0.418988 -0.400178 -0.278373 -0.217043 -0.233760 -0.240636 -0.194629 0.020750 0.052231 -0.070495 -0.018082 0.002236 0.015961 -0.138637 -0.082127 -0.046555 -0.012078 -0.050959 0.062080 0.054405 0.077619 0.085176 0.059168 0.066376 -0.274284 -0.414022 -0.459309 -0.514829 -0.383298 -0.199973 -0.171521 -0.061358 -0.027480 -0.060732 -0.181857 -0.033865 -0.082758 0.077183 -0.063251 -0.135089 -0.226221 -0.057695 -0.137313 -0.160902 -0.113610 0.046682 -0.005116 0.015334 -0.011412 0.145938 0.196369 0.045046 -0.149261 -0.420626 -0.516350 -0.324158 -0.362763 -0.209501 0.016236 0.115057 0.157846 -0.158674 -0.071177 -0.159070 -0.183776 -0.110112 -0.229186 -0.184651 -0.305380 -0.184546 -0.078972 -0.064376 0.063999 0.067056 -0.060280 0.088180 0.013402 0.206542 0.142923 -0.070027 -0.108095 -0.363446 -0.430389 -0.495742 -0.291009 -0.081393 0.174435 0.158419 0.037206 -0.139405 -0.095438 -0.169120 -0.183507 -0.176323 -0.200859 -0.307649 -0.371276 -0.267597 -0.046159 -0.068508 0.098355 -0.027320 -0.060130 0.014214 0.029763 0.128211 0.119256 -0.032748 -0.179235 -0.350364 -0.392630 -0.402033 -0.282033 0.014414 0.067574 0.069388 -0.126214 -0.189906 -0.342889 -0.303993 -0.193437 -0.226786 -0.350484 -0.378454 -0.534835 -0.203767 -0.151804 0.008585 -0.071325 0.078067 0.058796 0.015742 0.087529 0.045809 -0.056547 0.063300 -0.174678 -0.372473 -0.502100 -0.429715 -0.224878 -0.108467 -0.112271 -0.049383 -0.275118 -0.295488 -0.459246 -0.377286 -0.275893 -0.258413 -0.342568 -0.450853 -0.376272 -0.211703 -0.017894 -0.073817 -0.076027 -0.018638 0.059014 -0.005631 0.044406 0.073566 -0.027119 0.002842 -0.142212 -0.280096 -0.544073 -0.477757 -0.268127 -0.136100 -0.050607 -0.079364 -0.243653 -0.505642 -0.532716 -0.516689 -0.285849 -0.295951 -0.218270 -0.332034 -0.365311 -0.214357 -0.146687 -0.067729 -0.048297 -0.005555 -0.066675 0.044604 0.016525 0.087523 0.054209 0.140453 -0.127002 -0.410050 -0.554796 -0.399721 -0.272773 -0.182957 -0.084153 -0.231167 -0.410690 -0.421505 -0.322345 -0.338902 -0.331366 -0.294569 -0.266620 -0.339170 -0.380405 -0.214839 -0.242491 -0.035934 -0.069291 -0.027175 0.028933 0.138968 0.146347 0.110324 -0.078280 -0.011360 -0.183098 -0.370092 -0.471853 -0.507317 -0.355838 -0.147162 -0.311809 -0.274310 -0.208849 -0.298888 -0.261039 -0.225793 -0.108401 -0.180558 -0.234641 -0.349815 -0.313863 -0.211389 -0.039656 -0.071526 0.018512 0.034184 0.041716 0.007675 0.194766 -0.004691 -0.057317 -0.047905 -0.373270 -0.356174 -0.565324 -0.437581 -0.331170 -0.248944 -0.209065 -0.105375 -0.054861 -0.160525 -0.143414 -0.031533 0.008399 -0.126664 -0.178574 -0.112185 -0.166976 -0.233797 -0.037159 -0.070830 0.003853 -0.076228 0.059720 0.063325 0.142120 0.005981 -0.243776 -0.135718 -0.299062 -0.410492 -0.470135 -0.383687 -0.579494 -0.243144 -0.281325 -0.114970 -0.138369 -0.228993 -0.095909 -0.031776 0.030466 0.012747 -0.014524 0.029778 -0.126789 -0.074845 0.000330 -0.052366 -0.054480 -0.034502 0.101655 -0.029915 0.014742 -0.068130 -0.182982 -0.120756 -0.294807 -0.523177 -0.493611 -0.418922 -0.424438 -0.474365 -0.185957 -0.208206 -0.118709 -0.136567 -0.083992 0.005706 0.111340 -0.029383 0.034108 -0.099303 0.001630 -0.123541 -0.013963 -0.045336 0.107403 -0.042537 0.028445 0.017595 0.075339 -0.134677 -0.091719 -0.224626 -0.348205 -0.480790 -0.466958 -0.508003 -0.433576 -0.369939 -0.273525 -0.230315 -0.285223 -0.143099 -0.015419 0.024497 0.031764 0.087398 -0.058951 -0.071126 0.029056 0.054230 -0.007365 -0.022439 -0.072161 -0.008753 0.147314 0.022835 -0.026712 -0.043392 -0.151901 -0.013798 -0.318399 -0.322203 -0.327513 -0.363359 -0.428575 -0.344982 -0.313378 -0.261767 -0.105028 -0.180823 -0.055917 0.059392 0.134234 -0.011480 0.071748 -0.038481 -0.024952 0.020770 -0.047871 0.025546 -0.051826 -0.038560 0.014368 0.042401 0.055757 0.067770 -0.027545 -0.058690 -0.155239 -0.183034 -0.213946 -0.348052 -0.253645 -0.387734 -0.348832 -0.189749 -0.120524 -0.061673 -0.038757 0.027976 0.062681 -0.033122 0.157589 -0.052757 -0.008163 -0.019531 -0.004771 -0.060106 0.090741 -0.021415 -0.044899 0.011315 0.003233 0.071392 -0.039695 -0.102015 0.081022 -0.136069 -0.128653 -0.145107 -0.201724 -0.020570 -0.220775 -0.091902 -0.078122 -0.183217 -0.071004 0.057781 -0.058307 0.050219 0.134671 0.042559 -0.071481 0.087128 -0.022833 -0.071375 0.071975 0.004941 0.057957 0.014377 -0.003627 -0.075275 -0.073041 -0.036720 -0.074940 -0.058638 -0.071012 -0.013860 -0.032598 -0.106193 -0.081021 -0.009741 -0.131650 -0.115119 -0.068321 -0.046531 0.085312 0.051047 -0.071378 0.054627 -0.093748 -0.079171 0.015785 0.022718 -0.104305 -0.096090 0.126666 0.046356 -0.045488 -0.058448 0.072386 -0.010340 -0.205304 -0.065270 0.051192 -0.020877 0.058415 0.137107 0.008181 -0.040130 -0.105985 -0.004361 0.069361 -0.027270 -0.043416 0.048642 -0.014604 0.074108 -0.020741 -0.020122 -0.018504 -0.026124 0.067714 0.015606 0.007085 -0.011275 0.028462 0.129174 0.013007 -0.004356 -0.033470 -0.086022 0.006935 -0.042920 -0.005287 0.014382 0.060510 0.061946 -0.035595 -0.033650 -0.015350 0.008489 0.030546 -0.023200 0.037700 0.045536 -0.016342 0.093259 0.015760 -0.013089 0.002130 0.014276 0.031254 -0.132269 -0.091708 0.056168 -0.039687 0.020922 -0.034398 0.122476 -0.021535 0.034598 -0.091322 -0.012987 0.074670 -0.064518 0.038027 -0.010722 -0.092782 -0.026154 -0.132022 -0.058074 0.095440 -0.124154 -0.059219 -0.000608 0.061155 -0.068611 -0.012973
0.035145 0.073121 0.005596 -0.119118 0.044100 0.033167 -0.038492 0.080608 0.009226 -0.018382 0.082411 -0.002725 0.002396 -0.065616 -0.022553 -0.107340 0.008987 -0.106545 -0.066465 0.005057 -0.034051 0.065455 -0.033910 -0.006591 0.018839 0.060943 0.117123 0.040889 -0.002976 0.014776 -0.061667 0.039006 0.082438 0.021045 -0.061433 -0.041950 0.043890 0.105641 -0.058201 0.025100 0.031037 -0.036898 0.023416 0.036239 0.064408 -0.048118 0.017873 0.095177 -0.044125 0.011126 -0.112026 -0.016865 -0.105831 0.092631 -0.066139 0.009851 -0.001009 0.034412 0.068406 -0.103802 0.059775 0.126107 -0.049145 0.044647 0.019672 -0.065230 -0.032901 0.045361 0.060365 0.032596 -0.054322 0.037380 -0.077135 -0.009933 0.099068 -0.053898 -0.068405 -0.043898 -0.036647 0.081205 0.102747 -0.036654 0.030680 0.034755 -0.053173 -0.159662 0.045900 -0.044154 -0.093326 -0.048481 0.020848 -0.012735 -0.029027 0.161524 0.080227 -0.085055 0.034823 -0.071251 -0.018093 0.023417 -0.083011 -0.017986 -0.022549 -0.022354 -0.027618 -0.109681 -0.124202 -0.031012 -0.013008 -0.000080 -0.013110 -0.136562 -0.035264 -0.029892 0.002496 -0.008794 0.092209 -0.098461 -0.033580 -0.066297 -0.153245 -0.085174 -0.031149 0.038057 0.036367 0.088102 0.075142 -0.073019 0.024948 -0.132128 -0.091090 -0.072763 -0.176170 0.051207 -0.043310 -0.153295 -0.041726 0.035115 -0.079854 -0.047489 -0.040639 -0.015931 -0.051557 -0.019101 -0.069176 -0.035541 -0.116923 -0.163988 -0.095625 0.028331 0.057605 0.103680 0.185174 0.122903 0.023233 0.050991 -0.028149 -0.006018 -0.131640 -0.185842 -0.317485 -0.146112 -0.101263 -0.025524 -0.070440 -0.055077 0.024816 -0.059961 -0.019250 -0.118802 -0.160480 0.082644 -0.047844 -0.011823 -0.166201 -0.166600 0.002266 -0.002904 -0.109017 0.228722 0.235466 0.243818 0.120920 0.131678 0.098391 -0.178577 -0.184513 -0.327853 -0.441874 -0.457420 -0.341340 -0.198053 -0.014694 0.005410 -0.043812 0.118860 -0.076887 0.007827 -0.090030 0.036632 0.000755 -0.023248 -0.159745 -0.176306 -0.165822 -0.068459 0.067797 0.175856 0.324628 0.370891 0.241774 0.161001 0.027338 -0.050855 -0.236895 -0.461483 -0.406799 -0.465449 -0.313917 -0.250001 -0.081042 0.032246 -0.022567 0.025177 -0.094798 -0.045407 -0.056753 0.140576 -0.140228 -0.316476 -0.326490 -0.352982 -0.113401 0.138289 0.206488 0.263582 0.289573 0.328118 0.305802 0.224334 0.104633 0.033046 -0.152996 -0.326080 -0.603807 -0.490546 -0.412292 -0.272939 -0.116792 0.140925 -0.001727 0.121737 0.031131 -0.058938 -0.052574 -0.114010 -0.187549 -0.312621 -0.524107 -0.328362 -0.165013 0.124582 0.214287 0.239805 0.265362 0.175545 0.099529 0.058728 -0.027613 -0.125931 -0.165404 -0.316886 -0.318889 -0.636883 -0.424338 -0.147000 -0.139237 0.081577 0.103299 0.096770 -0.010964 -0.007498 -0.055434 -0.030695 -0.203226 -0.433276 -0.524532 -0.333188 -0.089266 0.223216 0.352693 0.227093 -0.009790 0.021222 -0.104493 -0.196769 -0.128009 -0.117137 -0.248205 -0.248723 -0.369789 -0.445734 -0.467208 -0.335540 -0.092003 0.112252 -0.027072 0.041221 0.028832 -0.047286 0.067152 -0.032169 -0.198005 -0.520957 -0.550604 -0.233742 0.029281 0.302972 0.173095 0.002989 -0.203056 -0.267244 -0.274824 -0.445672 -0.348952 -0.311661 -0.399140 -0.282439 -0.443730 -0.337032 -0.403708 -0.359426 -0.125059 -0.033702 -0.079077 0.002597 0.073544 -0.061014 -0.094895 -0.022223 -0.288341 -0.549554 -0.376128 -0.295415 0.113274 0.259402 0.096821 -0.163164 -0.404360 -0.433130 -0.638050 -0.502798 -0.510383 -0.404636 -0.311733 -0.297670 -0.208918 -0.287255 -0.414746 -0.251722 -0.000947 0.032085 0.067300 -0.052973 0.149140 0.000309 -0.064020 -0.071025 -0.276962 -0.625041 -0.430857 -0.005080 0.127494 0.202863 0.036328 -0.286132 -0.476233 -0.574416 -0.609977 -0.658190 -0.523388 -0.347184 -0.220219 -0.188645 -0.214940 -0.216240 -0.304793 -0.151682 -0.075249 0.094884 0.065429 -0.065387 -0.091839 -0.105751 0.011690 -0.117999 -0.444933 -0.574735 -0.246098 -0.059103 0.218901 0.071331 -0.087564 -0.412372 -0.427310 -0.634235 -0.481503 -0.449660 -0.478426 -0.187699 -0.218245 -0.285388 -0.188459 -0.034898 -0.299776 -0.186495 -0.060931 0.271342 0.043067 0.020761 0.067170 0.067318 -0.023387 -0.059840 -0.126526 -0.543678 -0.227128 -0.004370 0.146016 0.039255 -0.099442 -0.251344 -0.278676 -0.439048 -0.431901 -0.473861 -0.369889 -0.139840 -0.282400 -0.215432 -0.192479 -0.229142 -0.254542 -0.276506 -0.057659 0.178131 0.115886 -0.037904 -0.017502 0.086897 0.012612 -0.097214 -0.125088 -0.497050 -0.285694 -0.098367 0.004969 -0.035658 -0.271634 -0.290571 -0.288220 -0.391635 -0.476686 -0.368159 -0.274952 -0.409911 -0.244967 -0.160201 -0.185247 -0.172227 -0.193107 -0.160643 0.068036 0.257113 0.110983 -0.050570 0.009416 0.004702 0.027660 0.005847 -0.206822 -0.465678 -0.338069 -0.125537 0.192094 -0.106383 -0.124835 -0.086404 -0.249321 -0.339333 -0.211054 -0.223718 -0.315016 -0.213798 -0.175728 -0.086948 -0.206100 -0.242476 -0.315427 -0.112371 0.034489 0.092826 0.026114 0.011561 -0.000322 -0.078125 0.013651 -0.000700 -0.112438 -0.417583 -0.290375 -0.261910 -0.127016 -0.066754 0.008945 0.122098 -0.067885 0.029734 -0.145527 -0.266992 -0.212871 -0.264560 -0.218608 -0.297583 -0.364791 -0.311631 -0.266015 -0.124817 0.017688 0.126682 0.188266 0.032545 0.040461 -0.041601 0.080380 -0.046594 -0.006785 -0.326329 -0.431418 -0.464992 -0.172581 -0.107612 -0.036597 0.139868 0.164197 0.054134 0.053445 -0.102264 -0.133345 -0.149300 -0.232441 -0.296995 -0.310426 -0.260468 -0.186361 -0.000320 0.018818 0.063772 0.112231 0.018919 0.070479 0.029964 0.010179 -0.002389 -0.162876 -0.310820 -0.331038 -0.332199 -0.357593 -0.021831 -0.040745 0.285815 0.168217 0.225513 0.147816 0.118702 -0.044290 -0.171531 -0.200382 -0.192137 -0.216191 -0.214165 -0.052145 0.071476 -0.055690 0.139786 -0.011436 0.021072 -0.008133 -0.078911 0.058726 0.020379 -0.098314 -0.194710 -0.353714 -0.318504 -0.156413 -0.142762 -0.070171 0.208607 0.203047 0.216636 0.126629 0.133220 -0.012573 -0.161429 -0.237605 -0.232251 -0.265869 -0.113707 -0.140606 -0.107975 0.023243 -0.001063 -0.022611 0.046188 0.041600 -0.047771 -0.022109 0.071419 0.047052 -0.155741 -0.197148 -0.315220 -0.367640 -0.102010 0.157276 0.203779 0.257607 0.152987 0.121736 0.258030 -0.022226 -0.144774 -0.229552 0.029066 -0.259260 -0.239623 -0.127158 0.034186 -0.096708 0.016353 -0.041350 0.056857 -0.151240 -0.099853 -0.022501 0.001785 -0.087029 0.020305 -0.295782 -0.239811 -0.292791 -0.167645 0.052996 0.024235 0.176024 0.004311 0.065454 0.173072 0.055676 -0.045990 -0.111762 -0.189926 -0.218347 -0.086562 -0.041376 -0.025953 -0.020475 0.051794 -0.087081 -0.089053 0.037826 -0.074660 0.065853 -0.043569 0.057442 -0.189460 -0.282059 -0.134667 -0.216769 -0.147157 0.025506 -0.029395 0.065309 0.019880 -0.032712 0.001811 0.028647 -0.058895 -0.027816 -0.108137 -0.047262 -0.094294 -0.009188 0.028873 0.000069 0.015326 0.061473 -0.098745 -0.009875 0.059553 0.045436 0.029022 -0.056698 -0.045578 -0.090833 -0.103912 -0.059954 -0.051310 -0.030174 -0.021782 -0.054860 -0.064472 -0.067374 0.129973 0.004430 -0.130305 -0.019790 0.032130 0.006586 0.034965 0.044489 0.035603 -0.070936 -0.027794 -0.065755 0.116675 -0.077821 -0.054916 0.044723 -0.073244 -0.013709 -0.045108 -0.111945 -0.060750 -0.026813 0.015870 -0.077207 0.021577 0.069627 0.073380 -0.008045 0.038398 -0.110706 -0.061179 -0.114099 0.056288 -0.025196 -0.019588 -0.003542 -0.077382 -0.027996 -0.046980 -0.022748 -0.080488 -0.068730 0.078941 -0.090599 -0.059101 -0.005447 -0.126898 -0.085558 -0.037481 -0.077078 -0.040792 -0.077645 -0.016832 -0.008970 -0.113205 -0.075862 -0.004251 0.025807 -0.106625 -0.078003 -0.013727 0.050263 0.056616 0.095599 0.085549 -0.000677 -0.040830 0.054200 0.066015
0.074939 -0.014844 -0.056693 -0.095141 -0.038279 0.023015 -0.056142 0.100190 0.062275 -0.044641 -0.042911 -0.013038 0.045978 -0.078020 0.030970 0.081945 0.050780 -0.116142 0.057031 0.028904 0.019013 -0.003756 0.002717 0.015371 -0.096959 -0.075224 -0.067625 -0.002122 0.005966 0.047880 -0.134125 0.003926 -0.021066 -0.028922 -0.006665 0.034310 0.057314 -0.142685 0.052877 -0.036500 0.092719 0.063894 0.037199 0.062594 0.008326 0.060925 -0.039487 0.026672 -0.065718 0.067405 -0.012134 -0.031975 0.092112 0.022101 0.059701 0.026940 -0.112694 -0.025318 -0.054746 0.087235 0.075408 0.029578 0.060162 0.052565 0.030533 0.003546 -0.015587 -0.089450 -0.037411 0.011405 -0.062748 0.016779 0.049090 0.064622 -0.036656 -0.034317 -0.084780 -0.013163 -0.076416 -0.040562 -0.038251 -0.031070 -0.055122 0.017257 0.093909 0.009640 0.006463 -0.051221 0.029613 -0.066744 -0.091337 0.089831 -0.011508 0.011512 0.094326 -0.034415 -0.033510 0.001539 -0.040588 -0.118914 -0.011649 -0.030780 0.041855 -0.124651 -0.032246 0.079594 0.111129 0.024294 -0.054038 0.069421 0.118347 -0.034985 -0.059427 0.011634 -0.020672 0.159757 0.094062 -0.062119 0.066410 0.069930 0.057952 0.121232 0.062221 -0.022143 -0.092276 0.128169 -0.023741 -0.018385 -0.109853 -0.038807 -0.074293 0.035929 0.069294 -0.207472 -0.003705 -0.051553 -0.096194 0.056996 -0.115576 -0.007528 0.065188 -0.184070 0.011428 0.044658 0.006518 -0.024654 0.027660 0.007258 0.022517 0.093091 0.019763 -0.069545 -0.009622 0.076362 -0.155520 -0.122908 -0.102771 -0.199747 -0.124069 -0.024938 -0.095815 -0.036867 0.015569 0.034033 -0.034765 -0.059447 0.041494 0.002519 0.000621 0.012297 -0.033537 0.036736 -0.031003 -0.021150 0.007422 0.089814 0.228221 0.036182 0.034089 0.023584 -0.141817 -0.217496 -0.357809 -0.258045 -0.176568 -0.280514 -0.348352 -0.152230 -0.117122 -0.082175 -0.068591 0.017728 -0.020692 0.075792 -0.017547 -0.011137 -0.040995 0.036495 -0.045340 -0.047218 0.043969 -0.060130 -0.010983 0.167936 0.004446 -0.027607 -0.067850 -0.230111 -0.191603 -0.409148 -0.338295 -0.692929 -0.478833 -0.461574 -0.513102 -0.310090 -0.323596 -0.165995 -0.073116 0.089315 0.004373 0.133911 0.089856 -0.042108 -0.051110 -0.030831 0.023762 -0.015450 -0.009935 0.075273 0.038109 0.062730 0.012692 -0.088997 -0.145015 -0.336801 -0.376729 -0.600317 -0.457931 -0.605340 -0.606917 -0.685976 -0.545760 -0.529087 -0.394741 -0.303340 -0.134602 0.080192 0.037416 0.064237 -0.033593 0.040521 0.048513 0.050766 0.017586 0.059734 0.063580 0.004942 -0.033861 0.020919 -0.138766 -0.327715 -0.352208 -0.508991 -0.479505 -0.651331 -0.603891 -0.639343 -0.850901 -0.770322 -0.794523 -0.724349 -0.645260 -0.386052 -0.107966 0.050095 0.086967 -0.042767 0.210562 0.003329 -0.035993 -0.138179 -0.057186 -0.035389 -0.146930 0.004182 -0.198583 -0.220685 -0.361866 -0.362379 -0.534974 -0.522365 -0.576734 -0.458485 -0.659834 -0.836755 -0.806545 -0.947566 -0.792968 -0.732183 -0.652004 -0.317834 -0.112792 0.072800 0.105765 0.031125 0.171477 -0.024692 0.054850 -0.015981 0.054392 -0.064883 0.011612 -0.106448 -0.266181 -0.213785 -0.521141 -0.573185 -0.493305 -0.449770 -0.269763 -0.437734 -0.568571 -0.832792 -0.919567 -0.815034 -0.756539 -0.722856 -0.482656 -0.339552 -0.047128 -0.014360 0.002077 -0.002373 0.127064 0.003112 0.070435 -0.039591 -0.073155 -0.203571 -0.111960 -0.088176 -0.476099 -0.415676 -0.436254 -0.381388 -0.316234 -0.255689 -0.238478 -0.295107 -0.583690 -0.838646 -1.015404 -0.818619 -0.643516 -0.589105 -0.497356 -0.395402 -0.259984 -0.057350 -0.032636 0.095946 0.065963 -0.057380 -0.070424 -0.066117 -0.083562 -0.097341 -0.199604 -0.353396 -0.541691 -0.526244 -0.543901 -0.266421 -0.174903 -0.004958 -0.164694 -0.312627 -0.584775 -0.869851 -0.835610 -0.761326 -0.690220 -0.382696 -0.470575 -0.281620 -0.089470 0.063767 0.058198 0.097086 0.115886 0.061049 -0.069129 -0.051408 -0.140956 -0.047287 -0.131114 -0.395540 -0.457957 -0.579814 -0.296369 -0.022199 0.091080 0.062548 -0.098172 -0.298383 -0.607030 -0.693334 -0.749684 -0.588217 -0.524377 -0.540606 -0.313538 -0.438572 -0.082800 -0.069275 -0.051057 0.042120 0.089879 -0.008051 0.053748 0.029104 -0.123222 -0.233571 -0.254385 -0.417451 -0.585152 -0.387389 -0.137390 0.029887 0.153447 0.109486 -0.203957 -0.344184 -0.509415 -0.723805 -0.595149 -0.551594 -0.528248 -0.463447 -0.527797 -0.327445 -0.055945 -0.024103 -0.026187 0.080615 0.071089 0.007483 0.007977 0.076105 -0.113500 -0.097305 -0.274667 -0.443083 -0.569876 -0.425533 -0.201754 0.107627 0.178501 -0.093153 -0.149785 -0.356125 -0.495988 -0.451698 -0.661610 -0.564570 -0.485785 -0.477980 -0.474205 -0.334165 -0.079400 -0.181129 -0.034836 -0.098535 -0.038556 0.083510 0.098310 -0.063581 -0.055420 -0.129119 -0.238831 -0.406449 -0.547246 -0.431631 -0.266063 -0.000086 -0.104873 -0.291647 -0.395227 -0.549818 -0.386942 -0.378298 -0.248503 -0.373223 -0.567597 -0.497890 -0.396169 -0.240093 -0.281315 -0.181825 -0.127235 0.043711 -0.040700 0.009293 0.021521 -0.092072 -0.024455 -0.188943 -0.205471 -0.433206 -0.576824 -0.366898 -0.163036 -0.233227 -0.303661 -0.342113 -0.468456 -0.505168 -0.485265 -0.230656 -0.354613 -0.245110 -0.249323 -0.426603 -0.422662 -0.229088 -0.168507 -0.110572 -0.167480 -0.064327 0.074092 0.111955 0.037205 -0.070395 -0.087654 -0.051509 -0.027177 -0.259739 -0.430595 -0.338816 -0.109727 -0.195953 -0.420453 -0.580847 -0.511836 -0.402280 -0.297071 -0.182465 -0.238192 -0.266912 -0.283792 -0.356861 -0.148187 -0.231010 -0.236242 -0.068586 -0.103174 0.023722 0.037022 -0.088498 -0.135615 0.034546 -0.070098 -0.023071 -0.079086 -0.263213 -0.248175 -0.296804 -0.216404 -0.333308 -0.286935 -0.368263 -0.385712 -0.432650 -0.313378 -0.258315 -0.286099 -0.301960 -0.166278 -0.322569 -0.325879 -0.037303 -0.194471 -0.081803 -0.151961 0.007227 -0.053723 -0.041322 0.013507 0.024504 -0.005567 0.100648 -0.073984 -0.050186 -0.276016 -0.146656 -0.234232 -0.232057 -0.193998 -0.259934 -0.287196 -0.228653 -0.147113 -0.206402 -0.296037 -0.195561 -0.081443 -0.181870 -0.171618 -0.284774 -0.101979 -0.122636 0.031254 0.002532 0.010621 -0.122516 0.009340 -0.052909 -0.053952 0.025711 0.159686 0.016814 -0.150807 -0.274799 -0.079896 -0.184217 -0.143378 -0.104306 -0.231884 -0.235730 -0.194345 -0.305626 -0.248602 -0.109146 -0.071244 -0.160819 -0.100419 -0.132939 0.004698 0.025797 -0.024734 -0.053862 0.045034 0.049799 0.132077 -0.033632 0.007826 -0.032129 -0.022256 -0.059167 -0.147780 -0.137036 -0.166036 -0.214685 -0.160353 -0.080867 -0.190955 -0.116406 0.006715 -0.164564 -0.095933 -0.155796 -0.128265 -0.020300 -0.122002 -0.028332 -0.153642 0.009596 -0.036354 0.066081 -0.049694 -0.040771 -0.009912 0.034992 -0.027568 0.036869 0.039852 0.066799 -0.019666 0.015320 -0.041506 -0.089519 -0.116257 0.052692 -0.091425 -0.047907 -0.137091 -0.048898 -0.050127 -0.122283 -0.172699 -0.035374 -0.035411 -0.061804 -0.074033 -0.017789 -0.074774 0.069873 -0.001787 -0.022038 -0.017244 0.020373 0.023638 -0.053504 -0.040231 -0.016895 -0.021566 -0.038461 0.013579 0.082411 0.010478 -0.042971 -0.151020 -0.052991 -0.014959 0.131363 0.051111 -0.119914 -0.000271 -0.108830 0.029127 -0.025945 -0.015608 0.013464 -0.063120 -0.012592 0.047439 0.058645 -0.071815 -0.008587 0.013506 -0.025038 -0.008102 0.096378 -0.039148 -0.018566 -0.006871 -0.060496 0.078745 -0.007788 0.014481 -0.054319 -0.045382 0.000388 -0.078719 -0.020082 -0.022180 0.021222 0.028258 0.049478 -0.050867 0.051347 0.119416 -0.022429 0.032553 -0.099348 0.036148 0.044591 -0.038521 -0.017077 0.047865 0.065284 -0.051059 0.052874 -0.017351 0.028947 -0.006469 0.008519 -0.022400 -0.100923 -0.070521 0.032678 -0.117818 0.019485 0.050371 0.011065 -0.025459 0.023819 -0.012982 -0.040779 0.053816 -0.083934 0.030551 0.098531
0.080548 -0.053074 0.008863 -0.059519 0.022158 0.058561 0.054364 0.007881 -0.034231 -0.108911 -0.049766 -0.047193 -0.076806 -0.006468 0.055013 -0.033223 -0.120353 0.008146 -0.045147 -0.041338 0.051381 0.026953 0.052788 0.104439 0.045840 0.038445 -0.052756 -0.079763 0.034309 0.032556 -0.013542 -0.109063 0.005608 0.003478 -0.020822 -0.006477 -0.005598 -0.014616 0.030009 -0.005872 -0.087511 -0.018977 0.105062 -0.167358 0.037732 0.008443 -0.111713 0.027820 0.011041 0.030917 -0.112631 -0.015894 -0.023921 -0.010079 0.024639 -0.006077 -0.014008 -0.021100 0.098362 -0.045564 -0.094360 -0.018777 0.070678 -0.048936 0.043565 0.106810 0.047397 0.045467 -0.006749 -0.037105 -0.054659 -0.078839 0.083449 0.081864 0.001958 0.015639 0.059760 0.025347 -0.007125 -0.025486 0.078699 0.049498 -0.060984 -0.116097 -0.062468 -0.043091 -0.105362 0.008949 0.094976 0.011205 0.060890 0.058077 -0.067825 -0.022036 -0.023092 -0.034638 0.010754 -0.016375 -0.128987 0.005819 0.037808 0.067283 0.005677 0.052219 0.092437 0.062565 -0.011462 0.016592 0.136758 -0.014402 0.009844 0.006004 -0.045421 0.036710 0.080969 0.045507 0.005170 0.111297 -0.157641 0.027365 -0.094400 -0.122392 -0.041146 -0.044467 -0.081411 -0.085802 -0.044161 -0.110006 -0.047547 -0.125077 0.076399 -0.055952 -0.008991 0.070541 -0.006242 -0.081737 -0.027396 0.004769 0.076293 0.004044 -0.033328 -0.079770 0.017141 0.030289 -0.024113 -0.099686 -0.017014 -0.044281 -0.101723 -0.122143 -0.150484 -0.115725 -0.053362 -0.034271 -0.183403 -0.219455 -0.216590 -0.117138 -0.071776 -0.103082 -0.208969 -0.128974 -0.044338 0.024475 -0.063775 -0.135379 -0.038310 -0.026317 0.111471 0.087546 0.001664 0.099634 0.017468 -0.036839 -0.027723 -0.184449 -0.178115 -0.229947 -0.322524 -0.232546 -0.232958 -0.316193 -0.238164 -0.322780 -0.311190 -0.257279 -0.270623 -0.172725 -0.253556 -0.204992 -0.097945 -0.064234 0.089956 -0.114090 -0.047327 0.028778 -0.074862 -0.031827 0.014061 0.061082 -0.084172 -0.119037 -0.076099 -0.152761 -0.253137 -0.402979 -0.395287 -0.485167 -0.370194 -0.360393 -0.510880 -0.369309 -0.233989 -0.294584 -0.129899 -0.204420 -0.198364 -0.245458 -0.181210 -0.096486 -0.080816 -0.174307 0.031365 0.035387 -0.051593 0.004607 0.011467 -0.028361 -0.088595 -0.000345 -0.066075 -0.211979 -0.252374 -0.565594 -0.585450 -0.507601 -0.652197 -0.556223 -0.443007 -0.468164 -0.262317 -0.225362 -0.111551 -0.007573 -0.092641 -0.325167 -0.263918 -0.185271 -0.136115 -0.110796 -0.100080 0.074313 0.144830 0.111432 0.016451 -0.017080 0.066081 -0.044805 -0.122354 -0.373919 -0.541512 -0.567752 -0.795977 -0.661717 -0.651537 -0.609709 -0.493783 -0.269471 -0.267161 -0.078979 0.187795 0.060773 -0.135593 -0.210947 -0.401648 -0.450847 -0.256765 -0.289932 -0.042085 -0.123872 0.025653 0.092303 -0.012421 0.005440 -0.031307 -0.175766 -0.171335 -0.280478 -0.585532 -0.689263 -0.774764 -0.644213 -0.524906 -0.405842 -0.344311 -0.178746 -0.154251 0.042568 0.095696 0.079359 -0.181991 -0.316441 -0.408412 -0.520286 -0.257989 -0.271512 -0.114248 -0.112764 -0.007454 -0.051115 -0.026173 0.019166 -0.031864 -0.058052 -0.152464 -0.550423 -0.554168 -0.786099 -0.807332 -0.539758 -0.329110 -0.202673 -0.286932 -0.161723 -0.140455 -0.080073 0.106167 0.002616 -0.327453 -0.320936 -0.558914 -0.556571 -0.451620 -0.290041 -0.078733 -0.094095 -0.006189 0.043872 -0.070948 -0.008671 -0.031876 0.022952 -0.216197 -0.467103 -0.795837 -0.750844 -0.664077 -0.396832 -0.142567 -0.283901 -0.276712 -0.270552 -0.100004 -0.139060 -0.089910 -0.382519 -0.424595 -0.559499 -0.493271 -0.481389 -0.399375 -0.257346 -0.143698 -0.057226 0.009807 -0.032238 0.064708 -0.005550 0.074076 -0.023696 -0.153676 -0.540013 -0.857657 -0.716601 -0.495677 -0.338142 -0.252477 -0.229776 -0.216010 -0.255201 -0.290486 -0.327292 -0.448027 -0.453971 -0.630808 -0.578176 -0.504376 -0.479428 -0.408046 -0.348406 0.006527 -0.070470 -0.046829 -0.054134 0.008333 0.141348 -0.149651 0.101692 -0.252010 -0.617394 -0.867771 -0.781308 -0.603591 -0.466759 -0.391314 -0.327403 -0.347946 -0.361889 -0.509740 -0.470420 -0.648415 -0.600047 -0.568176 -0.525684 -0.591876 -0.533692 -0.323826 -0.316730 -0.130742 0.045960 -0.115327 0.040618 0.042240 0.147641 -0.014939 -0.058857 -0.260347 -0.727481 -0.928536 -0.853143 -0.769871 -0.550361 -0.328726 -0.442377 -0.543703 -0.589295 -0.645091 -0.741384 -0.639186 -0.595590 -0.575140 -0.528570 -0.575176 -0.540234 -0.288419 -0.158142 -0.025071 0.062446 -0.006103 0.065631 0.052684 0.118525 0.047645 -0.054747 -0.214930 -0.695466 -0.856649 -0.793135 -0.707134 -0.695020 -0.542902 -0.484106 -0.537699 -0.582814 -0.522973 -0.654758 -0.541724 -0.673917 -0.319878 -0.427536 -0.408649 -0.272360 -0.306327 -0.058380 -0.046612 -0.060167 -0.054156 -0.087702 0.057112 0.056591 0.104906 -0.043034 -0.272326 -0.778393 -0.897534 -0.867150 -0.732234 -0.676307 -0.635802 -0.636009 -0.662334 -0.605169 -0.611773 -0.534130 -0.432712 -0.453292 -0.295077 -0.332860 -0.368040 -0.225842 -0.136140 -0.174254 -0.112175 -0.072085 -0.075134 -0.027171 0.087080 0.106853 -0.022483 -0.052199 -0.425620 -0.673897 -0.894928 -0.810988 -0.718940 -0.678223 -0.608351 -0.689168 -0.498081 -0.582833 -0.513495 -0.429710 -0.265210 -0.263463 -0.276266 -0.320981 -0.319316 -0.273978 -0.001860 -0.040168 0.011895 0.038543 0.008201 0.003537 -0.089943 0.138097 -0.089854 -0.127787 -0.239152 -0.572542 -0.740776 -0.698676 -0.632176 -0.563700 -0.492329 -0.424747 -0.524932 -0.421156 -0.434406 -0.302928 -0.287357 -0.139921 -0.146390 -0.176525 -0.089550 -0.073896 -0.069275 -0.090194 -0.015182 0.101453 0.071109 0.144830 0.060773 0.071005 0.037057 -0.199952 -0.219538 -0.446964 -0.547179 -0.498534 -0.535955 -0.397063 -0.325001 -0.310817 -0.267542 -0.259210 -0.325157 -0.253786 -0.138844 -0.180819 -0.124564 -0.002346 -0.082915 -0.111562 0.020624 0.003630 -0.051739 0.001627 0.024554 -0.041129 0.111449 0.080482 -0.013309 -0.054475 -0.323907 -0.283344 -0.316946 -0.441908 -0.367411 -0.256415 -0.302094 -0.346162 -0.127765 -0.180430 -0.092959 -0.197145 -0.136636 -0.059732 -0.021091 -0.020300 -0.003984 -0.033391 -0.051743 -0.044549 -0.062120 -0.004494 -0.008345 0.103201 0.061714 0.019940 -0.026861 -0.144509 -0.065640 -0.092827 -0.333817 -0.158359 -0.278851 -0.266162 -0.230448 -0.209166 -0.162851 -0.104100 -0.177433 -0.151381 -0.154414 -0.107754 -0.005562 0.125332 -0.072709 0.027771 -0.052292 -0.056495 0.058501 0.007066 0.020182 0.058655 -0.027238 0.006249 -0.086620 -0.039447 -0.157908 -0.331399 -0.192570 -0.151515 -0.137790 -0.136506 -0.192228 -0.046165 -0.163268 -0.136464 -0.154371 0.003697 -0.096754 -0.113972 -0.011749 -0.032551 0.049627 0.007381 0.013323 0.052564 -0.028279 -0.044642 -0.083976 0.026540 0.019649 0.133073 -0.007921 -0.023504 -0.032339 -0.107904 -0.040752 -0.096065 -0.050002 -0.100081 0.049322 0.022938 -0.106537 0.035777 -0.047726 0.060772 -0.101476 0.042958 -0.000538 -0.017620 -0.040712 -0.001361 -0.125473 -0.024340 0.029117 0.017165 -0.068527 -0.066783 0.066542 -0.050083 -0.017079 -0.006182 -0.046861 -0.039473 -0.050738 -0.012720 0.027858 -0.007322 -0.024910 0.022432 0.089216 0.016249 0.000334 -0.036961 0.089731 0.059788 0.043794 0.029941 0.052465 -0.051439 -0.004819 -0.033288 -0.031732 -0.019059 0.050329 0.022890 -0.106981 -0.050741 -0.000384 0.024028 0.015893 -0.038545 -0.052363 -0.015914 -0.039750 0.051771 0.036012 -0.006766 0.080534 0.067990 -0.049342 -0.109212 0.001092 0.081487 -0.056668 -0.094528 0.002435 -0.006745 0.016186 -0.053710 0.025930 0.042453 -0.021544 -0.073288 -0.016137 -0.032325 -0.026882 -0.044495 -0.001981 -0.053146 0.050869 0.060012 -0.083544 0.081411 0.075615 -0.088415 0.156121 0.045078 0.033781 0.034248 0.065544 0.146064 0.010254 -0.052391 -0.034546 0.061132 -0.002600 -0.035094 -0.036007 0.045869
-0.012670 0.058349 0.082239 0.115473 0.057822 0.043171 -0.023802 0.005947 -0.084444 0.067939 0.033683 -0.044789 0.115972 -0.087502 -0.058604 -0.122261 -0.032492 -0.014754 0.065402 0.004015 -0.100565 -0.050378 -0.047437 0.001263 -0.073943 0.068354 -0.078329 -0.002997 0.015981 0.003975 -0.038980 -0.005881 0.052689 -0.072176 -0.007023 0.045081 -0.059085 -0.114139 -0.032678 0.026664 0.043918 0.158471 0.017898 -0.016842 0.003666 0.014312 -0.037481 -0.031891 -0.070816 0.022074 0.008434 -0.124454 0.017063 -0.093296 -0.088077 0.078231 -0.014521 -0.016698 -0.002206 -0.065141 -0.122089 -0.096894 -0.003030 0.007623 0.065187 0.017781 0.018335 0.100301 0.038561 -0.021580 -0.019874 -0.051539 -0.056722 0.018588 0.063671 0.085182 -0.057218 -0.015416 0.039223 -0.080098 0.062424 0.079179 -0.043488 0.071020 0.062699 -0.019864 -0.028459 0.007989 0.029198 0.022554 0.059467 0.009829 0.008435 0.184129 0.206492 0.141149 0.041057 0.041816 0.022216 -0.043674 -0.019057 0.029834 -0.068326 0.047859 0.031760 -0.071553 -0.061703 0.084829 0.006324 -0.058572 0.083350 0.047685 -0.078032 -0.088189 -0.040004 0.012857 0.018867 -0.002336 -0.018195 0.055143 0.175846 0.173733 0.376194 0.322556 0.351258 0.046294 0.115566 0.130803 -0.059419 -0.094331 -0.010760 -0.077672 -0.091909 0.001867 -0.079154 -0.038023 0.068883 0.112334 -0.015916 0.095197 0.037527 -0.092269 -0.053777 -0.058286 -0.122819 -0.071787 -0.152926 -0.030592 0.219964 0.250146 0.469206 0.329668 0.153728 0.107512 0.088987 -0.010181 -0.025275 -0.099738 -0.140764 -0.127905 -0.233107 -0.248032 -0.235274 -0.187059 -0.089247 0.081682 0.052144 0.036609 0.056533 0.076227 -0.007145 0.046221 -0.049565 -0.043582 -0.085315 0.083880 0.337175 0.277974 0.316458 0.227198 0.247688 -0.047967 0.202552 -0.105661 0.012038 -0.221132 -0.317275 -0.421198 -0.442956 -0.336091 -0.245617 -0.029957 -0.000154 -0.027389 0.092785 0.031304 -0.033166 -0.099177 0.024981 -0.089801 -0.001064 -0.143091 -0.159660 0.155655 0.263568 0.465643 0.456293 0.247459 0.071395 0.011460 -0.083327 -0.086270 -0.109585 -0.359331 -0.458125 -0.461928 -0.506108 -0.565009 -0.387165 -0.213021 0.001844 0.079634 0.070868 0.038046 -0.009142 0.033831 0.026242 -0.065034 0.008712 -0.239982 -0.120134 0.013429 0.396031 0.409888 0.279750 0.297154 0.025261 -0.152408 -0.189577 -0.235110 -0.329693 -0.475713 -0.435723 -0.633127 -0.741751 -0.623865 -0.494783 -0.112263 0.102716 0.205196 0.137181 0.041563 0.022066 -0.056469 0.092365 -0.028473 -0.070778 -0.321054 -0.376826 -0.027475 0.136202 0.212406 0.228933 0.106097 -0.128707 -0.305331 -0.371332 -0.484818 -0.428483 -0.471863 -0.757607 -0.828197 -0.748584 -0.609771 -0.446955 -0.151962 0.065258 0.181614 0.085866 0.038591 -0.054385 -0.008107 -0.052410 -0.008369 -0.115238 -0.255723 -0.506541 -0.262373 -0.099299 0.132185 0.181352 -0.038970 -0.350404 -0.525621 -0.653283 -0.762389 -0.714922 -0.740565 -0.736329 -0.831356 -0.678442 -0.430589 -0.300788 -0.019795 -0.032313 0.169604 0.052496 -0.032306 -0.002861 0.059431 -0.073194 0.042210 -0.331097 -0.552896 -0.640493 -0.512441 -0.116104 0.078968 0.143982 -0.141555 -0.400745 -0.823010 -0.996944 -0.963426 -0.853519 -0.703103 -0.697996 -0.658822 -0.313224 -0.410103 -0.291282 -0.196020 -0.006183 0.226880 0.142975 0.116787 -0.038522 0.088087 -0.048252 -0.135479 -0.309165 -0.796966 -0.567555 -0.500879 -0.237304 0.096648 0.344955 0.001274 -0.606004 -0.898783 -1.161167 -1.050533 -0.838428 -0.656909 -0.630757 -0.318762 -0.294672 -0.399489 -0.372524 -0.204547 -0.053965 0.088849 -0.004556 0.086994 -0.072141 -0.032197 0.028252 -0.200784 -0.416698 -0.824046 -0.521036 -0.558689 -0.183035 0.066476 0.337548 0.050418 -0.507268 -0.979094 -1.015773 -1.038314 -0.787815 -0.421849 -0.238437 -0.344201 -0.275995 -0.253413 -0.206312 -0.292954 -0.148942 0.062922 0.117324 0.123367 -0.040709 -0.033589 -0.037945 -0.243816 -0.412065 -0.875708 -0.568471 -0.446509 -0.050406 0.255596 0.360743 0.027912 -0.443998 -0.756203 -0.912803 -0.730939 -0.526098 -0.208695 -0.234969 -0.286594 -0.202476 -0.382210 -0.340305 -0.077692 0.076620 0.372314 0.121264 0.043810 -0.092947 0.064606 -0.047063 -0.223833 -0.501241 -0.886197 -0.644628 -0.435151 0.075821 0.353760 0.477451 0.090014 -0.425438 -0.662227 -0.670895 -0.609436 -0.488859 -0.293142 -0.347564 -0.231247 -0.255573 -0.385681 -0.119738 0.041822 0.128355 0.388645 0.263329 0.073011 0.025759 -0.085479 -0.080174 -0.160288 -0.458092 -0.778265 -0.700627 -0.371366 0.086155 0.310332 0.401576 0.238951 -0.391109 -0.379895 -0.512837 -0.355065 -0.305958 -0.125980 -0.219261 -0.267745 -0.308029 -0.291318 -0.145242 -0.078083 0.184764 0.245230 0.057948 0.017790 -0.044176 0.007275 -0.081332 -0.225466 -0.363398 -0.734851 -0.579813 -0.269471 -0.040995 0.235741 0.292317 0.080094 -0.157365 -0.266614 -0.324914 -0.038145 0.031661 0.045304 -0.214772 -0.284562 -0.388456 -0.248396 -0.273273 -0.178018 0.049569 0.246183 0.132950 -0.019489 0.005561 -0.047455 -0.110307 -0.078319 -0.311583 -0.549072 -0.456143 -0.191306 -0.055226 0.113970 0.145443 0.091149 0.042004 -0.051557 0.184728 0.291429 0.203360 0.024824 -0.093612 -0.217046 -0.332054 -0.325149 -0.382174 -0.152473 -0.019693 0.110094 0.245874 -0.013457 0.051027 -0.026399 -0.079590 -0.123241 -0.148176 -0.513202 -0.596599 -0.244655 -0.134582 0.033069 0.023143 0.039468 0.015072 0.223036 0.328405 0.416164 0.221305 -0.034607 -0.255282 -0.394693 -0.442152 -0.280904 -0.366800 -0.209904 -0.016423 0.056127 0.072925 -0.081410 -0.001109 0.112795 0.015183 -0.132441 -0.133646 -0.310934 -0.292464 -0.270215 -0.184424 0.022965 -0.028500 0.096146 0.166236 0.328307 0.176239 0.386837 0.166309 -0.109199 -0.319017 -0.380325 -0.367832 -0.320648 -0.048365 -0.023608 0.062612 -0.003307 0.058042 0.066180 0.019696 -0.021856 -0.053356 -0.050367 -0.178474 -0.121737 -0.356894 -0.217778 -0.132221 -0.079251 0.135352 0.213079 0.195556 0.118370 0.017816 0.080412 -0.016965 -0.232159 -0.302882 -0.268685 -0.218394 -0.196042 -0.162459 0.032988 -0.121737 0.031954 0.038346 0.004151 0.030502 0.046744 0.010607 -0.118679 0.060217 -0.195450 -0.202518 -0.175363 -0.241596 -0.130294 -0.092139 0.063862 0.121965 0.050549 0.015010 -0.007020 -0.064063 -0.231158 -0.237628 -0.267351 -0.297064 -0.092407 -0.150326 -0.036272 -0.014666 0.043785 0.127232 0.073774 0.015788 -0.024927 0.042683 0.000715 -0.035421 -0.022145 -0.094455 -0.212473 -0.199658 -0.174139 0.100644 -0.088597 -0.017935 0.052750 -0.091555 -0.065209 -0.024283 -0.075950 -0.083815 -0.198355 -0.129197 -0.062518 -0.145248 -0.065024 0.041521 -0.093796 0.041146 0.068572 -0.090803 0.017377 0.030307 0.125226 -0.067189 -0.074856 -0.130617 -0.056404 -0.271200 -0.113607 -0.026555 0.034184 -0.038679 -0.182759 -0.064551 -0.109569 -0.044989 -0.173330 -0.148638 -0.047952 -0.126058 -0.081130 0.015414 0.035882 0.012326 -0.102888 0.048390 -0.115338 -0.091548 -0.047539 0.017438 -0.023867 0.005675 -0.050162 -0.077125 -0.121406 -0.163001 -0.011360 -0.044781 0.001892 -0.028966 0.072386 -0.036757 -0.086360 0.005146 -0.043669 -0.108607 -0.041891 -0.044106 -0.069762 0.061469 -0.050524 0.013400 0.118709 -0.109222 -0.107653 -0.017364 0.066862 0.025257 0.075560 -0.006728 -0.011919 -0.009190 -0.053238 -0.075077 0.047303 0.007701 -0.012567 -0.015695 0.015618 -0.018904 0.022220 0.011617 -0.110751 -0.087500 -0.040432 -0.087398 0.012970 0.070132 0.052482 0.114591 0.047971 0.054203 -0.106293 -0.015283 -0.130376 0.004552 -0.020884 0.056322 0.127015 -0.083475 -0.071072 -0.005682 0.034777 0.002602 0.038434 -0.038158 0.020219 -0.019528 0.113645 0.066631 -0.079468 -0.052107 -0.096309 0.032196 -0.060287 0.064360 0.047530 -0.007119 -0.050298 0.026005 -0.041811
-0.057329 -0.044169 0.016853 0.042584 -0.018357 0.080601 0.006933 0.042339 -0.036267 -0.139165 -0.023504 0.034497 -0.012997 -0.047388 0.063764 -0.070744 0.071319 -0.018762 0.009936 0.115937 0.036438 -0.026554 -0.022095 0.097718 0.066341 -0.064911 -0.071925 0.034875 -0.019843 -0.017701 -0.045818 -0.062261 0.018220 0.042465 -0.118058 0.135772 0.003842 0.030048 0.029646 -0.012288 0.035737 0.012171 -0.048729 0.024934 0.013005 -0.038575 -0.009052 0.029212 0.000960 0.027221 0.069084 0.020865 -0.061523 -0.025143 0.026787 -0.080390 -0.036110 -0.065187 -0.090399 0.097990 0.039252 0.063106 0.023369 -0.013413 0.027728 0.003810 -0.031659 0.027185 -0.020829 -0.018576 0.126645 0.020146 0.059227 -0.024680 0.043283 0.085584 -0.043630 0.010588 0.035177 -0.073917 -0.035629 0.122708 -0.036431 0.042358 0.010248 0.003390 -0.006561 -0.012515 -0.027490 -0.018868 0.000885 0.012513 -0.039498 0.009941 0.034079 -0.052066 0.059211 0.005860 0.033808 0.003668 -0.026356 -0.020093 -0.051850 -0.009592 0.102696 0.034369 0.017831 0.084901 -0.040465 -0.022526 0.080318 -0.195616 0.043553 0.059429 0.001416 -0.040268 -0.030860 0.066654 0.060835 -0.008108 -0.056758 0.012324 0.093847 0.001764 -0.065387 0.103250 -0.024654 -0.097374 -0.036486 0.076778 0.217757 0.032021 0.139704 0.112346 -0.003378 -0.017233 0.013012 -0.073097 0.003576 -0.067810 0.015616 -0.061070 -0.083329 -0.058141 0.043115 -0.040582 0.106721 -0.004779 0.152679 -0.030153 0.010798 -0.052960 0.056651 -0.012024 0.057309 0.112646 0.007680 0.209989 0.381091 0.201735 0.202201 0.060173 0.087588 0.023758 0.045519 0.014273 -0.050108 0.051081 -0.081525 0.025679 -0.032444 0.017574 -0.002962 0.059430 0.011278 0.148839 0.052263 -0.057875 -0.060370 -0.102060 -0.103097 -0.017146 0.034395 0.133936 0.149592 0.277305 0.178258 0.255155 0.198198 0.196115 0.249412 -0.021243 -0.049418 0.012110 -0.049302 -0.078885 -0.028658 0.008939 0.016233 0.022192 -0.023879 -0.037563 -0.015363 -0.044552 -0.170772 0.028796 -0.096205 -0.087344 -0.061928 -0.079771 -0.120889 0.043056 0.136561 0.149900 0.173765 0.209821 0.246967 0.150541 0.185137 -0.043093 -0.072364 0.029896 0.069834 -0.037508 -0.024525 0.049821 0.013654 -0.069369 -0.022711 0.012730 -0.020075 0.036221 0.004723 -0.057488 -0.255517 -0.117492 -0.246026 -0.250647 -0.219872 -0.055877 -0.156514 -0.008046 0.080906 0.032458 0.019332 0.157958 0.077661 0.022822 -0.065760 0.016854 0.117775 -0.048846 0.005362 -0.050731 -0.088529 -0.017811 -0.037229 -0.029864 -0.083201 -0.053301 -0.127662 -0.128933 -0.217414 -0.256789 -0.360111 -0.319004 -0.382909 -0.231725 -0.221394 -0.179051 -0.153396 -0.153914 0.055283 0.083730 0.033756 -0.067225 -0.131855 -0.060586 0.056968 -0.025158 -0.008084 -0.053333 0.025013 0.006625 -0.098595 -0.017193 -0.044211 -0.042691 -0.089676 -0.338991 -0.277499 -0.326297 -0.485024 -0.612328 -0.437150 -0.400985 -0.312029 -0.367671 -0.341715 -0.360401 -0.346426 -0.131489 -0.022598 0.058423 -0.225452 -0.208055 -0.021550 0.018939 -0.051994 0.033698 -0.072319 -0.027701 -0.007443 0.045404 -0.070464 -0.097927 -0.242217 -0.233533 -0.253278 -0.545635 -0.505905 -0.425526 -0.684714 -0.430430 -0.369149 -0.330026 -0.410786 -0.504717 -0.257450 -0.228498 -0.129628 0.118308 -0.100270 -0.057076 0.016810 -0.046401 0.131171 -0.044593 -0.059080 -0.050415 -0.036822 -0.060788 -0.142421 -0.254643 -0.352522 -0.437769 -0.375617 -0.465053 -0.327091 -0.396357 -0.525848 -0.385117 -0.487007 -0.401013 -0.512248 -0.427877 -0.449033 -0.349995 -0.186301 -0.026949 -0.140803 0.006781 0.010920 0.051993 0.070363 0.004329 0.006981 -0.017334 -0.000888 -0.226413 -0.281824 -0.436308 -0.464344 -0.425943 -0.373920 -0.297900 -0.465087 -0.626522 -0.707290 -0.685886 -0.581211 -0.515502 -0.483492 -0.510925 -0.488986 -0.433256 -0.116336 -0.045415 -0.064052 -0.040974 -0.092167 0.077637 0.079817 0.013334 -0.126124 -0.116436 -0.148587 -0.008677 -0.358156 -0.418551 -0.469694 -0.403409 -0.465908 -0.455265 -0.504270 -0.548435 -0.645968 -0.647091 -0.516836 -0.591826 -0.451291 -0.495857 -0.545894 -0.564667 -0.141444 -0.038619 -0.010303 -0.126024 0.043833 0.049946 -0.020688 0.061598 -0.073481 -0.185347 -0.101482 -0.125198 -0.330273 -0.396738 -0.471665 -0.251409 -0.332985 -0.305752 -0.409139 -0.650225 -0.803361 -0.782220 -0.475810 -0.470766 -0.213450 -0.391326 -0.365339 -0.310735 -0.309084 -0.020571 -0.089141 -0.020261 -0.124622 0.032268 0.054612 0.146978 -0.235835 -0.249159 -0.179474 -0.114748 -0.348385 -0.341938 -0.269940 -0.317072 -0.252733 -0.343248 -0.545488 -0.625432 -0.682776 -0.690065 -0.432616 -0.282264 -0.340493 -0.415328 -0.398974 -0.298787 -0.139303 -0.184196 -0.049916 -0.096712 0.033777 0.044824 0.023056 -0.025655 -0.104531 -0.237911 -0.238537 -0.050518 -0.069231 -0.249239 -0.184027 -0.125535 -0.110767 -0.300802 -0.307099 -0.468164 -0.564942 -0.475291 -0.307780 -0.303938 -0.296308 -0.164965 -0.223358 -0.165970 -0.037460 0.001254 -0.018696 -0.087810 -0.011624 0.014653 -0.084654 -0.005646 -0.137683 -0.194824 -0.011635 0.157086 0.036845 0.017432 -0.005576 -0.024093 -0.040589 -0.113330 -0.336333 -0.334292 -0.444547 -0.429804 -0.267879 -0.352060 -0.262611 -0.286912 -0.166784 -0.123634 -0.030207 -0.087427 -0.189883 -0.152837 -0.068285 0.112836 -0.018630 0.107855 -0.072799 -0.163173 -0.055209 0.007256 0.090222 0.127230 0.150506 0.047487 0.076187 0.076318 -0.112530 -0.170565 -0.295196 -0.226639 -0.261963 -0.293311 -0.335137 -0.137593 -0.077969 0.165678 -0.059621 0.010600 -0.145333 -0.054390 -0.091053 0.045697 -0.022811 0.029858 -0.176538 -0.010471 -0.017897 0.110054 0.117956 0.169557 0.096806 0.268707 0.271278 0.208749 0.085368 -0.138419 -0.189585 -0.280620 -0.144090 -0.083596 -0.195128 -0.144700 -0.052485 -0.162011 -0.014224 -0.071195 -0.056913 -0.047667 0.038219 0.045249 0.016269 -0.012407 -0.079211 -0.000788 0.134662 0.029188 0.229025 0.154907 0.178596 0.269579 0.200685 0.197009 0.073294 0.055835 0.027487 -0.126907 -0.083594 -0.045804 -0.062203 -0.017542 0.146500 -0.030053 0.022136 0.146696 -0.058594 0.089494 -0.036016 0.057892 0.028890 0.005454 0.002387 0.017782 -0.047578 -0.082263 0.096532 0.199607 0.206464 0.219323 0.177888 0.169132 0.144395 0.177183 0.052670 -0.013865 0.015365 0.013189 0.104426 0.017155 0.002370 -0.039282 0.009821 0.052547 -0.007900 -0.068540 -0.039829 -0.015829 -0.046499 -0.023499 -0.045169 -0.018010 -0.128969 0.047373 -0.079827 -0.019912 0.089194 0.092053 0.128079 0.026830 0.092572 0.054261 0.000238 0.012673 0.047326 0.083216 0.018962 0.082481 0.002971 0.054066 -0.061145 -0.080662 -0.143605 -0.080841 0.098039 0.022388 0.039335 0.069581 -0.030667 0.062005 -0.081731 -0.072836 -0.039810 -0.064285 -0.145150 0.099414 0.023101 -0.018573 0.077653 -0.101167 0.023346 -0.048756 0.029945 0.057976 0.070407 0.009722 0.075829 0.047044 0.036271 -0.108335 0.036827 0.048686 -0.041105 0.050148 0.053650 0.039833 -0.034377 -0.003650 -0.025812 0.048693 -0.026529 -0.029276 0.018909 -0.084529 -0.062634 -0.058450 -0.000616 0.022823 -0.091125 0.048491 0.032573 -0.011582 -0.066735 0.066210 -0.006953 0.045990 -0.059590 -0.038141 0.013770 -0.066472 0.008977 0.010677 0.060734 -0.048308 0.034116 0.036685 -0.034088 0.007861 0.027226 -0.116423 0.023715 -0.061717 0.000037 0.070535 -0.009178 0.035166 -0.021402 -0.013475 -0.105735 0.063198 -0.026064 0.012918 -0.001661 -0.157400 -0.015679 0.038645 -0.019831 -0.052496 -0.062228 -0.032511 0.033449 -0.159195 -0.064196 0.057975 -0.037035 -0.097116 -0.019181 -0.117583 0.070633 -0.009112 0.040184 0.066656 -0.027473 -0.069138 -0.090689 0.067056 -0.057691 -0.054197 -0.096193 0.045759 0.014564 0.015629 0.050081 -0.028093 -0.057693 0.047952 -0.042628 -0.067957
0.039344 -0.086536 -0.026764 -0.080371 -0.115304 -0.025618 0.066742 0.026250 0.089826 -0.068565 0.057963 -0.028229 -0.114550 -0.007970 0.017792 -0.028972 -0.055894 0.006179 0.000652 -0.130893 0.032565 0.014571 -0.011155 -0.024040 -0.019987 -0.040975 0.100787 -0.125261 -0.125400 -0.064179 0.081756 0.035118 0.062788 -0.019928 0.074586 0.078192 0.048552 0.007274 0.020034 0.120265 -0.019016 0.064913 0.096005 -0.020543 -0.010569 0.028317 0.054792 -0.009241 -0.062103 0.046610 -0.029528 0.115081 -0.019318 -0.010694 -0.080723 -0.002593 0.090514 -0.093128 -0.034118 -0.006580 0.066411 -0.014788 -0.049197 -0.020888 0.051406 0.009283 -0.018565 -0.038868 -0.056923 -0.036059 -0.079578 -0.084477 0.058280 -0.015081 -0.041332 -0.113409 0.014037 0.051212 0.067012 0.031723 -0.029317 0.026888 0.008553 0.004848 0.164728 -0.016128 0.125859 0.015019 -0.091157 0.120175 0.013315 -0.038302 0.035658 -0.059037 0.010350 0.057293 -0.040230 0.014394 0.027425 -0.076071 -0.011393 -0.116028 -0.030919 -0.123841 0.016064 -0.036875 -0.120414 0.044798 -0.040517 -0.091737 0.070560 0.060450 -0.064955 0.021370 -0.061090 0.011652 0.069722 0.014985 -0.113100 0.050994 -0.021072 -0.079978 0.050246 -0.032952 -0.009663 -0.012515 -0.073416 -0.004679 -0.041778 0.007251 -0.084815 -0.015358 0.006642 -0.076994 -0.074668 0.027391 -0.019023 -0.043445 -0.080099 -0.016279 -0.001759 0.076710 -0.054602 0.012668 -0.038223 0.161015 0.020830 0.095813 0.018046 -0.024688 0.050905 -0.026199 -0.000387 -0.082382 -0.106344 -0.124003 -0.074188 -0.189752 -0.189885 -0.195316 -0.046255 -0.098815 -0.052261 0.057615 0.014236 0.137323 -0.082045 -0.104595 0.067037 0.047119 0.024774 -0.015856 -0.034443 0.030807 -0.106727 0.013024 0.024932 0.082952 0.060340 -0.088003 -0.163928 -0.062464 -0.162852 -0.297189 -0.301163 -0.252569 -0.272991 -0.240732 -0.199824 -0.227572 -0.082240 -0.024901 -0.123091 -0.000228 -0.042241 0.070939 0.005533 -0.022830 0.047210 -0.063783 0.040197 -0.026191 0.060222 0.021400 0.060434 -0.000596 -0.001038 -0.039008 -0.126030 -0.117237 -0.147817 -0.113105 -0.300861 -0.323628 -0.207458 -0.273076 -0.361101 -0.326918 -0.085772 -0.060044 0.012018 0.017447 0.012717 -0.036686 0.036479 -0.044227 0.039337 -0.029719 -0.068003 -0.047622 0.004118 0.075923 0.002831 0.011800 -0.108598 -0.040857 -0.127792 -0.159979 -0.240847 -0.179557 -0.195819 -0.273360 -0.164381 -0.235039 -0.433928 -0.390012 -0.341048 -0.224094 -0.026773 -0.032552 0.068002 -0.055032 0.054485 0.027950 0.021914 0.004145 0.026268 -0.052143 -0.011246 -0.019118 -0.016735 -0.019737 -0.085369 -0.095005 -0.282918 -0.239768 -0.314925 -0.119266 -0.055516 -0.012728 -0.047015 -0.243881 -0.399300 -0.476464 -0.398181 -0.403950 -0.039792 0.045942 0.127409 -0.060139 -0.014104 -0.138744 -0.051983 -0.126079 -0.014892 0.033387 0.029811 0.033894 0.016097 0.025537 -0.094601 -0.059681 -0.186765 -0.332039 -0.265228 -0.134241 0.021960 0.050898 -0.016802 -0.187160 -0.532319 -0.536428 -0.371280 -0.371635 0.029758 0.138903 0.116805 -0.077475 -0.001989 -0.033620 -0.005387 -0.010357 -0.070666 -0.050425 -0.016726 -0.023446 -0.146494 -0.081310 -0.143098 -0.108633 -0.106073 -0.033512 -0.078335 0.043547 0.138216 0.054112 -0.182451 -0.332431 -0.475557 -0.604729 -0.445629 -0.257172 -0.027871 0.062500 0.012823 0.072243 0.095532 -0.024866 0.068819 -0.085025 -0.142472 -0.177473 -0.103458 -0.246058 -0.132483 -0.139199 -0.153800 -0.278786 -0.249286 -0.249951 -0.217950 -0.111992 -0.079338 -0.161590 -0.226897 -0.343174 -0.534864 -0.513446 -0.374888 -0.353919 -0.011404 0.185438 -0.021456 -0.010061 -0.033599 -0.078621 0.054989 -0.082730 -0.137488 -0.274551 -0.263454 -0.149212 -0.271207 -0.352208 -0.386794 -0.536454 -0.523652 -0.478908 -0.358375 -0.287511 -0.144501 -0.160402 -0.383596 -0.410780 -0.426932 -0.483857 -0.418395 -0.269083 -0.054144 0.168308 -0.108431 0.082294 -0.095568 -0.084274 0.021645 -0.096294 -0.326881 -0.302735 -0.464511 -0.212968 -0.433855 -0.549695 -0.625969 -0.630747 -0.500819 -0.490753 -0.387958 -0.245238 -0.205213 -0.188333 -0.284886 -0.306971 -0.368724 -0.274993 -0.295795 -0.280223 0.005893 -0.000006 0.050976 0.014912 0.030347 -0.067699 0.061031 -0.032976 -0.315655 -0.349814 -0.404690 -0.283577 -0.531622 -0.513389 -0.558324 -0.546175 -0.329080 -0.260343 -0.161908 -0.153987 -0.095370 0.005545 -0.200583 -0.130729 -0.244163 -0.335008 -0.387091 -0.185302 -0.043053 0.134053 -0.042832 0.010503 -0.007632 -0.022875 0.030543 -0.076441 -0.266176 -0.273498 -0.428947 -0.343192 -0.552680 -0.296709 -0.322393 -0.258337 0.043935 0.099067 0.131822 0.059283 0.089573 0.266355 0.091484 -0.217409 -0.340305 -0.296576 -0.365851 -0.179955 -0.025687 0.066513 -0.000906 0.109232 0.011363 -0.059827 -0.050744 -0.080522 -0.268417 -0.445103 -0.435275 -0.456921 -0.301462 -0.170522 -0.055067 0.129638 0.147826 0.352642 0.319849 0.242565 0.172814 0.129908 -0.098564 -0.168065 -0.118856 -0.232308 -0.138163 -0.107920 0.007277 0.058719 -0.012083 0.063373 0.044551 0.014853 -0.115167 -0.022837 -0.314838 -0.287089 -0.294575 -0.296260 -0.390957 -0.075920 -0.026718 0.243255 0.172386 0.250838 0.141791 0.127240 -0.038569 -0.130642 -0.057843 -0.236454 -0.173466 -0.077554 -0.048510 -0.101475 0.059419 -0.036676 -0.050560 0.025364 -0.013989 -0.067494 -0.086210 -0.107995 -0.201244 -0.370077 -0.176897 -0.305956 -0.153299 0.050155 0.060478 0.266198 0.152701 0.174864 0.075280 -0.209031 -0.152965 -0.224880 -0.257580 -0.282595 -0.148728 -0.086119 -0.046934 -0.123154 0.049806 0.022706 -0.022667 -0.006807 0.023397 -0.024746 -0.002553 -0.102071 -0.125385 -0.322555 -0.300304 -0.128812 -0.231790 -0.000358 0.020291 0.204043 0.110997 -0.129150 -0.218712 -0.156963 -0.254160 -0.344686 -0.183141 -0.334521 -0.067681 -0.072344 -0.031806 0.050915 0.077161 0.029995 0.050753 -0.079651 0.007495 0.028048 -0.042069 -0.055720 -0.079085 -0.186431 -0.174349 -0.179090 -0.137295 0.013104 -0.054550 -0.033675 -0.198866 -0.237906 -0.125763 -0.081353 -0.085725 -0.266328 -0.241687 -0.174813 -0.060362 -0.094034 0.002616 -0.021194 -0.063565 0.021837 0.050062 -0.034585 -0.083827 -0.119121 0.065714 -0.091581 -0.115761 -0.090134 -0.053644 -0.163423 -0.155553 0.028383 -0.073868 -0.099335 -0.216500 -0.176693 -0.236300 -0.113739 -0.168512 -0.160422 -0.072788 -0.032680 0.005895 -0.048710 0.039595 -0.017693 0.041373 -0.072767 -0.102815 -0.105504 -0.067790 0.052857 0.090427 -0.008711 -0.079802 -0.042123 -0.058374 -0.129139 -0.174408 -0.274429 -0.021639 -0.117744 -0.068814 -0.109679 -0.068713 -0.154355 -0.058326 -0.081248 -0.010905 0.058122 0.003628 -0.081786 -0.083553 -0.037532 0.001180 0.017786 -0.050432 -0.023582 0.093045 -0.037578 0.033159 0.027881 -0.051131 0.053648 -0.035286 -0.135347 -0.199559 -0.068434 -0.079192 -0.144074 -0.184464 -0.033363 -0.028292 -0.060795 -0.105399 -0.007373 -0.030478 -0.048518 -0.056551 -0.108640 0.045540 -0.000718 -0.031167 0.069506 -0.043767 0.076624 -0.091599 -0.032119 -0.036133 0.051947 -0.027533 -0.063679 -0.108249 -0.059761 -0.050087 -0.050626 0.034461 0.088412 -0.061620 0.008669 -0.043846 -0.012598 -0.015432 0.028615 0.040118 -0.085513 -0.007522 0.065859 -0.092683 -0.105099 0.028064 0.022718 -0.067079 -0.038089 0.051222 -0.071888 -0.024646 0.002822 0.037371 0.058246 -0.004543 -0.010515 0.011026 0.050781 -0.052048 0.025825 -0.009441 -0.003879 0.009782 0.108012 0.013925 -0.001634 -0.004152 -0.096232 -0.053519 -0.030847 -0.082694 0.035839 0.037469 0.021284 0.041494 -0.018897 0.002836 -0.019442 0.059365 -0.068062 0.069010 0.027606 0.136601 -0.179707 -0.061464 0.016851 0.034025 -0.021856 0.035763 0.007678 -0.018995 -0.055268 -0.111705 -0.000566 0.030015 -0.093745 -0.081523 -0.007310 0.014205 0.070510 -0.009260 0.052863 0.058000 -0.059464
-0.006724 0.027883 -0.112223 -0.074711 -0.015964 0.029883 0.043371 -0.056033 -0.014639 0.063472 -0.014456 0.036603 -0.073537 0.112029 0.040504 -0.005453 0.013176 -0.055744 -0.088891 -0.072409 0.041573 -0.049661 -0.026319 -0.024033 0.026115 0.026309 0.018139 -0.080788 0.023471 0.011463 0.001378 -0.029116 0.004151 -0.060517 -0.067866 0.048701 -0.084571 -0.120416 0.024585 -0.075483 0.060166 -0.002861 -0.059914 -0.010265 -0.026406 -0.252062 0.045696 0.047484 0.099782 -0.001895 -0.056193 -0.115841 0.083632 -0.000502 0.096340 -0.038882 -0.011716 0.029779 -0.137796 -0.014725 0.002368 -0.108109 0.070735 0.064183 0.011000 -0.117004 0.030918 0.052891 -0.043657 0.031980 0.050218 0.036260 0.021491 0.043296 0.028515 0.039724 0.084069 -0.050037 0.031303 0.119016 0.130614 0.076770 0.074016 0.081018 0.046383 0.065859 -0.018379 0.057768 -0.023684 0.057330 -0.021669 -0.093794 -0.007057 0.036973 0.041540 0.103023 -0.001950 0.041088 -0.101412 -0.041770 0.076822 -0.100575 0.059038 0.039485 -0.028985 -0.117065 0.034002 0.060943 0.016230 -0.034996 0.011448 0.000891 0.001737 -0.021006 0.071763 -0.174242 0.092893 -0.113481 -0.005990 0.015671 0.066235 0.085560 0.000531 0.097154 -0.012157 0.051580 0.088522 0.022944 -0.110192 -0.076738 -0.025464 -0.151884 -0.137952 -0.119639 0.012451 -0.007935 -0.014719 0.031220 0.006935 -0.117225 -0.118928 0.070394 0.080838 0.004081 -0.033610 -0.003971 -0.126822 -0.090487 0.028317 0.102058 0.086458 0.096294 -0.110894 -0.014436 -0.057404 0.010996 -0.039719 -0.015219 -0.064120 -0.277025 -0.200794 -0.229590 -0.117743 -0.045952 0.036437 -0.032033 0.157419 0.054109 -0.019202 0.043547 0.004330 -0.142691 -0.049446 -0.073091 -0.035432 -0.116057 0.048689 -0.035919 0.023487 0.078707 0.016072 0.086015 -0.079525 -0.094754 -0.175793 -0.063400 -0.272674 -0.262856 -0.319294 -0.325328 -0.218431 -0.023604 -0.081870 -0.102717 -0.046593 -0.096645 0.136204 0.043771 0.047426 -0.007300 -0.040816 -0.014245 -0.085513 -0.033754 -0.074279 -0.072536 0.178973 0.134165 0.025053 0.092662 -0.002395 -0.049374 -0.081736 -0.259950 -0.122844 -0.183092 -0.435654 -0.433846 -0.389808 -0.285539 -0.153882 -0.000594 -0.011767 -0.036645 -0.043458 -0.000064 -0.015098 0.044563 -0.094289 -0.133346 -0.209429 -0.081828 -0.037069 0.070049 0.133247 0.059471 -0.019022 -0.071368 -0.050499 -0.069249 0.044710 -0.008412 -0.255252 -0.284557 -0.388023 -0.563058 -0.438339 -0.483742 -0.134965 0.126754 0.041340 -0.031253 0.063831 0.168369 -0.056314 -0.073396 -0.083110 -0.249312 -0.253497 -0.117918 -0.049522 0.044390 0.108166 -0.023267 0.018592 -0.057907 -0.125337 -0.062528 -0.006142 -0.037475 -0.183687 -0.293134 -0.432930 -0.512823 -0.455166 -0.280713 -0.058625 0.210118 0.163258 -0.018293 0.015485 0.043649 0.047754 -0.005448 -0.134567 -0.319788 -0.451239 -0.147445 -0.021059 0.085809 0.091343 0.033284 -0.101469 -0.263539 -0.230240 -0.258170 -0.161589 -0.077121 -0.172372 -0.230133 -0.381073 -0.564986 -0.588538 -0.519692 -0.149755 0.187114 0.071405 0.065773 -0.004574 -0.032719 0.005890 -0.113017 -0.159781 -0.319061 -0.443794 -0.297111 -0.129846 0.145578 0.018063 -0.141034 -0.306707 -0.372176 -0.257315 -0.202394 -0.161772 -0.171794 -0.145240 -0.062027 -0.314476 -0.505787 -0.624748 -0.551617 -0.054763 0.086989 0.013925 -0.069125 -0.049917 -0.073155 0.059953 0.012132 -0.164144 -0.396073 -0.517815 -0.242427 0.066604 -0.028680 -0.110242 -0.281743 -0.322520 -0.494155 -0.471872 -0.427237 -0.252309 -0.284374 -0.207105 -0.154933 -0.188956 -0.424914 -0.511192 -0.490216 -0.155446 0.179346 0.119131 -0.012812 -0.010613 -0.071606 0.056467 -0.077743 -0.224813 -0.488720 -0.514069 -0.282656 -0.091946 -0.047576 -0.319064 -0.565597 -0.637711 -0.692973 -0.650006 -0.512437 -0.296809 -0.208465 -0.155590 -0.128381 -0.073434 -0.382246 -0.372986 -0.406295 -0.201429 0.032958 0.146037 -0.020126 0.036346 0.002740 0.112241 0.021519 -0.372647 -0.566228 -0.572722 -0.313260 -0.106397 -0.204701 -0.299374 -0.616388 -0.604168 -0.767818 -0.539680 -0.473141 -0.238412 -0.072225 -0.005230 -0.079624 -0.181697 -0.388506 -0.560796 -0.484127 -0.175148 0.034754 0.113538 -0.085561 0.003751 0.071165 0.026369 0.086350 -0.399807 -0.615988 -0.678494 -0.295523 -0.223814 -0.283509 -0.369852 -0.631852 -0.721794 -0.468254 -0.410405 -0.227744 -0.183891 -0.001507 -0.106024 -0.084593 -0.198194 -0.293059 -0.522794 -0.286821 0.012348 0.235382 0.075539 0.054168 0.030076 -0.011723 0.022129 -0.010157 -0.147166 -0.579126 -0.438187 -0.234119 -0.341496 -0.263324 -0.404745 -0.353703 -0.342959 -0.331105 -0.230486 -0.075937 0.098534 0.017870 -0.046704 -0.237594 -0.348652 -0.449648 -0.334750 -0.298098 0.035767 0.159851 0.129713 0.059776 -0.017179 0.091003 0.136825 -0.006019 -0.157776 -0.569867 -0.509289 -0.406929 -0.156175 -0.304985 -0.188977 -0.120673 -0.041144 0.013471 -0.024978 -0.122461 -0.037386 -0.040357 -0.100825 -0.222918 -0.405664 -0.320468 -0.313636 -0.129528 -0.011011 0.129787 -0.023606 0.084638 -0.010998 0.005651 -0.096181 0.071377 -0.114930 -0.434931 -0.531167 -0.303871 -0.271794 -0.135838 -0.168059 0.012322 0.113892 0.083045 0.113520 -0.045140 -0.032813 -0.298933 -0.288207 -0.328711 -0.323805 -0.272325 -0.194856 -0.132570 -0.086746 0.006265 0.079362 -0.028347 -0.073634 0.062923 0.006417 0.001750 -0.188211 -0.436157 -0.415354 -0.265055 -0.249959 -0.054964 -0.063624 0.017513 0.089028 -0.001416 0.022185 -0.105483 -0.155277 -0.349998 -0.235374 -0.369533 -0.247280 -0.302737 -0.183663 -0.063252 -0.097135 0.031781 0.031413 -0.075552 -0.015644 -0.012212 0.142509 0.072212 -0.061710 -0.376142 -0.386162 -0.333230 -0.312849 -0.067263 -0.043044 -0.001371 -0.008898 0.036184 -0.060263 -0.072589 -0.252807 -0.281989 -0.312034 -0.216238 -0.210663 -0.193009 -0.116771 -0.073246 0.042122 -0.017394 0.032892 -0.023825 -0.030951 0.065824 -0.004121 0.030445 -0.024455 -0.070201 -0.170021 -0.140999 -0.196260 -0.160486 -0.061433 -0.094238 0.023154 0.034649 -0.051112 -0.038822 -0.129478 -0.142492 -0.258398 -0.094870 -0.173456 -0.074463 -0.048417 0.048335 -0.056083 0.018507 0.070228 0.033079 0.081024 0.126550 -0.019328 -0.110086 -0.009451 -0.143799 -0.220346 -0.197334 -0.010224 -0.223072 -0.181446 -0.043322 -0.021830 -0.058973 -0.087602 0.032198 0.000774 -0.170571 -0.196648 0.019256 -0.108301 -0.053592 -0.076014 -0.026722 0.039731 -0.116006 0.119482 0.062442 0.003170 -0.055157 0.011829 0.049795 -0.027751 0.031094 -0.164338 -0.035074 -0.229711 -0.058241 -0.085790 0.002507 -0.085211 -0.068627 -0.043416 -0.156193 -0.050274 -0.160982 -0.139511 -0.151032 -0.122055 0.044352 -0.031074 0.170784 0.041464 -0.043937 0.106920 0.050175 0.024151 0.058908 -0.019219 -0.081233 -0.048151 -0.121070 -0.080999 -0.175510 -0.105035 -0.079597 -0.124256 -0.023472 -0.098870 -0.148438 -0.014917 -0.040757 -0.105917 -0.061088 -0.074023 -0.123266 0.090731 0.139773 -0.074579 0.069100 -0.067839 -0.036988 0.068054 0.040172 0.016352 0.070634 -0.046422 -0.132712 0.034219 0.024670 0.004687 -0.070249 -0.092420 -0.023104 -0.047031 -0.109237 0.038747 0.055368 -0.151444 -0.023909 0.002922 0.066018 0.013963 0.061016 0.037732 0.089920 0.065032 -0.083554 -0.008111 -0.043024 -0.004737 -0.042756 -0.149692 0.050660 0.088585 -0.135280 -0.107476 -0.062253 -0.086067 0.044177 0.023222 -0.116337 0.091537 0.062728 0.079596 0.026815 -0.072538 -0.017763 -0.035847 -0.028845 0.006224 0.008012 -0.011089 0.046679 -0.085253 -0.021528 -0.061852 -0.013350 0.021468 0.026620 0.090451 0.091445 -0.051953 -0.015621 -0.079939 -0.072969 0.079452 0.066765 0.031672 0.025173 -0.012165 0.036378 -0.054071 0.067045 0.044808 0.061178 -0.025321 0.058754 -0.119442 0.055262 -0.009747 -0.012974 0.036049 -0.087690 0.033384 -0.063402 -0.046243 0.071488
-0.080761 -0.109009 -0.087761 0.153085 -0.061023 0.091235 -0.126037 0.061286 0.123076 0.082174 -0.018266 0.023946 0.022672 -0.007446 0.019074 -0.009307 -0.017312 0.039040 0.055842 -0.005039 0.050061 -0.062031 0.085946 -0.033009 0.065887 0.070066 -0.049801 0.012926 0.030251 0.034447 -0.000886 -0.040301 -0.008270 -0.004836 0.065880 0.015853 0.074873 -0.081830 0.086592 -0.040858 0.036155 0.013687 -0.093937 0.009583 0.103367 0.052605 0.047511 0.049455 0.003490 0.000275 0.038685 0.050503 -0.019723 -0.137494 -0.042483 0.014133 -0.023293 0.013785 0.054543 0.030716 0.021959 -0.017254 0.029575 -0.040429 -0.017085 0.125091 0.045563 -0.045969 0.025723 -0.022106 -0.100319 -0.083865 0.125653 0.056958 -0.048875 0.134993 -0.052781 0.070719 0.019379 0.039880 0.062733 -0.037044 0.069352 0.079561 -0.014587 -0.044573 -0.026576 -0.018604 -0.040682 0.005205 0.082626 0.043209 0.095131 0.120732 0.047219 -0.033526 0.057822 -0.103173 0.004561 -0.047458 -0.021214 0.049679 0.129890 0.105499 0.171611 0.023024 0.094317 0.066523 0.196817 -0.031870 -0.061296 0.014212 -0.089783 -0.085336 -0.012531 -0.008579 0.003987 0.062718 0.039126 0.122279 0.284501 0.137023 -0.009068 -0.016169 -0.145761 -0.134894 -0.126892 -0.062429 -0.006675 0.187212 0.185389 0.284226 0.359366 0.289153 0.138235 0.223958 -0.006951 0.069937 -0.041578 -0.087592 0.029061 0.013744 -0.029913 -0.028298 -0.011062 0.187916 0.203460 0.243050 0.205904 0.166052 -0.051201 -0.071760 -0.270114 -0.217213 -0.381702 -0.345133 -0.147754 -0.028088 0.314040 0.426547 0.546311 0.574314 0.305931 0.082022 0.048647 -0.019882 -0.020589 0.033451 0.038339 0.150654 -0.022505 -0.080272 -0.051004 -0.017894 0.266171 0.090655 0.090215 0.061105 -0.085213 -0.201098 -0.394868 -0.534797 -0.497809 -0.529602 -0.409595 -0.180453 0.352695 0.973141 0.977793 0.640061 0.422301 0.162203 0.141752 -0.044862 0.054035 0.065063 -0.028690 0.032223 -0.023077 0.031269 -0.015516 0.109185 0.228153 0.199106 0.215711 -0.013035 -0.211975 -0.481874 -0.554222 -0.386078 -0.435700 -0.499723 -0.533900 -0.091842 0.304369 0.587084 0.947391 0.734639 0.257773 0.365043 0.196348 0.141498 0.089929 0.008516 -0.184668 -0.022490 -0.035763 -0.084492 -0.033809 0.295785 0.247185 0.269856 -0.006440 -0.097222 -0.163477 -0.616720 -0.312579 -0.368957 -0.303090 -0.235758 -0.609083 -0.814165 -0.560323 0.020745 0.430047 0.698371 0.295626 0.211154 0.198424 0.383865 0.070097 -0.031206 0.050521 -0.076441 0.107200 0.037174 0.160228 0.314007 0.212328 0.178295 -0.102199 -0.179790 -0.392046 -0.464975 -0.257991 -0.101553 0.104652 0.048736 -0.610293 -1.089519 -1.151550 -0.547076 0.065369 0.548697 0.569846 0.534511 0.191722 0.324741 0.166998 0.020294 0.063483 0.002097 0.039511 -0.000176 0.110875 0.214297 0.378298 0.294234 0.079695 -0.284846 -0.211506 -0.414018 -0.233663 0.017857 0.393515 0.084166 -0.696178 -1.236354 -1.490319 -0.709310 0.082984 0.621322 0.739768 0.685310 0.225323 0.507149 0.182049 -0.042902 0.001996 -0.091602 -0.118070 0.110867 0.354561 0.159552 0.312766 0.478583 0.177791 -0.181397 -0.453153 -0.126477 0.206610 0.224200 0.295013 -0.137312 -0.811611 -1.395832 -1.365884 -0.516185 0.199431 0.637836 0.675550 0.675476 0.536223 0.529938 0.282762 0.010419 0.063083 -0.150410 -0.112858 0.097474 0.160457 0.435942 0.173448 0.537526 0.373818 0.200745 -0.199620 -0.213507 -0.192407 0.028758 0.121157 -0.348251 -0.783456 -1.343975 -1.314641 -0.241461 0.306211 0.489592 0.510642 0.554857 0.662121 0.571676 0.295256 -0.030672 -0.021791 -0.048986 -0.115909 0.079374 0.397908 0.075082 0.039234 0.490726 0.551607 0.238225 -0.120701 -0.248052 -0.254470 -0.250380 -0.387025 -0.884136 -1.209451 -1.387794 -1.078218 -0.283398 0.375070 0.367815 0.473164 0.269720 0.240484 0.387307 0.241928 -0.090953 0.112085 -0.016962 -0.046507 0.021207 0.286716 0.072886 0.149549 0.567586 0.603036 0.227776 0.052350 0.106872 -0.332288 -0.484049 -0.672325 -0.913490 -1.205417 -1.174478 -0.752508 -0.089181 0.131348 0.168280 0.257491 0.303715 0.196682 0.215750 0.037707 0.039993 -0.045714 -0.112407 -0.105022 -0.163857 0.063314 0.121345 0.182752 0.857079 0.893121 0.728279 0.151944 -0.046320 -0.584046 -0.591436 -1.025149 -1.199546 -0.963341 -0.486417 -0.459750 -0.047638 0.103869 0.074290 0.114867 0.096593 0.060051 0.146061 0.200456 -0.013748 0.054123 0.018123 -0.110037 -0.086419 0.008156 -0.206036 0.339532 0.858382 1.155156 0.837088 0.354367 -0.167393 -0.557620 -0.937887 -1.048910 -1.020505 -0.718326 -0.228184 0.154627 0.109355 -0.171315 -0.106777 0.232633 -0.020238 -0.058489 0.050757 0.179394 -0.001912 0.048224 0.019955 -0.162364 -0.076671 -0.116569 -0.238500 0.152118 0.670481 0.950062 0.783067 0.379067 -0.291950 -0.705294 -0.571221 -0.730847 -0.389978 -0.115832 0.089231 0.068901 0.016277 -0.078002 -0.092615 -0.087645 -0.150139 -0.247647 0.153233 0.080665 -0.060310 -0.016058 -0.066105 -0.085845 -0.214852 -0.241071 -0.207193 -0.192703 0.499724 0.897877 0.770519 0.403778 -0.375177 -0.397464 -0.344615 -0.123116 -0.146376 0.214527 0.403296 0.478620 0.141206 0.200066 -0.005106 -0.032766 0.003655 -0.108718 0.190984 0.102872 0.025145 0.139421 0.027166 -0.008319 -0.267086 -0.302921 -0.215546 -0.221517 0.382812 0.768351 0.511025 -0.076636 -0.662180 -0.483652 -0.461131 -0.168313 0.106839 0.072552 0.171369 0.240086 0.172350 -0.039152 0.248567 0.189069 -0.026941 -0.121731 0.013004 0.038335 -0.053624 0.032846 0.102929 -0.076718 -0.182781 -0.255697 -0.239283 -0.109900 0.193335 0.639682 0.241967 -0.298596 -0.629457 -0.714817 -0.655683 -0.259881 -0.192030 0.101843 0.226556 0.294406 0.215492 0.375485 0.459327 0.173793 0.021543 -0.015741 -0.005827 0.006547 -0.120754 0.042497 0.032616 -0.081991 -0.068678 -0.207912 -0.040245 0.027284 0.241724 0.268525 -0.143646 -0.358733 -0.759775 -0.744745 -0.620526 -0.384855 -0.162061 -0.046378 -0.003164 0.175247 0.296525 0.330847 0.418334 0.108489 -0.032122 -0.033161 -0.063085 -0.006281 0.051943 -0.020364 -0.021020 -0.171571 -0.011891 0.024777 -0.046314 0.254446 0.247423 0.387830 0.055330 -0.397587 -0.558249 -0.512516 -0.496926 -0.436605 -0.226695 0.027347 0.073079 0.226454 0.379671 0.217902 0.131975 0.032124 -0.089039 0.062721 0.004953 0.026215 -0.026921 -0.027652 0.007666 0.020732 -0.011455 -0.035505 0.146743 0.165363 0.519860 0.438105 0.116727 -0.097894 -0.323224 -0.156353 -0.217309 -0.342992 -0.089307 -0.106902 0.007875 0.212173 0.122115 -0.020352 0.044429 0.054759 -0.012990 0.033042 -0.006735 -0.064287 -0.032932 0.032946 0.021572 0.109847 0.132572 0.144441 0.123048 0.312565 0.621346 0.493255 0.184036 0.032006 -0.018378 -0.184693 -0.142408 -0.064646 -0.048192 -0.050103 0.038688 0.012422 0.095634 0.021924 -0.049610 0.012283 -0.004732 -0.067384 -0.125701 0.080516 -0.012735 -0.050894 0.035070 0.043665 -0.029318 0.042021 0.081780 0.395631 0.369725 0.487249 0.252352 0.050277 -0.092250 0.008619 0.180043 -0.057151 0.091594 0.105119 0.086994 0.026836 -0.037212 -0.045342 -0.207771 -0.017351 0.029570 -0.041217 0.001021 0.086936 0.068891 -0.024698 0.037676 0.049794 -0.013900 -0.038614 0.083711 0.075836 0.129037 0.032492 -0.001011 0.019631 0.021223 -0.034488 0.035938 0.190346 -0.148871 -0.002382 -0.114325 -0.024450 0.009269 0.078033 0.059323 0.033597 -0.016699 0.030152 0.020475 0.054301 -0.067263 -0.044419 0.068985 0.018213 0.163706 -0.048679 -0.053931 -0.028304 -0.047639 -0.059107 -0.026181 -0.030829 -0.099293 -0.019432 -0.056887 0.002998 0.005621 0.060409 0.075461 0.106665 -0.103417 -0.005182 0.047836 0.056870 -0.034086 0.029861 -0.067722 0.066856 -0.036418
-0.036982 0.052865 0.093268 -0.050534 0.027752 -0.025963 0.105564 -0.013928 -0.142750 -0.101482 -0.044412 0.044754 0.003038 0.030401 0.033135 0.010099 0.029482 -0.006519 0.007972 0.149078 -0.040901 -0.112465 -0.022533 0.142726 0.007430 0.014363 -0.014138 -0.027801 -0.042596 0.052209 0.160418 -0.077287 0.011813 -0.092161 -0.088772 0.097274 0.097490 -0.135925 -0.034827 0.032688 0.041360 0.012662 0.048743 -0.001499 0.044896 -0.006193 -0.040836 -0.083778 -0.053983 0.049793 -0.019396 0.002418 -0.012404 0.099352 -0.013683 -0.066936 0.010523 0.029833 0.061781 -0.023810 0.024891 -0.020497 -0.012162 -0.020773 -0.117093 -0.118015 -0.112577 -0.034635 -0.089331 0.016861 0.069901 0.003551 -0.032699 -0.067544 0.013500 0.112682 -0.031076 -0.085920 -0.028410 -0.024013 0.002172 -0.073291 -0.007130 -0.006782 0.139605 0.055310 -0.013187 -0.006434 0.014620 -0.037538 0.075141 0.004331 0.028606 0.086210 -0.063909 -0.025845 0.000623 0.031242 -0.067915 0.023204 -0.026332 -0.028326 -0.064491 0.003781 0.025597 -0.056170 0.094576 0.037812 -0.034079 0.056573 -0.020527 -0.083766 -0.074628 -0.005451 -0.015884 -0.122995 0.062587 0.028821 0.136986 -0.081334 0.103266 0.037092 -0.031677 0.051107 -0.003810 -0.034223 0.012357 0.048956 -0.009050 0.276216 0.090808 0.238621 0.197920 0.046340 0.078746 0.111656 0.038025 -0.005045 0.020244 0.001331 0.009113 0.004815 -0.045617 -0.023010 0.054833 0.010350 0.041562 0.043973 -0.032227 -0.176250 -0.040258 -0.082741 0.049526 0.036983 0.115961 0.268896 0.239373 0.320918 0.291013 0.314644 0.373667 0.142682 0.217020 0.226406 0.088894 -0.069379 -0.078474 -0.078400 -0.093426 0.090897 -0.052460 -0.083341 -0.025069 0.089805 0.035361 -0.038748 -0.127768 -0.298361 -0.344398 -0.141881 -0.172020 0.001222 0.186666 0.168507 0.258743 0.387141 0.506426 0.392959 0.414680 0.437596 0.395564 0.087309 0.028968 0.080619 0.004682 -0.050736 0.094830 0.060727 -0.023634 -0.106839 -0.074596 0.053481 0.057006 -0.083666 -0.139776 -0.272803 -0.323539 -0.148808 0.042893 0.018344 0.267871 0.432501 0.306876 0.299142 0.168706 0.259445 0.309293 0.477342 0.101972 0.353126 0.102442 -0.031222 -0.071521 -0.076444 -0.154784 -0.114234 0.007072 -0.029789 -0.018927 0.068129 0.013626 0.048091 -0.164700 -0.405458 -0.453412 -0.112812 0.173293 0.376862 0.352443 0.307622 0.157463 -0.309439 -0.418701 -0.314221 0.000750 0.270572 0.340229 0.261116 0.052986 0.087525 -0.039773 -0.009067 -0.016981 -0.017997 -0.016172 -0.149564 -0.092363 0.105357 -0.009667 -0.131781 -0.358736 -0.475863 -0.191769 0.121372 0.429011 0.649716 0.520131 0.225893 -0.120407 -0.457808 -0.788871 -0.573361 -0.208491 0.130583 0.484427 0.631852 0.111511 -0.010829 0.076049 -0.067922 0.053491 0.059469 -0.135779 -0.162449 -0.048422 0.075543 0.042063 -0.143832 -0.292836 -0.393905 0.129359 0.383642 0.584757 0.672898 0.562033 0.087349 -0.467346 -0.811555 -1.129561 -0.792316 -0.255261 0.286553 0.467815 0.636896 0.123074 -0.008042 0.010310 -0.045096 -0.056388 -0.028003 -0.211612 -0.142642 -0.033223 -0.029446 0.027972 -0.038751 -0.074864 -0.000192 0.158975 0.452513 0.708557 0.569911 0.262989 -0.158411 -0.683275 -0.992819 -1.053046 -0.923801 -0.491288 0.162207 0.501223 0.786139 0.073650 -0.066411 0.067818 -0.053959 -0.026690 0.018816 0.061032 -0.171117 -0.062688 0.197695 -0.056551 0.027207 -0.142854 -0.064287 0.206089 0.348228 0.472639 0.334370 0.075776 -0.465429 -0.888371 -1.173609 -1.067695 -0.707964 -0.483994 0.034548 0.449815 0.747211 -0.044879 -0.064603 -0.005601 0.060267 -0.073946 -0.093084 -0.179237 -0.364833 -0.022916 -0.154427 -0.204314 0.039411 -0.040301 -0.112342 0.075665 -0.013697 -0.121985 -0.084144 -0.429488 -0.836904 -1.180058 -1.285472 -1.161048 -0.807678 -0.149962 0.112081 0.484817 0.679448 -0.141185 -0.203998 -0.052698 0.033192 0.048099 0.024038 -0.084198 -0.289056 -0.048394 0.110952 -0.306010 -0.086801 -0.230800 -0.287148 -0.003156 0.039990 -0.287868 -0.460484 -0.846620 -1.175013 -1.194661 -1.121302 -0.816555 -0.476218 -0.131935 0.057253 0.407255 0.577540 -0.007526 -0.064194 0.033977 0.058127 0.018176 -0.080328 -0.217624 -0.303514 -0.058159 0.098507 -0.176669 0.028449 0.025640 -0.084957 0.003376 -0.020499 -0.443403 -0.681249 -1.132702 -1.170423 -1.013573 -0.529386 -0.414296 -0.163790 -0.010381 0.239974 0.467309 0.418313 0.050647 -0.191523 -0.092973 0.016227 0.004779 0.015863 -0.208069 -0.275389 -0.160107 0.058992 0.023561 0.285938 0.273168 0.142063 0.241380 0.078009 -0.471506 -0.765465 -1.051486 -1.048759 -0.491359 -0.222579 -0.013779 0.059474 0.220502 0.242788 0.488741 0.190828 0.073603 -0.032229 0.052294 0.011087 0.003238 0.064807 -0.176317 -0.390286 -0.082173 0.091343 0.319991 0.361633 0.325648 0.336864 0.565292 0.112308 -0.303099 -0.537760 -0.607066 -0.286943 -0.028814 0.233089 0.222498 0.425821 0.312525 0.198812 0.200019 0.097592 -0.101965 -0.139968 0.027839 -0.039533 -0.022405 0.055428 -0.155580 -0.253154 -0.039426 0.174864 0.492643 0.474995 0.567418 0.665324 0.518546 0.133919 -0.116659 -0.207243 -0.154269 -0.071907 0.286493 0.460209 0.398718 0.274273 -0.000713 0.017011 -0.185546 -0.083401 -0.220954 -0.130882 -0.113147 -0.087995 0.000801 0.003175 -0.102462 -0.429452 -0.048429 0.301178 0.324614 0.599863 0.569696 0.585578 0.295819 -0.080520 -0.020353 -0.172267 0.099548 0.173224 0.236217 0.359031 0.268205 0.122361 -0.155105 0.026708 -0.152251 -0.103845 -0.212348 -0.083099 0.045029 0.037854 0.031335 0.091276 -0.087814 -0.241208 0.013672 0.252852 0.285937 0.349513 0.364267 0.446223 0.165438 0.136430 -0.128478 -0.029848 0.090011 0.201702 0.028103 0.126527 -0.122995 -0.042300 -0.171690 -0.135274 -0.023679 -0.056641 -0.103032 -0.069232 0.040777 -0.028964 0.048975 -0.035936 -0.158390 -0.072395 -0.135946 0.211649 0.351687 0.293376 0.285507 0.252706 0.042543 0.005588 -0.166601 -0.063292 0.055915 0.059556 0.045442 -0.089061 -0.174467 -0.248162 -0.376077 -0.170961 -0.070398 -0.013705 -0.007253 -0.060056 -0.125439 0.007381 0.041100 -0.059056 0.005837 -0.056759 -0.019027 0.242686 0.357904 0.291836 0.204695 0.093226 0.029309 -0.073521 -0.064241 0.150746 0.263611 0.004667 -0.067737 0.011210 -0.162876 -0.140522 -0.185436 -0.156144 -0.152412 -0.153877 -0.146936 -0.034536 -0.124099 -0.043768 0.051237 0.015935 -0.055349 0.005730 -0.003476 0.096297 0.216585 0.256339 0.158376 0.124867 -0.136696 -0.102817 0.008492 0.097356 0.146538 0.027172 0.069476 -0.051058 -0.049431 -0.173144 -0.192779 -0.125116 0.004042 0.016058 -0.096586 -0.124733 0.044655 -0.032309 -0.026457 -0.086171 0.068508 -0.037192 0.056677 0.276657 0.212460 0.112886 0.055397 0.039061 -0.036439 -0.008507 -0.083675 -0.044804 0.099235 0.077115 -0.053681 -0.088664 -0.026101 -0.021777 -0.170257 -0.106054 0.046303 -0.076777 0.041072 -0.063504 -0.034601 -0.016524 0.017209 -0.017704 0.003650 0.064664 -0.030650 -0.044421 0.026497 0.070437 0.233636 0.086999 -0.131999 -0.112531 -0.086162 -0.079532 -0.064576 -0.107168 -0.173957 0.010522 -0.096382 0.012366 -0.031061 -0.048106 0.040314 0.035879 0.131033 0.058548 -0.028157 -0.106901 0.002179 0.017628 -0.026677 0.081922 0.062683 0.068305 0.026039 -0.004641 0.057025 0.061066 0.091868 0.041107 0.044553 -0.001133 -0.123125 -0.089035 0.032164 -0.030940 -0.060363 -0.038340 0.031116 -0.014797 -0.020758 -0.121918 0.004252 -0.077427 0.012375 -0.074986 0.005449 0.002031 -0.113698 0.048292 0.096988 -0.053841 0.078764 0.050163 0.048160 0.027297 0.089853 0.063353 0.066593 0.043985 0.027330 0.023759 -0.068941 0.006340 0.085034 -0.004804 -0.000021 0.106009 -0.027188 0.030319 -0.016594 -0.070673 -0.002349 -0.060197
