0.049238 0.046062 -0.027362 -0.024873 0.003931 -0.053991 0.000340 0.004876 0.017827 -0.005196 -0.025075 -0.021799 -0.043489 -0.058409 0.006543 0.073662 0.076412 0.006704 0.062900 0.006768 -0.018685 0.022776 0.073598 0.087700 0.028537 0.009545 -0.027413 -0.039039 0.075087 -0.012032 -0.030289 -0.024576 -0.033917 -0.035240 -0.031589 -0.023412 -0.023730 -0.045123 -0.044505 0.005578 0.023155 -0.024942 0.014153 0.004933 -0.055078 -0.011462 -0.014711 -0.064554 0.055819 -0.023568 -0.032739 -0.011585 -0.059009 0.009233 0.042213 -0.000847 -0.015849 -0.060518 -0.032702 0.003266 0.021864 0.069962 -0.021982 -0.020971 -0.086891 -0.077664 -0.045151 -0.055317 -0.110256 -0.087288 0.073526 -0.027164 0.065137 -0.005553 0.103934 0.057969 0.072565 0.044531 0.074569 -0.001235 0.025713 -0.036503 -0.046176 0.044594 -0.015654 0.029130 0.039353 -0.084784 0.011514 0.174388 0.076527 0.190197 0.120842 0.051172 -0.044225 -0.125042 -0.085614 -0.085399 0.020509 -0.126013 -0.010013 0.180127 0.293917 0.450976 0.548355 0.457383 0.279559 0.166510 0.086060 0.012307 -0.028230 0.047671 0.005426 0.060438 -0.027233 -0.031099 -0.044137 0.148826 0.234536 0.320080 0.224190 -0.071701 -0.212727 -0.417116 -0.338491 -0.258843 -0.309478 -0.332488 -0.138723 0.278547 0.621959 1.070868 1.217471 1.134346 0.790024 0.440541 0.188535 0.078820 -0.020611 0.009619 -0.004066 0.032027 -0.063273 0.006297 0.047518 0.240283 0.382080 0.394752 0.172168 -0.152360 -0.423362 -0.602900 -0.737884 -0.869963 -0.916739 -1.027132 -0.730899 -0.308829 0.241321 0.995237 1.504717 1.390690 1.310989 0.756466 0.280014 -0.014427 0.102304 0.024314 -0.037909 -0.013903 -0.028888 -0.026941 0.071374 0.350238 0.767388 0.736620 0.254939 -0.130895 -0.829179 -1.240234 -1.576208 -1.853766 -1.876626 -1.887837 -1.597007 -0.996900 -0.095702 0.826844 1.225400 1.773495 1.615154 1.157681 0.500020 -0.044605 -0.090367 -0.003168 -0.012929 -0.006645 0.051004 0.093453 0.273625 0.545238 1.077621 0.901751 -0.007074 -0.839209 -1.681369 -2.419407 -2.792567 -2.732204 -2.925177 -2.710028 -2.263534 -1.587217 -0.650524 0.327417 0.837693 1.355759 1.329687 1.130281 0.657326 -0.008095 -0.090218 -0.024613 0.028736 0.004963 -0.019892 0.022494 0.291895 0.935318 1.289457 1.077354 -0.371632 -1.689151 -2.899370 -3.487511 -3.694804 -3.605653 -3.327514 -3.095907 -2.792281 -2.079970 -1.024296 -0.514890 0.060133 0.699701 0.804132 0.771231 0.554487 -0.086094 -0.088190 0.008349 -0.006215 0.059993 -0.041703 0.045883 0.421923 1.324708 1.545684 0.870285 -0.881512 -2.730951 -3.799512 -4.270700 -4.182843 -3.704047 -3.215782 -3.052823 -3.046532 -2.444495 -2.003690 -1.713701 -1.036281 -0.425459 0.244605 0.559007 0.293624 -0.210855 -0.162827 -0.087278 -0.028290 -0.063872 -0.086280 0.062808 0.667083 1.696169 1.861342 0.469241 -1.543511 -3.475679 -4.407228 -4.210090 -3.385975 -2.317169 -2.376947 -2.561064 -3.154476 -3.325228 -2.882050 -2.693915 -2.122192 -1.105845 -0.380650 0.227205 0.115586 -0.418355 -0.176165 -0.046662 -0.014733 -0.013000 -0.016800 -0.027202 0.766355 1.746129 1.558905 -0.029213 -2.529185 -4.036342 -4.344280 -2.986315 -1.394571 -0.602620 -1.196841 -2.581379 -4.014181 -4.299902 -3.802767 -3.798305 -3.209219 -2.104402 -0.653835 0.113539 0.161801 -0.334754 -0.218929 -0.077171 -0.050354 -0.024580 -0.017972 0.024152 0.816560 1.464967 1.076938 -0.988809 -3.142028 -3.966107 -3.696117 -1.741308 -0.339101 -0.373204 -1.939304 -3.951451 -5.257883 -5.407803 -5.153969 -4.857382 -3.960220 -2.643620 -0.859123 0.105107 0.018213 -0.352561 -0.192858 -0.047497 0.029295 -0.018905 -0.181939 -0.189907 0.280887 1.017655 0.346078 -1.543462 -3.601465 -3.933707 -3.054859 -1.548829 -1.248886 -2.125561 -3.690685 -5.168148 -6.555126 -6.567759 -6.239078 -5.437643 -4.196208 -2.638802 -0.996741 -0.130760 -0.166661 -0.513531 -0.278286 -0.141632 0.088123 -0.041310 -0.139425 -0.438723 -0.013839 0.726503 -0.078828 -1.753362 -3.648216 -3.734260 -2.685813 -1.641588 -1.774016 -2.513487 -4.060372 -5.699056 -6.763283 -6.604990 -5.968315 -4.849570 -3.312009 -1.981067 -0.781188 -0.544236 -0.623215 -0.562554 -0.148590 -0.044614 -0.017231 -0.020502 -0.200693 -0.685900 -0.252510 0.370817 -0.253367 -1.630058 -3.182565 -3.034717 -2.229173 -1.532787 -1.980377 -3.123593 -4.439745 -5.535486 -5.900224 -4.824626 -4.215983 -3.434329 -2.330813 -1.386918 -0.696880 -0.827425 -0.664554 -0.586399 -0.219823 -0.005363 -0.008315 0.001324 -0.279183 -0.695182 -0.448594 -0.160683 -0.541447 -1.825647 -2.482067 -1.929534 -1.103589 -1.337846 -2.257367 -3.197291 -3.248012 -2.854990 -3.216059 -2.958268 -2.727769 -2.018836 -1.442370 -0.930989 -0.543230 -0.742427 -0.775027 -0.522737 -0.132819 -0.079346 -0.027287 0.008431 -0.236810 -0.450279 -0.914321 -0.888614 -1.035258 -1.557217 -1.925743 -1.229758 -0.858695 -1.388386 -2.136596 -2.027604 -1.928311 -1.780196 -1.459858 -1.392509 -1.415957 -0.806087 -0.186445 -0.091382 -0.271730 -0.771390 -0.804980 -0.458629 -0.097897 0.026786 -0.000377 0.059753 -0.212987 -0.426862 -1.093167 -1.315961 -1.562474 -1.524734 -1.655717 -0.997457 -0.998745 -1.493783 -2.229397 -2.334586 -1.918189 -1.326056 -0.744842 -0.174813 -0.183455 -0.077542 0.257492 0.150995 -0.351755 -0.548409 -0.728476 -0.255611 -0.130221 -0.045163 -0.012281 0.041915 -0.150268 -0.386312 -1.210454 -1.674014 -1.679904 -1.379950 -1.158579 -0.926731 -1.038513 -1.420298 -2.147542 -2.383058 -1.937945 -1.085315 -0.406601 0.090692 0.411779 0.353421 0.203224 0.137227 -0.196955 -0.320819 -0.658935 -0.212639 -0.032198 -0.011576 -0.019609 0.023075 -0.025858 -0.231879 -1.156898 -1.544313 -1.317156 -1.033273 -0.706030 -0.568074 -0.866958 -1.222708 -1.850154 -2.074896 -1.662020 -1.180830 -0.565963 -0.197702 -0.044638 0.160287 0.221123 0.052013 -0.089474 -0.473538 -0.450599 -0.145639 -0.037040 -0.039201 -0.051964 0.008650 -0.077119 -0.170297 -0.743926 -1.239373 -1.201980 -1.032751 -0.856818 -0.583909 -0.596635 -0.970824 -1.281416 -1.358527 -1.497939 -1.138529 -0.717992 -0.550364 -0.157749 0.079819 0.192533 0.108805 -0.123118 -0.254351 -0.143885 -0.123851 0.024641 -0.024759 -0.053738 0.029267 -0.064400 -0.048466 -0.608044 -1.092267 -0.836008 -0.835299 -0.806825 -0.545025 -0.435912 -0.559147 -0.654496 -0.834618 -0.877921 -0.858122 -0.548863 -0.304055 -0.090348 0.011262 0.227663 -0.032947 -0.093363 -0.194030 -0.089032 -0.030159 -0.021967 0.088426 -0.074203 -0.042660 -0.057242 -0.000347 -0.324747 -0.764215 -0.823717 -0.885693 -0.726355 -0.452690 -0.275315 -0.269533 -0.345045 -0.494691 -0.545958 -0.510383 -0.427112 -0.129474 -0.091746 -0.146069 -0.023374 0.018109 -0.080437 0.002342 -0.009902 0.009509 -0.018826 -0.004426 -0.025412 0.009747 0.062323 0.015210 -0.166214 -0.489870 -0.720146 -0.675750 -0.499787 -0.357926 -0.164422 -0.171376 -0.163358 -0.284756 -0.280686 -0.132148 -0.168276 -0.152345 -0.064089 -0.004588 -0.050985 -0.111788 -0.038224 -0.092003 -0.004649 -0.051611 0.007385 -0.147452 -0.057608 -0.068393 -0.002606 0.020413 -0.035173 -0.081473 -0.337612 -0.394697 -0.337552 -0.172310 -0.117118 0.005389 -0.006428 0.039855 -0.007887 -0.070593 -0.049742 -0.094176 0.000046 -0.019615 -0.047176 0.017954 0.026571 0.004172 0.031443 -0.003544 -0.062857 0.012007 0.041846 -0.060663 0.063971 0.105459 0.014132 0.035697 -0.004672 -0.039528 -0.146151 -0.046448 -0.018017 -0.049442 0.020398 0.013157 -0.062058 -0.009657 0.067063 -0.030800 -0.066835 0.064063 -0.033590 -0.046906 0.056550 -0.045979 0.095468 0.025311 -0.010062 -0.021104 -0.026115 0.058036 -0.014400 -0.046769 0.026789 -0.028151 -0.011796 -0.027582 0.071554 0.043870 -0.036059 -0.030221 0.074190 -0.000959 0.009466 0.007258 0.010752 -0.076418 -0.050939 -0.021744 -0.041083 -0.013727 0.055502 0.014098 -0.039275 -0.018633 0.022451 0.025932
-0.091397 -0.021527 -0.021360 -0.017986 0.032930 0.030887 0.031593 -0.079381 0.000162 -0.025358 -0.010822 -0.007820 -0.006091 0.000122 0.054506 -0.035193 0.034282 -0.020910 0.013173 -0.012809 -0.000608 -0.044226 -0.021456 -0.036645 -0.074534 -0.019992 -0.022376 -0.044595 -0.013480 0.028556 0.023842 -0.073313 0.068336 0.015921 -0.033853 0.003866 -0.002790 -0.028352 -0.066937 -0.016990 0.080132 -0.053820 -0.000924 0.074895 0.033924 0.008983 0.025558 -0.119252 0.011963 -0.056930 0.099313 0.036372 0.103042 0.018256 -0.016711 -0.004040 0.026849 -0.004069 -0.060055 -0.009397 -0.031789 -0.034478 0.047488 0.043819 -0.036417 -0.108261 -0.117107 -0.048259 -0.099846 -0.023721 0.032824 -0.029782 -0.036069 -0.006652 -0.024987 -0.065529 0.044728 0.082365 0.033959 -0.001723 -0.025580 -0.000045 0.017559 0.019502 -0.021092 -0.030328 -0.017287 -0.035645 0.019902 -0.040307 0.025297 -0.034886 -0.154987 -0.179612 -0.236602 -0.275474 -0.183590 -0.065982 -0.069678 -0.074033 -0.087723 -0.017849 -0.070451 -0.123463 -0.079385 -0.026473 -0.036916 0.010782 0.021596 0.046580 0.016486 0.008245 -0.075539 0.015816 0.060830 -0.075247 0.028526 0.100783 0.041360 -0.104688 -0.352475 -0.468255 -0.705535 -0.519938 -0.283898 -0.061723 0.014489 0.086239 0.218610 0.132328 0.105611 -0.020318 0.066827 -0.024517 -0.011159 -0.069320 0.000660 -0.039866 -0.034314 0.045571 0.003036 -0.010554 -0.014619 -0.017155 -0.070095 -0.034340 -0.012441 -0.297910 -0.713009 -0.953054 -0.941802 -0.581522 -0.168554 0.125880 0.640060 0.785550 0.928774 0.660290 0.481632 0.201570 0.135708 -0.025277 0.005392 -0.029810 -0.072195 -0.243327 -0.069625 -0.006895 -0.067903 -0.035461 -0.046366 -0.036115 -0.019453 -0.041998 -0.231770 -0.515585 -1.024852 -1.296163 -1.218591 -0.568396 -0.128761 0.578645 1.198560 1.418463 1.316342 0.950470 0.567017 0.345721 0.028972 -0.010511 -0.072659 -0.071021 -0.205765 -0.281062 -0.147212 -0.063509 -0.057107 0.006277 -0.049340 -0.036314 -0.112962 -0.166371 -0.307893 -0.719539 -1.477022 -1.592752 -1.341643 -0.632322 0.035848 0.778763 1.096281 1.344525 1.205094 0.631565 0.073885 -0.156733 -0.267571 -0.255848 -0.234985 -0.383627 -0.559472 -0.538431 -0.354141 0.035013 0.075870 -0.005004 0.010861 -0.056157 -0.164197 -0.290502 -0.446711 -0.964929 -1.869737 -2.071860 -1.687923 -0.908635 -0.065500 0.508496 0.647740 0.510644 0.279471 -0.200154 -0.748643 -1.242194 -1.134254 -0.904491 -0.838249 -0.796115 -0.946189 -0.812125 -0.537953 -0.015531 -0.061594 -0.002052 -0.031628 -0.240801 -0.356760 -0.460758 -0.506096 -1.317388 -2.137613 -2.415928 -2.067463 -1.040203 -0.509085 -0.115239 -0.201670 -0.180304 -0.679624 -1.321621 -2.176960 -2.507966 -2.459791 -2.120724 -1.413612 -1.139174 -1.174517 -1.204387 -0.701943 -0.034994 0.015353 -0.078476 -0.066097 -0.341574 -0.569602 -0.605240 -0.907998 -1.862490 -2.559189 -2.789555 -2.290066 -1.537714 -1.186466 -0.849179 -0.653501 -0.794818 -1.497008 -2.560244 -3.348198 -3.831332 -3.629793 -3.113863 -2.251241 -1.344083 -1.445649 -1.295816 -0.804287 0.004335 0.036977 -0.045887 -0.115545 -0.522322 -0.960547 -1.059074 -1.396641 -2.483821 -3.323893 -3.523429 -2.901365 -2.112019 -1.721642 -1.452807 -1.321872 -1.463099 -2.355712 -3.242310 -4.303891 -5.062180 -4.819812 -4.089456 -2.499264 -1.416561 -1.464128 -1.419903 -0.966270 -0.061054 -0.037243 -0.014166 -0.196591 -0.650893 -1.269345 -1.618996 -2.032167 -3.433792 -4.182015 -4.107100 -3.381805 -2.534916 -2.312314 -2.559760 -2.590559 -2.886838 -3.319081 -4.221469 -5.250573 -5.580636 -5.384194 -4.665022 -2.703896 -1.443159 -1.497633 -1.359445 -0.913303 -0.228620 -0.080120 -0.057142 -0.371378 -1.023648 -1.857736 -2.349791 -3.046627 -4.359757 -4.951455 -4.897521 -4.182472 -3.627425 -3.628229 -4.035123 -4.337831 -4.322599 -4.858744 -5.508683 -5.944727 -5.962594 -5.524745 -4.872610 -2.832857 -1.305188 -1.295598 -1.383643 -0.825588 -0.169188 0.031118 -0.044387 -0.559797 -1.536828 -2.292955 -2.703485 -3.734748 -4.978619 -5.516323 -5.265123 -4.684597 -4.073678 -4.474831 -4.811111 -5.364288 -5.494254 -5.827739 -5.903310 -5.770283 -5.616921 -5.066235 -4.256123 -2.546198 -1.463850 -1.347549 -1.333820 -0.854260 -0.265061 0.097244 -0.157434 -0.722902 -1.892909 -2.525168 -2.905086 -3.566729 -4.825613 -5.363834 -5.165141 -4.676695 -4.317595 -4.878471 -5.414970 -6.168938 -6.263407 -5.721774 -5.015099 -4.635004 -4.639946 -4.237611 -3.571800 -2.006698 -1.259994 -1.106383 -1.035416 -0.771187 -0.186353 -0.003424 -0.119657 -0.870158 -1.981053 -2.525640 -2.576831 -2.924531 -4.155198 -4.487112 -4.469922 -4.014164 -3.878117 -4.560030 -5.364237 -5.575412 -5.052776 -4.306750 -3.819194 -3.783656 -3.674296 -3.371039 -2.622633 -1.459509 -0.936415 -0.906342 -0.873011 -0.561875 -0.094874 0.102250 0.018877 -0.809104 -1.832889 -2.196670 -2.033309 -2.034762 -3.072995 -3.369026 -3.273576 -3.138752 -3.394626 -4.086565 -4.498102 -4.404631 -4.050574 -3.292708 -2.781551 -2.860280 -2.767952 -2.502244 -1.803342 -0.730416 -0.274102 -0.512432 -0.764745 -0.417920 -0.000597 0.017802 -0.018800 -0.723509 -1.514697 -1.758637 -1.298413 -1.235708 -1.893616 -2.380993 -2.254885 -2.252134 -2.664963 -3.272763 -3.628556 -3.590001 -3.128819 -2.464605 -2.401432 -2.774030 -2.451081 -1.843969 -1.112920 -0.380391 -0.118007 -0.260546 -0.503008 -0.328094 -0.096225 -0.085461 -0.038514 -0.392963 -1.101786 -1.071857 -0.879786 -0.373880 -0.814039 -1.129534 -1.111331 -1.214420 -1.684093 -2.257345 -2.602128 -2.316441 -1.856162 -1.930563 -2.002241 -2.017882 -1.715344 -1.193836 -0.575717 -0.063165 -0.036751 -0.055759 -0.241387 -0.098277 -0.004684 -0.047547 0.024550 -0.194212 -0.481040 -0.629160 -0.306461 0.315835 -0.044776 -0.259302 -0.245922 -0.471100 -0.820727 -1.164889 -1.265971 -0.950188 -1.106233 -1.279107 -1.234957 -1.510094 -1.192379 -0.974300 -0.523753 -0.232020 -0.041963 -0.076573 -0.110326 -0.100073 -0.012363 0.026267 0.061544 -0.061342 -0.213600 -0.350933 0.143743 0.561418 0.425779 0.189766 0.244103 0.127068 -0.018139 -0.263236 -0.253868 -0.209284 -0.334259 -0.522818 -0.866031 -0.832933 -0.824284 -0.497376 -0.365455 -0.188760 0.043839 -0.139292 -0.159681 -0.088304 -0.031900 -0.040699 0.013868 -0.083731 -0.125249 -0.095196 0.349359 0.545830 0.457354 0.307705 0.361948 0.555349 0.509598 0.473288 0.521290 0.484758 0.139556 -0.152231 -0.411221 -0.475354 -0.379609 -0.407452 -0.198950 -0.094587 0.019390 -0.076855 -0.043429 -0.073973 0.018461 0.016499 0.013475 0.002750 -0.109691 -0.016049 0.215384 0.248663 0.214246 0.089406 0.272664 0.519377 0.569093 0.521109 0.553830 0.467485 0.204983 0.090824 -0.142124 -0.398993 -0.299975 -0.256858 -0.241472 -0.033879 0.004996 0.055522 0.023524 -0.027560 0.017263 0.011978 0.036372 0.036527 0.000927 0.045483 0.064533 -0.020330 -0.000838 -0.008641 0.031655 0.160675 0.136942 0.158129 0.220168 0.120305 0.066802 -0.033263 -0.195637 -0.237163 -0.192389 -0.248464 -0.181398 -0.046131 -0.035115 0.023068 -0.042511 0.050361 0.005702 -0.005742 -0.019439 -0.000203 -0.020011 -0.001077 -0.068106 -0.074840 -0.102810 -0.135249 -0.125490 -0.066389 -0.045898 -0.058260 -0.157188 -0.102174 -0.143112 -0.192505 -0.128125 -0.088357 -0.093578 -0.052721 -0.013846 -0.049412 -0.012530 0.001720 0.002088 0.059363 0.007027 0.018883 -0.006035 -0.072340 0.028271 0.022565 -0.015352 -0.013989 -0.000823 -0.075176 -0.050025 0.047621 -0.025472 -0.004508 0.012314 -0.051617 -0.038397 -0.018884 -0.112469 -0.045761 0.056590 0.092228 0.095731 -0.006490 0.034502 -0.007478 -0.011598 0.035348 -0.019778 -0.073818 -0.027868 0.035482 0.035298 0.043307 -0.022634 -0.008750 0.037551 0.001462 0.001464 -0.009306 -0.026849 0.012772 0.027319 0.046647 0.018721 0.085787 -0.058529 -0.007841 0.000950 -0.045162 -0.022980 -0.018366 0.080495 0.011699 -0.003033 0.057331 -0.000584
-0.013452 -0.017858 -0.017233 0.043017 -0.029142 -0.082649 0.001811 -0.012822 0.028022 -0.037347 0.094381 -0.011516 -0.000592 0.069417 0.075768 0.040651 -0.019965 -0.046685 0.112338 0.014579 0.015328 0.023615 0.034346 0.055626 0.028534 0.021257 -0.047196 -0.036232 -0.046821 0.045214 -0.007626 -0.070961 -0.047752 0.000597 0.015483 0.017771 -0.046216 0.022028 -0.007144 0.068551 0.052127 0.026463 -0.007857 0.086995 0.014549 -0.042690 -0.026123 -0.060912 0.020654 0.043086 -0.017188 -0.013015 0.043212 -0.003565 -0.022322 -0.000339 0.083776 0.055725 0.045628 0.039594 0.023046 -0.049892 0.031319 0.001437 0.155618 0.298654 0.181416 0.252447 0.210844 0.126602 0.123251 -0.013240 0.012515 -0.061303 0.085463 0.081040 0.006526 -0.105999 -0.031724 -0.015191 -0.037078 -0.057463 0.040274 -0.040124 -0.008714 0.021851 -0.041607 -0.001583 0.045703 -0.043112 -0.098169 -0.117469 0.160994 0.300438 1.096735 1.479445 0.684556 0.517958 0.345829 0.167098 0.607275 0.165420 0.013603 -0.193242 -0.212544 -0.166960 -0.146745 -0.087233 -0.136098 0.017811 0.060443 0.011251 -0.035264 0.031713 -0.018098 0.020285 0.093904 0.060363 -0.040291 0.229207 0.161323 0.243458 1.394948 1.468029 0.773739 -0.054108 0.404324 1.151293 0.679407 0.635798 0.106332 -1.066282 -1.343178 -0.572339 -0.368121 -0.301072 -0.155892 0.020814 -0.005954 0.009250 -0.007618 0.013715 -0.111503 -0.045351 0.168972 0.024039 0.113547 -0.409095 0.216287 0.457708 1.066256 -0.431023 -2.734332 -1.452560 0.161005 -0.666326 -0.692142 0.677998 -0.165561 -1.812692 -1.916084 -1.139033 -0.833317 -0.450883 -0.090441 0.167831 0.031157 0.025291 0.048689 -0.027853 0.047081 -0.002045 -0.109915 -0.079628 -0.050875 1.475995 1.520940 -0.433848 -0.984516 -3.279306 -4.807595 -3.013704 -0.665522 0.635592 1.116024 1.038880 -0.141557 -2.270003 -2.629973 -2.555155 -1.472494 -0.785339 -0.128746 -0.702944 -0.708756 0.031030 0.021633 -0.013566 -0.038404 -0.192682 -0.193852 -0.209300 -0.108943 0.900590 -0.972502 0.692277 0.548924 -1.325373 -2.943460 -4.276015 -1.411659 1.016538 0.613120 0.162605 -1.069907 -3.028930 -3.230742 -2.908301 -2.399881 -0.032336 0.014819 0.512235 -0.671345 0.078238 0.076097 -0.061673 -0.008916 0.063848 -0.085577 -0.319706 -0.628718 0.381113 0.948321 0.780284 -0.062380 0.991237 -1.910815 -1.032466 0.115078 2.543338 2.556487 0.948408 -0.881135 -2.534747 -3.590978 -3.246846 -1.721946 -1.163935 0.981558 0.628542 -0.666834 0.083785 -0.008496 0.014110 0.034615 -0.170742 -0.092805 -0.903593 -1.955485 0.760635 0.979178 0.712987 -0.339930 4.003461 4.507712 5.625749 1.677690 2.836877 0.403040 -0.575852 -0.807652 -2.500811 -2.703784 -2.136913 -2.366225 0.033741 0.812973 0.118809 0.141635 0.091956 -0.056451 -0.186024 -0.182953 -0.368461 -0.666025 -1.006029 -3.656389 -0.708872 0.934890 2.766027 4.303737 5.546684 6.302587 7.939772 2.576361 1.844647 -1.052799 -2.989132 -1.818683 -3.092950 -1.761443 -2.027663 -1.171478 -1.039342 -0.567543 0.973126 -1.178190 0.115315 0.012220 -0.180723 -0.186847 -0.311403 -1.087744 -1.942603 -2.445457 0.249482 0.855355 2.611732 1.289414 1.131952 4.554955 2.002490 -1.406018 -3.019541 -4.948821 -4.005678 -3.398480 -1.721088 -0.635307 -2.193378 -0.508986 -0.289642 -1.217067 -0.410942 -0.939259 0.183060 0.062262 0.001973 -0.036216 -0.071213 -1.286477 -2.049285 -1.654493 -0.055423 -0.087541 2.105407 1.370399 -0.058554 0.674089 -2.404289 -4.464608 -5.244526 -5.827204 -4.791876 -2.393792 -1.742552 -1.027902 -1.241476 -2.173829 -2.088035 -1.857655 -1.824532 -1.012815 0.191020 -0.010539 -0.010427 -0.040012 -0.217681 -1.554044 -2.557870 -2.267701 -0.710268 0.065835 -1.379861 -2.410017 -3.889729 -3.510901 -6.101689 -6.003635 -6.444960 -5.508916 -2.925245 -0.928793 -0.393853 -0.571233 -0.711482 0.214751 -1.998151 -2.339606 -1.126651 -1.453123 0.158242 0.021366 0.006495 -0.185565 -0.219069 -1.711070 -2.268039 -3.565591 -2.094735 -2.535699 -1.877357 -3.042673 -7.013461 -4.780941 -6.717515 -6.603192 -4.961594 -1.188803 0.075725 -0.174840 -0.276204 -0.757272 0.767956 -2.815869 -2.359045 0.638948 1.859644 -2.044313 -0.174806 0.032809 -0.061789 -0.077128 -0.306104 -1.725734 -2.841050 -5.686176 -3.252101 -2.104318 -1.917512 -4.736863 -3.945722 -3.632170 -3.245018 -2.893772 -3.112351 -0.352632 0.401595 0.359409 -0.568313 0.832295 -2.700072 -1.309493 0.601645 0.225235 1.250618 -1.196212 -0.045506 0.010612 -0.047136 0.102846 -0.200507 -1.456810 -2.478551 -6.468888 -5.740705 -5.260276 -1.865825 -3.328560 0.758109 2.090843 1.041918 0.431688 0.909206 2.322636 1.222304 -0.246515 -0.914303 -2.616203 -3.070909 -1.309979 -0.138464 0.836464 0.744324 -0.258661 -0.074345 -0.053950 0.017092 0.095024 -0.115443 -1.166120 -2.081240 -5.525637 -4.368326 -5.270336 -0.536634 3.133105 2.597923 3.200693 3.053093 0.579560 0.592381 1.428833 1.125701 -2.391405 -0.709655 -0.668345 1.657243 1.667103 1.488591 1.576548 0.756054 1.178616 0.066239 0.035306 0.019835 0.005781 -0.049081 -0.960299 -1.327861 -2.024959 -3.505640 -3.375226 -0.077225 2.738748 5.187892 3.382421 2.379612 0.598059 -1.513368 -1.179343 0.204115 -1.411447 0.144284 -0.148543 -0.131403 0.187482 0.353070 0.893370 1.256857 2.617419 0.036480 0.021714 0.005308 0.097569 -0.099907 -0.392760 -0.670609 -0.609671 -1.373010 0.107377 0.467147 0.887814 0.431202 -1.443679 -2.484894 -1.802445 -0.080322 2.014618 0.048455 0.260651 -0.508052 -0.277036 -0.435649 -0.045852 0.624864 0.811924 0.874344 2.285169 -0.104742 0.031945 -0.023495 0.062979 0.026230 0.040468 0.256155 1.094727 -0.119621 -0.149119 1.304613 0.262611 -0.484321 -4.412838 -2.164159 1.444853 0.369262 0.139456 0.484187 -0.847343 -1.424994 -0.956237 -0.578792 -0.256237 -0.329474 -0.997588 0.948658 -0.561758 -0.080312 0.032613 0.019476 -0.040124 0.125094 -0.018941 0.004867 2.538626 0.704940 2.337566 1.479376 0.610432 -1.670412 -1.838407 -0.499869 0.111366 0.421487 0.075950 -0.974964 -1.301829 -1.034981 -1.170108 -0.905498 -0.515334 -0.975667 -0.759195 -1.040506 -0.418373 0.176972 0.001395 0.018570 0.028822 0.167234 0.222940 0.733808 3.381920 2.719760 0.998354 2.740374 0.070157 0.170169 -1.969396 -0.113233 0.129271 -0.803866 -0.530540 -1.308372 -2.005149 -1.709235 -1.385888 -0.945040 -0.580338 -0.933549 -1.116866 -0.532587 -0.126726 0.238155 0.023411 0.063420 -0.002123 -0.041034 0.097883 1.036147 2.965425 1.373594 1.235066 0.155511 -0.071716 -1.934979 -1.195103 -1.580157 -1.417892 -0.720170 -0.054835 -0.732211 -0.923950 -0.758166 -0.490694 -0.456083 -0.185282 -0.107257 -0.104355 -0.389057 -0.353389 0.048440 0.036872 0.056953 0.030687 -0.021995 0.062947 0.577584 1.592757 2.431501 1.070737 0.303544 -0.840002 -1.650325 -0.771347 -0.985434 -0.776676 -0.379148 -0.153980 -0.349474 -0.627522 -0.466727 -0.278295 -0.292410 0.019702 -0.005079 -0.030453 -0.001537 -0.055201 -0.005001 0.000427 0.004996 0.157138 0.081844 0.023419 0.036472 0.893611 0.764113 0.464807 -0.383001 -0.146572 -0.197842 -0.357982 -0.307060 0.068348 0.113196 -0.262333 -0.260154 -0.111579 -0.114317 -0.026841 -0.053164 0.035141 0.055558 -0.004809 0.050419 -0.030365 -0.037102 -0.022609 0.033328 0.080328 -0.043587 0.029627 -0.062029 -0.108814 0.095384 -0.120188 -0.166490 0.001739 -0.033106 -0.326133 -0.305544 -0.275226 -0.191536 -0.139234 -0.178596 -0.123881 0.008290 -0.076155 -0.003811 -0.005583 0.042509 -0.033353 0.022140 0.041279 0.009267 0.036429 -0.006087 -0.003444 -0.019496 -0.099561 0.024063 0.021712 -0.016794 -0.144526 0.041168 -0.005280 0.003943 0.080598 -0.081232 -0.064823 -0.010022 0.065600 -0.037320 -0.107442 -0.056740 -0.005118 0.059750 -0.034210 -0.026192 -0.011546 0.069588 0.003496 0.062505
-0.102338 0.004469 0.104054 -0.041300 0.049719 0.038284 0.040957 0.075786 -0.100900 0.023725 -0.008768 0.065723 0.009640 -0.037161 0.079210 -0.068759 0.060090 -0.075767 0.015940 0.027240 0.002858 0.045564 0.015224 -0.036367 -0.014682 0.008938 -0.001917 0.025108 -0.059797 0.032291 -0.035994 0.002832 -0.054995 0.043921 0.025718 0.029649 0.009274 -0.000792 0.022727 0.038707 0.095901 -0.039993 0.047439 0.078929 0.058307 0.014878 0.034867 -0.044793 0.050659 -0.051660 -0.003954 0.066002 0.014374 0.004187 -0.016714 0.007439 -0.025269 -0.019881 -0.008487 0.039198 -0.015391 -0.045076 -0.012589 0.038512 0.006236 -0.070928 -0.022202 -0.104559 -0.079529 -0.025847 -0.026876 -0.002931 0.020191 -0.002425 0.084485 -0.005618 0.048536 0.037433 -0.036988 0.074038 0.050183 -0.003375 0.009095 -0.101152 -0.102050 -0.066636 -0.034651 0.012847 0.043114 0.040345 -0.043833 -0.106729 -0.071292 -0.082444 -0.144441 -0.114898 -0.111122 -0.019708 -0.019248 -0.021660 -0.012747 -0.001960 -0.051971 -0.042531 -0.082265 -0.040957 -0.029645 0.044406 -0.033317 -0.019687 0.012293 -0.073011 -0.035078 -0.038958 -0.092160 -0.019162 -0.039113 -0.081719 -0.049282 -0.181050 -0.233699 -0.287392 -0.259796 -0.311807 -0.187400 -0.166364 -0.225293 -0.147080 -0.117541 -0.183391 -0.151046 -0.127836 -0.155721 -0.130023 -0.086119 -0.041906 -0.011028 -0.016915 0.019693 -0.050385 -0.063018 -0.037118 -0.032621 0.067053 -0.021833 0.024419 -0.039797 -0.181613 -0.443491 -0.490388 -0.583479 -0.496550 -0.459719 -0.476570 -0.447101 -0.497573 -0.481406 -0.408834 -0.321221 -0.311570 -0.278777 -0.098401 -0.119927 -0.054838 -0.106314 -0.059537 -0.022634 -0.034907 -0.031246 -0.027109 -0.045437 -0.023538 -0.028420 -0.076077 -0.191381 -0.489315 -0.696619 -0.848691 -0.824867 -0.794399 -0.805850 -0.806890 -0.866592 -0.830822 -0.771247 -0.568412 -0.538457 -0.352116 -0.146658 -0.241793 -0.139720 -0.120876 -0.170642 -0.135810 -0.126821 -0.063246 -0.045972 0.050836 0.058649 -0.069465 -0.066048 -0.101809 -0.368718 -0.662694 -0.975314 -1.235958 -1.215119 -1.096772 -1.030687 -0.998921 -1.062842 -1.069435 -0.967302 -0.889500 -0.731578 -0.506992 -0.428338 -0.314503 -0.281622 -0.424773 -0.397987 -0.362193 -0.214451 0.063180 0.016258 0.046342 -0.049928 -0.053036 -0.035866 -0.138969 -0.415857 -0.827529 -1.201305 -1.539203 -1.543518 -1.363627 -1.325759 -1.327793 -1.278807 -1.231885 -1.284221 -1.076447 -0.852387 -0.645249 -0.494443 -0.547031 -0.631000 -0.684977 -0.566809 -0.468415 -0.231822 -0.033064 0.083214 0.065007 -0.057132 -0.054054 -0.091222 -0.335764 -0.529070 -1.202921 -1.504990 -1.737588 -1.793864 -1.577579 -1.555047 -1.547397 -1.324995 -1.391382 -1.168667 -1.029773 -0.832979 -0.805877 -0.701618 -0.938696 -0.926395 -0.946830 -0.786706 -0.702746 -0.332000 -0.032905 0.035212 -0.019574 -0.075107 0.049617 -0.209969 -0.434973 -0.792547 -1.386860 -1.867893 -2.026112 -1.976344 -1.749798 -1.611443 -1.553161 -1.329633 -1.182056 -1.094336 -0.924445 -0.908167 -0.965810 -1.214839 -1.404420 -1.354874 -1.408028 -0.878684 -0.583934 -0.399923 0.006214 0.069182 0.013351 -0.046472 -0.016620 -0.254573 -0.589952 -0.863077 -1.738555 -2.104094 -2.264179 -2.108279 -1.759316 -1.435042 -1.344286 -1.150548 -0.965403 -0.872839 -0.833053 -1.084348 -1.361367 -1.839400 -2.076007 -1.714038 -1.528684 -0.963229 -0.746787 -0.396768 -0.074413 0.031483 0.053740 -0.054718 -0.108933 -0.496315 -0.738165 -1.210711 -1.895232 -2.269251 -2.395168 -2.135382 -1.681741 -1.321779 -1.035583 -0.939689 -0.981940 -0.988304 -1.082421 -1.475919 -1.806486 -2.317479 -2.421807 -1.995071 -1.589298 -1.023816 -0.684426 -0.360347 -0.094975 0.024251 -0.013516 -0.089625 -0.226186 -0.739634 -0.950541 -1.356553 -2.223983 -2.492243 -2.464167 -2.163634 -1.637733 -1.191494 -1.016661 -1.088572 -1.196972 -1.394204 -1.621383 -1.909458 -2.212422 -2.626826 -2.673681 -2.079662 -1.530653 -0.916271 -0.616110 -0.323569 -0.065338 0.034906 0.046538 -0.155246 -0.286778 -0.775015 -1.090185 -1.630617 -2.342862 -2.566848 -2.468339 -2.070345 -1.554492 -1.275473 -1.157271 -1.415703 -1.701462 -1.944829 -2.085451 -2.188465 -2.441773 -2.666401 -2.553335 -1.988425 -1.426330 -0.793317 -0.661019 -0.390881 -0.155003 0.056935 0.038091 -0.233913 -0.508040 -1.035315 -1.207289 -1.633595 -2.359288 -2.580603 -2.601774 -2.221155 -1.630020 -1.619285 -1.733974 -2.117700 -2.309060 -2.293510 -2.175029 -2.135349 -2.419739 -2.454287 -2.383217 -1.828220 -1.208992 -0.737587 -0.461949 -0.434956 -0.113091 0.018702 -0.104522 -0.309687 -0.555274 -0.900679 -1.039385 -1.545184 -2.269501 -2.498216 -2.726279 -2.307340 -2.024814 -2.041238 -2.241661 -2.471170 -2.467164 -2.374219 -2.108036 -2.125222 -2.191642 -2.207620 -2.121244 -1.368492 -0.955449 -0.509226 -0.406210 -0.254603 -0.055472 -0.044708 0.021668 -0.281429 -0.661651 -0.906888 -0.815904 -1.206084 -1.967682 -2.394986 -2.495248 -2.458627 -2.234297 -2.191225 -2.314722 -2.430612 -2.519632 -2.270098 -1.962442 -1.842342 -1.953999 -1.841766 -1.505551 -0.959616 -0.608458 -0.327735 -0.357558 -0.212781 -0.048765 -0.026677 0.041790 -0.171500 -0.531378 -0.708736 -0.582787 -0.929115 -1.642150 -2.065201 -2.297122 -2.234100 -2.123609 -2.181824 -2.184138 -2.298403 -2.330535 -2.023976 -1.794833 -1.683340 -1.594797 -1.443183 -0.970340 -0.547697 -0.332489 -0.260697 -0.222827 -0.139342 -0.043499 -0.064686 -0.060867 -0.087297 -0.351017 -0.454287 -0.426388 -0.450544 -1.232074 -1.767065 -1.930352 -1.942032 -1.950272 -1.851265 -1.916470 -1.890312 -1.840782 -1.707200 -1.641850 -1.507959 -1.276416 -0.908003 -0.553772 -0.340285 -0.203133 -0.169348 -0.060228 -0.074025 0.006615 0.020773 -0.025349 -0.078413 -0.256183 -0.190823 -0.135813 -0.077169 -0.705859 -1.186483 -1.483726 -1.620303 -1.633317 -1.568570 -1.628005 -1.599153 -1.481173 -1.550130 -1.344700 -1.040735 -0.872374 -0.548819 -0.353310 -0.199635 -0.172486 -0.144431 -0.098306 -0.030832 -0.077057 0.123343 0.028883 0.094929 0.020195 -0.074431 0.037408 -0.001690 -0.309744 -0.737670 -1.006436 -1.088185 -1.158440 -1.274223 -1.265081 -1.269831 -1.229990 -1.188562 -0.970266 -0.643859 -0.578981 -0.369230 -0.132208 -0.101800 -0.049816 -0.033424 -0.135233 0.036112 -0.050763 0.052006 -0.061085 0.045042 -0.004495 0.082630 0.133976 0.099450 -0.065113 -0.349145 -0.633479 -0.772844 -0.757740 -0.898065 -0.951667 -0.998885 -0.925264 -0.702228 -0.593254 -0.322457 -0.196438 -0.097145 -0.071132 -0.040245 0.015697 -0.085166 -0.012615 -0.013110 -0.038221 0.020652 0.094798 -0.018773 0.035487 -0.012789 0.038692 0.115507 0.230388 0.014956 -0.252217 -0.393094 -0.498109 -0.537444 -0.513542 -0.635062 -0.594646 -0.404960 -0.320216 -0.080145 -0.061516 0.094589 0.009861 0.039986 0.042163 0.026595 -0.064977 0.095009 0.013553 -0.016648 0.044655 0.034892 0.001751 0.078342 0.139096 0.173406 0.164367 0.060021 0.080094 -0.050285 -0.239124 -0.285560 -0.341952 -0.227906 -0.289850 -0.136433 -0.004459 -0.059934 0.033015 0.066470 0.013228 0.105282 -0.059317 0.005778 -0.038785 0.029787 0.009003 -0.016319 0.019503 -0.019150 -0.002865 -0.005316 -0.007311 0.094366 0.029651 0.035260 0.080624 0.048558 0.068763 0.029093 -0.029679 0.088234 -0.079007 0.005443 -0.021637 -0.001823 0.101017 -0.018898 -0.057784 -0.014998 -0.038197 0.020776 -0.017482 0.020878 0.018109 -0.008480 0.023863 -0.001400 -0.023908 0.007443 -0.070706 0.000147 0.052000 0.014988 0.056586 0.001191 -0.114327 0.089978 0.027781 -0.003254 0.003216 -0.008945 0.004815 -0.054613 0.025343 0.004057 0.090013 0.030760 -0.051470 0.023525 -0.049148 0.044591 -0.032393 -0.007470 0.001152 -0.031441 -0.023383 0.010284 0.002998 0.003232 -0.065141 0.014487 -0.027296 0.035310 0.057865 -0.030494 -0.043082 0.004775 -0.057058 0.051511 -0.029364 -0.027935 -0.047057 -0.055286 -0.044586 -0.026348 -0.063157 -0.036747 -0.001240 -0.043551 -0.005234
-0.042111 0.028494 -0.016818 -0.091660 -0.072219 -0.046544 -0.026514 -0.012361 -0.012598 -0.037426 -0.058890 0.027285 -0.024983 -0.115976 -0.011765 -0.018446 -0.049055 -0.045186 0.003116 0.015882 -0.003286 0.060308 0.067353 -0.008656 0.034201 0.036192 0.037584 0.031813 0.014416 -0.088271 -0.002379 0.018159 0.010102 -0.030744 -0.038301 -0.027530 -0.016533 -0.005607 0.021758 0.049714 0.016194 -0.022257 0.043178 0.092676 -0.040285 0.050425 -0.013594 0.045980 0.028372 0.010630 0.034298 0.020669 -0.066907 -0.045976 0.081148 -0.013621 0.018325 -0.031133 -0.089545 0.084047 -0.001932 0.056737 -0.034386 0.072662 0.146738 0.149188 0.185104 0.089274 0.053198 -0.059744 -0.005108 -0.027431 0.008346 0.026161 0.018961 -0.012327 0.038424 -0.010585 0.063553 0.021796 -0.059841 0.028107 0.095777 0.042603 -0.002234 -0.068974 0.106470 0.019582 -0.035429 -0.034273 0.055804 0.052556 0.125955 0.282628 0.284595 0.231587 0.243198 0.106942 -0.002824 0.031734 -0.011857 0.008425 0.007381 0.017915 0.052708 0.012867 -0.039168 -0.012299 -0.032859 0.025694 0.084859 -0.042417 -0.021888 0.011666 0.030377 -0.042166 -0.021904 -0.059876 -0.005394 0.129566 0.477666 0.603569 0.591825 0.492902 0.251453 -0.006137 -0.068804 -0.124856 -0.144985 -0.239712 -0.258483 -0.286462 -0.252852 -0.149626 -0.076241 0.003469 0.025084 -0.011920 -0.031688 0.082086 -0.023489 -0.013584 0.012977 -0.010265 -0.016211 -0.053710 0.062688 0.219803 0.602529 0.881921 0.629342 0.192637 -0.120321 -0.484132 -0.717192 -0.934928 -0.942523 -0.980192 -0.766625 -0.650016 -0.374007 -0.257984 -0.289668 -0.162252 -0.029163 0.038735 0.020435 0.017838 -0.070486 0.010314 0.084929 0.022575 -0.073132 -0.016868 0.056448 0.304121 0.798355 0.924168 0.703612 0.151514 -0.383281 -0.912418 -1.208056 -1.651745 -1.777589 -1.689431 -1.214366 -0.780520 -0.557936 -0.439253 -0.284200 -0.081363 0.023402 0.093601 0.126440 -0.032834 0.128751 -0.066330 0.025737 -0.085909 -0.023054 -0.069204 -0.025564 0.418399 0.911382 1.006992 0.652783 -0.123831 -0.996565 -1.556193 -1.945706 -2.283009 -2.438609 -2.122121 -1.798940 -1.330654 -0.894007 -0.693916 -0.684557 -0.327527 0.067782 0.271496 0.226733 0.048705 -0.002316 -0.016279 0.043603 -0.083259 -0.136685 -0.203928 -0.198657 0.074839 0.824280 0.726930 0.192278 -0.701969 -1.528185 -2.064292 -2.408297 -2.781285 -2.895807 -2.671941 -2.368703 -1.802215 -1.569714 -1.245868 -1.004881 -0.634202 0.177511 0.459311 0.320969 0.006555 -0.022438 0.032493 -0.051039 -0.010311 -0.244454 -0.410728 -0.555291 -0.173862 0.096119 -0.115494 -0.923909 -1.413819 -1.940176 -2.240926 -2.539962 -2.984917 -3.145698 -3.116173 -2.862529 -2.479353 -2.186045 -1.600383 -1.209665 -0.738633 0.179162 0.435938 0.362141 0.059189 0.032804 -0.036986 0.006818 -0.083861 -0.295452 -0.630937 -0.909976 -0.676817 -0.744535 -0.914252 -1.083040 -1.561769 -1.896262 -2.082248 -2.577950 -2.979281 -3.475794 -3.477545 -3.202087 -2.800374 -2.394564 -1.888189 -1.389976 -1.086718 0.022168 0.465599 0.471255 0.025331 0.030103 -0.005115 -0.008789 -0.256148 -0.483833 -0.969380 -1.412592 -1.471589 -1.262397 -1.272038 -1.206727 -1.178012 -1.149060 -1.568785 -2.534394 -3.418894 -3.853892 -3.639492 -3.322875 -2.880584 -2.265838 -2.089597 -1.774051 -1.131176 -0.101118 0.465392 0.529513 0.088274 -0.019269 0.032932 -0.071511 -0.257245 -0.882471 -1.466170 -2.290511 -2.257097 -1.765818 -1.088755 -0.552720 -0.675405 -0.887574 -1.628570 -3.027632 -4.040812 -4.249755 -3.736923 -3.202567 -2.521159 -2.399598 -2.199889 -1.903890 -1.252314 -0.035103 0.367959 0.441396 0.218526 0.081009 -0.035412 -0.039560 -0.369070 -1.150271 -2.069002 -3.197969 -2.890070 -1.851157 -0.547594 -0.102418 -0.501824 -1.293620 -2.520218 -3.668860 -4.371804 -3.999644 -3.341361 -2.790444 -2.432734 -2.258134 -1.953409 -1.738364 -1.180619 -0.175578 0.353491 0.517156 0.232674 -0.042060 0.007050 -0.124839 -0.372910 -1.605600 -2.560451 -3.869218 -3.174738 -1.747737 -0.541440 -0.080619 -0.947988 -1.803015 -2.900670 -3.755033 -3.850064 -3.403256 -2.896907 -2.441335 -2.043680 -1.985805 -1.819356 -1.392579 -0.920855 -0.035335 0.470777 0.506453 0.096573 0.012520 0.002863 -0.185966 -0.477209 -1.763462 -2.845833 -4.127157 -3.441249 -1.730919 -0.703852 -0.585417 -1.395520 -2.411264 -3.147723 -3.335192 -3.255512 -2.855078 -2.029739 -1.954946 -1.661946 -1.688981 -1.696489 -1.305741 -0.559194 -0.165515 0.319759 0.532689 0.088933 -0.053099 -0.022963 -0.163451 -0.498935 -1.651764 -2.941387 -4.190260 -3.399842 -2.037643 -1.016355 -1.152489 -1.774816 -2.653932 -2.722229 -2.293456 -1.873885 -1.662753 -1.378342 -1.560475 -1.633072 -1.694434 -1.563569 -0.946359 -0.457571 -0.136147 0.228214 0.299211 0.141917 0.028762 -0.010151 -0.156943 -0.486148 -1.581800 -2.769474 -3.825111 -3.128236 -2.207000 -1.606163 -1.700331 -2.143230 -2.263786 -1.902783 -1.435672 -1.002719 -0.686070 -1.165752 -1.505442 -1.547352 -1.612957 -1.157495 -0.933636 -0.653519 -0.365875 -0.001922 0.141292 0.065859 0.032726 0.027370 -0.060113 -0.372083 -1.220052 -2.070619 -2.970527 -2.527688 -2.030762 -1.864665 -2.016834 -2.134764 -1.699579 -1.279181 -0.577291 -0.334465 -0.383395 -0.720041 -0.965031 -1.201079 -1.352255 -1.207923 -0.837898 -0.714718 -0.413939 -0.183390 0.070202 0.076277 0.015870 0.002653 -0.049723 -0.243860 -0.792268 -1.339150 -2.063856 -1.800388 -1.675967 -1.919580 -2.172983 -2.171128 -1.912633 -1.145925 -0.570550 -0.349489 -0.451555 -0.888196 -1.200056 -1.412225 -1.310321 -0.986749 -0.747939 -0.467911 -0.395883 -0.182215 -0.013671 -0.004620 -0.051578 -0.007341 -0.089538 -0.080456 -0.278529 -0.609575 -0.993367 -1.105309 -1.079878 -1.455307 -1.968450 -2.097306 -1.682985 -1.255837 -0.914916 -0.618173 -0.758290 -1.001636 -1.107697 -1.123324 -0.937690 -0.652894 -0.511682 -0.369327 -0.249622 -0.172396 0.043223 -0.046683 0.026322 0.024827 -0.008448 -0.002348 0.051343 -0.033395 -0.224635 -0.353911 -0.668777 -1.115995 -1.565518 -1.851594 -1.548434 -1.357877 -1.197340 -1.147309 -1.060685 -1.133148 -0.961565 -0.829080 -0.779153 -0.489064 -0.292694 -0.162322 -0.074247 -0.146062 -0.012499 -0.068321 0.077062 -0.090997 -0.001977 -0.039220 0.168592 0.337646 0.212004 0.123997 -0.117871 -0.809835 -1.395285 -1.433819 -1.361947 -1.429497 -1.354856 -1.021027 -1.105699 -0.920330 -0.848040 -0.696905 -0.566031 -0.268472 -0.202148 -0.183323 -0.076780 -0.043834 0.067491 0.003078 0.030826 -0.098394 0.033833 -0.021142 0.238416 0.525345 0.643779 0.658852 0.344596 -0.313973 -0.780622 -0.943111 -0.978597 -1.098698 -0.993950 -0.868481 -0.770001 -0.687069 -0.623448 -0.380639 -0.250487 -0.123307 -0.129539 -0.056367 -0.014192 0.007429 -0.005836 -0.006515 0.022453 0.038005 0.006483 0.008260 0.187629 0.430589 0.627617 0.767475 0.450446 0.159335 -0.128124 -0.326267 -0.461598 -0.493084 -0.499208 -0.448626 -0.344279 -0.385730 -0.364497 -0.277162 -0.192992 -0.028070 -0.071149 -0.016079 -0.052134 -0.025955 0.057559 0.012572 -0.079526 -0.071571 0.006548 -0.013218 0.104375 0.197683 0.311283 0.534153 0.418320 0.247485 0.118383 0.042391 0.016030 -0.017472 -0.003266 0.033163 -0.013912 -0.055696 -0.030139 0.020501 -0.039050 0.019270 -0.100903 -0.098429 0.002255 -0.009029 -0.043312 0.034203 -0.027895 -0.039615 -0.017764 -0.012274 -0.011808 0.048584 0.076371 0.166196 0.078728 0.042964 0.038728 -0.030751 0.005630 0.023590 -0.047324 -0.030244 -0.075861 -0.039179 0.046089 0.014522 -0.010893 -0.020382 -0.022633 0.110287 0.083866 0.014329 -0.054004 -0.072328 -0.065526 0.033952 -0.006076 -0.018491 -0.036275 0.029783 0.016629 -0.039303 -0.002703 0.055206 0.017323 -0.041145 -0.059117 0.002424 -0.005366 0.019686 0.029798 0.048254 -0.007811 -0.007436 -0.022907 -0.033970 -0.011253 -0.003199 0.022516 -0.007782 0.041317 0.014931
0.020104 -0.010249 -0.019111 -0.019509 -0.034031 0.025477 -0.031307 -0.067950 -0.027766 0.069348 0.037172 0.024741 -0.040248 0.114135 0.014205 0.004874 -0.045446 -0.022823 -0.016458 -0.004547 -0.061870 -0.024755 0.016121 0.051280 -0.026429 0.056079 -0.037657 -0.002590 -0.011615 -0.002536 -0.055591 0.048520 -0.029570 -0.013404 0.006273 -0.061283 -0.021554 -0.014130 -0.004423 -0.020749 0.035964 0.072154 -0.122057 -0.048644 -0.024602 -0.037784 -0.005038 -0.009741 -0.040631 0.024611 0.006905 -0.053742 0.012512 -0.028417 0.013051 -0.017718 -0.010892 -0.072903 0.010843 -0.021717 0.023874 0.005934 -0.019535 0.023248 -0.098999 0.058717 0.042820 0.086017 0.004727 -0.036616 -0.004063 -0.030274 0.008712 0.070835 0.065964 0.047886 0.062880 0.087382 0.006439 0.122536 0.002905 0.073991 0.006373 0.073275 -0.009700 -0.039909 -0.000731 0.006117 0.024011 0.057407 0.075065 0.047824 -0.017661 -0.152860 -0.053958 -0.000720 0.123231 0.102748 0.140791 0.043154 0.135726 0.206690 0.047570 0.071422 0.106003 0.083548 0.053449 0.073947 0.101088 -0.010298 0.019500 -0.031922 -0.092381 -0.004157 0.000393 0.023334 -0.049328 0.028658 -0.006854 -0.074290 -0.243574 -0.666773 -0.116237 0.295693 0.440966 0.275862 -0.115884 -0.032486 0.081141 -0.125295 -0.314789 -0.357716 -0.214744 -0.143489 0.023857 0.058953 0.089024 -0.001456 -0.016204 -0.022987 -0.000860 -0.020545 0.057739 0.058348 -0.018315 0.079179 0.104658 -0.101329 -0.427496 0.776205 1.066440 1.502782 1.926742 1.203194 0.348202 -0.386154 -1.354562 -1.803287 -1.261442 -1.349300 -1.113508 -0.820757 -0.442670 -0.039378 0.116403 -0.104659 -0.017274 0.030931 0.011359 -0.018069 -0.009582 -0.026848 0.006073 -0.449414 0.212645 0.227405 0.174940 0.692483 1.545737 2.519989 2.957044 1.017965 0.021012 0.074973 -1.156711 -1.451341 -2.190414 -2.337427 -1.924649 -1.477890 -0.985590 -0.479738 0.015310 0.110787 0.021726 -0.096400 -0.061932 -0.003218 -0.008926 -0.103252 -0.473769 -0.518869 0.254894 -0.969844 0.514391 0.868827 2.301879 0.787490 2.124950 2.620760 1.701938 -0.513021 -0.291599 -1.237645 -3.055475 -3.095115 -2.867131 -2.387579 -1.824436 -0.685795 0.001648 -0.100006 0.094994 0.001277 0.062495 -0.020462 -0.051445 -0.083395 -0.534320 -1.031925 -0.805843 -1.008295 -0.529965 0.752093 0.409613 1.581627 1.989020 3.113466 2.429064 1.248428 1.776911 -0.694279 -3.457842 -3.639220 -3.825120 -3.344485 -2.563501 -1.217299 -0.165359 0.066806 0.283268 0.019034 0.071389 -0.013647 0.031480 -0.214986 -0.723995 -1.290052 -0.382402 -0.508766 0.646082 -0.741416 0.549265 0.629704 0.144472 2.488204 2.842653 2.349891 2.797264 1.376368 -2.757104 -4.843518 -4.672541 -4.096326 -3.005673 -1.376536 -0.081491 0.142183 0.433277 -0.055132 -0.001204 0.013094 0.000672 -0.291844 -0.612122 -1.403055 0.188381 -0.009493 -2.279165 -2.328726 -3.053145 -2.053849 0.643909 2.597107 3.796120 1.394312 2.745352 1.082984 -2.171788 -4.098790 -5.151535 -4.106495 -3.160603 -1.665123 -0.211707 0.605579 0.670421 -0.018067 0.044208 -0.080214 -0.047849 -0.355880 -0.902525 -1.693210 0.680629 -1.314562 -1.588120 -0.852041 -1.616647 -0.542304 0.515762 0.376257 2.078101 1.839703 1.135945 0.701226 -2.070516 -5.407488 -6.256700 -5.079130 -5.067504 -2.424438 -0.611771 0.911725 0.525720 -0.152694 0.012207 -0.072039 -0.121323 -0.397094 -1.332397 -2.110826 0.662808 -1.023539 0.725592 -0.525017 -2.451487 -0.065824 0.000043 0.237985 -0.006156 -0.437090 -1.095696 -0.445758 -4.062681 -5.508535 -5.206057 -4.292205 -3.772540 -2.032073 -0.659688 1.600764 0.693296 -0.047947 0.044886 0.090223 -0.018820 -0.506184 -1.980308 -4.338118 1.721404 1.279761 -0.043795 -1.632566 -1.037880 -0.540024 -0.264269 -0.794761 -1.549560 -1.886019 -2.195362 -0.456775 -2.681474 -3.347911 -2.913091 -3.129676 -3.523920 -2.452616 0.098603 2.678060 1.301575 0.093810 -0.054981 -0.002446 -0.029986 -0.507867 -2.349429 -5.315983 0.771460 1.886047 0.675968 -0.027920 -0.607711 -1.122875 -0.825902 0.289665 -1.387090 -2.521146 -3.649839 -0.998219 -1.476675 -3.095399 -3.057292 -3.143814 -1.342266 -1.145579 -0.669653 1.628124 1.593532 0.136470 -0.025689 -0.028559 0.013903 -0.541335 -2.611555 -5.614084 0.175864 1.222752 -0.245552 0.045792 -0.472972 0.040059 0.332084 -1.105572 -1.812465 -3.068048 -3.176179 -2.193031 -2.036087 -2.455771 -1.547822 -1.850467 -2.332574 -0.641869 1.116816 2.474843 0.646102 0.080297 0.007866 -0.082553 -0.000068 -0.349620 -2.275994 -6.261463 -1.893801 0.442229 0.142127 -1.069507 1.139866 0.934256 0.514622 0.107354 -0.588657 -1.111641 0.563796 0.551394 0.049774 -0.015098 -1.802688 -2.649067 -3.278847 -1.501944 -0.220735 2.930313 0.097396 0.132029 -0.011525 0.021525 0.013218 -0.271848 -2.076502 -5.731140 -3.855613 -2.024233 -0.253227 0.011655 0.755042 1.539680 2.088170 2.929931 2.319513 3.019888 1.171624 2.446427 0.724340 0.591792 0.062573 -2.422936 -2.867233 -2.664459 -1.130006 0.115932 -0.232306 0.064707 -0.060962 0.036469 0.049594 -0.027050 -1.750118 -4.330366 -2.355709 -2.954771 -1.900430 -0.952213 0.630469 2.217771 2.848227 2.461074 2.760622 2.531183 1.726052 1.553129 2.358923 1.163200 -0.005148 -1.346245 -0.947303 -0.475127 -0.429468 1.217781 -0.149474 0.067248 0.041246 -0.030447 0.031135 0.045326 -1.129578 -3.412041 -3.809101 -2.510330 -3.268774 -2.241119 1.188559 1.377924 2.501529 3.746559 2.791103 1.743766 0.537446 0.265517 1.702295 1.159952 0.444782 0.526731 0.423387 -0.936570 -0.536907 0.678979 0.182063 0.040191 -0.021627 0.005251 0.010790 0.081486 -0.814802 -2.224017 -3.621435 -3.689992 -1.730008 -1.090677 -0.364221 0.519871 3.075530 1.470590 0.772313 -0.804828 -1.841556 -0.960102 -1.220640 -0.141957 -0.561028 -0.531454 0.492901 1.152584 -0.036174 1.072483 0.312747 0.021455 0.055489 -0.067616 0.046246 0.043414 -0.467241 -1.433413 -2.460545 -2.771837 -2.559356 -0.896583 -0.571491 0.875451 1.018899 -0.004459 -0.052963 -0.902453 -1.724851 -2.489377 -2.457513 -1.899164 -1.032480 -0.156296 -0.310448 0.810035 1.205439 1.680281 0.026468 0.014863 0.041116 0.087636 0.034104 -0.024236 -0.157541 -0.599081 -1.309696 -1.775345 -2.164164 -1.813145 -1.338791 -1.201390 -0.901294 -1.137344 -1.596176 -1.949323 -2.372270 -2.779493 -2.160252 -1.722055 -1.378555 -0.960467 -0.467804 -0.277580 0.867121 1.079124 0.090597 0.017480 -0.037193 0.001974 -0.038801 -0.041973 0.011227 -0.208958 -0.683368 -1.501874 -1.618668 -1.476981 -0.873248 -0.785847 -0.745495 -1.206368 -1.866125 -2.202546 -1.792234 -2.002411 -1.743251 -1.237870 -1.022241 -1.015158 -0.781467 0.032179 0.487948 0.165085 0.057734 -0.005191 -0.009406 -0.023282 0.016152 0.067667 -0.025627 -0.086319 -0.253041 -1.169825 -1.231616 -1.146614 -0.418531 -0.497030 -0.380739 -0.546553 -1.478285 -1.595395 -1.179809 -1.108226 -1.379209 -0.655956 -0.380444 -0.331857 -0.419952 -0.077300 -0.059931 0.080511 -0.062681 0.106399 -0.075597 0.019216 -0.020184 0.062463 0.100693 -0.003589 -0.052372 -0.210021 -0.114020 0.028455 -0.012175 -0.105994 -0.331995 -0.291281 -0.511737 -0.443006 -0.373263 -0.466068 -0.257917 -0.212334 -0.079951 -0.081446 0.068294 -0.153727 0.019914 -0.069449 -0.046400 -0.057331 0.061547 0.061335 0.036358 -0.037485 0.003571 -0.076594 0.007395 -0.106263 -0.155765 -0.146806 -0.004620 -0.042814 -0.323309 -0.148806 -0.231619 -0.244571 -0.288745 -0.274773 -0.279627 -0.021480 0.015730 -0.051811 0.006620 -0.020116 0.054281 -0.038686 -0.026356 0.016928 0.016851 0.004462 -0.009046 0.031972 -0.011308 0.076888 -0.014336 -0.096604 -0.122610 -0.041700 0.020740 -0.005573 0.013739 -0.040429 0.010676 -0.002110 0.000968 -0.070319 -0.101982 -0.052474 -0.061447 -0.017113 0.018979 -0.015590 -0.009881 -0.008391 0.005880 -0.043531
-0.027754 -0.005733 0.011207 0.006421 -0.071184 -0.048088 0.011668 -0.014916 -0.033204 0.076954 -0.027021 -0.016780 0.011668 0.028154 0.011444 0.044823 -0.057022 0.030189 -0.062036 0.051445 0.070381 -0.063777 0.056321 -0.066826 0.078088 0.090203 -0.059123 -0.044077 -0.022756 -0.003115 -0.041463 0.037300 -0.046990 -0.043891 -0.017564 -0.019203 0.014236 0.030965 0.006066 -0.022524 -0.027930 -0.042526 0.087285 0.014255 0.021603 0.026343 -0.041488 -0.012018 0.041310 -0.064645 -0.024560 -0.007384 0.028809 -0.040631 -0.024715 -0.050933 0.018525 -0.020461 0.006066 0.022568 0.024484 -0.048369 -0.002465 -0.044394 -0.094573 -0.106024 -0.070848 -0.103013 -0.015356 0.079298 -0.016160 0.084191 0.014101 -0.001535 -0.072670 -0.030671 -0.050888 -0.122136 -0.004938 -0.069156 0.010750 -0.025759 0.084841 -0.000466 -0.026733 0.037714 -0.016091 0.001107 0.055971 -0.002806 -0.027218 -0.072937 -0.115796 -0.249596 -0.192870 -0.219705 -0.126416 0.014800 -0.065923 0.114626 0.021832 -0.025266 0.014644 -0.004779 -0.079588 -0.062180 -0.072047 0.015260 -0.021216 -0.060274 0.010430 0.046077 -0.027130 0.027632 -0.030764 -0.008563 0.018593 -0.055877 -0.072159 -0.166700 -0.393226 -0.328670 -0.394086 -0.376639 -0.201321 -0.040041 -0.029707 -0.011644 0.044088 0.021199 0.013745 0.060449 0.065261 -0.010133 -0.139903 -0.163620 -0.114413 -0.006756 0.054023 0.027253 -0.021385 -0.009243 -0.006042 -0.066113 -0.013533 0.041558 -0.013739 -0.282900 -0.615384 -0.743359 -0.503201 -0.300180 -0.165270 -0.043984 -0.016725 0.032823 -0.013825 0.119830 0.038060 -0.087153 -0.286751 -0.242773 -0.310966 -0.331692 -0.293746 -0.104569 -0.044783 -0.109380 0.031548 -0.004350 -0.069008 0.053802 0.067233 0.025457 -0.236629 -0.628046 -0.911718 -0.877133 -0.940676 -0.491597 -0.324193 -0.120218 -0.029007 0.187756 0.383884 0.208742 -0.158712 -0.518991 -0.728128 -0.941227 -0.863597 -0.769611 -0.376633 -0.158346 -0.162603 -0.059349 0.036644 -0.064728 -0.051292 0.050766 0.137511 -0.087614 -0.322184 -0.855702 -1.253123 -1.383706 -1.020610 -0.596726 -0.086741 0.253804 0.187910 0.643574 0.597972 0.362023 -0.256923 -0.811966 -1.114098 -1.361338 -1.323323 -1.413667 -0.850038 -0.449563 -0.199069 -0.035646 -0.065214 -0.071764 0.003610 0.146161 0.145689 -0.072005 -0.432992 -1.150127 -1.751206 -1.659217 -1.123076 -0.571178 -0.369175 -0.161618 0.087634 0.728341 0.885791 0.422173 -0.246202 -0.789042 -1.288500 -1.812848 -1.846998 -2.020129 -1.140630 -0.481404 -0.414632 -0.019552 0.009261 0.047529 -0.070565 0.129106 0.222713 -0.149184 -0.601230 -1.496244 -1.690419 -1.565164 -0.952971 -0.890152 -0.841154 -0.763453 -0.295683 0.463480 1.096180 0.689037 -0.076691 -0.902821 -1.482835 -2.148931 -2.413334 -2.592645 -1.475774 -0.621174 -0.385960 -0.065182 -0.029556 0.023692 -0.075861 0.201727 0.064973 -0.412189 -1.007640 -1.434404 -1.506913 -1.383065 -1.640540 -1.603006 -1.725182 -1.670342 -0.645248 0.504247 1.331497 0.946039 -0.081219 -0.971355 -1.813637 -2.511112 -2.953999 -2.846236 -1.514896 -0.403266 -0.428499 -0.028345 -0.017778 -0.012534 -0.080351 0.224021 -0.015012 -0.628683 -1.042391 -1.399648 -1.574092 -1.670257 -2.051907 -2.461968 -3.048609 -2.595988 -1.052789 0.602792 1.620864 1.089229 0.083055 -0.982163 -2.079333 -3.039525 -3.121884 -3.128214 -1.592629 -0.489444 -0.537602 -0.138983 -0.012810 0.000076 0.053966 0.270899 -0.011858 -0.990213 -0.926236 -1.173855 -1.642796 -2.154034 -2.976011 -3.579576 -3.534195 -2.595654 -0.848294 0.613064 1.618508 0.923184 0.008001 -1.088433 -2.013760 -3.152690 -3.277975 -3.130950 -1.712218 -0.404374 -0.388258 -0.103427 0.018450 0.071158 -0.065689 0.079710 -0.292868 -1.259251 -0.973242 -1.319185 -2.111542 -3.150990 -3.838249 -3.910781 -3.185800 -2.235534 -0.736607 0.562239 0.886864 0.407459 -0.110401 -1.062206 -2.419101 -3.464670 -3.457036 -3.051685 -1.515282 -0.341139 -0.350892 -0.074251 -0.023953 0.009008 -0.199515 -0.041897 -0.571463 -1.615118 -0.875121 -1.470159 -2.281684 -3.343095 -3.946851 -3.454540 -2.692128 -1.623001 -0.661892 -0.144069 0.009497 0.060217 -0.318978 -1.319195 -2.729230 -3.600269 -3.408390 -2.766107 -1.288939 -0.336960 -0.272110 -0.114723 0.020255 0.000368 -0.312824 -0.245735 -0.718003 -1.751670 -0.712718 -1.148591 -2.514561 -3.315702 -3.400691 -2.575631 -1.769837 -1.349858 -1.176183 -0.709163 -0.166670 -0.161737 -0.542659 -1.744928 -2.776220 -3.479354 -3.075754 -2.165436 -0.908553 -0.061159 -0.289425 -0.061278 -0.062747 -0.025288 -0.384491 -0.485898 -0.712584 -1.730669 -0.567466 -0.974222 -2.017517 -2.649933 -2.445516 -1.726869 -0.969437 -0.919694 -1.094054 -0.839925 -0.309176 -0.458499 -1.015073 -1.782528 -2.765535 -2.970299 -2.449609 -1.410399 -0.368429 0.073956 -0.167031 -0.121156 -0.030269 -0.069449 -0.448231 -0.653276 -0.854511 -1.444473 -0.442961 -0.875248 -1.411679 -1.796297 -1.412216 -0.656133 -0.388029 -0.567870 -0.708037 -0.787274 -1.019261 -1.002637 -1.507071 -2.046588 -2.304488 -2.337119 -1.316395 -0.470496 0.166304 0.459345 -0.030843 -0.038161 -0.034381 0.020020 -0.361794 -0.523112 -0.753219 -1.226976 -0.486999 -1.114752 -1.436051 -1.129110 -0.651273 0.096185 0.096501 -0.208366 -0.760936 -1.191864 -1.588948 -1.721530 -2.154326 -2.233546 -1.762928 -1.051463 -0.350505 0.181335 0.422305 0.562512 0.014348 -0.089155 -0.026330 0.024448 -0.245847 -0.377155 -0.692868 -1.230861 -0.732404 -1.261681 -1.271082 -0.900237 -0.152568 0.363941 0.407718 -0.161496 -0.875022 -1.674072 -2.136051 -2.209727 -1.916843 -1.539620 -0.868008 -0.332479 0.147043 0.225790 0.479350 0.318344 -0.029849 -0.021959 0.034486 -0.013872 -0.075953 -0.191040 -0.514899 -0.872009 -0.929769 -1.329166 -1.264871 -0.947277 -0.183286 0.137938 -0.126899 -0.647696 -1.373934 -1.703340 -1.982249 -1.744387 -1.375791 -0.720823 -0.242657 -0.042193 0.353201 0.368215 0.292532 0.313502 -0.007653 -0.074807 -0.033043 -0.004006 -0.076050 -0.104061 -0.256284 -0.736904 -0.805954 -1.179484 -1.302009 -1.048496 -0.503440 -0.189936 -0.569563 -0.977787 -1.201967 -1.504591 -1.355204 -1.056646 -0.684383 -0.162252 0.083119 0.281886 0.355960 0.278478 0.219752 0.197301 0.069317 -0.119181 0.017327 -0.010672 0.001121 -0.051595 -0.256439 -0.467196 -0.724576 -1.023651 -1.099458 -0.784141 -0.426598 -0.411090 -0.660265 -0.742586 -0.933712 -0.876318 -0.715869 -0.402538 0.027871 0.271650 0.362066 0.281774 0.172273 0.164075 0.043039 0.111325 -0.009672 0.061408 -0.053641 -0.004232 0.035259 -0.003043 -0.205966 -0.399113 -0.683935 -0.854954 -1.097401 -0.754794 -0.353160 -0.558845 -0.585262 -0.545571 -0.615582 -0.576713 -0.216324 0.050442 0.268584 0.392041 0.353792 0.290140 0.134961 0.140602 0.115086 0.002354 0.039758 0.045671 -0.028179 -0.010642 0.014376 -0.060042 0.008440 -0.282082 -0.584534 -0.684413 -0.775402 -0.565249 -0.293582 -0.276713 -0.291715 -0.310824 -0.299580 -0.270521 -0.086982 0.300376 0.381464 0.410108 0.206168 0.100877 0.069925 0.064367 0.029325 0.115266 0.000576 -0.051486 -0.008015 -0.081830 0.063081 0.056864 -0.037990 -0.100175 -0.384295 -0.526418 -0.462185 -0.306330 -0.120661 -0.046014 -0.093438 -0.049836 -0.032942 -0.019217 0.088933 0.205195 0.113841 0.071943 0.051992 0.028781 0.086762 0.011935 0.021865 0.005423 -0.080813 -0.073825 0.057247 0.013854 0.027555 -0.050545 -0.029241 -0.035950 0.008222 -0.112330 -0.220258 -0.095459 -0.013849 0.028769 0.009651 0.061286 -0.060493 0.011387 0.000530 0.033377 0.017662 0.018060 0.079772 -0.012571 0.032589 0.029223 -0.004326 -0.051520 -0.039879 0.031551 0.030240 0.055407 0.065872 -0.013133 0.005247 0.091893 -0.008474 -0.064402 -0.016896 0.023922 0.022753 -0.007487 0.034748 0.017830 0.050457 0.023475 -0.015160 0.047993 -0.079410 -0.006557 -0.008253 0.003891 -0.021052 0.104879 0.074901 0.003531 0.034749 -0.043132
0.028019 0.014658 0.013133 0.044942 0.050390 -0.040800 -0.025168 0.102862 -0.047473 -0.054347 0.069157 -0.035981 -0.005318 0.017545 0.027195 0.037173 0.015028 0.025608 0.077862 0.049002 -0.004493 0.009101 -0.060566 -0.012222 0.015905 -0.021315 0.021679 0.016898 -0.097560 -0.011065 -0.059252 0.055618 0.019253 -0.091280 0.011832 0.044285 -0.008926 -0.018306 -0.020916 0.002902 0.026028 -0.005793 -0.053596 -0.036814 0.017230 -0.005380 0.056565 0.050215 -0.009936 -0.058465 -0.046118 0.007327 0.001849 -0.055728 0.044756 0.031600 -0.029844 -0.092446 -0.038522 0.020277 -0.004705 0.047621 -0.027740 0.038569 -0.019340 -0.007329 -0.048039 0.026713 0.008633 -0.044778 0.079089 -0.096726 -0.037452 -0.022474 -0.000053 -0.001155 -0.028669 0.020384 -0.037634 -0.053875 -0.054341 0.032564 0.000752 0.028091 -0.104220 0.000806 0.012952 -0.050254 0.009598 -0.021227 0.018407 -0.056338 -0.099799 -0.043201 -0.046664 -0.127664 -0.015803 -0.012770 0.017662 0.026898 -0.054688 0.055689 -0.063496 -0.046506 -0.217153 -0.101646 -0.109304 -0.058151 0.034462 -0.000421 -0.042383 0.077067 0.060093 0.056939 0.040735 -0.035478 -0.007311 -0.006915 -0.123502 -0.072653 -0.194127 -0.196934 -0.166589 -0.117823 -0.091268 -0.035656 -0.061170 -0.015328 -0.075176 -0.143008 -0.242173 -0.162849 -0.204791 -0.228830 -0.136547 -0.139432 -0.046737 -0.093085 0.031574 -0.059271 -0.022198 0.073062 -0.038226 -0.010524 -0.012117 -0.104141 -0.062210 -0.161115 -0.310332 -0.250250 -0.309027 -0.264715 -0.230850 -0.329112 -0.380051 -0.358053 -0.400961 -0.315579 -0.380996 -0.562398 -0.600206 -0.471847 -0.340729 -0.237271 -0.095788 -0.096990 0.003811 -0.024927 -0.005024 0.059167 0.063353 -0.002090 -0.036011 0.000305 -0.257441 -0.417895 -0.543144 -0.705173 -0.637108 -0.572297 -0.624127 -0.531667 -0.730997 -0.613174 -0.521208 -0.616099 -0.891824 -1.051276 -0.966504 -0.890648 -0.654268 -0.408734 -0.171095 -0.060586 -0.027829 -0.064258 -0.051055 0.045445 0.011476 0.064391 -0.007739 -0.145941 -0.383625 -0.689151 -0.816261 -1.006682 -0.986245 -0.863825 -0.920078 -0.946592 -1.015431 -0.966807 -0.705470 -0.923592 -1.152812 -1.368638 -1.269509 -1.169151 -0.742977 -0.582983 -0.391940 -0.254140 -0.139229 -0.064548 0.006674 0.011201 -0.060652 -0.047726 -0.021444 -0.256874 -0.736081 -1.123390 -1.394895 -1.435379 -1.464858 -1.369450 -1.422246 -1.479579 -1.525343 -1.244551 -1.130205 -1.126201 -1.273022 -1.237719 -1.198277 -1.083107 -0.765510 -0.560364 -0.545175 -0.392538 -0.120812 -0.006683 -0.006886 0.015101 -0.070874 -0.070846 -0.172840 -0.522634 -1.051071 -1.593740 -1.854690 -1.934220 -1.961019 -1.896852 -2.125729 -2.275743 -2.069265 -1.837437 -1.388041 -1.271368 -1.097620 -0.942282 -1.095032 -0.921123 -0.884074 -0.820825 -0.707180 -0.369565 -0.177424 -0.037821 -0.011511 -0.052077 -0.051208 0.004111 -0.312425 -0.901875 -1.458148 -1.982281 -2.240650 -2.165226 -2.405847 -2.454362 -2.663331 -2.818964 -2.543376 -2.074312 -1.482085 -0.775921 -0.651698 -0.638034 -1.008260 -1.385568 -1.247855 -1.146116 -0.919343 -0.499186 -0.245166 0.005336 0.005767 0.005489 -0.056172 -0.080317 -0.431220 -1.050880 -1.784947 -2.309612 -2.456582 -2.499121 -2.594627 -2.891508 -3.141452 -3.271158 -2.715928 -1.740860 -0.660219 -0.254863 -0.065704 -0.299467 -0.992127 -1.659646 -1.685182 -1.708486 -1.145551 -0.547105 -0.272571 -0.046240 -0.021804 -0.017123 -0.114125 -0.155123 -0.458143 -1.326636 -1.956970 -2.384904 -2.377201 -2.400617 -2.512974 -2.786654 -2.783597 -2.317785 -1.443984 -0.497634 0.296696 0.504707 0.377070 -0.133927 -1.102203 -1.902767 -2.034023 -1.893597 -1.387700 -0.537775 -0.231573 -0.103716 -0.066856 -0.039824 -0.152371 -0.126835 -0.572842 -1.189699 -1.857581 -2.277273 -2.140787 -1.972175 -1.848626 -1.639574 -1.060845 -0.478152 0.032546 0.275186 0.712320 0.871091 0.558068 -0.329030 -1.515670 -2.267662 -2.240195 -1.838682 -1.210440 -0.443900 -0.189623 -0.060592 -0.032194 -0.005513 -0.232256 -0.348105 -0.552609 -1.449811 -1.783302 -2.047231 -1.565600 -1.207758 -0.747132 -0.279000 0.161115 0.153653 -0.068262 0.065070 0.427388 0.300962 -0.003067 -1.121497 -2.092069 -2.611218 -2.213015 -1.520825 -0.982428 -0.526271 -0.127794 -0.112792 -0.006660 -0.091161 -0.281548 -0.405534 -0.637162 -1.294380 -1.630806 -1.761174 -1.295233 -0.622757 -0.133761 0.192760 0.203790 -0.141368 -0.459668 -0.383862 -0.489547 -1.032838 -1.400981 -1.905791 -2.460510 -2.693393 -2.107078 -1.287368 -0.752992 -0.234538 -0.192498 -0.059166 0.022470 -0.004355 -0.337164 -0.571791 -0.744669 -1.247994 -1.537934 -1.416503 -1.026680 -0.795799 -0.442196 -0.384417 -0.490105 -1.041494 -1.789065 -1.937049 -2.017905 -2.029725 -2.224280 -2.423669 -2.626139 -2.551963 -1.860454 -1.047344 -0.518645 -0.219286 -0.107373 -0.045751 -0.014043 0.021107 -0.383775 -0.655122 -0.688592 -0.816429 -0.899765 -1.090533 -1.119297 -1.054657 -1.005933 -1.061294 -1.313282 -2.052038 -2.593598 -2.640326 -2.531924 -2.504375 -2.586529 -2.710506 -2.755636 -2.340799 -1.449402 -0.722331 -0.260961 -0.023121 -0.083663 -0.023479 -0.036323 0.042375 -0.284549 -0.567474 -0.295681 -0.363270 -0.505503 -0.989627 -1.131281 -1.490832 -1.521599 -1.469929 -1.879485 -2.177595 -2.335088 -2.420947 -2.446177 -2.448028 -2.570398 -2.502212 -2.253760 -1.660491 -0.935233 -0.476534 -0.158370 -0.105165 -0.085910 -0.111451 0.022763 0.076744 -0.189318 -0.421560 -0.121370 -0.017723 -0.214088 -0.957183 -1.378620 -1.680731 -1.760840 -1.806525 -1.776625 -1.766704 -1.808500 -2.055856 -2.168794 -2.322571 -2.159444 -1.900390 -1.450424 -0.977787 -0.580511 -0.183168 -0.097438 -0.076545 -0.086307 0.060760 0.019871 -0.051512 -0.136689 -0.241739 0.048095 -0.044634 -0.312397 -1.039740 -1.528440 -1.892794 -1.881675 -1.593627 -1.522661 -1.453555 -1.488961 -1.605518 -1.897146 -1.820568 -1.718955 -1.194853 -0.879535 -0.475679 -0.235621 -0.020713 -0.056640 0.001891 -0.018923 0.030758 -0.038550 -0.016775 -0.030563 -0.053612 0.084071 -0.022817 -0.351127 -1.014958 -1.407394 -1.609690 -1.427014 -1.118749 -1.042524 -1.123495 -1.160717 -1.384902 -1.405160 -1.318114 -1.042285 -0.699891 -0.342135 -0.191998 -0.056430 -0.015995 0.047671 0.023716 -0.031515 0.006483 -0.042022 -0.051566 -0.001183 -0.080341 0.014981 -0.094570 -0.367639 -0.774190 -1.137272 -1.219492 -0.998945 -0.911342 -0.782096 -0.778944 -0.948706 -0.849686 -0.814377 -0.730092 -0.576139 -0.213756 -0.237500 -0.064014 -0.007981 0.066763 -0.001562 -0.025697 0.025336 0.029839 -0.014104 0.018183 -0.026019 -0.041089 -0.076190 -0.060886 -0.233486 -0.556982 -0.779408 -0.811515 -0.608153 -0.441865 -0.520125 -0.558697 -0.576340 -0.600773 -0.499318 -0.296035 -0.199950 0.003039 0.016734 0.076295 0.010325 0.065784 -0.041847 -0.029197 0.000579 -0.032753 0.034101 -0.036454 -0.025803 0.006271 -0.077631 -0.059964 -0.175869 -0.431022 -0.536742 -0.503893 -0.276596 -0.214411 -0.189678 -0.280762 -0.285970 -0.295088 -0.214005 -0.173989 -0.030006 0.041000 0.103010 0.002844 0.114111 0.011935 0.036122 -0.085155 0.040344 0.012452 0.004600 0.013947 -0.017274 0.040802 -0.052237 -0.091430 -0.095421 -0.236065 -0.338684 -0.257091 -0.047011 -0.020375 -0.044189 -0.054844 -0.067978 0.018832 0.036805 0.056136 0.006861 -0.010661 0.114985 0.066231 0.025743 0.060968 0.056261 0.071083 0.058163 0.075406 -0.007691 -0.037050 -0.066072 0.044573 -0.076072 -0.027552 -0.033828 -0.090611 -0.071745 -0.038117 0.030750 -0.008215 -0.000623 -0.032821 0.049581 -0.040036 0.026680 -0.018868 0.014131 -0.007257 0.051965 0.002902 -0.012436 0.056047 -0.019337 -0.092431 0.056558 0.029474 0.032940 0.084586 -0.012531 -0.051026 -0.068658 0.076183 -0.097696 0.077508 -0.048527 -0.094273 -0.012189 -0.070513 0.055982 0.030508 0.029295 -0.022279 0.042444 0.021885 -0.015760 0.007178 -0.006694 0.024750 0.014294 0.064142 -0.053776 0.019070 -0.000118 -0.029052
-0.042048 -0.003952 -0.075574 -0.064180 0.077738 -0.020160 -0.005301 0.074086 0.075894 0.008768 -0.004944 -0.034913 -0.014779 0.039953 -0.068078 -0.012546 0.052796 -0.025107 0.040193 0.023497 -0.079385 0.063501 0.042521 0.013766 0.020505 -0.081482 0.009206 -0.032212 -0.056810 -0.021789 0.057315 -0.013198 0.042474 -0.012142 0.000542 0.059387 -0.008200 -0.070524 -0.021540 -0.055541 -0.022681 0.044048 -0.008421 0.011101 0.025425 -0.007332 0.054779 -0.027835 -0.010211 -0.005226 0.040828 -0.060336 0.054550 0.000351 -0.089764 -0.026460 0.016272 -0.063003 0.009572 -0.017095 -0.044715 0.010419 0.016422 -0.017629 0.052596 -0.065003 -0.024191 -0.064310 -0.041564 -0.034265 -0.022580 0.014999 0.046867 0.069136 0.090771 -0.031639 -0.001330 -0.001289 -0.051808 0.018116 0.035283 -0.017679 0.024540 0.044951 -0.004158 -0.051329 0.003385 -0.068813 0.027609 -0.048482 0.031880 -0.015511 -0.069255 -0.100106 -0.096051 -0.055586 -0.120660 -0.039850 -0.057747 -0.026847 0.009658 0.007766 -0.004019 -0.014965 0.026541 0.116586 0.008461 0.067809 -0.011238 -0.059020 0.013975 -0.074677 0.063231 -0.063534 0.065862 0.034228 0.033925 -0.004193 0.018252 -0.012095 -0.177051 -0.315882 -0.185930 -0.195496 -0.140113 -0.074564 -0.166806 -0.064589 -0.093739 -0.160131 -0.129546 -0.067801 -0.012536 0.013080 0.064502 0.125294 0.050788 -0.009564 -0.006739 -0.018110 0.011219 -0.031108 0.001724 0.076485 -0.014449 -0.023995 -0.027525 -0.137346 -0.372167 -0.503067 -0.342966 -0.417567 -0.384483 -0.350750 -0.533544 -0.519365 -0.622992 -0.631454 -0.504115 -0.329784 -0.161185 -0.116233 -0.075380 -0.046991 0.023814 -0.055120 -0.011622 0.016038 -0.000894 -0.023176 -0.073946 -0.003846 0.013783 -0.015278 -0.101131 -0.393026 -0.646293 -0.774844 -0.850344 -0.584998 -0.548736 -0.599775 -0.711092 -0.994009 -1.143414 -1.186810 -0.968392 -0.652534 -0.309314 -0.218909 -0.153465 0.038815 0.002351 -0.004733 -0.054066 0.106406 0.003144 -0.024828 -0.045690 -0.079910 -0.092043 -0.109705 -0.127886 -0.538429 -0.953241 -1.131689 -1.094983 -0.835475 -0.695665 -0.541530 -0.855689 -1.270315 -1.590605 -1.688246 -1.565318 -1.087237 -0.679649 -0.445632 -0.284682 -0.062192 0.052321 -0.042626 -0.075133 -0.027598 0.108158 0.010029 -0.072376 -0.074623 -0.071143 -0.171927 -0.360530 -0.870050 -1.312202 -1.494372 -1.357398 -0.991139 -0.665438 -0.686654 -0.862868 -1.281962 -1.979999 -2.187243 -2.175657 -1.829203 -1.237222 -0.756702 -0.344202 -0.045682 -0.094358 -0.165294 -0.182556 -0.002313 -0.031775 0.072507 -0.014217 -0.137945 -0.210448 -0.345170 -0.687388 -1.388284 -1.836297 -1.912947 -1.570476 -1.224707 -0.812583 -0.691705 -0.847635 -1.463884 -2.202216 -2.628236 -2.678946 -2.313089 -1.767568 -1.132855 -0.550951 -0.202428 -0.245601 -0.233834 -0.220445 -0.109597 0.090229 -0.050802 0.002288 -0.184615 -0.171351 -0.472050 -0.740144 -1.431017 -2.080021 -2.154331 -1.921162 -1.528502 -1.100245 -0.850362 -1.095696 -1.693214 -2.231406 -2.745591 -2.677898 -2.497457 -2.186223 -1.484537 -1.064178 -0.518901 -0.226460 -0.134261 -0.326527 -0.006964 -0.054565 0.008517 -0.065549 -0.216718 -0.142101 -0.608697 -0.773661 -1.621162 -1.915272 -2.071072 -1.994038 -1.327177 -1.122834 -0.969492 -1.009948 -1.594423 -2.106317 -2.474700 -2.488106 -2.576121 -2.454945 -2.005136 -1.339713 -0.652429 -0.332852 -0.189819 -0.258933 -0.019593 -0.015809 -0.025264 -0.122788 -0.345932 -0.240356 -0.567608 -0.915667 -1.312378 -1.742015 -1.907513 -1.534802 -0.937517 -0.427031 -0.014212 -0.029240 -0.701157 -1.424720 -1.940655 -2.197599 -2.219171 -2.164205 -2.032055 -1.435111 -0.715412 -0.428621 -0.177838 -0.185900 -0.077763 0.003121 0.085153 -0.157910 -0.334531 -0.407192 -0.749765 -0.845114 -1.113109 -1.324273 -1.294736 -0.582568 0.104783 0.832376 1.272075 0.846031 -0.091873 -0.749861 -1.367858 -1.412605 -1.618848 -1.806400 -1.895805 -1.206674 -0.490169 -0.341708 -0.250481 -0.178684 -0.047183 -0.024048 -0.034481 -0.244856 -0.648773 -0.771525 -1.171443 -0.807437 -0.667089 -0.656488 -0.615152 0.088546 1.041486 1.374962 1.233646 0.471129 -0.426643 -1.098310 -1.198043 -1.146632 -1.624185 -1.739364 -1.563373 -0.690260 0.016797 -0.276061 -0.237041 -0.201761 0.005749 0.079109 -0.077762 -0.307440 -0.747242 -1.021425 -1.573900 -0.946694 -0.792030 -0.565924 -0.582853 0.090777 0.642981 0.717279 0.383621 -0.434472 -0.959210 -1.350848 -1.374767 -1.606571 -1.709731 -1.607589 -1.220495 -0.620210 0.025626 -0.318434 -0.282604 -0.246445 -0.025216 0.057229 -0.039382 -0.315054 -0.897809 -1.258210 -1.791846 -1.194732 -1.058852 -0.861454 -1.006314 -0.629601 -0.534460 -0.656793 -1.071237 -1.650638 -1.808954 -1.814889 -1.706047 -1.723919 -1.778667 -1.675355 -1.213377 -0.412850 0.053899 -0.284742 -0.036077 -0.126995 -0.034615 0.016140 -0.023256 -0.316218 -0.929971 -1.227867 -1.689990 -1.184007 -1.197858 -1.363546 -1.486360 -1.472925 -1.499252 -1.755106 -1.988142 -1.919475 -1.801236 -1.786424 -1.797886 -1.904807 -2.010274 -1.865608 -1.284415 -0.539962 -0.097653 -0.147179 0.098334 -0.069418 -0.000599 -0.011081 -0.016246 -0.268724 -0.713140 -0.965269 -1.166023 -0.927718 -1.164324 -1.360314 -1.571428 -1.936714 -2.181261 -2.069696 -1.884068 -1.669919 -1.545077 -1.637446 -1.523383 -1.595293 -1.634990 -1.391899 -1.050498 -0.412395 -0.097479 -0.094724 0.105673 -0.039430 -0.049291 0.001801 0.020078 -0.209652 -0.541295 -0.437415 -0.627053 -0.609544 -1.086397 -1.528453 -1.914124 -2.073873 -2.373417 -2.164405 -1.845630 -1.511810 -1.304976 -1.546218 -1.450035 -1.447444 -1.239444 -1.089958 -0.824039 -0.385386 -0.114113 -0.044368 0.090471 -0.072327 -0.007219 0.006350 0.076360 -0.042347 -0.232084 -0.226225 -0.311376 -0.386818 -0.937803 -1.340945 -1.939632 -2.173766 -2.264433 -2.088311 -1.729412 -1.571636 -1.426373 -1.372775 -1.259742 -1.177520 -0.907683 -0.741213 -0.556416 -0.331280 -0.084454 0.010098 0.083153 0.010881 0.041511 -0.014827 -0.011505 -0.111448 -0.010381 -0.049101 -0.179398 -0.264371 -0.683669 -1.228401 -1.626625 -1.801704 -1.833097 -1.678743 -1.664467 -1.476620 -1.353240 -1.169268 -1.111768 -0.882323 -0.830720 -0.678790 -0.410443 -0.253808 -0.003893 -0.002107 0.082370 -0.006927 0.008338 -0.043720 -0.066645 -0.051144 -0.067631 -0.012106 0.058565 -0.184271 -0.386329 -0.715623 -1.078890 -1.228810 -1.265203 -1.229013 -1.284775 -1.269248 -1.066177 -0.998265 -0.870670 -0.615962 -0.555242 -0.491052 -0.386094 -0.175193 -0.028469 0.007310 0.003287 0.043076 0.016637 -0.065677 -0.036676 0.012194 0.043359 0.050426 0.121148 0.104422 0.025212 -0.221289 -0.521244 -0.763681 -0.749894 -0.755640 -0.816273 -0.773953 -0.811615 -0.609637 -0.614676 -0.525608 -0.355575 -0.321145 -0.200750 -0.092486 -0.048790 -0.011961 -0.056519 -0.094816 0.043873 0.000109 -0.025484 -0.020806 0.097353 0.110040 0.142102 0.177627 0.210269 0.109702 -0.079764 -0.191556 -0.241541 -0.268951 -0.373673 -0.341081 -0.320448 -0.339732 -0.421890 -0.311081 -0.282573 -0.147317 -0.092868 -0.107285 -0.068282 0.014715 -0.000618 -0.053065 -0.048539 0.011632 0.070431 -0.071663 -0.013952 0.007081 0.006984 0.112544 0.288608 0.070272 0.019431 0.079631 -0.023839 -0.035445 -0.010782 -0.080206 0.016098 -0.008840 -0.188616 -0.123164 -0.017369 -0.061447 -0.026588 -0.092377 0.050892 -0.024058 0.030694 -0.004943 -0.096507 -0.001557 0.057322 0.011502 -0.001774 0.024528 0.045061 0.066005 -0.045063 0.020832 0.049740 -0.029147 0.080426 0.016504 0.001516 0.010565 -0.037318 -0.009673 -0.034205 0.007925 -0.052093 -0.035111 -0.064411 0.096190 0.060418 -0.022889 0.058981 0.042266 0.084976 -0.050101 -0.036235 -0.020952 -0.006849 0.006148 -0.027764 -0.002746 0.010792 0.055488 -0.009637 0.098276 -0.086018 -0.022891 -0.086361 -0.052209 0.010348 0.012959 -0.030065 -0.013068 -0.095471 -0.027413 0.034599 -0.032203 -0.003733 -0.078387 0.025004 -0.035688 0.114345
0.004724 0.030817 0.023391 -0.010311 0.043020 0.067914 -0.026642 0.002755 -0.068720 0.015430 -0.003679 0.034994 -0.047439 0.032478 -0.072470 -0.029525 -0.004336 0.055944 -0.039762 0.049736 -0.025818 -0.014458 0.008525 0.024473 -0.017518 -0.052845 -0.023965 0.051312 0.063233 0.061025 -0.016600 0.057107 0.023750 0.013822 0.016530 -0.000653 0.008287 0.018025 -0.013781 -0.050669 0.006915 -0.018473 0.016522 -0.007941 0.034358 -0.043943 0.045444 0.039902 -0.033560 0.004069 0.027142 -0.033660 -0.052643 -0.017334 -0.003851 0.039597 0.055069 -0.005219 0.005527 0.030951 0.030562 0.002518 0.114456 0.003098 -0.019908 0.007067 -0.004145 -0.014698 0.135293 0.117632 -0.003084 0.005646 -0.038400 0.050982 -0.043094 0.044450 -0.060044 -0.021532 0.023493 -0.025045 0.010263 -0.019755 0.081310 -0.051198 -0.020126 0.073036 0.030333 0.023265 0.017984 0.059895 0.031032 0.051075 0.010630 -0.038264 0.033303 -0.018123 -0.019074 -0.075121 -0.068192 0.002140 -0.093638 0.024433 -0.016488 -0.032643 0.021821 -0.002213 0.054811 -0.011185 -0.051918 -0.023200 -0.002559 0.003597 -0.004344 0.028546 0.009765 -0.005612 0.032445 -0.014322 -0.014623 0.018875 0.041859 -0.054560 0.032231 -0.066477 -0.099117 -0.219156 -0.234263 -0.330339 -0.376130 -0.494561 -0.470946 -0.395490 -0.344956 -0.269671 -0.114827 0.094449 0.012913 0.019289 0.012976 -0.009991 0.061761 0.014907 -0.011386 -0.006729 0.027036 0.008768 -0.030330 -0.024512 -0.220819 -0.210424 -0.309358 -0.383314 -0.722225 -0.892269 -1.129500 -1.433233 -1.535428 -1.603542 -1.678568 -1.669521 -1.347896 -1.029400 -0.519432 -0.206239 0.066160 -0.031368 -0.014295 -0.053495 -0.005452 0.068366 0.003040 0.007184 -0.037870 -0.057284 -0.098106 -0.180732 -0.394281 -0.476277 -0.720743 -1.145822 -1.442018 -1.712909 -1.984785 -2.240014 -2.346070 -2.585086 -2.778921 -2.909905 -2.737189 -2.177774 -1.419300 -0.648151 -0.165217 0.019967 -0.062526 -0.021168 -0.057047 -0.066014 0.004529 0.079138 0.046316 -0.155640 -0.263468 -0.538683 -0.821936 -1.307310 -1.584921 -2.004656 -2.519572 -2.701101 -3.112429 -2.937870 -2.895644 -2.834716 -3.109189 -3.454364 -3.496024 -3.291078 -2.372648 -1.147074 -0.311748 -0.112341 -0.067308 0.023867 0.015289 0.002133 0.086657 0.005778 -0.124276 -0.255140 -0.474060 -1.101799 -1.617298 -2.035849 -2.605861 -3.142071 -3.665516 -3.607772 -3.562451 -3.124414 -2.763257 -2.582052 -2.565318 -2.897269 -3.600715 -3.709570 -3.112861 -1.787582 -0.584818 -0.191377 -0.100435 0.099568 -0.000241 0.002676 -0.033645 0.029117 -0.180853 -0.502993 -1.171211 -1.897338 -2.370983 -3.124069 -3.592084 -3.989630 -4.181218 -3.983643 -3.579659 -2.989585 -2.440277 -1.901431 -1.630636 -2.116930 -3.034257 -3.660662 -3.807691 -2.611308 -0.940067 -0.277243 -0.100070 -0.047735 0.021639 0.058656 0.147935 -0.000785 -0.138728 -0.755242 -1.655966 -2.516726 -3.407798 -3.909683 -4.324505 -4.335982 -3.954072 -3.620734 -3.395182 -2.965802 -2.249006 -1.413384 -0.886337 -1.241507 -2.248959 -3.336682 -4.067768 -3.316688 -1.377453 -0.376778 -0.118183 0.047784 0.032460 -0.035942 0.102907 0.036170 -0.280495 -1.167955 -2.228636 -3.195526 -3.850215 -4.188577 -4.200726 -3.864687 -3.271653 -3.131002 -3.008561 -2.716999 -2.032374 -1.084086 -0.340442 -0.636221 -1.756207 -3.018427 -4.171487 -3.784604 -1.655117 -0.457494 -0.053395 0.079376 -0.033003 0.030615 0.116601 0.057179 -0.417604 -1.409609 -2.478279 -3.621649 -3.964052 -3.852985 -3.580539 -2.861937 -2.369964 -2.199831 -2.357073 -2.103239 -1.559824 -0.691509 -0.168887 -0.629747 -1.579889 -2.706575 -4.036689 -4.019913 -1.782478 -0.354676 -0.061689 0.019242 0.015762 0.133651 0.300924 0.158303 -0.469499 -1.680260 -2.771364 -3.671211 -3.717912 -3.127540 -2.407090 -1.541639 -1.100751 -1.309299 -1.575234 -1.621969 -1.258336 -0.722808 -0.536164 -1.005390 -1.946413 -2.708375 -3.955972 -3.862513 -1.772164 -0.374435 0.000452 -0.000915 0.069543 0.037687 0.248435 0.514807 -0.373878 -1.731484 -2.836965 -3.435444 -3.224310 -2.600586 -1.414564 -0.855954 -0.480260 -0.840516 -1.179145 -1.460351 -1.278025 -1.311089 -1.400084 -1.855238 -2.358920 -2.896806 -3.677262 -3.447226 -1.570368 -0.278515 0.038528 -0.036143 -0.022773 -0.039718 0.448916 0.742453 -0.353155 -1.879741 -3.017453 -3.624503 -3.211294 -2.073554 -1.107240 -0.732823 -0.602895 -0.924190 -1.128351 -1.444035 -1.864503 -2.239010 -2.508648 -2.572459 -2.674971 -3.028549 -3.530773 -3.144867 -1.388044 -0.334920 0.028444 -0.006719 -0.013116 -0.062515 0.600893 0.979951 -0.250861 -2.135557 -3.332226 -3.897571 -3.352259 -2.500474 -1.567017 -1.301934 -1.165981 -1.350663 -1.728848 -2.080774 -2.643936 -3.063824 -3.095103 -2.827739 -2.767659 -3.010000 -3.168967 -2.511386 -1.127178 -0.210469 0.070602 0.080520 -0.038480 0.061673 0.559665 1.047373 -0.333780 -2.353958 -3.632629 -4.328107 -3.986493 -3.380595 -2.586146 -2.116021 -1.946477 -2.006148 -2.196865 -2.425800 -2.865823 -3.221638 -3.042962 -2.812023 -2.835666 -2.978963 -2.828212 -2.052144 -0.984764 -0.213810 -0.077288 0.051066 -0.062773 -0.003414 0.447323 0.717955 -0.434859 -2.328855 -3.833648 -4.450662 -4.625054 -4.039786 -3.442104 -2.843714 -2.437819 -2.110364 -2.098549 -2.204437 -2.566001 -2.587587 -2.459175 -2.534981 -2.608348 -2.588353 -2.292195 -1.375509 -0.709596 -0.194169 -0.035539 0.040140 -0.003247 -0.089891 0.299339 0.551270 -0.483597 -2.149247 -3.580323 -4.562665 -4.788900 -4.569259 -3.792172 -3.154533 -2.502929 -2.097012 -1.908362 -1.989058 -1.901246 -2.053692 -1.988006 -2.087423 -2.159038 -2.097151 -1.579596 -0.907273 -0.468199 -0.131007 -0.005336 -0.002446 0.018763 0.012834 0.143375 0.306143 -0.543128 -1.897312 -3.364671 -4.066817 -4.463553 -4.347881 -3.809315 -3.124000 -2.496241 -2.035997 -1.858147 -1.855859 -1.642585 -1.759983 -1.657467 -1.789601 -1.603840 -1.502415 -1.032833 -0.472960 -0.301550 -0.033775 0.067917 0.053097 -0.054576 0.029712 0.116903 0.037565 -0.520745 -1.627731 -2.645585 -3.482118 -3.904027 -3.477611 -3.216272 -2.696774 -2.170686 -1.743567 -1.672358 -1.495472 -1.470819 -1.433406 -1.442453 -1.285449 -1.288255 -0.945873 -0.500360 -0.328458 -0.146579 -0.040038 -0.030705 -0.053592 -0.048703 -0.054351 0.021132 0.004169 -0.522175 -1.347448 -1.983184 -2.521448 -2.866275 -2.680414 -2.339092 -1.996068 -1.703401 -1.479075 -1.392369 -1.261207 -1.074128 -1.056817 -1.055418 -0.946044 -0.706126 -0.518020 -0.386473 -0.137769 -0.084372 -0.022892 0.071493 -0.003745 -0.004843 -0.018960 0.007050 -0.047852 -0.269256 -0.740238 -1.358794 -1.739392 -1.884895 -1.720170 -1.347545 -1.162942 -1.086150 -1.008146 -0.925707 -0.879732 -0.765956 -0.736038 -0.675348 -0.525507 -0.412159 -0.295854 -0.219814 -0.079032 -0.000518 0.027204 0.004814 0.022653 0.079150 0.002907 -0.022999 0.018667 -0.174635 -0.443377 -0.822751 -1.222843 -1.186071 -0.849964 -0.521574 -0.398786 -0.337063 -0.410888 -0.386182 -0.376740 -0.324311 -0.402954 -0.338610 -0.186792 -0.140383 -0.101302 -0.153874 -0.017235 0.001684 -0.064732 0.072705 0.009859 -0.032012 -0.001014 -0.061182 -0.084929 -0.053643 -0.096829 -0.397577 -0.555770 -0.469885 -0.372018 -0.125725 -0.039794 -0.042731 -0.051449 -0.051035 0.038561 0.004640 -0.101744 0.038417 -0.036172 -0.072801 -0.008906 -0.027609 -0.043738 -0.022586 0.019456 0.040625 -0.013859 -0.024893 0.037555 0.027365 -0.002521 0.021454 -0.074547 -0.055900 -0.091035 -0.106761 -0.070959 -0.046996 0.022454 -0.024890 -0.019417 -0.004496 0.057627 -0.088379 0.001279 -0.107954 0.015868 -0.055124 -0.028252 0.023357 -0.079230 0.011276 -0.020906 0.004590 0.092365 -0.059080 0.057923 0.031118 -0.027951 0.010588 -0.033773 -0.014761 0.019463 -0.029712 0.031396 0.022018 0.010991 0.015833 0.045904 -0.002436 -0.092375 -0.001368 -0.017674 -0.036743 -0.068518 -0.013919 -0.002891 -0.010593 0.007186 -0.022756 0.013737 0.035011 0.069089
0.011364 -0.008111 -0.030129 0.031926 -0.037659 0.071463 -0.058173 -0.042363 0.019730 0.064501 0.017393 -0.041279 -0.015446 -0.029949 0.070470 0.020753 -0.039642 0.003294 0.091402 0.000498 0.002136 -0.011763 0.043003 -0.066707 0.052014 0.011058 -0.061450 -0.043545 0.012568 0.047857 0.048511 -0.057105 0.039589 0.002903 -0.034787 -0.033217 -0.023610 -0.033981 0.032623 -0.033733 0.024278 0.009866 0.018649 -0.059003 -0.002435 -0.007113 -0.018512 0.006197 0.015738 -0.007300 -0.031877 0.032019 -0.041824 0.074861 0.013704 0.010903 0.008593 -0.030428 -0.021918 0.017569 0.014740 -0.000687 -0.056332 0.058991 -0.028561 -0.072887 0.019784 -0.064352 -0.048557 0.006305 0.002423 0.030883 0.037443 -0.036733 0.048401 -0.015574 -0.025936 0.080625 0.002997 0.051421 -0.029652 0.004175 -0.020374 0.065036 -0.024060 -0.084832 0.041484 0.020425 0.001130 -0.046918 0.083458 -0.087202 -0.177377 -0.211129 -0.141836 -0.141292 -0.111544 -0.113893 0.041855 0.050965 -0.024962 0.015577 -0.070344 -0.104222 -0.035436 -0.064651 -0.044675 -0.013524 -0.002572 -0.011296 0.031148 0.058867 -0.068750 -0.034621 0.023313 -0.144005 0.012363 -0.007157 -0.038230 -0.102659 -0.206265 -0.322982 -0.355172 -0.326732 -0.162082 -0.074148 -0.081927 -0.053858 -0.088551 -0.222616 -0.294482 -0.347393 -0.310198 -0.245604 -0.063587 -0.053967 -0.032231 -0.024157 -0.068299 0.055883 -0.024683 -0.032909 0.036671 -0.052475 -0.034456 -0.073250 0.013704 -0.377416 -0.502057 -0.624370 -0.659864 -0.487669 -0.330567 -0.211376 -0.172172 -0.192387 -0.378502 -0.619695 -1.017215 -1.072728 -1.017247 -0.816971 -0.449703 -0.012681 -0.016286 -0.107022 -0.048667 -0.023677 -0.017776 0.075161 0.027863 -0.092888 -0.093610 -0.151088 -0.223587 -0.584254 -0.842161 -1.055194 -1.009484 -0.792035 -0.670899 -0.304292 -0.070262 -0.235926 -0.472198 -1.101623 -1.726358 -2.089426 -1.956295 -1.601002 -1.102079 -0.432751 -0.226728 -0.177325 -0.105068 -0.022954 0.042857 0.014021 -0.084877 -0.094934 -0.090180 -0.247380 -0.418128 -0.928628 -1.440659 -1.695501 -1.620598 -1.184846 -0.848173 -0.496741 -0.377564 -0.317750 -0.594923 -1.280253 -2.100969 -2.651372 -2.680093 -2.268165 -1.407574 -0.611185 -0.508415 -0.417537 -0.278051 -0.074566 0.009956 0.045491 -0.003484 0.019329 -0.206781 -0.493415 -0.744006 -1.518133 -2.098441 -2.283522 -2.080849 -1.691778 -1.211369 -0.859228 -0.713887 -0.664841 -0.817544 -1.271976 -2.150503 -2.551235 -2.724053 -2.281008 -1.620003 -0.704690 -0.722610 -0.708247 -0.439293 0.001794 0.017713 -0.033707 0.047271 -0.174219 -0.438022 -0.780325 -1.308228 -2.196947 -2.723881 -3.023687 -2.769291 -2.141269 -1.867768 -1.435540 -1.345529 -1.172248 -1.302844 -1.486655 -1.886466 -2.239833 -2.494562 -2.495624 -2.067581 -1.028804 -0.949111 -0.957512 -0.488116 -0.019264 -0.026428 0.007318 -0.006673 -0.308666 -0.699438 -1.031652 -1.777949 -2.767146 -3.457656 -3.705725 -3.381355 -2.730123 -2.385898 -2.025448 -1.837065 -1.767200 -1.529176 -1.370305 -1.291777 -1.814846 -2.258100 -2.586640 -2.534651 -1.655332 -1.358484 -1.097118 -0.665976 -0.133925 0.016128 -0.003496 -0.027532 -0.423374 -0.785141 -1.342022 -2.034029 -3.248986 -3.883418 -3.961169 -3.601054 -3.063502 -2.690921 -2.733199 -2.172232 -1.593045 -1.068617 -0.786595 -0.901923 -1.581404 -2.333126 -2.803836 -2.715760 -2.149486 -1.663843 -1.229633 -0.679012 -0.145179 -0.026337 0.051387 -0.086326 -0.459816 -0.750905 -1.243588 -1.980915 -3.328309 -3.660449 -3.659964 -3.179825 -2.438237 -1.847492 -1.421490 -0.845127 -0.040059 0.133410 0.035887 -0.439734 -1.155230 -2.057979 -2.669774 -2.738589 -2.270349 -1.871728 -1.171042 -0.675011 -0.124449 0.013262 -0.000516 -0.118190 -0.454344 -0.669842 -1.114870 -1.986182 -3.086546 -3.438493 -2.865304 -1.743310 -0.511636 0.499006 1.075105 1.129212 1.122089 1.060640 0.627398 0.040856 -0.991325 -2.046703 -2.507374 -2.350604 -1.475858 -1.428855 -1.126266 -0.501882 -0.123043 0.010913 0.031374 -0.061691 -0.679248 -0.777079 -1.188344 -2.149990 -2.955860 -2.827627 -1.934185 -0.358407 0.990388 1.676990 1.409554 0.951062 0.811214 0.502187 0.085074 -0.680517 -1.751393 -2.110668 -2.323261 -1.825255 -1.025288 -1.169262 -0.965013 -0.553113 -0.065541 -0.024629 0.017438 -0.166887 -0.627834 -0.895840 -1.546105 -2.323101 -3.090066 -2.709941 -1.302029 0.244523 1.079959 1.207250 0.728051 0.254831 -0.065708 -0.651953 -1.667831 -2.086000 -2.252012 -2.282132 -2.035944 -1.620152 -0.770968 -0.812005 -0.730712 -0.474309 -0.091056 -0.030608 0.034419 -0.117685 -0.633154 -1.063951 -1.551081 -2.321608 -3.115836 -2.560869 -1.750476 -0.648789 -0.293732 -0.192694 -0.649597 -1.809162 -2.269177 -2.743572 -2.918979 -2.985240 -2.744551 -2.425881 -2.013830 -1.354357 -0.625997 -0.471205 -0.591718 -0.427043 -0.009899 0.080535 -0.001444 -0.119476 -0.542848 -0.876751 -1.294468 -1.850839 -2.939821 -2.847449 -2.387195 -1.721445 -1.429481 -1.756797 -2.481964 -2.894437 -3.032352 -3.020680 -3.102624 -3.236650 -3.140188 -2.991942 -2.369604 -1.441191 -0.441709 -0.295748 -0.332863 -0.223937 -0.065842 0.066997 -0.039393 -0.138146 -0.416472 -0.373682 -0.550970 -1.138981 -2.300383 -2.666937 -2.563351 -2.346364 -2.204582 -2.451139 -2.575403 -2.449918 -2.343421 -2.305487 -2.559786 -2.837148 -2.921189 -2.565965 -2.035698 -1.244686 -0.439445 -0.196963 -0.159641 -0.103021 -0.076210 -0.072594 0.056800 -0.122844 -0.338184 0.109993 0.002284 -0.624175 -1.902196 -2.606700 -2.735202 -2.624242 -2.581861 -2.294224 -1.972380 -1.635135 -1.476535 -1.737566 -1.903154 -2.167286 -2.180385 -1.997055 -1.650830 -0.838607 -0.238220 -0.071512 -0.109596 -0.038433 0.012583 -0.056451 0.044866 -0.073190 -0.224375 0.114086 -0.108103 -0.641843 -1.811611 -2.552039 -2.730008 -2.618520 -2.288301 -1.854597 -1.415778 -1.073347 -1.161196 -1.341754 -1.703793 -1.834588 -1.779142 -1.707817 -1.317369 -0.792479 -0.115423 -0.159149 -0.012594 -0.053182 -0.012347 -0.007197 -0.056481 0.109646 -0.073465 -0.000298 -0.281299 -0.678613 -1.632040 -2.369310 -2.312207 -2.034826 -1.619094 -1.347269 -1.022910 -0.856020 -0.860732 -1.103195 -1.341426 -1.384392 -1.504983 -1.279222 -0.923219 -0.516934 -0.143582 -0.105429 -0.109952 -0.013532 -0.039979 -0.025931 -0.008566 0.014863 -0.014675 -0.040195 -0.394131 -0.673590 -1.254772 -1.747224 -1.700176 -1.302866 -1.002720 -0.880437 -0.733561 -0.613937 -0.668868 -0.796734 -1.029667 -1.197659 -1.082923 -0.844004 -0.662813 -0.301157 -0.080899 -0.000030 -0.005599 -0.042792 0.017720 0.030626 0.100625 0.032196 -0.020325 -0.170750 -0.311032 -0.587466 -1.070923 -1.190706 -1.085466 -0.817378 -0.495227 -0.495579 -0.466687 -0.476450 -0.560193 -0.635087 -0.759793 -0.850649 -0.704392 -0.608956 -0.421805 -0.235496 0.006179 -0.046034 -0.028060 -0.031307 0.019154 -0.034829 0.009738 0.017947 0.078801 -0.153594 -0.222353 -0.488842 -0.865936 -0.917701 -0.667683 -0.467337 -0.239021 -0.213984 -0.253974 -0.247635 -0.307953 -0.344584 -0.458746 -0.478188 -0.414505 -0.447850 -0.171186 -0.075438 0.004791 -0.019844 -0.042237 -0.032945 0.097585 -0.023261 0.067444 -0.117516 -0.111056 -0.079221 -0.072439 -0.297795 -0.613042 -0.565173 -0.304479 -0.130942 -0.009776 -0.099479 0.068833 -0.013591 -0.058889 -0.049352 -0.161525 -0.158522 -0.115851 -0.104396 -0.071533 -0.011684 -0.019315 -0.095162 -0.027922 -0.006102 -0.046002 -0.018179 0.090168 -0.050420 -0.014078 0.032442 -0.043376 -0.022190 -0.077405 -0.154262 -0.084774 -0.078201 0.059836 -0.049333 -0.073624 0.001063 -0.033625 -0.023534 -0.068812 -0.021956 0.007930 -0.109414 -0.038014 0.068234 0.037167 -0.080904 0.032608 -0.015277 0.000897 0.028827 -0.029631 -0.038904 -0.008509 0.023131 0.013504 -0.042123 -0.145145 -0.037319 0.007922 0.025770 0.002140 0.026713 -0.058827 0.069383 -0.043087 -0.056630 -0.005008 -0.047205 0.064845 0.008928 0.022117 0.053185 0.025072 0.047672 0.005894 -0.025933 0.005783
0.019698 0.017486 -0.006528 -0.072332 0.015620 -0.013567 0.012556 -0.002838 0.052863 -0.027856 0.022874 -0.065970 -0.070215 0.033249 0.042253 -0.026882 -0.018232 -0.007103 -0.014580 -0.020008 0.076306 0.025276 0.007074 -0.015697 0.012650 -0.001340 0.019062 0.150786 -0.017259 -0.039392 -0.052332 0.005034 -0.023410 0.057746 -0.039478 -0.029613 0.052839 0.062997 0.027831 0.062391 -0.055673 -0.093846 -0.028854 -0.002577 -0.000750 -0.056563 -0.011487 0.062086 -0.049721 -0.014521 -0.027838 0.024839 -0.015102 -0.053371 0.013417 -0.009176 0.007879 -0.116238 -0.008508 -0.001290 0.039046 -0.029173 0.071836 -0.024591 -0.006811 0.143639 0.187970 0.019115 0.024187 0.017165 -0.005172 0.019779 0.035733 0.079681 0.029813 0.050092 0.125319 0.033234 -0.054317 -0.012660 -0.042619 0.061420 -0.035635 0.007689 -0.092579 0.050499 0.033265 -0.019003 -0.057225 -0.038623 -0.008665 0.131925 0.285308 0.247850 0.302310 0.288934 0.253212 0.134660 0.067420 0.005179 -0.081916 0.006677 0.118640 0.210906 0.258286 0.191838 0.113787 0.063846 -0.021505 -0.000804 0.010402 -0.029872 0.031978 -0.004087 -0.035872 0.018281 0.006932 0.049289 -0.000909 0.333806 0.217298 0.065972 0.673295 0.415812 0.179226 -0.065701 -0.105092 -0.232528 -0.260266 -0.261479 -0.134419 0.224184 0.262498 0.332374 0.208237 0.141231 -0.126389 0.013114 0.052531 -0.067993 -0.041892 -0.039549 0.010933 0.051246 0.021979 0.123980 0.150982 0.069176 0.426213 0.483143 0.254698 0.323221 -0.295863 -0.847195 -1.355960 -1.534305 -1.555772 -1.330418 -0.984317 -0.434108 -0.005723 0.306236 0.315885 0.171801 0.117042 0.088045 0.081883 0.040635 -0.001850 0.024971 -0.010235 -0.013306 0.022814 0.102116 0.316380 0.580827 1.288463 0.823221 0.268926 -0.060866 -0.753197 -1.779334 -2.440530 -2.770833 -2.754325 -2.371621 -1.667183 -1.116325 -0.345400 0.066988 0.215852 0.358151 0.364293 0.270997 0.090987 0.014476 0.021176 0.008483 0.001948 -0.087115 0.029487 0.269885 0.980134 1.053588 1.182741 0.497368 -0.118562 -0.900809 -1.653261 -2.592654 -3.338847 -3.680574 -3.664127 -3.177493 -2.406364 -1.661369 -0.953433 -0.330312 -0.087340 0.099078 0.694053 0.336116 0.356697 0.012448 -0.034729 0.058135 -0.013126 0.057900 0.119189 0.615624 1.196779 0.906842 1.470009 0.484145 -0.709291 -1.871057 -2.465427 -3.624715 -4.030764 -4.136397 -4.058594 -3.382153 -2.641244 -2.147468 -1.597628 -0.857518 -0.072105 0.105187 0.992535 0.796727 0.733232 0.097218 0.020652 -0.064696 -0.059404 -0.034964 0.097227 0.575819 0.610621 1.043494 1.982535 0.551955 -0.846665 -2.129603 -3.299250 -4.040138 -4.152022 -4.114878 -3.782534 -3.232602 -2.829895 -2.776883 -2.269777 -1.308546 -0.302106 0.223072 1.664529 1.147211 0.888547 -0.003649 0.100093 -0.047400 -0.001851 -0.072541 0.060232 0.473876 0.206404 1.375962 1.326215 0.436166 -0.769528 -2.006234 -2.755621 -3.019405 -3.473614 -3.235363 -3.320758 -3.130421 -2.928407 -3.039186 -2.796638 -1.721376 0.285886 0.488402 1.868259 1.538669 1.038978 0.075484 0.006177 0.011948 -0.102299 -0.097122 -0.085389 0.228271 -0.311562 1.193254 0.832101 -0.770352 -1.552985 -2.358035 -2.679325 -2.723627 -2.577833 -2.668693 -2.963326 -3.037223 -3.091337 -3.032721 -2.522031 -1.250803 0.171579 0.733729 2.084537 2.131206 1.388153 0.096586 0.063395 0.012836 -0.026533 -0.117159 -0.436404 -0.349179 -0.513665 0.490710 0.015450 -1.172065 -1.662365 -2.423346 -2.153877 -1.987490 -2.357090 -3.088131 -3.397882 -3.545969 -3.200824 -2.827592 -2.514611 -1.646099 -0.169296 1.109680 1.198371 1.272120 0.811691 0.192380 -0.018266 0.090479 -0.218086 -0.438890 -1.111680 -1.219498 -0.884169 -0.160315 -0.437015 -1.443905 -1.615966 -2.432494 -2.439723 -3.345830 -3.683600 -3.909017 -4.153560 -3.399145 -2.971207 -2.464368 -2.338470 -1.819768 -0.297434 0.192884 0.692450 0.890747 0.798153 0.110375 -0.037372 -0.033738 -0.320445 -0.703692 -1.655766 -1.866133 -1.435607 -0.107351 -0.177745 -1.492570 -1.413678 -2.043990 -2.655134 -2.635245 -3.417031 -3.367802 -2.700201 -1.732511 -1.437566 -1.695530 -1.979977 -2.104008 -0.922641 -0.162577 0.245156 0.455115 0.463747 0.164680 -0.091090 -0.003543 -0.495297 -1.027405 -2.010440 -2.342093 -1.664398 -0.008767 0.330921 -0.649638 -0.112867 -1.031895 -0.733185 -1.404639 -1.365630 -1.285488 -1.074940 0.535533 0.331617 -0.646305 -1.582570 -1.887429 -0.748152 -0.679536 0.119805 1.274192 0.941828 0.110240 0.000896 0.088111 -0.584780 -1.185267 -2.086174 -2.698275 -2.090868 0.071162 0.790710 1.359093 1.728085 1.133020 0.478088 0.197761 0.413747 0.988417 0.902198 1.709218 0.451999 -0.967690 -1.674448 -2.296603 -1.742233 -0.613144 0.567909 1.028693 1.229969 0.099166 0.025736 -0.026934 -0.570039 -1.241520 -2.317302 -2.842892 -2.070139 0.289847 1.034846 1.850181 2.341489 2.216224 1.836091 1.087910 0.481968 1.130802 1.492037 0.603286 -0.688457 -1.713706 -2.556724 -2.209783 -1.430129 -1.082720 -0.296462 0.164230 0.529948 0.033997 -0.012588 -0.066187 -0.492372 -1.070807 -2.171668 -2.681057 -2.346813 0.153143 0.679343 1.107815 1.521276 1.273594 0.782134 1.171146 0.753742 0.513524 -0.224081 -1.236546 -1.770142 -2.435291 -2.314879 -1.836869 -1.225898 -0.920963 -0.774657 0.253913 0.255177 0.001228 -0.038008 -0.071415 -0.330240 -0.738027 -1.683387 -2.418399 -2.032231 -0.448365 0.584816 0.441412 0.732562 0.168156 0.084620 -0.125695 -0.484969 -1.008743 -1.914964 -2.279792 -2.391334 -2.405084 -1.946712 -1.331937 -1.105091 -1.058460 -0.300773 0.086515 0.125060 0.005800 -0.119556 -0.009831 -0.199405 -0.485166 -1.292983 -1.799842 -1.827631 -0.961069 -0.012447 0.325353 0.196119 -0.341842 -0.705868 -1.699400 -2.351064 -2.249587 -3.036528 -3.007328 -2.614507 -1.907917 -1.330431 -1.026137 -0.162945 -0.341486 -0.222214 -0.064634 0.023163 0.021588 0.052112 0.060091 -0.082545 -0.153204 -0.724799 -1.270947 -1.435174 -0.745836 -0.464623 -0.166581 -0.377917 -1.006008 -1.723127 -2.590245 -2.843979 -2.918877 -2.560180 -2.293140 -1.618227 -1.024862 -0.625142 -0.165130 -0.121950 -0.055841 -0.092302 0.051862 0.096090 0.032688 0.021779 -0.028578 -0.029315 -0.091196 -0.425610 -0.829082 -0.936312 -0.722577 -0.617596 -0.700169 -1.035454 -1.457144 -2.007561 -2.378166 -2.503505 -2.358093 -2.051744 -1.447084 -1.032299 -0.512149 -0.194476 -0.046455 -0.012047 -0.016930 0.004928 -0.015836 -0.046958 0.002568 -0.009017 -0.097787 -0.071800 0.047893 -0.170334 -0.440978 -0.631931 -0.468857 -0.403145 -0.562784 -0.847531 -1.142670 -1.456209 -1.715109 -1.744900 -1.600084 -1.297325 -0.798282 -0.442550 -0.229586 -0.096970 0.022672 0.002648 -0.058993 -0.114676 -0.049746 -0.049053 0.066909 -0.004945 -0.022575 0.042788 -0.083079 -0.039169 -0.251235 -0.415808 -0.299171 -0.322125 -0.146296 -0.306950 -0.528454 -0.614272 -0.851753 -0.695088 -0.701606 -0.588673 -0.320309 -0.205334 -0.036378 0.000542 -0.004202 0.020007 -0.024263 0.020357 -0.000953 -0.011924 -0.024297 0.079859 -0.104214 -0.024437 -0.014714 0.012442 -0.059412 -0.146117 -0.202705 -0.023307 0.006000 -0.013072 -0.062217 -0.077664 -0.121169 -0.075196 -0.078998 -0.050591 -0.047751 0.053080 0.034163 0.030571 -0.046518 0.016341 0.051697 -0.087989 0.031258 -0.045940 0.029512 0.014164 0.045579 -0.012641 -0.003939 -0.056736 0.003858 0.003318 -0.078182 -0.046500 -0.000933 0.016189 0.052382 -0.022014 0.059949 -0.053088 0.009757 0.036053 0.037844 -0.048722 0.022672 -0.024395 -0.053838 0.028677 -0.032679 -0.046644 0.004346 -0.073495 -0.022895 0.000429 0.059842 -0.031525 0.004438 -0.046759 -0.016319 -0.035660 -0.016193 0.060026 0.072362 0.027807 -0.017306 -0.065011 -0.012316 0.043731 0.048509 -0.031283 0.001263 0.011637 -0.070028 0.077751 0.001964 -0.012849 -0.067167 -0.101397 0.014341 -0.090383 -0.035208
0.037165 0.020358 -0.039716 -0.009804 0.031375 0.006369 -0.049493 0.045087 -0.002253 0.012838 0.046110 0.003382 -0.037815 -0.044081 -0.002795 -0.051216 -0.043820 -0.112332 -0.045461 -0.047682 -0.035751 0.007123 0.004682 -0.023440 -0.009259 0.039933 -0.047345 0.034213 -0.017651 -0.018817 -0.051068 0.018913 0.015367 0.038650 -0.018823 0.017921 -0.025849 0.022997 0.003771 -0.012642 0.036383 -0.002178 -0.030587 -0.000307 -0.034064 0.018530 0.001341 -0.008723 0.031841 0.045937 -0.010802 0.046103 0.093437 0.022451 0.002813 0.016126 -0.004224 0.003646 0.005093 0.141946 0.002078 -0.096819 -0.004663 -0.015345 0.033797 0.088222 -0.019846 0.004643 0.019505 -0.021151 -0.081922 0.015857 -0.061291 -0.040662 -0.160013 -0.026737 -0.014006 -0.028160 -0.024897 0.072903 -0.011949 -0.042092 -0.010708 -0.009882 -0.039507 0.035116 -0.021134 0.020621 0.036379 -0.045007 -0.919178 -0.886602 -0.922201 -0.123015 -0.122248 -0.046519 -0.209401 -0.323965 -0.347465 -0.335340 -0.326081 -0.364124 -0.377906 -0.393277 -0.364875 -0.291392 -0.044323 -0.045069 0.029296 0.017861 -0.072479 -0.002010 0.002730 -0.003769 0.018264 -0.039757 -0.077043 -0.159910 -0.959240 -1.197920 -1.230388 -0.490657 -0.412556 -1.778641 -1.750268 -1.684686 -1.721456 -1.792478 -1.503273 -1.438225 -1.324654 -1.425549 -1.339203 -0.751571 -0.334710 -0.154972 -0.095237 -0.025417 0.055414 0.064855 -0.068447 0.010727 0.069469 -0.029542 -0.057224 -0.183918 -1.357286 -1.020238 -0.276726 -0.285736 0.679104 1.024299 1.855240 1.218201 1.208239 0.141160 -0.411048 -1.230730 -2.225233 -2.597878 -2.144483 -2.008637 -0.935931 -0.361336 -0.167809 -0.057188 -0.098454 -0.021135 0.046285 0.016757 -0.023107 0.086728 0.448444 0.094216 -1.093308 -2.654627 -0.332375 1.238420 1.991841 1.980262 2.478040 3.640649 1.981226 0.998444 0.088425 -0.607713 -0.403304 -3.832971 -3.077120 -3.172786 -1.876182 -0.964827 -0.434795 -0.151180 -0.029268 0.037810 0.035270 0.038780 0.152311 0.540590 -0.014461 -0.426434 -1.761973 -0.996724 -0.352315 1.087733 1.066105 0.849402 2.278554 1.261713 -0.024960 0.495989 -0.316205 1.148270 -0.185710 -0.048154 -3.765593 -3.470904 -3.289035 -1.457774 -0.844169 -0.164824 0.076578 0.035793 0.032025 0.080506 0.149540 0.003832 -0.841860 -2.506359 -3.057610 -1.642232 -0.567014 0.140961 0.607289 -0.630217 0.830021 -0.312511 0.105737 2.140838 2.650833 4.420994 2.933678 1.880311 -2.473578 -5.000862 -4.536941 -2.294105 -1.151657 -0.237480 0.014063 -0.005998 -0.030626 0.059748 0.072945 -0.400999 -2.189734 -1.863027 -3.771464 -2.474537 -2.351862 -0.845655 -0.970528 -1.183521 -3.289365 -1.916143 -1.163770 3.033144 5.485231 5.740520 6.923717 4.039325 1.990694 -4.232921 -4.543743 -3.310630 -1.896064 -0.492997 0.114827 -0.007406 0.062874 0.252344 0.651919 0.092405 -1.466695 -2.796336 -4.236059 -1.141962 -0.964192 -0.489688 -1.456888 -2.409935 -1.417544 -0.644829 -1.568722 1.011055 2.034300 3.611390 6.308249 5.978925 5.287333 -1.424681 -5.303586 -3.901224 -2.404754 -0.533374 0.200663 0.024658 -0.061539 0.162522 0.999397 -0.175888 -1.006200 -2.192387 -3.859476 -1.679363 -1.593133 -1.107263 -0.127954 -0.449890 -0.356931 -0.308410 -0.700935 -2.232755 -1.065400 1.373547 3.029908 4.722175 6.981360 0.953141 -4.808596 -4.384030 -2.918436 -0.565641 0.109431 -0.005614 0.034835 0.201987 0.091188 0.977542 0.358071 -0.306864 -1.245465 -3.054472 -2.611923 -0.105206 0.004226 -1.810812 -1.785081 -2.929001 -5.874924 -6.204980 -4.802289 -3.220499 0.736245 3.044196 5.992281 3.555296 -3.999427 -4.984968 -3.457056 -0.741015 -0.048226 0.023844 0.023045 0.158138 1.116860 1.112479 2.177251 1.595641 -1.240474 -1.009717 -1.109815 -0.332994 -0.279775 -2.737642 -5.984921 -7.885632 -7.778047 -7.324494 -6.501427 -7.628291 -3.544180 0.478991 4.115224 1.139882 -3.131323 -5.457972 -3.900922 -0.954980 -0.012039 0.026369 0.099791 0.302299 2.083981 2.201389 2.438720 1.056737 -1.187170 -1.748802 -2.123200 -0.922537 -1.975898 -5.554963 -8.225096 -8.241656 -6.399999 -6.547799 -6.820635 -8.361744 -5.013062 0.747142 3.649198 2.725668 -2.147192 -6.090107 -4.199563 -1.131236 -0.059032 0.008454 0.019997 0.321857 1.748536 3.490995 3.664222 1.599798 -1.429978 -3.975863 -3.007034 -2.372878 -5.575765 -6.249727 -8.434007 -7.213815 -6.646557 -5.869372 -7.557287 -8.915708 -5.951201 0.883607 3.692696 2.111423 -2.433173 -6.276309 -3.874277 -1.102144 -0.098513 -0.006595 0.060812 0.201996 3.143859 5.265659 4.489048 0.758220 -1.830397 -5.283426 -6.357714 -5.269375 -7.226018 -6.862742 -8.435098 -6.594945 -4.518620 -4.480499 -6.139347 -7.712442 -4.119523 2.530338 3.626240 2.806343 -3.088959 -5.938058 -3.481343 -1.043064 -0.222164 -0.060933 0.034477 0.184874 2.640453 5.731839 5.843212 0.782182 -4.350930 -6.878099 -8.429695 -7.641856 -7.991445 -5.954672 -5.702213 -4.568636 -3.470057 -3.035989 -4.672813 -3.846834 0.069880 4.631010 4.311093 1.351567 -3.381851 -5.556012 -3.207991 -0.910182 -0.122895 -0.026016 -0.062355 0.119301 3.074660 6.048588 3.691915 -1.104673 -5.184967 -7.654924 -9.178729 -7.623818 -6.775792 -3.490610 -3.302712 -2.628326 -1.814178 -1.068936 -2.033546 -0.871625 3.343252 5.960501 2.378247 0.175119 -4.786678 -3.965183 -2.416636 -0.772793 -0.222215 0.004937 -0.066312 0.087172 2.186317 3.884223 1.873926 -2.136592 -5.695552 -6.411750 -6.552404 -7.332823 -4.830457 -1.685195 2.776908 0.290526 1.142390 0.357742 1.282645 3.652154 3.478992 1.359755 -1.097582 -3.370768 -4.868728 -4.003797 -1.783291 -0.630667 -0.065891 0.003872 -0.020986 0.114359 1.371098 1.788354 -0.053126 -3.477703 -5.749077 -6.261390 -6.451194 -4.448169 -2.287100 2.266891 4.745268 4.283972 3.801815 2.824155 4.204839 4.633872 2.597681 0.582948 -1.753783 -3.746410 -3.532712 -2.964247 -1.056580 -0.333824 0.058503 -0.020013 -0.012667 0.131778 0.597092 0.161332 -0.872328 -3.201386 -5.062284 -6.674436 -6.617730 -3.476090 -1.540034 1.702986 4.574350 6.139138 4.010196 4.709829 4.227456 2.704479 0.661545 -0.927261 -1.749791 -4.341349 -2.758041 -2.274207 -0.520998 -0.132085 0.124489 0.240171 -0.046056 0.048746 0.302562 -0.165178 -1.331262 -3.853551 -4.776279 -5.468505 -4.480886 -2.939249 0.156016 2.274518 4.596241 4.986136 6.290170 3.661743 3.346760 0.601863 0.669872 -0.688025 -1.682075 -1.922099 -1.187826 -0.707847 -0.406598 -0.101653 0.131945 0.114895 -0.056138 0.022982 0.073982 -0.481815 -1.000137 -2.993326 -4.365440 -4.796753 -3.868914 -2.396888 -0.201378 2.142461 3.953691 4.989935 4.865312 4.735612 2.213479 1.180938 0.544722 1.062990 -2.063141 -2.416536 -1.223070 -0.897514 -0.184422 -0.061251 -0.017950 -0.032769 -0.011009 0.066554 -0.016359 -0.517399 -0.773059 -1.223045 -2.094336 -2.573538 -2.407965 -0.734867 0.434366 1.614785 3.541049 4.428892 4.713462 4.497860 2.972772 2.093077 1.794437 -0.066727 -0.934865 -1.050440 -0.807852 -0.702243 -0.085269 -0.044701 -0.029402 -0.072087 -0.038668 -0.016126 -0.006868 -0.043321 -0.065722 -0.275718 -0.899887 -1.462709 -1.410332 -1.013603 -0.317042 -0.060681 0.330372 0.720909 0.394549 0.317196 0.877100 0.836208 0.563816 0.017121 -0.183394 -0.136660 -0.027386 -0.021771 0.000295 -0.013620 -0.002093 0.041346 -0.016269 -0.022604 0.053251 0.003893 0.019140 -0.066621 -0.177123 -0.389910 -0.455230 -0.193440 -0.035402 0.032426 -0.018641 -0.041692 0.033044 -0.268248 -0.334156 -0.130726 -0.080040 -0.007086 -0.022089 -0.001291 -0.029189 -0.043640 -0.038790 0.042365 0.022732 -0.003232 0.055166 -0.004189 -0.011812 0.053453 0.016229 0.008859 -0.011294 -0.021483 -0.018502 -0.118817 0.017825 0.034307 0.027073 0.008792 -0.024682 -0.008612 0.100978 -0.041549 -0.082587 -0.043564 0.019902 0.032673 0.002359 0.011165 -0.008087 -0.033141 0.013796 0.016436
